{
    "input_shape": [
        null,
        19
    ],
    "output_shape": [
        null,
        1
    ],
    "activations": "Relu",
    "layers": {
        "layers.0.weight": [
            0.019022760912775993,
            0.1878674179315567,
            0.0925377905368805,
            -0.11684244871139526,
            0.1450689136981964,
            -0.1154579147696495,
            -0.22838598489761353,
            -0.03844432905316353,
            0.09897918254137039,
            0.18873730301856995,
            0.08650126308202744,
            -0.04589204117655754,
            -0.1717626303434372,
            -0.051898013800382614,
            -0.018412822857499123,
            -0.00426277844235301,
            -0.15701857209205627,
            0.1618192195892334,
            0.026426689699292183,
            0.10318130999803543,
            -0.007131353486329317,
            0.1134868785738945,
            -0.1929762065410614,
            -0.19645941257476807,
            -0.16665735840797424,
            -0.192422017455101,
            0.18121232092380524,
            -0.08579254150390625,
            0.05620928481221199,
            -0.17391903698444366,
            -0.03906847909092903,
            -0.2182757556438446,
            -0.1701417863368988,
            -0.12118985503911972,
            -0.19995246827602386,
            0.13163551688194275,
            -0.040463805198669434,
            0.043740540742874146,
            0.2143125981092453,
            -0.0899428054690361,
            -0.13511094450950623,
            0.050587788224220276,
            -0.011788062751293182,
            0.019936561584472656,
            0.11260221898555756,
            -0.0279409009963274,
            0.24259862303733826,
            0.09439926594495773,
            0.04672049358487129,
            0.006078923121094704,
            0.08520141988992691,
            0.13765078783035278,
            -0.09851507842540741,
            -0.11927395313978195,
            -0.1505226343870163,
            -0.04260993376374245,
            -0.16722658276557922,
            0.19989991188049316,
            -0.19732564687728882,
            -0.10954871028661728,
            -0.033156994730234146,
            -0.2289539873600006,
            0.20096559822559357,
            0.1165652647614479,
            0.05195184424519539,
            -0.12282995879650116,
            -0.11949266493320465,
            -0.0940035879611969,
            -0.11900457739830017,
            -0.18851421773433685,
            -0.005519432947039604,
            0.1863069236278534,
            -0.14706581830978394,
            -0.17522597312927246,
            -0.20525670051574707,
            0.11200149357318878,
            -0.008889349177479744,
            -0.13600459694862366,
            -0.002576658269390464,
            -0.03513336554169655,
            -0.062282755970954895,
            -0.2068556696176529,
            -0.14978422224521637,
            0.0758109986782074,
            0.04180386662483215,
            0.19312730431556702,
            -0.15079829096794128,
            -0.20907381176948547,
            0.14500689506530762,
            0.005652681924402714,
            0.1363358199596405,
            0.049839068204164505,
            0.08082637190818787,
            0.1103598102927208,
            -0.058732934296131134,
            -0.052042312920093536,
            -0.1419556885957718,
            0.18933923542499542,
            -0.1023365706205368,
            -0.08672486990690231,
            0.13462504744529724,
            -0.04572298377752304,
            0.17453400790691376,
            -0.016452353447675705,
            0.14040571451187134,
            -0.024341223761439323,
            -0.092852383852005,
            0.15359216928482056,
            -0.02574501559138298,
            -0.1877736747264862,
            -0.21068590879440308,
            0.04388929530978203,
            -0.0401577353477478,
            -0.035088326781988144,
            -0.16126202046871185,
            -0.17902038991451263,
            0.025123802945017815,
            -0.09158596396446228,
            0.07130222767591476,
            0.18549613654613495,
            0.1962454617023468,
            0.17808490991592407,
            0.0025871233083307743,
            -0.1169309914112091,
            0.13312765955924988,
            0.025143465027213097,
            -0.04675714299082756,
            0.00021895088138990104,
            -0.01845705136656761,
            -0.15587280690670013,
            -0.04297156631946564,
            -0.10759349167346954,
            0.20940104126930237,
            0.10973793268203735,
            -0.09540817886590958,
            -0.046050019562244415,
            0.14051823318004608,
            -0.0743858739733696,
            0.07716488093137741,
            0.060543324798345566,
            0.1271628588438034,
            0.04244406893849373,
            -0.11255989968776703,
            -0.17529737949371338,
            0.1546802520751953,
            -0.21164017915725708,
            -0.2225903421640396,
            -0.06186153367161751,
            -0.16200639307498932,
            0.07189036160707474,
            0.02808288298547268,
            0.22467562556266785,
            0.20075273513793945,
            0.22821997106075287,
            -0.22080498933792114,
            0.13580456376075745,
            0.11232120543718338,
            -0.06431205570697784,
            0.1353689432144165,
            -0.14340585470199585,
            0.19531148672103882,
            -0.1649123728275299,
            -0.19925767183303833,
            0.12755990028381348,
            -0.22600221633911133,
            -0.022849254310131073,
            -0.21559742093086243,
            0.02539711259305477,
            -0.10008009523153305,
            -0.19819678366184235,
            0.02533583715558052,
            0.09055989980697632,
            0.19753359258174896,
            -0.18224458396434784,
            -0.023813311010599136,
            0.02076655626296997,
            0.1194927990436554,
            -0.046665024012327194,
            0.18471397459506989,
            -0.17181168496608734,
            -0.05821123719215393,
            -0.17188401520252228,
            -0.0268272552639246,
            0.1588621735572815,
            -0.22044236958026886,
            0.028116608038544655,
            0.23046454787254333,
            -0.016789596527814865,
            0.06359805166721344,
            0.10108010470867157,
            -0.2025306522846222,
            0.023846864700317383,
            -0.07749316096305847,
            0.16226300597190857,
            -0.12391764670610428,
            0.19589680433273315,
            -0.03582211211323738,
            0.007411792408674955,
            0.14331644773483276,
            -0.18415482342243195,
            -0.15302765369415283,
            0.1439809650182724,
            0.09477812051773071,
            0.10168644785881042,
            0.030366618186235428,
            -0.06432221829891205,
            -0.09401718527078629,
            0.09472481161355972,
            0.19366730749607086,
            0.013490654528141022,
            -0.1444147229194641,
            -0.11801864951848984,
            -0.0761033296585083,
            0.06791090965270996,
            0.09796488285064697,
            -0.20451447367668152,
            -0.06640347093343735,
            0.04243236407637596,
            -0.06847069412469864,
            0.17354871332645416,
            -0.1272386908531189,
            -0.1791345477104187,
            -0.09162243455648422,
            0.00790972076356411,
            -0.06299204379320145,
            0.22682811319828033,
            0.1160426214337349,
            0.0506729893386364,
            -0.07867394387722015,
            0.1636827290058136,
            0.07046152651309967,
            -0.13067151606082916,
            0.07103296369314194,
            0.12788164615631104,
            -0.22899538278579712,
            0.11109119653701782,
            0.22651071846485138,
            -0.07278606295585632,
            -0.12936164438724518,
            -0.13888241350650787,
            -0.20879898965358734,
            -0.15640099346637726,
            -0.22729356586933136,
            0.1348171979188919,
            -0.08567734062671661,
            0.020607564598321915,
            0.1305387169122696,
            0.0033136983402073383,
            0.02030796930193901,
            0.04513385891914368,
            -0.14021934568881989,
            0.10640615224838257,
            -0.1584622710943222,
            0.0034193005412817,
            -0.10285651683807373,
            0.014570836909115314,
            -7.49794562580064e-05,
            -0.11002311110496521,
            0.05524603649973869,
            -0.05729299411177635,
            -0.10478297621011734,
            0.08427558839321136,
            -0.07280547171831131,
            -0.2064048796892166,
            -0.03438742831349373,
            0.0703015923500061,
            -0.20497623085975647,
            0.030246717855334282,
            0.11740080267190933,
            0.13506582379341125,
            -0.08209830522537231,
            0.13396519422531128,
            -0.04239476099610329,
            0.18465369939804077,
            -0.042384255677461624,
            0.17948544025421143,
            0.1958431601524353,
            -0.09686174243688583,
            -0.15294504165649414,
            0.1434677690267563,
            0.1664891242980957,
            0.11828897893428802,
            -0.052156127989292145,
            -0.11133932322263718,
            -0.13732929527759552,
            -0.1295183002948761,
            -0.12394283711910248,
            0.18468904495239258,
            -0.2286127805709839,
            0.02712097205221653,
            0.04983247444033623,
            0.032828785479068756,
            0.14549371600151062,
            -0.18833740055561066,
            -0.01741788163781166,
            0.1640777885913849,
            -0.10655579715967178,
            0.012531799264252186,
            0.11827746778726578,
            0.10711298882961273,
            -0.07918050140142441,
            -0.1502109318971634,
            0.1006779819726944,
            0.1592521220445633,
            -0.0052596391178667545,
            0.08608502149581909,
            -0.11486688256263733,
            -0.1559862196445465,
            0.0621812604367733,
            -0.10694323480129242,
            0.09626650810241699,
            -0.05408492311835289,
            0.057383596897125244,
            -0.09105972200632095,
            0.1730337142944336,
            -0.05147525295615196,
            0.06997033953666687,
            0.20829568803310394,
            -0.04113005846738815,
            -0.20648759603500366,
            -0.22966845333576202,
            -0.167231023311615,
            -0.05310923233628273,
            0.04031470790505409,
            -0.09451831132173538,
            0.07802160829305649,
            -0.15897925198078156,
            0.1798776239156723,
            0.14741380512714386,
            0.015412959270179272,
            -0.16024371981620789,
            -0.10155203193426132,
            0.032866861671209335,
            0.07398264855146408,
            -0.05776915326714516,
            0.10343849658966064,
            -0.18740321695804596,
            0.20590631663799286,
            0.19791525602340698,
            -0.2240317314863205,
            0.024125931784510612,
            -0.13273243606090546,
            0.20686562359333038,
            0.1438991129398346,
            0.07406605035066605,
            0.13480961322784424,
            -0.19814082980155945,
            -0.0284805279225111,
            -0.10256822407245636,
            0.2118319869041443,
            -0.024624643847346306,
            0.13997219502925873,
            -0.0890122726559639,
            0.04920697212219238,
            0.0876627117395401,
            0.13081952929496765,
            0.1976783722639084,
            -0.08743888884782791,
            -0.14706194400787354,
            0.09749588370323181,
            0.162686288356781,
            0.00039503935840912163,
            0.002644733525812626,
            0.21994663774967194,
            -0.0633494183421135,
            -0.20370270311832428,
            -0.021004054695367813,
            -0.21837326884269714,
            0.060625430196523666,
            -0.09962846338748932,
            -0.08464134484529495,
            0.22467973828315735,
            -0.20757031440734863,
            0.019246520474553108,
            -0.10811722278594971,
            0.05282553285360336,
            -0.20557038486003876,
            -0.17190910875797272,
            0.19705790281295776,
            -0.1479598432779312,
            0.012356585822999477,
            0.16892392933368683,
            -0.1761178970336914,
            0.23003853857517242,
            -0.21462570130825043,
            0.05308295786380768,
            0.2260376363992691,
            0.21009261906147003,
            -0.08692415803670883,
            0.012095982208848,
            -0.12751591205596924,
            -0.09112471342086792,
            0.11640498042106628,
            0.03452034667134285,
            0.0513424426317215,
            -0.1770678162574768,
            0.13071341812610626,
            -0.014089064672589302,
            0.16843128204345703,
            0.04058054834604263,
            -0.010950683616101742,
            -0.0009882429149001837,
            -0.08399326354265213,
            -0.004643703810870647,
            -0.15858899056911469,
            -0.15065273642539978,
            0.05606589838862419,
            0.0724872276186943,
            -0.09444452822208405,
            -0.11683088541030884,
            0.14367084205150604,
            0.14069177210330963,
            0.056612178683280945,
            0.0380048006772995,
            0.2058926820755005,
            0.0189598947763443,
            0.1345517933368683,
            -0.16684776544570923,
            -0.2314620167016983,
            -0.09301110357046127,
            0.162334144115448,
            -0.224727064371109,
            0.11042317748069763,
            -0.16105598211288452,
            -0.14450541138648987,
            0.20520859956741333,
            0.037277303636074066,
            0.128993958234787,
            -0.07698538154363632,
            0.11841393262147903,
            0.09171389788389206,
            0.19350333511829376,
            0.016889182850718498,
            0.05173221230506897,
            -0.1364441215991974,
            -0.12606322765350342,
            -0.17100295424461365,
            -0.17693939805030823,
            -0.2163788080215454,
            0.11831392347812653,
            0.04634258896112442,
            -0.15651783347129822,
            -0.2249886840581894,
            -0.1514943391084671,
            0.13941368460655212,
            0.10852044820785522,
            -0.03826646879315376,
            -0.03540917858481407,
            0.13968244194984436,
            -0.21738159656524658,
            -0.10077135264873505,
            0.14383742213249207,
            0.20927459001541138,
            -0.2543323040008545,
            0.10190156102180481,
            -0.197347491979599,
            0.026110351085662842,
            0.007423142436891794,
            0.055611785501241684,
            0.1982194483280182,
            0.1424003392457962,
            -0.03980746120214462,
            -0.09005642682313919,
            -0.18939517438411713,
            0.048783183097839355,
            0.08398114144802094,
            -0.022503003478050232,
            0.17740485072135925,
            0.20733368396759033,
            -0.15369084477424622,
            0.17874665558338165,
            -0.0323365144431591,
            0.08218134194612503,
            -0.09917530417442322,
            -0.051600612699985504,
            -0.044854264706373215,
            -0.18154849112033844,
            -0.19900836050510406,
            0.051329176872968674,
            -0.16668908298015594,
            0.15648597478866577,
            0.21099399030208588,
            0.045814916491508484,
            -0.1132994294166565,
            -0.1616700291633606,
            0.0032645997125655413,
            0.06817204505205154,
            0.1952494978904724,
            0.03759072348475456,
            0.08760762214660645,
            0.00843978114426136,
            -0.15332762897014618,
            -0.19773025810718536,
            -0.17011387646198273,
            -0.19821800291538239,
            0.10394611209630966,
            0.17098768055438995,
            -0.09781993180513382,
            -0.09600582718849182,
            -0.0814584493637085,
            0.01994509994983673,
            0.08721014857292175,
            0.08401791751384735,
            0.05825009569525719,
            0.16923490166664124,
            0.15184102952480316,
            0.15385550260543823,
            0.20680290460586548,
            0.05583125725388527,
            0.17386788129806519,
            -0.087860107421875,
            -0.14198215305805206,
            -0.17869232594966888,
            -0.2161003202199936,
            0.11489748954772949,
            0.16459181904792786,
            0.22420744597911835,
            0.03723611310124397,
            0.034261662513017654,
            0.2078491449356079,
            -0.14184974133968353,
            -0.011031626723706722,
            -0.08400513231754303,
            0.023379523307085037,
            0.07033280283212662,
            -0.06100616976618767,
            -0.09261668473482132,
            -0.1268284171819687,
            0.0915718525648117,
            0.03239431232213974,
            0.06070180982351303,
            0.1465364694595337,
            0.1553824543952942,
            0.14511610567569733,
            0.1725315898656845,
            0.004488965962082148,
            0.16397544741630554,
            -0.21532048285007477,
            0.17290684580802917,
            -0.12004449218511581,
            0.19242975115776062,
            0.15641503036022186,
            -0.1886691302061081,
            -0.13407668471336365,
            0.14534761011600494,
            0.027536451816558838,
            -0.17857113480567932,
            -0.007181757595390081,
            -0.1087740808725357,
            0.23608499765396118,
            -0.026206335052847862,
            -0.10038761794567108,
            0.11738009750843048,
            0.06374233961105347,
            0.12312352657318115,
            0.1778058111667633,
            -0.1742820143699646,
            0.12437386065721512,
            -0.024494972079992294,
            -0.036424312740564346,
            0.10692843794822693,
            0.07926839590072632,
            0.13577210903167725,
            -0.1683187633752823,
            0.16348658502101898,
            -0.09853167831897736,
            0.07791464030742645,
            0.12299340218305588,
            -0.10245252400636673,
            0.002797504188492894,
            -0.1702570915222168,
            0.1208588108420372,
            -0.13649491965770721,
            -0.0996001660823822,
            -0.08511166274547577,
            -0.1411091685295105,
            -0.2193285971879959,
            -0.10930747538805008,
            0.16237325966358185,
            0.01500280573964119,
            -0.05799371004104614,
            0.09218340367078781,
            -0.04494580999016762,
            0.0108641367405653,
            -0.0741826668381691,
            0.1584559679031372,
            0.09697436541318893,
            -0.02667090855538845,
            0.011683616787195206,
            -0.15428417921066284,
            0.028854133561253548,
            -0.22918717563152313,
            -0.11470990628004074,
            0.005189434625208378,
            0.03696740046143532,
            -0.1545826494693756,
            0.02373139187693596,
            0.17383183538913727,
            -0.13840128481388092,
            -0.15737465023994446,
            -0.051230013370513916,
            0.21872331202030182,
            0.05230804532766342,
            -0.21236620843410492,
            -0.025308730080723763,
            -0.1699245125055313,
            -0.009223641827702522,
            0.010951632633805275,
            -0.13920092582702637,
            0.09117798507213593,
            -0.010296820662915707,
            -0.2361307442188263,
            0.2111203521490097,
            0.0763830691576004,
            0.10766680538654327,
            0.209181010723114,
            0.06289602816104889,
            -0.052195969969034195,
            -0.07131463289260864,
            0.09313105791807175,
            -0.23409375548362732,
            -0.15232636034488678,
            -0.08515775948762894,
            0.021755144000053406,
            0.14850866794586182,
            -0.16490910947322845,
            -0.12381117790937424,
            -0.2034049779176712,
            -0.0448477528989315,
            0.2112634778022766,
            -0.14770440757274628,
            0.11017730832099915,
            0.03297078609466553,
            -0.05235031247138977,
            -0.22320549190044403,
            0.18539127707481384,
            -0.1988917589187622,
            0.026863494887948036,
            -0.13724395632743835,
            -0.17064213752746582,
            -0.024212811142206192,
            0.009431708604097366,
            -0.10066282749176025,
            0.013800383545458317,
            -0.18523605167865753,
            -0.16874034702777863,
            0.12687472999095917,
            0.13375283777713776,
            -0.04286240413784981,
            -0.15762586891651154,
            0.12354565411806107,
            0.2267606556415558,
            -0.10633955150842667,
            0.10430844128131866,
            0.1300652176141739,
            0.19770823419094086,
            0.04404282942414284,
            -0.14349499344825745,
            -0.22932066023349762,
            0.1697872430086136,
            0.017967769876122475,
            0.05478057265281677,
            0.07546880841255188,
            -0.2190239578485489,
            -0.13715825974941254,
            -0.03325009346008301,
            -0.17340321838855743,
            0.21078498661518097,
            -0.08361314982175827,
            -0.14326372742652893,
            -0.04714413732290268,
            -0.17601437866687775,
            0.1404365599155426,
            0.21305732429027557,
            -0.0791265144944191,
            -0.17064900696277618,
            0.06024129316210747,
            0.006597369443625212,
            0.10480368882417679,
            0.06943108886480331,
            -0.06770718842744827,
            -0.006500487215816975,
            0.055366627871990204,
            -0.15548254549503326,
            0.20633825659751892,
            -0.16517417132854462,
            -0.15367257595062256,
            0.2152937799692154,
            0.047777269035577774,
            -0.21954043209552765,
            -0.10895738005638123,
            -0.22635184228420258,
            -0.1461118906736374,
            0.10647933185100555,
            -0.17941933870315552,
            0.10458951443433762,
            -0.03235265985131264,
            -0.12165074795484543,
            0.18677961826324463,
            -0.029043791815638542,
            -0.085238516330719,
            -0.12750327587127686,
            0.09396512806415558,
            0.14910930395126343,
            -0.12193809449672699,
            0.04323653504252434,
            0.038694459944963455,
            -0.17275923490524292,
            -0.021355750039219856,
            -0.2037837654352188,
            -0.1868591159582138,
            -0.1144510880112648,
            0.11783759295940399,
            -0.019413050264120102,
            -0.1112622320652008,
            -0.18112283945083618,
            0.05120448023080826,
            -0.00878099538385868,
            -0.14827033877372742,
            0.03131227567791939,
            -0.1794128268957138,
            -0.12942729890346527,
            0.19366668164730072,
            0.07691948860883713,
            0.13442549109458923,
            0.06375639885663986,
            -0.03519853577017784,
            0.038694001734256744,
            -0.1572803258895874,
            0.19144058227539062,
            0.09728696942329407,
            -0.09345775842666626,
            0.11858827620744705,
            -0.09258818626403809,
            0.08863020688295364,
            0.09274518489837646,
            -0.04006251320242882,
            0.19618436694145203,
            0.059819310903549194,
            0.021939042955636978,
            -0.1366853415966034,
            -0.07079754024744034,
            0.17445360124111176,
            -0.18899983167648315,
            -0.017467165365815163,
            0.21695192158222198,
            0.19280916452407837,
            -0.061536755412817,
            -0.16575169563293457,
            0.18410077691078186,
            -0.12386191636323929,
            0.11674432456493378,
            0.0993085727095604,
            -0.043129682540893555,
            0.016448089852929115,
            -0.18307606875896454,
            -0.1398719996213913,
            -0.01475684717297554,
            -0.05092952772974968,
            -0.14345160126686096,
            0.19923143088817596,
            0.029731590300798416,
            0.04936731234192848,
            -0.2232956439256668,
            0.15938277542591095,
            -0.16610057651996613,
            -0.024034252390265465,
            -0.2046407163143158,
            0.02392015978693962,
            -0.02210022509098053,
            -0.16828757524490356,
            0.16491276025772095,
            -0.18564574420452118,
            0.22625583410263062,
            0.09167852252721786,
            -0.006443411111831665,
            0.010736895725131035,
            0.17515349388122559,
            0.26930275559425354,
            0.03835434466600418,
            -0.2019742727279663,
            0.20402298867702484,
            -0.11594335734844208,
            -0.061506785452365875,
            -0.027949124574661255,
            -4.8957237595459446e-05,
            -0.12941275537014008,
            0.17020341753959656,
            0.09220653772354126,
            -0.20934635400772095,
            0.09892849624156952,
            0.20106999576091766,
            -0.04020262882113457,
            0.00023486056306865066,
            -0.012546644546091557,
            0.2537636458873749,
            -0.02722582034766674,
            -0.02491116337478161,
            0.09440073370933533,
            0.2190525233745575,
            -0.20272228121757507,
            0.10389070212841034,
            -0.2220017910003662,
            0.2166983187198639,
            0.08331917971372604,
            -0.011797490529716015,
            -0.060281913727521896,
            -0.1500692218542099,
            0.22143487632274628,
            -0.1334882229566574,
            0.09861632436513901,
            0.08744077384471893,
            -0.08247501403093338,
            -0.20327726006507874,
            -0.2132793366909027,
            -0.1792079508304596,
            0.11709515750408173,
            0.02018848992884159,
            -0.06206951662898064,
            0.011799235828220844,
            -0.17860695719718933,
            -0.05674366280436516,
            0.11920681595802307,
            0.09680379182100296,
            0.15870815515518188,
            0.1513625532388687,
            -0.20305271446704865,
            -0.1580120027065277,
            0.15172630548477173,
            -0.06117904186248779,
            -0.19154883921146393,
            -0.18745219707489014,
            -0.10575198382139206,
            0.13876911997795105,
            -0.035907186567783356,
            -0.013549940660595894,
            0.05345521867275238,
            0.017909714952111244,
            0.07019736617803574,
            0.09373912960290909,
            0.08970432728528976,
            0.13581696152687073,
            -0.1767701357603073,
            -0.15693040192127228,
            0.006330532021820545,
            0.1572321206331253,
            -0.009229217655956745,
            -0.12408000975847244,
            0.05517145246267319,
            0.06161835417151451,
            0.06847090274095535,
            0.044034648686647415,
            -0.05678665265440941,
            -0.0411447212100029,
            0.15875069797039032,
            -0.013910713605582714,
            0.18931221961975098,
            -0.2552892863750458,
            0.10116919130086899,
            -0.0019018524326384068,
            -0.08770257234573364,
            0.18687883019447327,
            -0.046177882701158524,
            0.05179160088300705,
            0.15391328930854797,
            0.16374701261520386,
            -0.06725214421749115,
            -0.02638501673936844,
            -0.14763973653316498,
            0.17766907811164856,
            -0.03734026476740837,
            -0.06554184854030609,
            -0.11237090826034546,
            -0.06424850970506668,
            -0.020700423046946526,
            0.21644525229930878,
            -0.01613132283091545,
            -0.15704606473445892,
            -0.22175787389278412,
            0.05693087354302406,
            0.19980986416339874,
            0.15654416382312775,
            -0.13370715081691742,
            -0.21285897493362427,
            -0.004758690018206835,
            -0.08651368319988251,
            0.16891181468963623,
            -0.049815405160188675,
            0.041007209569215775,
            -0.13871513307094574,
            -0.11202680319547653,
            -0.06002580747008324,
            -0.2517276406288147,
            0.07388033717870712,
            -0.05264909937977791,
            0.14513501524925232,
            0.1773492395877838,
            0.1348416805267334,
            0.10579293221235275,
            0.060400452464818954,
            -0.09170790016651154,
            0.20219191908836365,
            -0.08192219585180283,
            0.029813140630722046,
            0.03362306207418442,
            -0.1356545388698578,
            -0.0025008167140185833,
            -0.08440234512090683,
            -0.1485631912946701,
            -0.23432540893554688,
            0.22029931843280792,
            0.13995617628097534,
            0.23018449544906616,
            0.05732405185699463,
            -0.2255861461162567,
            -0.04008965566754341,
            0.21777039766311646,
            -0.18225781619548798,
            0.14977361261844635,
            -0.16288410127162933,
            0.2182088941335678,
            0.060284070670604706,
            -0.13299916684627533,
            -0.22654122114181519,
            -0.12401125580072403,
            -0.17892321944236755,
            0.2047676146030426,
            0.13846544921398163,
            -0.06820150464773178,
            -0.2037481814622879,
            -0.06903081387281418,
            -0.10153267532587051,
            0.035717908293008804,
            0.1926322877407074,
            0.04801284149289131,
            -0.07278674840927124,
            -0.21456648409366608,
            -0.18231259286403656,
            -0.04565897583961487,
            0.11305052042007446,
            -0.21836239099502563,
            -0.20459243655204773,
            0.0938422903418541,
            0.1949976533651352,
            0.21998734772205353,
            -0.10478431731462479,
            0.17351678013801575,
            0.1275312900543213,
            -0.16074873507022858,
            -0.23025034368038177,
            -0.10336726903915405,
            0.209745854139328,
            -0.030124852433800697,
            -0.1340806931257248,
            -0.01165173389017582,
            0.009024515748023987,
            -0.1732238233089447,
            0.027941709384322166,
            0.18311865627765656,
            0.14219574630260468,
            -0.07005675882101059,
            -0.16740211844444275,
            0.21125532686710358,
            -0.052901048213243484,
            -0.10360401123762131,
            0.008343182504177094,
            0.13298389315605164,
            0.1937101185321808,
            -0.02713548205792904,
            -0.08845817297697067,
            0.1834937483072281,
            -0.040768302977085114,
            -0.12230244278907776,
            -0.0827772319316864,
            0.12231293320655823,
            -0.0050399466417729855,
            0.030075863003730774,
            0.05186858028173447,
            0.04699467867612839,
            -0.12334123253822327,
            -0.15305353701114655,
            -0.21416310966014862,
            0.2058868706226349,
            -0.12998077273368835,
            0.1444062888622284,
            -0.005882199387997389,
            -0.0871981605887413,
            0.1326063871383667,
            0.013112259097397327,
            0.12520183622837067,
            -0.1700805276632309,
            -0.1836749017238617,
            -0.20514190196990967,
            -0.05503406375646591,
            -0.01368262805044651,
            0.03397412598133087,
            -0.11610978841781616,
            0.013292689807713032,
            -0.0033147549256682396,
            -0.07723702490329742,
            -0.18273688852787018,
            0.08984671533107758,
            0.12919725477695465,
            0.0906653106212616,
            0.22813178598880768,
            0.0896114706993103,
            -0.08258933573961258,
            0.04734779894351959,
            -0.20537185668945312,
            0.17464673519134521,
            0.194158673286438,
            0.016146263107657433,
            -0.19618308544158936,
            0.06710712611675262,
            -0.1380636841058731,
            -0.18103767931461334,
            -0.062283873558044434,
            -0.12521381676197052,
            0.15095436573028564,
            0.12972205877304077,
            0.11417592316865921,
            0.03435249254107475,
            0.020149005576968193,
            -0.19235031306743622,
            -0.12043898552656174,
            0.10800565779209137,
            0.023706605657935143,
            0.20705530047416687,
            0.17295914888381958,
            -0.14755405485630035,
            0.13115841150283813,
            -0.22306865453720093,
            0.001421725144609809,
            0.18310770392417908,
            0.1856411099433899,
            0.003853464964777231,
            0.18848179280757904,
            0.21570523083209991,
            0.07429944723844528,
            0.08661027252674103,
            0.06867054849863052,
            -0.021730581298470497,
            -0.18377527594566345,
            0.1791512370109558,
            -0.003575095674023032,
            -0.18679605424404144,
            -0.15962648391723633,
            0.03909267485141754,
            -0.2092364877462387,
            -0.22443881630897522,
            -0.20823076367378235,
            -0.014532169327139854,
            -0.12301255017518997,
            0.19851762056350708,
            -0.06668801605701447,
            0.05377062037587166,
            -0.12800876796245575,
            -0.012839742004871368,
            0.06322254985570908,
            0.14650589227676392,
            0.2071409672498703,
            -0.27677345275878906,
            -0.20437996089458466,
            0.09746859967708588,
            -0.04401141777634621,
            -0.046800512820482254,
            0.11042372137308121,
            -0.16970226168632507,
            -0.1555655598640442,
            -0.017088275402784348,
            -0.04531782865524292,
            -0.018115997314453125,
            0.022139504551887512,
            0.09047520160675049,
            0.17440350353717804,
            0.17235802114009857,
            -0.034271176904439926,
            -0.02343757264316082,
            0.006299702916294336,
            0.07354369014501572,
            -0.1862080693244934,
            0.03805093467235565,
            -0.20217610895633698,
            0.01867513917386532,
            0.02486940659582615,
            -0.030456749722361565,
            0.07817862182855606,
            -0.05356414616107941,
            -0.19119489192962646,
            0.22734695672988892,
            0.21359172463417053,
            0.20714055001735687,
            -0.0905415490269661,
            0.025169098749756813,
            0.13254913687705994,
            0.07044259458780289,
            -0.14452439546585083,
            -0.1101345345377922,
            0.20366425812244415,
            -0.20055237412452698,
            -0.20325875282287598,
            0.2599298357963562,
            -0.09546680003404617,
            0.05116375908255577,
            0.12484138458967209,
            0.20284631848335266,
            0.20723655819892883,
            -0.15853121876716614,
            0.07046482712030411,
            -0.053302228450775146,
            -0.05829106271266937,
            0.05530720576643944,
            -0.18653349578380585,
            -0.2097133845090866,
            -0.01927354745566845,
            -0.0614287294447422,
            0.06363169848918915,
            0.058265961706638336,
            0.1640750914812088,
            -0.15750743448734283,
            -0.05305052548646927,
            -0.21690191328525543,
            0.2167787104845047,
            -0.0007702779839746654,
            -0.05856691673398018,
            -0.10563059151172638,
            0.2217702865600586,
            -0.22243191301822662,
            -0.027503708377480507,
            -0.17517894506454468,
            -0.028139445930719376,
            0.0452251136302948,
            0.16295501589775085,
            -0.02546936273574829,
            -0.10156489908695221,
            0.20196671783924103,
            -0.0768757313489914,
            0.08973478525876999,
            0.19022798538208008,
            0.13162986934185028,
            0.1755966693162918,
            -0.0966188982129097,
            -0.022486504167318344,
            -0.004425746854394674,
            0.1001627966761589,
            -0.06153985485434532,
            -0.05757605656981468,
            -0.07336994260549545,
            -0.007352849934250116,
            0.15380887687206268,
            -0.19749268889427185,
            0.007499374449253082,
            0.16174979507923126,
            -0.025425352156162262,
            0.15936708450317383,
            -0.003991872072219849,
            0.20221289992332458,
            -0.032271526753902435,
            -0.12963154911994934,
            -0.08078800141811371,
            -0.20736606419086456,
            -0.17243260145187378,
            0.08797965943813324,
            0.05676769092679024,
            0.10010921210050583,
            -0.03023194707930088,
            0.18681536614894867,
            0.1510140597820282,
            -0.09628423303365707,
            0.06615860015153885,
            0.1306290626525879,
            0.21007771790027618,
            -0.17454911768436432,
            0.1580464094877243,
            -0.07219422608613968,
            0.12350890040397644,
            -0.18184220790863037,
            -0.15166155993938446,
            -0.2237371802330017,
            -0.033343009650707245,
            -0.2112724483013153,
            -0.2252143770456314,
            0.005283191334456205,
            0.20082247257232666,
            -0.03928004950284958,
            0.05225961655378342,
            0.09985019266605377,
            -0.08630874752998352,
            -0.18900372087955475,
            0.047295596450567245,
            0.13674825429916382,
            -0.004845567047595978,
            0.223335400223732,
            0.17219631373882294,
            0.08615125715732574,
            -0.09539521485567093,
            0.15024659037590027,
            0.17709657549858093,
            -0.0274778101593256,
            -0.08688045293092728,
            -0.16724561154842377,
            0.1725883036851883,
            0.01444630604237318,
            0.09470703452825546,
            0.09307251870632172,
            0.20047107338905334,
            -0.02060885541141033,
            -0.06037090718746185,
            0.017944233492016792,
            -0.10379292815923691,
            -0.1791563332080841,
            -0.017197342589497566,
            0.17153717577457428,
            0.008092866279184818,
            0.22906982898712158,
            0.23151791095733643
        ],
        "layers.0.weight_shape": [
            64,
            19
        ],
        "layers.0.bias": [
            0.2077970951795578,
            0.20688004791736603,
            0.09070175141096115,
            -0.14941181242465973,
            0.10494332015514374,
            -0.13376492261886597,
            0.18044690787792206,
            0.04813922941684723,
            0.130885049700737,
            0.1310807168483734,
            -0.19040149450302124,
            -0.06617771089076996,
            0.11379139125347137,
            -0.12786836922168732,
            0.08754617720842361,
            0.07466699928045273,
            -0.18495166301727295,
            -0.025262892246246338,
            0.19063912332057953,
            0.2172098457813263,
            -0.13350319862365723,
            0.19769391417503357,
            0.16178515553474426,
            -0.06950013339519501,
            0.032336726784706116,
            -0.14210213720798492,
            0.1545877456665039,
            0.02448689565062523,
            0.06710300594568253,
            -0.1386595070362091,
            -0.050477638840675354,
            0.008570514619350433,
            -0.10618975013494492,
            0.11483640968799591,
            -0.04009285196661949,
            0.19323766231536865,
            -0.002545030089095235,
            0.1576223522424698,
            0.19488798081874847,
            0.013115559704601765,
            0.06925068795681,
            -0.09076176583766937,
            0.13008791208267212,
            -0.2195110321044922,
            -0.17953333258628845,
            -0.14968697726726532,
            0.1433303952217102,
            0.070566825568676,
            -0.0550708994269371,
            0.16702356934547424,
            -0.20377573370933533,
            -0.18608255684375763,
            -0.0711294636130333,
            -0.17079710960388184,
            -0.20034262537956238,
            0.18120846152305603,
            0.08929749578237534,
            -0.0389588363468647,
            -0.14344871044158936,
            0.07555899024009705,
            0.028405686840415,
            -0.0020190062932670116,
            -0.10559604316949844,
            -0.1919952780008316
        ],
        "layers.0.bias_shape": [
            64
        ],
        "layers.2.weight": [
            0.08772232383489609,
            -0.10418769717216492,
            0.01794760301709175,
            -0.014199252240359783,
            0.010918252170085907,
            0.025340881198644638,
            0.046405646950006485,
            0.035799600183963776,
            -0.11297044157981873,
            -0.07283428311347961,
            -0.05398242548108101,
            0.11778143048286438,
            -0.017881911247968674,
            0.03681490942835808,
            0.11501270532608032,
            -0.10466480255126953,
            0.11210428923368454,
            -0.07886219024658203,
            0.01860775426030159,
            0.061088982969522476,
            -0.09121852368116379,
            -0.05148201808333397,
            0.03301127254962921,
            -0.12114846706390381,
            0.08480044454336166,
            -0.10856341570615768,
            -0.11964385211467743,
            -0.12526637315750122,
            0.053837355226278305,
            0.0804547518491745,
            0.07292774319648743,
            0.025126352906227112,
            -0.09362252056598663,
            0.09909477084875107,
            0.033665161579847336,
            0.056645456701517105,
            -0.10526371747255325,
            -0.019036266952753067,
            0.08397569507360458,
            0.09183959662914276,
            0.08965713530778885,
            -0.016539795324206352,
            -0.008494176901876926,
            0.03115691989660263,
            -0.10120759904384613,
            0.11782129853963852,
            0.07030045986175537,
            -0.06828313320875168,
            0.012975245714187622,
            0.12513312697410583,
            0.0741720125079155,
            -0.004277213476598263,
            -0.05227965861558914,
            0.07909297943115234,
            -0.040269747376441956,
            0.07960429042577744,
            -0.018362654373049736,
            -0.0994986817240715,
            -0.04211720824241638,
            0.12060224264860153,
            -0.011259211227297783,
            0.016406400129199028,
            0.10612975060939789,
            0.08323969691991806,
            0.0987715870141983,
            0.06807824969291687,
            -0.03411249816417694,
            0.11800438910722733,
            -0.06766334176063538,
            0.10029683262109756,
            0.08796460926532745,
            -0.005807829089462757,
            -0.014948053285479546,
            0.11921816319227219,
            0.005991091951727867,
            -0.05879805609583855,
            0.11102913320064545,
            0.05156354606151581,
            -0.08225001394748688,
            -0.06324628740549088,
            -0.07246949523687363,
            -0.005079295020550489,
            0.08270050585269928,
            0.12244648486375809,
            0.04253104329109192,
            0.09709956496953964,
            -0.08600335568189621,
            0.10174773633480072,
            0.017059309408068657,
            -0.11755957454442978,
            0.016667386516928673,
            -0.0001591759209986776,
            0.034087613224983215,
            0.059685319662094116,
            -0.004904300440102816,
            -0.000124369325931184,
            0.06582880020141602,
            -0.09869001805782318,
            -0.03813775256276131,
            -0.07893349230289459,
            -0.009826588444411755,
            -0.0692434087395668,
            -0.11028874665498734,
            0.10596079379320145,
            0.004325002431869507,
            -0.003370600752532482,
            -0.069057896733284,
            -0.07992260158061981,
            0.04310028254985809,
            0.04674185812473297,
            0.019166355952620506,
            -0.045418743044137955,
            0.10513625293970108,
            -0.0487813763320446,
            0.10215190798044205,
            0.05796376243233681,
            0.09726003557443619,
            0.09157919138669968,
            -0.03619251400232315,
            0.11986716836690903,
            -0.054397400468587875,
            -0.057635802775621414,
            -0.06042051315307617,
            -0.09225330501794815,
            0.11953095346689224,
            -0.054920606315135956,
            0.04662659019231796,
            -0.01952044479548931,
            0.016110431402921677,
            0.036856669932603836,
            0.12507915496826172,
            0.09655582159757614,
            0.026762772351503372,
            -0.09548863768577576,
            -0.11475591361522675,
            -0.05595541372895241,
            0.06195692718029022,
            0.08150143921375275,
            -0.0624808594584465,
            0.07572133094072342,
            -0.007237391080707312,
            -0.06685415655374527,
            0.015315195545554161,
            0.042248982936143875,
            0.02307979390025139,
            -0.03734062612056732,
            -0.017526645213365555,
            -0.01679467223584652,
            0.0265726987272501,
            0.023071158677339554,
            0.0023920147214084864,
            0.05548955872654915,
            0.02751021645963192,
            0.02240784280002117,
            -0.06252989917993546,
            -0.08648257702589035,
            0.054516132920980453,
            -0.016397541388869286,
            -0.01792067289352417,
            -0.006817280780524015,
            -0.01853949949145317,
            -0.09451323747634888,
            0.08930913358926773,
            -0.10174502432346344,
            0.03717842698097229,
            0.07849443703889847,
            -0.05832330137491226,
            0.0432056300342083,
            0.016478577628731728,
            0.10262374579906464,
            0.019135121256113052,
            0.10105722397565842,
            0.03615696355700493,
            0.03562977537512779,
            -0.054828986525535583,
            0.0705537274479866,
            -0.09058362990617752,
            -0.018254363909363747,
            -0.03631306067109108,
            -0.09779050201177597,
            -0.04003458842635155,
            -0.0881948471069336,
            0.003707248019054532,
            0.07709919661283493,
            -0.123934306204319,
            -0.11790751665830612,
            0.10986916720867157,
            -0.040393803268671036,
            0.015746040269732475,
            -0.039637159556150436,
            0.06179157644510269,
            0.03283248841762543,
            0.02375839836895466,
            0.07281351089477539,
            0.04940216243267059,
            0.11608078330755234,
            0.1190103068947792,
            -0.04716082289814949,
            0.11339575797319412,
            0.1099882647395134,
            0.06946754455566406,
            -0.12115410715341568,
            0.03247249126434326,
            0.05327000468969345,
            0.11920846998691559,
            -0.03532345965504646,
            -0.09381575137376785,
            0.11075861752033234,
            0.11944001168012619,
            0.008843783289194107,
            0.0404028557240963,
            -0.025123588740825653,
            0.017634714022278786,
            -0.09156380593776703,
            0.047755151987075806,
            -0.025810908526182175,
            -0.1277165710926056,
            -0.08527273684740067,
            0.009955457411706448,
            -0.1261870265007019,
            -0.0668240636587143,
            0.07750959694385529,
            0.0393286794424057,
            -0.06808213889598846,
            0.021922949701547623,
            0.09183314442634583,
            -0.00924674142152071,
            -0.09129027277231216,
            -0.07887102663516998,
            0.003518221667036414,
            0.06447035074234009,
            0.09658745676279068,
            -0.09222733229398727,
            0.028450975194573402,
            -0.017222320660948753,
            0.11118952929973602,
            -0.06109414994716644,
            -0.06892850995063782,
            -0.07400241494178772,
            0.0033122811000794172,
            0.013417193666100502,
            0.12614339590072632,
            -0.09246156364679337,
            0.06237199902534485,
            -0.07498354464769363,
            0.009133586660027504,
            -0.01914050057530403,
            -0.017745617777109146,
            -0.058259669691324234,
            -0.06673961877822876,
            0.055520955473184586,
            0.11456433683633804,
            -0.019593147560954094,
            0.05455786734819412,
            -0.08480159193277359,
            0.053470268845558167,
            0.04465331882238388,
            0.05960323289036751,
            0.0294365044683218,
            -0.10982286930084229,
            -0.12252321094274521,
            -0.0916873961687088,
            -0.04373493790626526,
            -0.05642404407262802,
            0.011389912106096745,
            -0.12814344465732574,
            -0.1178511455655098,
            0.07554613798856735,
            -0.022971924394369125,
            0.11292394995689392,
            -0.0027445796877145767,
            0.02823551371693611,
            0.0927458256483078,
            -0.11883964389562607,
            -0.00861251913011074,
            -0.06707790493965149,
            -0.08873749524354935,
            0.03178345784544945,
            -0.03437439352273941,
            -0.08660615980625153,
            0.012741317972540855,
            0.11127295345067978,
            -0.07654638588428497,
            0.0871560126543045,
            -0.11060268431901932,
            0.09226343035697937,
            -0.11299742013216019,
            0.04977798089385033,
            0.12288446724414825,
            0.012526293285191059,
            0.05357329547405243,
            0.08510130643844604,
            0.027529973536729813,
            0.11994419991970062,
            0.11451248079538345,
            0.1205378919839859,
            0.05472523346543312,
            0.08798704296350479,
            0.10949086397886276,
            -0.07246343046426773,
            -0.03831147029995918,
            -0.004905296489596367,
            -0.046414487063884735,
            -0.08406968414783478,
            0.0130153838545084,
            0.12000629305839539,
            -0.04039538651704788,
            -0.11375395208597183,
            -0.12573479115962982,
            0.11988813430070877,
            0.036110203713178635,
            -0.013455349951982498,
            0.02184378355741501,
            -0.0684884563088417,
            0.07418491691350937,
            -0.10651984810829163,
            0.05206901952624321,
            0.04063284024596214,
            0.09252898395061493,
            -0.04148177057504654,
            0.0878680944442749,
            -0.0435725636780262,
            0.08686322718858719,
            -0.11239445209503174,
            -0.02453610859811306,
            -0.06547307968139648,
            -0.047946345061063766,
            0.07190581411123276,
            -0.11000410467386246,
            -0.012032023631036282,
            0.0035246487241238356,
            -0.053561944514513016,
            0.07710684090852737,
            -0.10964765399694443,
            0.04333808645606041,
            0.0448109470307827,
            0.03582223504781723,
            0.10362988710403442,
            0.11191622167825699,
            -0.10009246319532394,
            0.05620519071817398,
            0.07088559120893478,
            -0.05908381938934326,
            0.0011934797512367368,
            0.1203230768442154,
            0.11421351134777069,
            -0.08140718191862106,
            -0.06738603115081787,
            -0.09641164541244507,
            0.00012216001050546765,
            0.025237467139959335,
            0.05880596861243248,
            -0.06661087274551392,
            0.0856873169541359,
            0.1076536625623703,
            0.005112804006785154,
            0.02231045812368393,
            0.10056226700544357,
            0.029688246548175812,
            0.09485653787851334,
            0.12029197067022324,
            -0.00573756406083703,
            -0.0585869699716568,
            0.010099867358803749,
            0.09612805396318436,
            0.05958131328225136,
            0.07499094307422638,
            -0.018948297947645187,
            0.03516577556729317,
            -0.07896112650632858,
            0.05716526880860329,
            -0.021987617015838623,
            -0.005370470229536295,
            -0.1301816701889038,
            0.012606168165802956,
            0.028369732201099396,
            0.06901688873767853,
            0.11162355542182922,
            0.04736195504665375,
            -0.04516615346074104,
            0.12032407522201538,
            0.05237012729048729,
            -0.06385524570941925,
            0.12273948639631271,
            0.05694591626524925,
            0.07424835115671158,
            -0.003333708504214883,
            0.05995630472898483,
            -0.1191849485039711,
            -0.02575724758207798,
            0.04578733071684837,
            0.08223900198936462,
            -0.05866474285721779,
            -0.04272317886352539,
            -0.08799349516630173,
            -0.048326123505830765,
            0.10871253907680511,
            0.05774923041462898,
            -0.10293113440275192,
            0.09283050149679184,
            0.07580523192882538,
            0.04337109997868538,
            0.07873637974262238,
            0.0938488319516182,
            -0.013318871147930622,
            0.06253081560134888,
            0.07737252861261368,
            -0.04239096865057945,
            -0.08045533299446106,
            -0.010160314850509167,
            -0.09591743350028992,
            -0.09642137587070465,
            0.02475620061159134,
            -0.002047767862677574,
            -0.04907612502574921,
            0.09001196920871735,
            -0.11351494491100311,
            0.007809803355485201,
            -0.011687923222780228,
            0.03287988901138306,
            -0.08591125160455704,
            -0.022486044093966484,
            -0.047377217561006546,
            0.034169863909482956,
            -0.046212319284677505,
            -0.08294277638196945,
            0.010116965509951115,
            -0.057459164410829544,
            0.09427454322576523,
            -0.02593756467103958,
            -0.034845732152462006,
            -0.07558796554803848,
            0.08299054205417633,
            -0.015337483957409859,
            0.09205737709999084,
            -0.02383268252015114,
            -0.06811821460723877,
            -0.04496297240257263,
            -0.09448423236608505,
            -0.02983921207487583,
            0.03862500935792923,
            -0.03139794245362282,
            -0.07032300531864166,
            -0.03840295225381851,
            -0.11813146620988846,
            -0.010112972930073738,
            -0.006709040608257055,
            0.03548385202884674,
            0.053617868572473526,
            -0.040899358689785004,
            -0.06710361689329147,
            -0.038600776344537735,
            0.11708495765924454,
            0.13270869851112366,
            0.01573793590068817,
            0.05700181797146797,
            -0.10179077833890915,
            -0.10491136461496353,
            0.06221988424658775,
            -0.0447513721883297,
            -0.010355263948440552,
            0.08401773869991302,
            -0.045737531036138535,
            0.11538800597190857,
            -0.08528603613376617,
            -0.11995316296815872,
            -0.059962205588817596,
            -0.11974871903657913,
            0.1064346507191658,
            -0.06630725413560867,
            -0.021534763276576996,
            0.003115589264780283,
            -0.10438577830791473,
            0.0658351331949234,
            0.07404100149869919,
            -0.09799445420503616,
            0.08326824009418488,
            0.12299731373786926,
            -0.06046010181307793,
            0.10475633293390274,
            -0.05858796089887619,
            0.08328619599342346,
            -0.07215581834316254,
            -0.08538755029439926,
            0.08235015720129013,
            -0.11363908648490906,
            0.033799588680267334,
            0.03304663300514221,
            -0.06732485443353653,
            0.08980118483304977,
            -0.0464494563639164,
            0.04255039989948273,
            0.06754886358976364,
            -0.036160051822662354,
            -0.07258228212594986,
            -0.0038226854521781206,
            -0.026157233864068985,
            0.11002965271472931,
            0.02285141311585903,
            0.11665285378694534,
            0.09703163802623749,
            0.01721559278666973,
            0.09595759212970734,
            -0.03617295250296593,
            0.12680356204509735,
            0.04323647916316986,
            0.08497880399227142,
            -0.043970294296741486,
            -0.11274605244398117,
            0.06593239307403564,
            -0.08248472958803177,
            0.09424984455108643,
            -0.028900789096951485,
            -0.009415996260941029,
            0.0461437851190567,
            0.02811892144382,
            -0.005126086995005608,
            -0.05149102583527565,
            0.02946813777089119,
            -0.042520686984062195,
            0.08789943903684616,
            0.1283751130104065,
            -0.053696636110544205,
            -0.0035992891062051058,
            -0.11889563500881195,
            0.07817546278238297,
            -0.08998697996139526,
            -0.06382405012845993,
            -0.1175675243139267,
            0.02066672407090664,
            0.08119793236255646,
            -0.010499951429665089,
            -0.04629424959421158,
            -0.025245124474167824,
            0.08015444129705429,
            0.01857655495405197,
            0.004336396232247353,
            0.09386338293552399,
            0.06100816652178764,
            -0.055708419531583786,
            0.11315015703439713,
            0.03240003064274788,
            0.11546356976032257,
            -0.08901076018810272,
            -0.05873227119445801,
            -0.09653688967227936,
            0.04500877484679222,
            -0.0709114745259285,
            -0.0028480158653110266,
            -0.09035142511129379,
            -0.06100243330001831,
            0.020304042845964432,
            0.011727124452590942,
            -0.04771975800395012,
            -0.09797100722789764,
            0.014079354703426361,
            0.04188460111618042,
            0.012086054310202599,
            -0.03197183832526207,
            -0.08751419186592102,
            0.04275315999984741,
            0.014574642293155193,
            0.12233830988407135,
            -0.07471426576375961,
            -0.04263881966471672,
            0.09698553383350372,
            0.020088255405426025,
            -0.040455274283885956,
            -0.061859890818595886,
            -0.07739652693271637,
            0.10696844756603241,
            -0.013569175265729427,
            -0.06236911565065384,
            -0.020262721925973892,
            -0.04016659036278725,
            -0.09268736839294434,
            -0.06375522911548615,
            -0.08112423866987228,
            -0.0018164020730182528,
            -0.01977689377963543,
            0.010197639465332031,
            -0.03789959102869034,
            -0.023153049871325493,
            0.07048673182725906,
            0.10235333442687988,
            0.035189975053071976,
            -0.06426972895860672,
            -0.10925422608852386,
            0.012429220601916313,
            0.01057349517941475,
            0.12267699092626572,
            0.09990324079990387,
            0.05093444883823395,
            -0.10797598212957382,
            -0.14356395602226257,
            -0.10189700126647949,
            -0.015830598771572113,
            0.08478080481290817,
            -0.021314138546586037,
            -0.03765778988599777,
            -0.004031904507428408,
            0.10056120902299881,
            0.005745314992964268,
            -0.015909161418676376,
            0.014939507469534874,
            0.05034400522708893,
            0.05095062032341957,
            0.08959517627954483,
            0.06978655606508255,
            0.012593082152307034,
            -0.0858127698302269,
            0.12423703819513321,
            0.0475585050880909,
            -0.06398098915815353,
            -0.07659577578306198,
            0.06816591322422028,
            -0.029109813272953033,
            -0.0670875757932663,
            -0.07629643380641937,
            0.015548580326139927,
            0.02028011903166771,
            -0.010804837569594383,
            -0.08502160757780075,
            0.08790895342826843,
            0.06876850128173828,
            -0.09491431713104248,
            -0.09603199362754822,
            0.017183024436235428,
            0.04670693725347519,
            0.0902351588010788,
            -0.043034352362155914,
            -0.009720827452838421,
            0.07951825857162476,
            0.09457407146692276,
            0.07345592975616455,
            0.042928941547870636,
            -0.02473624050617218,
            -0.038092028349637985,
            -0.08877825736999512,
            0.09801188856363297,
            0.11990518867969513,
            -0.1228671446442604,
            -0.01237555593252182,
            -0.11692450940608978,
            -0.042147476226091385,
            -0.048833832144737244,
            0.015761129558086395,
            0.014459928497672081,
            -0.01888301409780979,
            -0.041451308876276016,
            0.07326627522706985,
            0.1085863783955574,
            0.016798555850982666,
            0.1030256450176239,
            -0.1038404107093811,
            0.0006259953370317817,
            0.0057947756722569466,
            -0.07876762002706528,
            0.10940703749656677,
            -0.08687333017587662,
            0.063883475959301,
            -0.10328356921672821,
            0.06781332194805145,
            -0.03739167004823685,
            -0.02310498058795929,
            -0.016045762225985527,
            0.11790896207094193,
            -0.10252305120229721,
            -0.04771658778190613,
            -0.10578469932079315,
            -0.11266094446182251,
            -0.05879631265997887,
            -0.06952604651451111,
            -0.028326282277703285,
            -0.03050556778907776,
            -0.10941541939973831,
            0.11714603751897812,
            -0.031543146818876266,
            0.10656945407390594,
            0.07802772521972656,
            -0.06831750273704529,
            0.10376576334238052,
            -0.027294645085930824,
            -0.1239251121878624,
            0.11464512348175049,
            -0.10771315544843674,
            -0.0009606435778550804,
            -0.11973991990089417,
            -0.11123508214950562,
            -0.04112626612186432,
            0.009283937513828278,
            -0.04583057388663292,
            -0.11649558693170547,
            -0.041391801089048386,
            -0.08254513144493103,
            -0.10529769212007523,
            0.12339570373296738,
            0.0016296178800985217,
            -0.08797889202833176,
            0.06489451229572296,
            -0.011705340817570686,
            0.11300712078809738,
            -0.01844538189470768,
            0.1230146735906601,
            0.04366997629404068,
            -0.028066029772162437,
            -0.06009054183959961,
            0.12894734740257263,
            -0.03392987698316574,
            -0.12357287108898163,
            0.05200076848268509,
            -0.01958606205880642,
            0.06413503736257553,
            0.05194086953997612,
            -0.07529854029417038,
            -0.11902332305908203,
            0.10521960258483887,
            -0.0692167580127716,
            0.007348940707743168,
            0.07266106456518173,
            -0.0780053436756134,
            0.10899489372968674,
            0.0977768748998642,
            0.03818576782941818,
            0.010742406360805035,
            0.07262467592954636,
            0.07819651812314987,
            -0.058660052716732025,
            -0.012814324349164963,
            0.039003901183605194,
            -0.024119902402162552,
            -0.06119411066174507,
            -0.0005931458435952663,
            0.089285708963871,
            0.07958170771598816,
            0.045699603855609894,
            -0.07663924992084503,
            -0.10437670350074768,
            -0.05652013048529625,
            0.07852861285209656,
            -0.005764183588325977,
            0.022595634683966637,
            0.10791636258363724,
            0.045676518231630325,
            -0.03904839605093002,
            -0.03315872699022293,
            -0.038200635462999344,
            0.12849561870098114,
            0.07508335262537003,
            -0.0038136430084705353,
            -0.10058334469795227,
            0.009267108514904976,
            0.034730635583400726,
            -0.10250885784626007,
            0.0585426390171051,
            -0.07524901628494263,
            0.03692181408405304,
            -0.05752363055944443,
            -0.03911222890019417,
            -0.03278844431042671,
            0.08929473906755447,
            -0.07441070675849915,
            0.06285668909549713,
            0.03259231522679329,
            -0.07731249183416367,
            0.050705548375844955,
            -0.05782201513648033,
            0.04123099520802498,
            -0.07388287037611008,
            -0.03964657709002495,
            -0.12219110131263733,
            -0.07998156547546387,
            -0.10540108382701874,
            0.0986219123005867,
            -0.024234438315033913,
            -0.09888052940368652,
            0.04568684473633766,
            0.06077216938138008,
            0.0999511331319809,
            0.07869141548871994,
            -0.11632287502288818,
            0.0361333042383194,
            -0.1270783394575119,
            0.03861211612820625,
            0.06399666517972946,
            -0.049388568848371506,
            0.05741791054606438,
            0.02496846579015255,
            -0.002092707669362426,
            0.09556473791599274,
            0.03556176275014877,
            0.005652550142258406,
            -0.04528332129120827,
            0.10614463686943054,
            -0.026813803240656853,
            0.0038721447344869375,
            0.04422964155673981,
            0.07576286047697067,
            0.024677541106939316,
            0.03334478288888931,
            -0.10469388216733932,
            0.025202590972185135,
            0.08306585252285004,
            -0.046950023621320724,
            0.05186651647090912,
            0.10505851358175278,
            -0.015920644626021385,
            -0.045198190957307816,
            0.013483714312314987,
            -0.09385740011930466,
            -0.12689398229122162,
            0.08045218884944916,
            0.046674828976392746,
            0.0854947566986084,
            -0.009593966417014599,
            0.03812611103057861,
            0.0728958398103714,
            0.07006040215492249,
            0.050988052040338516,
            0.053278207778930664,
            0.0404147207736969,
            0.026971891522407532,
            -0.05965058505535126,
            0.05284363403916359,
            -0.022362548857927322,
            -0.03000934049487114,
            0.09218917787075043,
            -0.06364463269710541,
            -0.1043313518166542,
            -0.021387385204434395,
            -0.06392905116081238,
            -0.0065462845377624035,
            0.023311959579586983,
            -0.031214673072099686,
            -0.05898724123835564,
            0.09592486917972565,
            0.07844363152980804,
            -0.07052141427993774,
            0.08867371827363968,
            0.017052827402949333,
            -0.11582528054714203,
            0.035390716046094894,
            -0.01743834838271141,
            0.01728902943432331,
            0.01175927184522152,
            0.10646546632051468,
            -0.13069218397140503,
            0.03631959483027458,
            -0.04836532473564148,
            0.06195609271526337,
            -0.1041376143693924,
            -0.0006722614052705467,
            -0.06680261343717575,
            -0.10152953118085861,
            0.03549148514866829,
            -0.03703216463327408,
            0.05606967583298683,
            0.003629531478509307,
            -0.06786807626485825,
            -0.06576147675514221,
            0.12081486731767654,
            0.054099079221487045,
            -0.032386865466833115,
            -0.027174945920705795,
            0.05420302227139473,
            -0.01585453562438488,
            0.06569463759660721,
            -0.11752523481845856,
            -0.03852719068527222,
            0.10036078840494156,
            0.06930158287286758,
            0.08777938783168793,
            0.1104673370718956,
            0.03946709632873535,
            -0.04331181198358536,
            0.07950583100318909,
            -0.1138179674744606,
            0.08497494459152222,
            0.04879627749323845,
            -0.09637286514043808,
            0.039800118654966354,
            0.015947066247463226,
            -0.061968132853507996,
            -0.02431494928896427,
            -0.12053559720516205,
            -0.10434461385011673,
            0.09070757031440735,
            -0.11054157465696335,
            0.07759208232164383,
            -0.09261259436607361,
            0.1126258447766304,
            -0.030444389209151268,
            -0.0691661387681961,
            0.1006111279129982,
            -0.0643240213394165,
            0.12077229470014572,
            0.024823777377605438,
            0.09764067083597183,
            0.11015904694795609,
            0.03816505894064903,
            -0.06584102660417557,
            0.11669060587882996,
            -0.12133672833442688,
            0.013829939067363739,
            -0.05996417626738548,
            -0.0525568425655365,
            0.033595629036426544,
            0.019427822902798653,
            -0.04391082003712654,
            -0.08817369490861893,
            -0.0210830420255661,
            0.02136005088686943,
            0.0776437446475029,
            -0.04316430911421776,
            0.034259140491485596,
            0.11837982386350632,
            -0.02393336407840252,
            0.09046704322099686,
            -0.007933772169053555,
            0.13680893182754517,
            0.07060538977384567,
            -0.002001164946705103,
            0.09123340249061584,
            -0.11430215835571289,
            0.0236336849629879,
            0.009045686572790146,
            0.11613598465919495,
            0.029278511181473732,
            0.07303812354803085,
            0.04453543573617935,
            0.0204349085688591,
            0.12363678961992264,
            0.06933797150850296,
            -0.00013803475303575397,
            0.13050609827041626,
            0.019478261470794678,
            -0.04692540317773819,
            -0.08145187795162201,
            0.106742724776268,
            -0.02739262953400612,
            0.04577610641717911,
            -0.022570060566067696,
            -0.056961752474308014,
            0.10326210409402847,
            0.06877408176660538,
            -0.08616357296705246,
            0.04657122865319252,
            -0.11593019962310791,
            0.015098391100764275,
            -0.03749672695994377,
            0.00788420345634222,
            0.031387872993946075,
            -0.1181471198797226,
            0.06284767389297485,
            -0.03491748124361038,
            0.08362976461648941,
            -0.05866536870598793,
            -0.08376204967498779,
            0.07935026288032532,
            -0.05964281037449837,
            0.08812113851308823,
            0.1100120022892952,
            -0.11781850457191467,
            -0.09044163674116135,
            -0.08491377532482147,
            0.025174638256430626,
            0.09323602169752121,
            0.00315327406860888,
            0.05573063716292381,
            -0.10850072652101517,
            -0.01565902680158615,
            0.03275785595178604,
            -0.006595136132091284,
            -0.07250779867172241,
            0.07794688642024994,
            -0.01331174187362194,
            0.06497939676046371,
            -0.015435502864420414,
            -0.1276007741689682,
            0.05101459100842476,
            -0.07395026832818985,
            -0.018469370901584625,
            0.032799843698740005,
            -0.07818643003702164,
            -0.07661134004592896,
            -0.11343492567539215,
            0.11903247237205505,
            0.05830739438533783,
            0.01106048934161663,
            0.1143672987818718,
            -0.07775197178125381,
            -0.05918072536587715,
            -0.08677901327610016,
            -0.06928813457489014,
            -0.08974824100732803,
            -0.1124391183257103,
            0.02337808907032013,
            -0.06815371662378311,
            -0.048703715205192566,
            0.11749117821455002,
            0.004092634655535221,
            -0.11934593319892883,
            -0.11162362992763519,
            -0.0437902994453907,
            0.04863320663571358,
            0.07494581490755081,
            -0.013835147954523563,
            -0.058387868106365204,
            0.08790403604507446,
            -0.08204054087400436,
            -0.00024560483871027827,
            0.02637457475066185,
            -0.015258335508406162,
            -0.0219829473644495,
            0.10590484738349915,
            0.1283593475818634,
            0.07438110560178757,
            0.11654828488826752,
            0.07000384479761124,
            0.003563330741599202,
            -0.09298499673604965,
            -0.0611397922039032,
            -0.016292603686451912,
            0.010753221809864044,
            -0.11535254120826721,
            -0.010925177484750748,
            0.07722044736146927,
            0.08459434658288956,
            -0.048619404435157776,
            -0.10467512160539627,
            0.11226492375135422,
            -0.10181216150522232,
            -0.07092569768428802,
            0.09205325692892075,
            0.013219818472862244,
            0.08503832668066025,
            -0.05035310983657837,
            -0.09878147393465042,
            -0.01794588379561901,
            -0.033658359199762344,
            0.00621388666331768,
            0.07718128710985184,
            -0.11610700190067291,
            -0.11097708344459534,
            -0.10477611422538757,
            -0.04922571778297424,
            -0.11437251418828964,
            -0.015828747302293777,
            0.02955780178308487,
            0.07254671305418015,
            0.10913542658090591,
            0.08847396075725555,
            -0.11324208229780197,
            -0.11020822077989578,
            0.02438279800117016,
            0.007554247044026852,
            -0.11340037733316422,
            0.0052561210468411446,
            0.007424881216138601,
            0.07726766169071198,
            0.05136669799685478,
            0.09988310933113098,
            0.03318951278924942,
            0.08358736336231232,
            0.04599671810865402,
            -0.04528041556477547,
            0.09802202135324478,
            0.10468737035989761,
            -0.1149761974811554,
            -0.06138148903846741,
            0.036673929542303085,
            0.038418374955654144,
            0.08536435663700104,
            0.04699283838272095,
            -0.09068866819143295,
            0.07475723326206207,
            -0.014518861658871174,
            -0.0014657616848126054,
            -0.061325885355472565,
            -0.09684933722019196,
            0.002409926848486066,
            0.03572705760598183,
            -0.10936905443668365,
            -0.015269843861460686,
            -0.09970346093177795,
            0.09917940944433212,
            -0.08013003319501877,
            0.04290569946169853,
            -0.09037229418754578,
            -0.0509379580616951,
            -0.05160612612962723,
            0.07349070906639099,
            0.1007649153470993,
            -0.011865204200148582,
            -0.03788959980010986,
            0.05201869085431099,
            0.00454095471650362,
            -0.009775864891707897,
            -0.0680088996887207,
            0.05350378155708313,
            -0.037728771567344666,
            -0.02594848722219467,
            0.1003512367606163,
            -0.10435337573289871,
            0.049018628895282745,
            0.05632133409380913,
            0.045712824910879135,
            -0.039565328508615494,
            -0.06588895618915558,
            0.10021728277206421,
            -0.08497030287981033,
            -0.0663619413971901,
            0.11452295631170273,
            -0.01922215335071087,
            0.027021583169698715,
            0.12943509221076965,
            0.08244860917329788,
            0.10790471732616425,
            0.07800190150737762,
            -0.053025323897600174,
            -0.09654794633388519,
            0.023508034646511078,
            -0.02215755358338356,
            -0.04472588747739792,
            0.0413532555103302,
            -0.09762148559093475,
            0.041625868529081345,
            0.10650786012411118,
            -0.022575313225388527,
            -0.1141899824142456,
            0.033670973032712936,
            -0.04505770280957222,
            -0.09712542593479156,
            0.14648395776748657,
            0.005610731430351734,
            0.13777031004428864,
            -0.032895851880311966,
            0.07651346921920776,
            -0.1352003514766693,
            -0.09694771468639374,
            -0.08217780292034149,
            -0.07483036816120148,
            0.12735511362552643,
            -0.01722864620387554,
            -0.053853169083595276,
            -0.08852286636829376,
            0.025792866945266724,
            -0.06985624879598618,
            -0.030880892649292946,
            -0.09582637250423431,
            0.10896726697683334,
            -0.12539441883563995,
            0.052167877554893494,
            0.10950613021850586,
            -0.030798792839050293,
            0.033604808151721954,
            -0.0949118360877037,
            -0.04581020027399063,
            0.004400480072945356,
            0.02932560443878174,
            0.03242276981472969,
            -0.09421754628419876,
            0.05005061253905296,
            0.06118200346827507,
            0.046527937054634094,
            -0.037270087748765945,
            -0.004418275319039822,
            -0.03365940600633621,
            0.05720757320523262,
            -0.0402105450630188,
            0.1248389482498169,
            -0.07435140013694763,
            -0.013692202046513557,
            -0.026589306071400642,
            -0.1156603991985321,
            0.016966257244348526,
            0.09889287501573563,
            -0.10580579936504364,
            -0.027856027707457542,
            0.03411193937063217,
            -0.06039229780435562,
            0.061550188809633255,
            -0.0006607354735024273,
            0.10849019885063171,
            0.1170509085059166,
            -0.10329478234052658,
            0.08104193955659866,
            -0.11514436453580856,
            0.056382812559604645,
            0.029669493436813354,
            0.028402186930179596,
            0.0034745438024401665,
            -0.005531547125428915,
            -0.02880064770579338,
            -0.1137470006942749,
            -0.05006572604179382,
            -0.0205953661352396,
            0.032675158232450485,
            -0.07299778610467911,
            -0.022584712132811546,
            0.017920861020684242,
            -0.033661555498838425,
            -0.06243666261434555,
            -0.10613160580396652,
            0.034570250660181046,
            -0.10725261270999908,
            -0.0889272689819336,
            0.10582077503204346,
            -0.0950256809592247,
            -0.030326994135975838,
            -0.0025593270547688007,
            -0.04227937012910843,
            0.02044089138507843,
            0.1139439046382904,
            0.043337613344192505,
            0.07404325902462006,
            0.0312962532043457,
            0.020947201177477837,
            -0.008647458627820015,
            -0.04693528264760971,
            -0.10130637139081955,
            -0.025745650753378868,
            -0.08813722431659698,
            0.08949650824069977,
            0.06349433958530426,
            -0.004568347707390785,
            0.06484722346067429,
            -0.07374484091997147,
            -0.08280564099550247,
            0.08821562677621841,
            0.13721732795238495,
            -0.051469940692186356,
            0.09362678974866867,
            0.019901657477021217,
            -0.05865972489118576,
            -0.08551157265901566,
            0.04973698779940605,
            -0.09712223708629608,
            0.07511519640684128,
            -0.005285521037876606,
            0.05746868625283241,
            -0.07788407057523727,
            -0.018156245350837708,
            0.12201230973005295,
            -0.03571159392595291,
            -0.02433309517800808,
            0.05626248940825462,
            -0.0689024105668068,
            -0.07098454982042313,
            -0.07502668350934982,
            -0.09058626741170883,
            -0.0734814777970314,
            0.07236768305301666,
            -0.04247722402215004,
            -0.036584511399269104,
            0.09370166063308716,
            -0.031081460416316986,
            -0.13027890026569366,
            0.045929908752441406,
            0.0014982211869210005,
            -0.0263381227850914,
            0.01561417430639267,
            0.07630541920661926,
            0.06324406713247299,
            0.08749821782112122,
            -0.040841471403837204,
            0.10612265765666962,
            0.017207786440849304,
            -0.008869155310094357,
            0.1306191235780716,
            0.04540456458926201,
            -0.06794461607933044,
            -0.04922321066260338,
            0.0293306652456522,
            -0.09116213023662567,
            -0.05780480057001114,
            0.0799281895160675,
            0.05311466380953789,
            0.1074972078204155,
            0.10897523909807205,
            0.06818602979183197,
            -0.024421442300081253,
            0.020531225949525833,
            0.022029036656022072,
            0.08877458423376083,
            0.032918307930231094,
            -0.03534577786922455,
            -0.05816366896033287,
            -0.04344838485121727,
            0.004329317715018988,
            -0.05424673482775688,
            -0.04032304510474205,
            -0.11699548363685608,
            0.07975421100854874,
            -0.13321243226528168,
            -0.10054775327444077,
            0.06386291235685349,
            0.022901682183146477,
            -0.017568005248904228,
            -0.010167427361011505,
            0.087925024330616,
            0.07097795605659485,
            0.047354213893413544,
            0.05517847463488579,
            -0.08266616612672806,
            -0.09562806785106659,
            -0.10957963019609451,
            0.10424412041902542,
            0.065784752368927,
            -0.043525684624910355,
            -0.05954335257411003,
            0.09402807056903839,
            -0.007323467638343573,
            0.08593171834945679,
            0.11610227823257446,
            0.006808842532336712,
            -0.11744454503059387,
            0.002917018486186862,
            -0.02610447257757187,
            0.08779926598072052,
            0.052391741424798965,
            -0.025611555203795433,
            0.0020831641741096973,
            0.10505818575620651,
            -0.013833294622600079,
            -0.03902739658951759,
            0.03151612728834152,
            -0.023926125839352608,
            -0.011630813591182232,
            -0.030628308653831482,
            0.07570447772741318,
            0.07575606554746628,
            -0.08230578899383545,
            -0.07864586263895035,
            -0.048266369849443436,
            0.09835271537303925,
            -0.07238399982452393,
            0.09304716438055038,
            0.03561259061098099,
            0.08539526909589767,
            -0.047645483165979385,
            -0.08043111115694046,
            0.005565686617046595,
            0.06978635489940643,
            -0.01828746870160103,
            -0.004976307973265648,
            0.021249791607260704,
            -0.01557804737240076,
            -0.007274157367646694,
            0.07726600766181946,
            0.007234588731080294,
            0.04555937275290489,
            0.01962234266102314,
            0.08190441876649857,
            0.06488767266273499,
            0.11591439694166183,
            -0.06838082522153854,
            0.12524288892745972,
            -0.09962576627731323,
            -0.04225490242242813,
            -0.09994874894618988,
            -0.05695391446352005,
            0.04068630561232567,
            -0.011410730890929699,
            0.08890481293201447,
            0.06430034339427948,
            0.05847351625561714,
            -0.008894460275769234,
            0.09814000874757767,
            -0.050731245428323746,
            0.07244265824556351,
            0.03566420078277588,
            0.08524958044290543,
            -0.08485237509012222,
            0.0011341555509716272,
            -0.03662365302443504,
            -0.10452064871788025,
            -0.021071389317512512,
            0.10743867605924606,
            -0.03821368142962456,
            -0.06430529803037643,
            -0.1291007697582245,
            0.0017111219931393862,
            0.011597285978496075,
            -0.10995635390281677,
            0.12834499776363373,
            -0.07009923458099365,
            0.06473232805728912,
            -0.1066633015871048,
            -0.06594482064247131,
            0.11813201010227203,
            -0.011395163834095001,
            -0.016320519149303436,
            -0.11650269478559494,
            0.04319057613611221,
            0.10607754439115524,
            -0.03348497673869133,
            0.005982749164104462,
            0.11869482696056366,
            0.020775288343429565,
            -0.04477737098932266,
            -0.0863373801112175,
            -0.12902460992336273,
            0.08824749290943146,
            0.036509107798337936,
            -0.07498873025178909,
            0.036611586809158325,
            -0.0822095200419426,
            -0.0665433332324028,
            -0.005536707583814859,
            0.08339301496744156,
            -0.09652639925479889,
            -0.07464444637298584,
            -0.0384095273911953,
            0.09176040440797806,
            0.06286508589982986,
            -0.050727784633636475,
            0.048398446291685104,
            -0.034418877214193344,
            -0.06361763179302216,
            0.11695846915245056,
            -0.023182488977909088,
            0.11468620598316193,
            -0.05657995864748955,
            0.09098543971776962,
            0.040517352521419525,
            0.041979897767305374,
            -0.056049101054668427,
            -0.017304399982094765,
            -0.05803524702787399,
            -0.023849118500947952,
            0.08642571419477463,
            0.10976079851388931,
            -0.03017282299697399,
            0.030107125639915466,
            0.03171734884381294,
            0.03503868356347084,
            -0.024100642651319504,
            0.08341220766305923,
            0.04465671256184578,
            -0.028402065858244896,
            -0.0770525336265564,
            -0.0252578966319561,
            -0.04264558106660843,
            0.114067442715168,
            -0.04640541970729828,
            -0.038841284811496735,
            0.01889466680586338,
            -0.0704425573348999,
            -0.009242750704288483,
            0.049277301877737045,
            -0.030643664300441742,
            0.08655707538127899,
            0.0429944172501564,
            -0.026006020605564117,
            -0.08037009090185165,
            -0.060201432555913925,
            -0.05983235687017441,
            0.14149141311645508,
            0.003358672372996807,
            0.0985276848077774,
            -0.056835152208805084,
            -0.03952569514513016,
            -0.10399854928255081,
            0.10988859087228775,
            -0.053322359919548035,
            -0.007399715017527342,
            0.027684196829795837,
            0.06184881180524826,
            -0.04009266197681427,
            -0.06540872156620026,
            0.050169508904218674,
            0.0034135067835450172,
            0.08822470903396606,
            -0.0749460980296135,
            -0.09795261174440384,
            -0.06588786840438843,
            -0.09101872891187668,
            0.03328894078731537,
            -0.06568197906017303,
            -0.030940091237425804,
            0.09958020597696304,
            0.0012511463137343526,
            -0.09830319136381149,
            -0.07311102002859116,
            0.026605971157550812,
            -0.08027452230453491,
            0.06020096689462662,
            -0.0640888512134552,
            0.04010904207825661,
            0.015749769285321236,
            -0.03681090474128723,
            -0.06278900057077408,
            -0.07864436507225037,
            -0.11584512144327164,
            0.1135510578751564,
            0.02005523070693016,
            0.08067914843559265,
            0.0878046378493309,
            -0.11603783816099167,
            0.07144638895988464,
            0.10403793305158615,
            0.10420077294111252,
            0.10288937389850616,
            0.03137880563735962,
            0.044139668345451355,
            0.10391377657651901,
            -0.05246415734291077,
            -0.09348591417074203,
            -0.0127740278840065,
            -0.0925278514623642,
            -0.03763092681765556,
            -0.033856477588415146,
            0.07653709501028061,
            -0.08850729465484619,
            0.08186006546020508,
            0.022931959480047226,
            0.05613870546221733,
            0.09163952618837357,
            -0.0289897583425045,
            0.053265612572431564,
            -0.06917576491832733,
            0.06019914895296097,
            0.007676816079765558,
            0.07496161758899689,
            -0.11843446642160416,
            0.03487735614180565,
            -0.028097815811634064,
            -0.10158839821815491,
            -0.068985715508461,
            -0.102778859436512,
            -0.1021801084280014,
            -0.034459952265024185,
            0.014976282604038715,
            0.012715376913547516,
            0.042122554033994675,
            -0.10284682363271713,
            -0.018825387582182884,
            0.034979432821273804,
            0.08051904290914536,
            0.12716124951839447,
            -0.0767747312784195,
            -0.0909196212887764,
            -0.02838272973895073,
            0.029990432783961296,
            -0.06045258045196533,
            0.028167692944407463,
            0.0022418585140258074,
            0.11679992079734802,
            -0.1089526116847992,
            -0.017008885741233826,
            0.05252512916922569,
            0.06799237430095673,
            -0.02257417142391205,
            0.1284802258014679,
            -0.11532441526651382,
            0.012080138549208641,
            0.0983155369758606,
            -0.08021435886621475,
            0.07004953175783157,
            -0.02996744215488434,
            -0.07182951271533966,
            -0.09475850313901901,
            -0.09883219748735428,
            -0.02741703949868679,
            -0.005381401628255844,
            -0.047306325286626816,
            -0.07752502709627151,
            -0.06581392139196396,
            -0.028113603591918945,
            -0.10324987769126892,
            0.07677984982728958,
            0.05933353304862976,
            0.01817028596997261,
            0.07414484024047852,
            0.004949051886796951,
            -0.049102235585451126,
            0.04802108183503151,
            0.08571048825979233,
            0.051791805773973465,
            0.0690520703792572,
            0.006868645548820496,
            -0.04615695774555206,
            0.1096053272485733,
            0.08731337636709213,
            -0.02320554479956627,
            0.010305303148925304,
            0.0717347040772438,
            0.018055206164717674,
            -0.09131772071123123,
            -0.05426682531833649,
            -0.08854948729276657,
            -0.09965398907661438,
            -0.024799449369311333,
            -0.008969133719801903,
            0.10849905014038086,
            0.12515687942504883,
            0.041021957993507385,
            0.10667175054550171,
            -0.1171674132347107,
            0.03996018320322037,
            -0.032067425549030304,
            0.07322312146425247,
            -0.03833507001399994,
            -0.0636071190237999,
            0.0968647226691246,
            0.03291918709874153,
            0.009065752848982811,
            -0.052473898977041245,
            0.1320791244506836,
            -0.029681958258152008,
            -0.11116766929626465,
            -0.1143844872713089,
            -0.01858825981616974,
            -0.06043164059519768,
            0.08416721969842911,
            -0.0075760334730148315,
            0.05660001561045647,
            -0.10396388173103333,
            -0.05781898275017738,
            -0.08929769694805145,
            0.07222206890583038,
            0.03273206949234009,
            0.11455687880516052,
            0.10691779851913452,
            0.03333296626806259,
            -0.02152557298541069,
            0.01861276477575302,
            0.11135701090097427,
            -0.11445903778076172,
            0.07828070968389511,
            -0.02090306580066681,
            -0.08736282587051392,
            -0.1177266538143158,
            -0.09186968952417374,
            0.10860475897789001,
            0.08881025016307831,
            0.02038765326142311,
            0.06888113915920258,
            -0.06918369233608246,
            0.0820065438747406,
            0.008538435213267803,
            -0.05514765903353691,
            0.04887187108397484,
            -0.06535770744085312,
            0.06480291485786438,
            -0.11826655268669128,
            -0.05698036774992943,
            -0.09868741035461426,
            -0.07180716097354889,
            0.0469299741089344,
            0.09552627056837082,
            -0.01597956195473671,
            -0.09174545109272003,
            0.048741310834884644,
            0.10922527313232422,
            0.108499675989151,
            0.10106969624757767,
            0.02621711976826191,
            -0.09922624379396439,
            -0.01729806698858738,
            0.02453852817416191,
            0.13277168571949005,
            0.10263347625732422,
            -0.003691416932269931,
            0.09029191732406616,
            -0.11910036206245422,
            -0.046346716582775116,
            -0.05784446373581886,
            -0.06124117225408554,
            0.057414062321186066,
            -0.056170422583818436,
            0.09403928369283676,
            -0.03301658481359482,
            0.039601534605026245,
            -0.027206294238567352,
            0.050237756222486496,
            0.09444203972816467,
            0.01625029742717743,
            0.03362929821014404,
            0.07770777493715286,
            0.09181754291057587,
            -0.007339151110500097,
            -0.010814670473337173,
            -0.02926098182797432,
