{
    "input_shape": [
        null,
        19
    ],
    "output_shape": [
        null,
        1
    ],
    "activations": "Relu",
    "layers": {
        "layers.0": {
            "weight": [
                -0.2441481053829193,
                0.09131581336259842,
                0.1681654453277588,
                -0.12022101879119873,
                0.22369445860385895,
                -0.23415721952915192,
                -0.1893661469221115,
                -0.12508152425289154,
                -0.04699169471859932,
                0.24505813419818878,
                -0.05105460435152054,
                -0.07151148468255997,
                0.15378883481025696,
                0.03789123147726059,
                0.057439520955085754,
                0.16441795229911804,
                0.15807433426380157,
                0.07953239977359772,
                0.12208224833011627,
                0.07497937977313995,
                0.11977709829807281,
                0.09351854771375656,
                -0.022372480481863022,
                -0.09679839015007019,
                0.09860455989837646,
                -0.17682144045829773,
                -0.13351167738437653,
                0.012554673478007317,
                0.22306089103221893,
                0.12693142890930176,
                -0.010788658633828163,
                -0.16989997029304504,
                -0.1799178570508957,
                0.1590287834405899,
                0.021908584982156754,
                0.15325897932052612,
                -0.17122970521450043,
                0.09025979042053223,
                -0.12582498788833618,
                0.21244356036186218,
                0.011507265269756317,
                -0.06570778787136078,
                0.05379452928900719,
                -0.05454152449965477,
                -0.04129898175597191,
                -0.021731553599238396,
                -0.1579182893037796,
                0.03572338446974754,
                -0.02674623765051365,
                0.21298624575138092,
                0.12799397110939026,
                0.11812323331832886,
                0.05016085132956505,
                0.076601542532444,
                -0.25472626090049744,
                -0.13191597163677216,
                -0.2785453796386719,
                0.09827256947755814,
                0.05831855908036232,
                -0.18360550701618195,
                0.16369615495204926,
                0.22820274531841278,
                0.08087092638015747,
                -0.2072908729314804,
                -0.1187429428100586,
                -0.03295677527785301,
                0.023829123005270958,
                0.2279428243637085,
                -0.021213097497820854,
                -0.06152692064642906,
                0.21279597282409668,
                0.16141723096370697,
                0.16426466405391693,
                -0.2311035394668579,
                -0.2037784904241562,
                0.0025291696656495333,
                -0.07900530099868774,
                0.12875863909721375,
                -0.008007463067770004,
                -0.07492023706436157,
                0.08542385697364807,
                -0.13137775659561157,
                0.1172804906964302,
                -0.2069767862558365,
                0.1632394790649414,
                -0.10455199331045151,
                0.12201085686683655,
                -0.20044295489788055,
                -0.04276542738080025,
                0.182228222489357,
                -0.030416075140237808,
                0.07770933210849762,
                -0.15061284601688385,
                0.08397170901298523,
                0.16629795730113983,
                0.09994063526391983,
                -0.04768017679452896,
                0.14740818738937378,
                -0.0755600705742836,
                0.08703874796628952,
                0.1809256672859192,
                0.1476449817419052,
                -0.08060761541128159,
                -0.15627747774124146,
                -0.09780748188495636,
                -0.0885230153799057,
                -0.2034584879875183,
                0.08877985179424286,
                -0.15484021604061127,
                0.009836207143962383,
                0.16146157681941986,
                0.09495373070240021,
                -0.21477027237415314,
                0.10902127623558044,
                -0.06571987271308899,
                -0.004291689023375511,
                -0.13854332268238068,
                -0.038920022547245026,
                0.2034042626619339,
                -0.11732369661331177,
                0.07556591928005219,
                -0.08400692045688629,
                0.0970226526260376,
                0.07956401258707047,
                -0.14677928388118744,
                0.004425315652042627,
                -0.19222067296504974,
                -0.11009827256202698,
                -0.034061238169670105,
                -0.10063978284597397,
                -0.15050217509269714,
                0.05912304297089577,
                -0.3083309233188629,
                0.13479743897914886,
                0.0028139175847172737,
                -0.2155042588710785,
                -0.2032543569803238,
                0.07500316947698593,
                0.18014688789844513,
                0.058172982186079025,
                0.18127389252185822,
                0.09127377718687057,
                0.1374434530735016,
                -0.11549517512321472,
                -0.001394126913510263,
                -0.02248903177678585,
                -0.2286044806241989,
                0.007881778292357922,
                0.2169109582901001,
                -0.11496163159608841,
                0.15623235702514648,
                0.19701501727104187,
                0.10396809875965118,
                -0.2085706889629364,
                0.1940382570028305,
                -0.20249593257904053,
                0.052932679653167725,
                -0.03349554166197777,
                0.05804367735981941,
                -0.18658621609210968,
                -0.18372505903244019,
                0.06814548373222351,
                -0.09913235902786255,
                0.07556494325399399,
                0.12080784142017365,
                0.00825444795191288,
                0.09003806114196777,
                -0.0416986308991909,
                0.03723961114883423,
                0.008433420211076736,
                0.015483289025723934,
                -0.2066372185945511,
                0.2194279581308365,
                -0.047456029802560806,
                -0.06530660390853882,
                0.1521075814962387,
                -0.1584443897008896,
                0.13634951412677765,
                -0.16340729594230652,
                0.03618746995925903,
                0.2179940938949585,
                0.18757055699825287,
                -0.1513400822877884,
                -0.002803466282784939,
                0.10607185959815979,
                0.21593961119651794,
                0.013420470058918,
                -0.12225953489542007,
                -0.24084459245204926,
                -0.03689776733517647,
                0.13647517561912537,
                -0.2003670483827591,
                -0.024102458730340004,
                0.04271894693374634,
                0.22857291996479034,
                -0.08005386590957642,
                0.22595170140266418,
                0.21990148723125458,
                0.17202678322792053,
                0.20821386575698853,
                -0.09447304904460907,
                -0.12959162890911102,
                -0.017098402604460716,
                -0.03547767549753189,
                0.0043372297659516335,
                0.0003379252157174051,
                0.07012983411550522,
                0.04533186927437782,
                0.12046675384044647,
                0.06740949302911758,
                -0.19573751091957092,
                -0.08129933476448059,
                -0.13003286719322205,
                -0.04787738621234894,
                0.21190857887268066,
                0.024254601448774338,
                -0.14334532618522644,
                -0.1369844675064087,
                -0.0808216854929924,
                0.042184531688690186,
                -0.02548757568001747,
                0.12545378506183624,
                -0.003144984133541584,
                -0.08315729349851608,
                -0.09654153138399124,
                -0.09276451915502548,
                0.1501532644033432,
                -0.003890779335051775,
                0.12927795946598053,
                -0.1358991265296936,
                -0.18488037586212158,
                -0.14197556674480438,
                -0.08709883689880371,
                -0.04743081331253052,
                -0.11332479119300842,
                -0.0074407621286809444,
                0.018858695402741432,
                0.046513982117176056,
                -0.06069262698292732,
                0.025868525728583336,
                -0.15590211749076843,
                0.21287037432193756,
                -0.13271470367908478,
                0.11911016702651978,
                0.2522464394569397,
                0.2231425940990448,
                -0.05096932500600815,
                0.07330173254013062,
                0.005274544004350901,
                0.2099466770887375,
                0.18737690150737762,
                -0.21868403255939484,
                0.1426597237586975,
                0.1416144073009491,
                0.09610398858785629,
                -0.16692732274532318,
                0.07783234864473343,
                -0.08646073937416077,
                -0.18701666593551636,
                -0.08095145970582962,
                0.01063154824078083,
                0.08944174647331238,
                -0.15126807987689972,
                -0.004189293831586838,
                0.12800438702106476,
                0.09566625207662582,
                -0.14200875163078308,
                0.22602726519107819,
                0.1708160787820816,
                0.16064880788326263,
                -0.10219556093215942,
                0.0806337371468544,
                -0.09649547189474106,
                0.046553414314985275,
                0.07415568083524704,
                -0.058567196130752563,
                0.06271485239267349,
                0.1049763485789299,
                0.07659532129764557,
                -0.14722326397895813,
                -0.013618698343634605,
                -0.13812033832073212,
                -0.048163753002882004,
                -0.21853715181350708,
                0.33452916145324707,
                0.13921432197093964,
                0.21207931637763977,
                -0.12983714044094086,
                0.11463958024978638,
                -0.03568059951066971,
                0.12257218360900879,
                0.18793633580207825,
                -0.022210555151104927,
                -0.22653760015964508,
                0.19983942806720734,
                0.03603879362344742,
                0.08472645282745361,
                -0.17514674365520477,
                -0.13066890835762024,
                0.20603877305984497,
                0.045373205095529556,
                0.052491214126348495,
                0.09688243269920349,
                0.17628125846385956,
                0.20963791012763977,
                0.09473853558301926,
                0.12522359192371368,
                0.037600889801979065,
                -0.09917344897985458,
                0.01003990788012743,
                -0.14503450691699982,
                -0.2336553931236267,
                -0.18973711133003235,
                -0.10587581992149353,
                0.13126413524150848,
                0.08308719098567963,
                -0.1657296121120453,
                0.21380536258220673,
                -0.10498011857271194,
                -0.07852225750684738,
                -0.2676681578159332,
                -0.26274317502975464,
                -0.08424320071935654,
                0.09961306303739548,
                0.04963073134422302,
                -0.05346446484327316,
                0.08353746682405472,
                -0.1862008422613144,
                0.051882971078157425,
                0.11876185238361359,
                0.22500216960906982,
                0.17536520957946777,
                -0.09687259793281555,
                -0.02074430137872696,
                0.22115793824195862,
                0.0742473378777504,
                0.23233801126480103,
                -0.14912961423397064,
                -0.22491022944450378,
                0.08388441056013107,
                -0.19184798002243042,
                -0.053462542593479156,
                0.01548829022794962,
                0.13614647090435028,
                -0.05762028694152832,
                0.20840731263160706,
                -0.00012418710684869438,
                0.20789776742458344,
                0.2072562873363495,
                -0.19497720897197723,
                -0.17486058175563812,
                0.05193586274981499,
                -0.2169651985168457,
                0.231844961643219,
                -0.17120465636253357,
                -0.04956949129700661,
                0.1817052960395813,
                -0.06380200386047363,
                -0.2474595308303833,
                -0.007596741896122694,
                -0.1089266687631607,
                -0.05360979214310646,
                -0.21999162435531616,
                0.1445402055978775,
                -0.14273935556411743,
                0.2010677456855774,
                0.06152697652578354,
                -0.09043571352958679,
                0.21958059072494507,
                -0.013359678909182549,
                -0.008690541610121727,
                -0.11760024726390839,
                -0.14671486616134644,
                -0.12166574597358704,
                0.12360584735870361,
                -0.0889320895075798,
                0.14523498713970184,
                0.2692567706108093,
                -0.042475342750549316,
                -0.2533596158027649,
                0.22629374265670776,
                0.2180791050195694,
                0.11266468465328217,
                0.16197912395000458,
                0.0053718783892691135,
                -0.17681466042995453,
                0.05704408511519432,
                -0.05795956030488014,
                0.12261712551116943,
                -0.10250726342201233,
                0.020043687894940376,
                0.22802111506462097,
                0.17132101953029633,
                -0.04963592067360878,
                0.06950271129608154,
                0.17363913357257843,
                0.011130468919873238,
                0.28024914860725403,
                0.15286003053188324,
                -0.22404667735099792,
                0.12250255793333054,
                -0.17670482397079468,
                0.22636263072490692,
                -0.03693157061934471,
                0.052641063928604126,
                0.19403526186943054,
                -0.05419343337416649,
                -0.1475631445646286,
                -0.06074618548154831,
                -0.13927336037158966,
                0.05301656574010849,
                -0.13250795006752014,
                -0.15902480483055115,
                0.1108633503317833,
                0.09109397977590561,
                -0.21958403289318085,
                -0.163982093334198,
                0.13149140775203705,
                0.10350055992603302,
                -0.04926595464348793,
                0.023738056421279907,
                -0.12251021713018417,
                0.11977828294038773,
                -0.12525437772274017,
                -0.20285283029079437,
                0.20877064764499664,
                -0.15139362215995789,
                -0.14803184568881989,
                -0.12963730096817017,
                -0.15936161577701569,
                0.1217208281159401,
                -0.18933387100696564,
                0.12100283056497574,
                -0.1453908532857895,
                0.14433395862579346,
                -0.08136190474033356,
                0.07226496189832687,
                0.006154093891382217,
                -0.11204405874013901,
                0.22939567267894745,
                0.1955605298280716,
                -0.13377393782138824,
                -0.1175355538725853,
                0.06356607377529144,
                -0.03245124593377113,
                0.033720631152391434,
                -0.11283141374588013,
                -0.07334800064563751,
                0.19077658653259277,
                0.03853417560458183,
                0.17047353088855743,
                -0.08598954975605011,
                -0.1526738554239273,
                0.16618497669696808,
                0.20434938371181488,
                0.16364634037017822,
                0.21052180230617523,
                -0.06232772022485733,
                0.1456630378961563,
                -0.18549560010433197,
                -0.057044100016355515,
                0.20104239881038666,
                0.06850399821996689,
                -0.11015594750642776,
                -0.15809591114521027,
                -0.19868728518486023,
                0.2273002415895462,
                0.008588356897234917,
                0.10016592592000961,
                0.22227798402309418,
                0.1814413070678711,
                -0.10431887209415436,
                -0.32025763392448425,
                -0.004498595371842384,
                -0.006455190479755402,
                -0.039423130452632904,
                -0.1614571064710617,
                0.20813001692295074,
                -0.21025028824806213,
                0.19617269933223724,
                -0.01948489621281624,
                0.037145860493183136,
                0.1471070796251297,
                -0.04839063063263893,
                0.1587654948234558,
                -0.06461519747972488,
                -0.12037571519613266,
                0.19533930718898773,
                -0.23276227712631226,
                0.0023604186717420816,
                0.17526546120643616,
                0.14116330444812775,
                -0.05588403344154358,
                -0.0943857952952385,
                -0.09875278919935226,
                0.14043810963630676,
                -0.14468279480934143,
                0.07455471903085709,
                -0.07166478037834167,
                0.0021383240818977356,
                0.21831391751766205,
                0.13516107201576233,
                -0.12351204454898834,
                -0.10498104244470596,
                -0.0783746987581253,
                -0.023368926718831062,
                -0.08272142708301544,
                -0.0009270163718611002,
                0.0798342376947403,
                0.15153251588344574,
                0.1914837658405304,
                -0.08939393609762192,
                -0.2675483226776123,
                -0.2029188573360443,
                0.2394670844078064,
                -0.22548778355121613,
                0.0005970108904875815,
                0.06655532121658325,
                -0.023319395259022713,
                -0.03329984098672867,
                0.23613789677619934,
                -0.01644674688577652,
                -0.14099711179733276,
                -0.13458265364170074,
                0.09725011140108109,
                -0.2082163393497467,
                0.12646359205245972,
                0.22398412227630615,
                0.0063405875116586685,
                0.19543226063251495,
                -0.042764049023389816,
                0.060520365834236145,
                0.15645194053649902,
                -0.021690964698791504,
                0.13364091515541077,
                -0.15164320170879364,
                -0.1647384613752365,
                -0.1418839395046234,
                0.14331890642642975,
                -0.1323373019695282,
                -0.07491087168455124,
                0.13316553831100464,
                -0.08265044540166855,
                -0.12204945087432861,
                0.199539452791214,
                -0.07419060170650482,
                -0.11227098107337952,
                0.10748741775751114,
                -0.1734592467546463,
                0.0077352155931293964,
                -0.30580228567123413,
                -0.016132201999425888,
                0.07984377443790436,
                0.15970420837402344,
                0.12864598631858826,
                -0.1369708925485611,
                0.07221273332834244,
                0.09726545959711075,
                -0.14015622437000275,
                0.06030024215579033,
                0.1688893437385559,
                -0.1006697490811348,
                -0.1698683649301529,
                0.18137063086032867,
                0.1267739236354828,
                -0.036633335053920746,
                0.05274621397256851,
                -0.09324371069669724,
                -0.05351665988564491,
                0.04693575203418732,
                0.19217081367969513,
                0.08982235938310623,
                0.183196023106575,
                0.008291549980640411,
                0.2155577540397644,
                -0.033791642636060715,
                -0.055266156792640686,
                0.00038435193710029125,
                0.13390637934207916,
                -0.02601904794573784,
                -0.18108288943767548,
                0.15018901228904724,
                -0.17569082975387573,
                0.016682524234056473,
                -0.203420028090477,
                -0.020611466839909554,
                -0.2925482392311096,
                -0.15872134268283844,
                -0.25100505352020264,
                0.2080835998058319,
                0.15208661556243896,
                0.17787478864192963,
                0.17280450463294983,
                -0.028718749061226845,
                0.11844184249639511,
                0.22172105312347412,
                0.08231426030397415,
                0.1490589678287506,
                0.15517263114452362,
                0.10713157802820206,
                -0.06824135780334473,
                0.1375502198934555,
                -0.02240799181163311,
                0.22131550312042236,
                0.07507042586803436,
                0.19994212687015533,
                0.159859761595726,
                0.2915823459625244,
                -0.1884230673313141,
                0.024177685379981995,
                0.031548287719488144,
                0.0595518983900547,
                -0.21293014287948608,
                -0.20673392713069916,
                -0.13444221019744873,
                -0.05752688646316528,
                0.08510904759168625,
                0.06851538270711899,
                0.1870822161436081,
                0.21318937838077545,
                0.09177068620920181,
                0.013213902711868286,
                -0.0627875030040741,
                -0.09089238941669464,
                0.12542317807674408,
                -0.10687131434679031,
                -0.1021767407655716,
                0.029778042808175087,
                -0.08679081499576569,
                -0.14540986716747284,
                -0.12976808845996857,
                -0.06354168802499771,
                -0.22178812325000763,
                -0.1105244904756546,
                0.09352041035890579,
                0.18932083249092102,
                -0.22283609211444855,
                -0.03605036437511444,
                -0.06537112593650818,
                -0.20203813910484314,
                -0.11526156961917877,
                0.07185571640729904,
                0.09449861943721771,
                -0.04913555458188057,
                -0.05893073230981827,
                -0.17843542993068695,
                0.09282118082046509,
                -0.21136832237243652,
                0.029369093477725983,
                -0.15601421892642975,
                0.05640344321727753,
                0.16755226254463196,
                -0.01836320385336876,
                0.1269414871931076,
                -0.22928357124328613,
                -0.22622838616371155,
                -0.11514154821634293,
                0.17929725348949432,
                0.10598450899124146,
                -0.15179778635501862,
                -0.09749990701675415,
                -0.16775867342948914,
                -0.04412517696619034,
                0.01075600553303957,
                -0.13766390085220337,
                0.14494867622852325,
                0.18904536962509155,
                -0.1042204275727272,
                0.0922817662358284,
                -0.14528074860572815,
                0.08455541729927063,
                -0.011340418830513954,
                0.21903182566165924,
                -0.07281641662120819,
                0.1389607936143875,
                -0.10754060000181198,
                -0.11363417655229568,
                0.1275661438703537,
                -0.13892368972301483,
                -0.11156696081161499,
                -0.014035303145647049,
                0.24020877480506897,
                0.23285581171512604,
                -0.10483856499195099,
                0.07277294248342514,
                0.20202481746673584,
                0.14329257607460022,
                0.20846456289291382,
                0.024041734635829926,
                -0.20997700095176697,
                0.18740269541740417,
                0.09918800741434097,
                -0.0403982438147068,
                -0.041365161538124084,
                -0.1377580612897873,
                -0.10463473945856094,
                0.047081220895051956,
                -0.19866612553596497,
                -0.14490990340709686,
                0.18549111485481262,
                -0.210151806473732,
                -0.123590849339962,
                -0.20180916786193848,
                0.18624769151210785,
                0.14736086130142212,
                -0.06385169923305511,
                -0.1358046680688858,
                0.11567137390375137,
                -0.04187103360891342,
                0.22440743446350098,
                -0.15942811965942383,
                0.10396787524223328,
                -0.1333492398262024,
                0.1960594207048416,
                -0.13301391899585724,
                0.055746905505657196,
                0.20958532392978668,
                0.09105367213487625,
                0.22915585339069366,
                -0.11735396832227707,
                -0.1197652816772461,
                0.32339155673980713,
                -0.11704740673303604,
                0.1033381000161171,
                0.14674192667007446,
                -0.02925274521112442,
                0.09978098422288895,
                0.16277092695236206,
                -0.12229222804307938,
                -0.16434210538864136,
                -0.16460886597633362,
                -0.01704280823469162,
                0.03870116174221039,
                0.13147129118442535,
                -0.17394742369651794,
                -0.15598160028457642,
                0.08886630088090897,
                -0.011824700981378555,
                -0.2696150839328766,
                0.1081157848238945,
                0.21198493242263794,
                0.16773702204227448,
                -0.20948386192321777,
                -0.022911718115210533,
                -0.18280035257339478,
                -0.13009800016880035,
                0.1361197829246521,
                0.17830930650234222,
                -0.023483535274863243,
                0.012720983475446701,
                0.04458511620759964,
                0.03554365783929825,
                -0.20136888325214386,
                0.0762077048420906,
                -0.03502410650253296,
                0.0021110964007675648,
                -0.013303879648447037,
                -0.28188011050224304,
                -0.02027922496199608,
                -0.2661983072757721,
                0.14121520519256592,
                -0.004308341536670923,
                -0.06162998080253601,
                0.09326250851154327,
                -0.026601474732160568,
                0.2338716834783554,
                -0.02022763155400753,
                -0.12932205200195312,
                -0.18443940579891205,
                -0.04520363733172417,
                0.2151290625333786,
                0.06185906007885933,
                0.03851644694805145,
                -0.12902431190013885,
                -0.029496323317289352,
                -0.18940746784210205,
                0.10135103017091751,
                0.11545569449663162,
                -0.3046981990337372,
                0.020959235727787018,
                -0.2152966856956482,
                -0.15752378106117249,
                -0.18241319060325623,
                0.03275751322507858,
                -0.04999891668558121,
                0.06647229939699173,
                -0.2743341028690338,
                -0.1480589658021927,
                0.09606355428695679,
                0.16117419302463531,
                -0.11915634572505951,
                -0.08417312055826187,
                -0.08923754096031189,
                0.07170327752828598,
                -0.06920884549617767,
                -0.23903028666973114,
                0.016299981623888016,
                -0.1993020474910736,
                -0.09139391779899597,
                -0.21873190999031067,
                -0.02217596210539341,
                0.12656483054161072,
                0.1090243011713028,
                0.22416317462921143,
                0.04252365604043007,
                0.0649392232298851,
                0.03583728149533272,
                0.020318904891610146,
                -0.22615167498588562,
                -0.11099464446306229,
                0.13540250062942505,
                -0.19646649062633514,
                -0.0439763143658638,
                0.19048717617988586,
                0.2161378562450409,
                -0.023317158222198486,
                -0.03853517025709152,
                -0.02219686657190323,
                -0.22852110862731934,
                -0.08462411910295486,
                0.15556468069553375,
                -0.175886332988739,
                -0.07840677350759506,
                0.059532295912504196,
                -0.1615249514579773,
                -0.07988069206476212,
                -0.20194575190544128,
                0.05978231877088547,
                0.004061113577336073,
                -0.1567249894142151,
                -0.1253986805677414,
                0.15085794031620026,
                0.14043422043323517,
                0.16858859360218048,
                -0.16062031686306,
                0.07376988232135773,
                -0.17071688175201416,
                0.07706321775913239,
                -0.06632519513368607,
                -0.14714771509170532,
                0.11701305955648422,
                -0.19107350707054138,
                0.22246834635734558,
                -0.19843147695064545,
                -0.15936695039272308,
                0.13677115738391876,
                0.021825140342116356,
                0.02816404402256012,
                0.2163947969675064,
                0.21723642945289612,
                0.02438824623823166,
                0.1295274794101715,
                0.1602001041173935,
                0.045382652431726456,
                -0.15547709167003632,
                0.023958759382367134,
                -0.10038699954748154,
                -0.003182104555889964,
                -0.05804008990526199,
                -0.05230199173092842,
                -0.042574264109134674,
                -0.05193614587187767,
                -0.21788370609283447,
                -0.08143353462219238,
                -0.009640269912779331,
                -0.1555052399635315,
                0.06933789700269699,
                0.04230067506432533,
                0.0875500813126564,
                0.18135878443717957,
                0.21809826791286469,
                -0.12623532116413116,
                -0.0871964693069458,
                -0.14866968989372253,
                0.14451417326927185,
                -0.17444518208503723,
                -0.12986406683921814,
                0.16784602403640747,
                0.16295376420021057,
                -0.05138860642910004,
                -0.17034628987312317,
                0.14705756306648254,
                -0.04481770470738411,
                -0.00025318615371361375,
                0.18860994279384613,
                0.1803123950958252,
                -0.19980785250663757,
                0.19491548836231232,
                -0.1959988921880722,
                0.12626537680625916,
                0.21664251387119293,
                0.21171444654464722,
                0.28168657422065735,
                0.13362036645412445,
                -0.19294585287570953,
                0.1327199637889862,
                -0.22019383311271667,
                0.13818982243537903,
                -0.10626112669706345,
                -0.014175125397741795,
                0.08876387774944305,
                0.10027492046356201,
                -0.03909050300717354,
                0.05227608233690262,
                -0.019464025273919106,
                0.11518421024084091,
                -0.08440987765789032,
                0.11551634222269058,
                -0.0210629403591156,
                -0.1715562343597412,
                -0.18947237730026245,
                0.14495578408241272,
                0.03757411241531372,
                -0.08236905932426453,
                -0.21790258586406708,
                0.021498477086424828,
                -0.10746283084154129,
                0.07496345043182373,
                0.020970935001969337,
                0.0263059064745903,
                0.13166183233261108,
                -0.20691244304180145,
                0.005957396235316992,
                0.22463493049144745,
                -0.03232315182685852,
                -0.22252170741558075,
                -0.20916230976581573,
                -0.11423350125551224,
                0.12249577790498734,
                -0.07240500301122665,
                -0.24258244037628174,
                0.17676886916160583,
                0.13935813307762146,
                -0.010357114486396313,
                -0.11246763169765472,
                -0.17521993815898895,
                -0.04222024977207184,
                0.0187644325196743,
                0.09248996526002884,
                0.16894857585430145,
                -0.22389785945415497,
                -0.12532101571559906,
                0.21320317685604095,
                0.07407741248607635,
                0.1676337867975235,
                -0.0664704293012619,
                0.20009638369083405,
                -0.11005427688360214,
                -0.18365873396396637,
                0.35117220878601074,
                0.07233385741710663,
                0.04002340883016586,
                -0.21751783788204193,
                0.1237998679280281,
                0.042411573231220245,
                0.15581874549388885,
                0.09686420112848282,
                -0.07124736160039902,
                -0.19144301116466522,
                -0.0904758870601654,
                -0.14681804180145264,
                -0.07026177644729614,
                0.177093505859375,
                0.11975737661123276,
                -0.03796837851405144,
                -0.17891110479831696,
                0.1415834277868271,
                -0.09014260768890381,
                -0.34897375106811523,
                0.14342285692691803,
                -0.09123560786247253,
                -0.19891555607318878,
                -0.19155769050121307,
                0.22935937345027924,
                0.2146400809288025,
                0.10434359312057495,
                0.16789457201957703,
                0.04132787883281708,
                -0.09120672941207886,
                -0.11750709265470505,
                0.134883850812912,
                0.1073508933186531,
                0.007842307910323143,
                -0.03836676478385925,
                0.20133189857006073,
                0.22338517010211945,
                -0.13474254310131073,
                0.19382518529891968,
                -0.08141932636499405,
                -0.05700663477182388,
                0.05525583401322365,
                0.16877499222755432,
                0.0008714978466741741,
                -0.1024763360619545,
                -0.03364979103207588,
                0.14873136579990387,
                0.021893300116062164,
                -0.09619802981615067,
                0.1397169828414917,
                0.14522597193717957,
                -0.02839895337820053,
                0.11812654882669449,
                -0.033141959458589554,
                -0.05436089262366295,
                -0.19044111669063568,
                0.16633853316307068,
                -0.27804481983184814,
                0.22871440649032593,
                -0.04588533565402031,
                0.09501462429761887,
                0.13247007131576538,
                -0.0005378750502131879,
                -0.17708328366279602,
                0.048654261976480484,
                0.030379610136151314,
                0.06519576907157898,
                0.03818888962268829,
                -0.07734768092632294,
                -0.04098522290587425,
                -0.029731038957834244,
                -0.09420441836118698,
                0.14068004488945007,
                -0.047119468450546265,
                0.04594157263636589,
                -0.22885288298130035,
                -0.12215317040681839,
                -0.08923220634460449,
                0.08372952044010162,
                0.08314459025859833,
                0.0012509473599493504,
                -0.027218174189329147,
                -0.1539240926504135,
                -0.17124877870082855,
                -0.10651213675737381,
                0.11352239549160004,
                -0.060356564819812775,
                0.022786621004343033,
                -0.19651910662651062,
                -0.1487092524766922,
                0.15371814370155334,
                -0.13985881209373474,
                0.09311943501234055,
                0.06442439556121826,
                -0.15926411747932434,
                -0.11740937829017639,
                -0.02018381468951702,
                0.08334136754274368,
                -0.018447035923600197,
                -0.017690494656562805,
                0.022093219682574272,
                0.22430095076560974,
                0.034655991941690445,
                -0.038261283189058304,
                0.1635858416557312,
                0.14063617587089539,
                0.1034340038895607,
                -0.010948216542601585,
                -0.000852030236274004,
                -0.1205521672964096,
                -0.033536188304424286,
                0.1567901223897934,
                0.1081920713186264,
                0.28258219361305237,
                0.3508777320384979,
                -0.0899449810385704,
                0.13675829768180847,
                0.11323317885398865,
                0.22932814061641693,
                0.052307210862636566,
                -0.10112056136131287,
                0.029141487553715706,
                0.10879364609718323,
                -0.21696485579013824,
                0.08650319278240204,
                0.21391604840755463,
                0.027329925447702408,
                0.0016908197430893779,
                0.018437743186950684,
                0.0190285537391901,
                -0.21617479622364044,
                -0.05669045075774193,
                0.009492950513958931,
                0.1863805055618286,
                -0.15741854906082153,
                -0.1614587903022766,
                -0.17532187700271606,
                0.23575137555599213,
                0.10902221500873566,
                -0.09655758738517761,
                0.030165866017341614,
                0.18836456537246704,
                0.24837084114551544,
                0.2034543752670288,
                0.10115960985422134,
                -0.16799063980579376,
                -0.03981681168079376,
                0.18455882370471954,
                -0.11177726089954376,
                -0.02975297160446644,
                0.021391641348600388,
                -0.07709071040153503,
                -0.09739523380994797,
                -0.20611679553985596,
                0.016179855912923813,
                0.016599563881754875,
                0.06988637149333954,
                -0.1415518969297409,
                0.2160804569721222,
                0.19010783731937408,
                -0.20441819727420807,
                -0.14585097134113312,
                -0.15709681808948517,
                0.045870427042245865,
                -0.17504537105560303,
                0.07569350302219391,
                0.18391287326812744,
                0.08120119571685791,
                -0.07286496460437775,
                0.2210768759250641,
                -0.24105849862098694,
                0.22212176024913788,
                0.09457124769687653,
                0.13817834854125977,
                0.09299283474683762,
                -0.08989905565977097,
                0.21887844800949097,
                -0.14718279242515564,
                0.12299435585737228,
                0.1758008450269699,
                -0.15014372766017914,
                -0.14167505502700806,
                -0.006568655371665955,
                0.15952451527118683,
                0.0791735053062439,
                0.22449837625026703,
                -0.14510968327522278,
                0.06133158877491951,
                0.0677478164434433,
                0.05673221871256828,
                -0.2346602827310562,
                0.016557609662413597,
                -0.03693399950861931,
                0.007392195053398609,
                0.1769406795501709,
                0.06140388920903206,
                -0.11933981627225876,
                0.1273079514503479,
                0.219478040933609,
                0.05700865387916565,
                0.023172056302428246,
                -0.06959095597267151,
                0.2122134119272232,
                -0.1197989359498024,
                0.20479942858219147,
                -0.12975046038627625,
                0.07623925060033798,
                0.06060763821005821,
                -0.15406905114650726,
                0.003501570550724864,
                -0.036169666796922684,
                -0.07318176329135895,
                -0.038968637585639954,
                -0.04963914304971695,
                -0.05158235877752304,
                -0.23110991716384888,
                -0.14910554885864258,
                -0.11127671599388123,
                -0.20020581781864166,
                0.05554254725575447,
                0.14117339253425598,
                -0.08730880171060562,
                -0.1984947770833969,
                0.22127142548561096,
                0.03908642381429672,
                0.12688830494880676,
                -0.09933298081159592,
                -0.15977241098880768,
                0.08108863979578018,
                -0.15244366228580475,
                0.23148378729820251,
                -0.09293754398822784,
                -0.20079977810382843,
                -0.21069364249706268,
                0.07547451555728912,
                -0.22137150168418884,
                0.13400010764598846,
                0.1984109878540039,
                0.10013360530138016,
                -0.027339311316609383,
                -0.009318821132183075,
                0.016316542401909828,
                0.09605120867490768,
                0.214522123336792,
                0.16722716391086578,
                0.20304620265960693,
                0.002991101238876581,
                -0.02254793792963028,
                -0.07795742899179459,
                0.15927685797214508,
                -0.13823169469833374,
                0.12003709375858307,
                -0.15436802804470062,
                0.15354038774967194,
                -0.041156306862831116,
                -0.07840128242969513,
                -0.11660786718130112,
                0.0013365531340241432,
                -0.12378688156604767,
                0.07826068252325058,
                0.22636181116104126,
                -0.09280341863632202,
                0.06433768570423126,
                0.060994505882263184,
                0.029607731848955154,
                0.0030610531102865934,
                0.2850467264652252
            ],
            "weight_shape": [
                64,
                19
            ],
            "bias": [
                -0.17351342737674713,
                -0.06876511126756668,
                -0.05973384156823158,
                0.14939622581005096,
                -0.08328571170568466,
                -0.02585163339972496,
                -0.12734027206897736,
                -0.09457018226385117,
                0.15924030542373657,
                -0.1436002105474472,
                0.09179314970970154,
                -0.010962938889861107,
                0.01095837727189064,
                0.1878383904695511,
                -0.08598332107067108,
                -0.0721694752573967,
                -0.20930074155330658,
                -0.045483626425266266,
                -0.01114962063729763,
                0.030081456527113914,
                0.035266850143671036,
                -0.027085041627287865,
                0.06762658059597015,
                0.17737722396850586,
                -0.17059871554374695,
                -0.11172153800725937,
                -0.0990181639790535,
                0.17032334208488464,
                0.15444326400756836,
                -0.18050189316272736,
                0.20855845510959625,
                0.06722293049097061,
                -0.14646388590335846,
                0.21969562768936157,
                0.014313314110040665,
                -0.16348318755626678,
                0.1648131161928177,
                0.12110288441181183,
                -0.09925033897161484,
                0.06277035921812057,
                -0.14823313057422638,
                -0.11804229021072388,
                0.19290125370025635,
                -0.07426641136407852,
                -0.10347021371126175,
                0.1636129766702652,
                0.1680735945701599,
                -0.05559053644537926,
                -0.09611499309539795,
                -0.02407112903892994,
                0.11230996996164322,
                0.13145363330841064,
                0.19127525389194489,
                -0.045384954661130905,
                -0.033264271914958954,
                -0.04903607442975044,
                0.2060677856206894,
                0.02015850692987442,
                -0.1661360263824463,
                -0.08214595913887024,
                0.19740734994411469,
                -0.0295270923525095,
                0.07094787806272507,
                -0.01985028386116028
            ],
            "bias_shape": [
                64
            ]
        },
        "layers.2": {
            "weight": [
                -0.06267418712377548,
                -0.11521030962467194,
                -0.1149931475520134,
                -0.048353079706430435,
                -0.024875720962882042,
                -0.07611262053251266,
                0.08089379221200943,
                -0.14716587960720062,
                0.09853769838809967,
                0.12227761000394821,
                -0.033461544662714005,
                0.07373636215925217,
                0.03383815288543701,
                -0.016490750014781952,
                0.10757043212652206,
                0.11727479845285416,
                0.057287316769361496,
                0.03352769464254379,
                -0.10473278164863586,
                -0.023731861263513565,
                0.05914097651839256,
                -0.08363061398267746,
                -0.11300212889909744,
                0.11720798909664154,
                0.08391125500202179,
                0.07945217937231064,
                0.0031849537044763565,
                0.11996682733297348,
                -0.04134296253323555,
                0.1342657208442688,
                -0.11824016273021698,
                -0.11040210723876953,
                -0.11865958571434021,
                -0.05715744569897652,
                0.010691718198359013,
                -0.03866226226091385,
                -0.09512487053871155,
                0.08314099162817001,
                0.007928435690701008,
                0.05253983661532402,
                0.0009557968587614596,
                -0.05610517039895058,
                -0.08025895804166794,
                0.108595110476017,
                -0.04932521656155586,
                0.03571716696023941,
                0.07810032367706299,
                -0.009541574865579605,
                0.018368078395724297,
                0.06953650712966919,
                -0.09203726053237915,
                -0.007944060489535332,
                0.06973695755004883,
                -0.10017351061105728,
                -0.09315834939479828,
                0.08145520091056824,
                0.009092321619391441,
                0.1116536557674408,
                0.10653862357139587,
                -0.06871651113033295,
                -0.08873875439167023,
                -0.03564874827861786,
                -0.05923134833574295,
                0.07157894968986511,
                -0.076174795627594,
                -0.04656035080552101,
                0.08861272782087326,
                0.05764119327068329,
                -0.08276915550231934,
                -0.0371306911110878,
                -0.041496604681015015,
                -0.013036329299211502,
                -0.025466004386544228,
                -0.0013029552064836025,
                0.012561474926769733,
                -0.01931551657617092,
                -0.04825116693973541,
                0.003983779810369015,
                0.12626239657402039,
                0.0129182618111372,
                0.1030624657869339,
                0.10123611241579056,
                -0.09700624644756317,
                -0.015566384419798851,
                0.09648220986127853,
                -0.0016611908795312047,
                0.15800993144512177,
                -0.08014702796936035,
                -0.11336307227611542,
                0.04865061864256859,
                -0.0057809860445559025,
                0.07681207358837128,
                0.14415599405765533,
                0.03034268319606781,
                0.03807041049003601,
                0.0924437865614891,
                -0.07860922068357468,
                0.018645649775862694,
                0.10948716849088669,
                -0.07637415081262589,
                0.07801000773906708,
                -0.07848909497261047,
                -0.07050316780805588,
                -0.0065372409299016,
                0.048011861741542816,
                0.16206295788288116,
                -0.07237087190151215,
                -0.1156846433877945,
                -0.11394720524549484,
                0.053903523832559586,
                -0.11148687452077866,
                0.04640959948301315,
                0.11705245822668076,
                -0.08568078279495239,
                0.023233456537127495,
                -0.04412347823381424,
                -0.003183805849403143,
                -0.057774849236011505,
                -0.09255655854940414,
                -0.06058935821056366,
                0.059277571737766266,
                -0.0956493392586708,
                -0.08768525719642639,
                0.0750870406627655,
                -0.1404653787612915,
                -0.12089050561189651,
                -0.08959056437015533,
                -0.011708339676260948,
                0.005997322034090757,
                -0.058138977736234665,
                0.03650790452957153,
                -0.03082769364118576,
                0.031951386481523514,
                -0.04643062502145767,
                -0.10678336769342422,
                -0.0007823848281987011,
                -0.03206262364983559,
                -0.10128631442785263,
                -0.03627236559987068,
                -0.006371192634105682,
                -0.019722891971468925,
                0.09517935663461685,
                -0.03271680697798729,
                0.040525201708078384,
                -0.008583053015172482,
                -0.04054423049092293,
                -0.035535525530576706,
                0.07079113274812698,
                0.021178150549530983,
                0.04482297971844673,
                0.04416210204362869,
                0.13544785976409912,
                0.11778425425291061,
                -0.017133135348558426,
                0.07718243449926376,
                -0.03755353391170502,
                0.03868507966399193,
                0.055581238120794296,
                0.049935463815927505,
                0.11238999664783478,
                0.08715613186359406,
                0.01789262518286705,
                -0.07293152064085007,
                -0.00013343231694307178,
                0.09688662737607956,
                0.14925093948841095,
                0.004335303325206041,
                -0.019179431721568108,
                -0.04548263922333717,
                0.1382814198732376,
                0.0051207891665399075,
                -0.05140665918588638,
                -0.04452918842434883,
                0.08868003636598587,
                -0.07625064998865128,
                -0.026327239349484444,
                -0.08908244967460632,
                0.04034779220819473,
                -0.04596525803208351,
                -0.045767657458782196,
                0.08200603723526001,
                -0.0064149354584515095,
                -0.09985729306936264,
                -0.06232045963406563,
                0.05101477727293968,
                -0.055551670491695404,
                -0.08790800720453262,
                0.047538742423057556,
                -0.002398847369477153,
                -0.030583644285798073,
                0.05726923793554306,
                -0.12292036414146423,
                -0.0745706558227539,
                0.04170724377036095,
                0.11270768195390701,
                0.043219856917858124,
                0.07422980666160583,
                0.012582467868924141,
                0.05014539137482643,
                0.0864979475736618,
                0.13490962982177734,
                0.0211923960596323,
                -0.08368012309074402,
                -0.0003077056899201125,
                0.01354018785059452,
                0.055737242102622986,
                -0.03160892054438591,
                0.025340890511870384,
                -0.09159111231565475,
                0.08572477102279663,
                -0.07077757269144058,
                0.14704428613185883,
                0.03371680900454521,
                0.10212390124797821,
                -0.02558283321559429,
                -0.04139897972345352,
                -0.08841770142316818,
                0.04819806292653084,
                -0.03867059946060181,
                -0.09094233065843582,
                -0.0571683831512928,
                0.014530085027217865,
                -0.039086148142814636,
                -0.020225217565894127,
                -0.007341431919485331,
                0.07096961885690689,
                -0.017207417637109756,
                0.06573471426963806,
                -0.061728764325380325,
                0.12167174369096756,
                -0.05681691691279411,
                0.07992149144411087,
                0.03183244168758392,
                0.06764249503612518,
                -0.011508614756166935,
                -0.04048525542020798,
                -0.02302788570523262,
                -0.05329529568552971,
                0.057229045778512955,
                -0.0855703055858612,
                0.04319529980421066,
                0.12110020220279694,
                -0.021101316437125206,
                0.04278642684221268,
                -0.115158811211586,
                0.004638365935534239,
                0.0035817085299640894,
                0.027715060859918594,
                -0.10291511565446854,
                -0.12403807789087296,
                0.08716961741447449,
                -0.007603845093399286,
                -0.00873030535876751,
                0.005654382053762674,
                0.03557758778333664,
                -0.08919356763362885,
                -0.03341073542833328,
                -0.07267116755247116,
                -0.015240713022649288,
                0.015773547813296318,
                0.018804294988512993,
                -0.05364958196878433,
                -0.08632271736860275,
                -0.07883448153734207,
                -0.08654925972223282,
                -0.07777204364538193,
                -0.0631629228591919,
                -0.06129082664847374,
                -0.01551731489598751,
                0.017663614824414253,
                0.010907565243542194,
                0.10923906415700912,
                0.04384724423289299,
                0.0752703994512558,
                0.06249764934182167,
                -0.09866742789745331,
                -0.09572345018386841,
                0.12948809564113617,
                -0.07905319333076477,
                0.04197404906153679,
                0.08000827580690384,
                0.1117401197552681,
                -0.10492736101150513,
                -0.043416209518909454,
                0.08247647434473038,
                -0.08271384239196777,
                -0.08139733970165253,
                -0.09177117049694061,
                -0.0029739008750766516,
                0.031806107610464096,
                0.021554354578256607,
                -0.10093384981155396,
                -0.021706756204366684,
                -0.04383363202214241,
                0.02948739565908909,
                -0.1139669194817543,
                0.12019969522953033,
                0.04512253403663635,
                0.08700884878635406,
                -0.014876268804073334,
                0.11310344189405441,
                -0.01965656690299511,
                -0.06545127928256989,
                -0.10922646522521973,
                0.08052515238523483,
                -0.11035067588090897,
                -0.07510582357645035,
                0.09373407065868378,
                0.034379132091999054,
                -0.08921671658754349,
                0.042458511888980865,
                -0.11950868368148804,
                0.10611693561077118,
                -0.029313720762729645,
                0.05268018692731857,
                0.09186732769012451,
                -0.02342993952333927,
                0.028234442695975304,
                0.015474196523427963,
                0.11749152839183807,
                0.04412796348333359,
                0.15806791186332703,
                -0.076568603515625,
                -0.07358914613723755,
                0.07285735011100769,
                -0.04605201259255409,
                0.13846156001091003,
                -0.060682084411382675,
                0.11076667159795761,
                0.05832263454794884,
                -0.013464953750371933,
                -0.07115817070007324,
                0.15167897939682007,
                -0.035551924258470535,
                -0.09890386462211609,
                -0.026653384789824486,
                0.10887696593999863,
                0.09241516888141632,
                0.0049946922808885574,
                -0.057807374745607376,
                -0.08982018381357193,
                0.012175479903817177,
                -0.003142706351354718,
                0.062407683581113815,
                -0.12762266397476196,
                -0.05012023448944092,
                0.03646906465291977,
                0.03515860065817833,
                -0.04055096581578255,
                -0.07684911787509918,
                -0.008625701069831848,
                0.11920563131570816,
                -0.09454141557216644,
                -0.04187367111444473,
                -0.04955337569117546,
                0.03686476871371269,
                -0.12240448594093323,
                -0.07720168679952621,
                -0.020321648567914963,
                -0.08159150928258896,
                0.0324825644493103,
                -0.06130058318376541,
                0.018887247890233994,
                0.12220242619514465,
                -0.0682235136628151,
                0.04817773029208183,
                -0.0926409363746643,
                0.012725098058581352,
                -0.08774210512638092,
                0.002827220596373081,
                -0.0904456302523613,
                -0.08925621956586838,
                0.0297110453248024,
                0.12960228323936462,
                -0.05020718649029732,
                0.059346143156290054,
                0.011823448352515697,
                0.06345700472593307,
                -0.012367449700832367,
                0.03519473969936371,
                0.08477752655744553,
                0.051789093762636185,
                0.13413643836975098,
                0.12409617751836777,
                0.012765544466674328,
                -0.08064306527376175,
                -0.00358395092189312,
                -0.12681645154953003,
                0.013527190312743187,
                -0.10361132770776749,
                0.017439186573028564,
                0.14005105197429657,
                0.03026234358549118,
                -0.013717303052544594,
                0.0017575089586898685,
                0.10901270806789398,
                0.09790883958339691,
                0.09332325309515,
                0.02314501814544201,
                0.04927239194512367,
                0.019358349964022636,
                0.0004498072376009077,
                -0.010699369013309479,
                -0.05927807837724686,
                0.1162317618727684,
                0.09366673231124878,
                -0.055379465222358704,
                0.04062676057219505,
                -0.08862629532814026,
                0.09309674799442291,
                -0.0993712842464447,
                0.07133768498897552,
                0.09955178946256638,
                0.12403219938278198,
                0.07992081344127655,
                0.02015591785311699,
                0.023621518164873123,
                -0.011149615980684757,
                0.10463298112154007,
                -0.03488236665725708,
                0.05247281864285469,
                0.020782439038157463,
                -0.095283642411232,
                0.09071874618530273,
                0.01977180503308773,
                0.15077437460422516,
                -0.07928427308797836,
                0.014617454260587692,
                0.004074529279023409,
                0.097209133207798,
                0.026750847697257996,
                0.09153611212968826,
                0.09989164024591446,
                -0.015241715125739574,
                -0.0786939263343811,
                0.00880388543009758,
                0.10839743912220001,
                0.11186672747135162,
                -0.08593325316905975,
                -0.048745740205049515,
                0.001433635363355279,
                -0.05451960861682892,
                -0.05634704604744911,
                -0.06923950463533401,
                0.107208251953125,
                0.10923190414905548,
                -0.13982881605625153,
                -0.03553111106157303,
                -0.07227586954832077,
                0.033384598791599274,
                -0.07326652109622955,
                0.12583543360233307,
                0.031162070110440254,
                0.10028558224439621,
                -0.11202473938465118,
                0.05644496530294418,
                0.02485654689371586,
                0.0012659055646508932,
                0.0583084374666214,
                -0.10288528352975845,
                0.09008574485778809,
                -0.03815430402755737,
                0.07832778245210648,
                0.07164595276117325,
                0.10212121158838272,
                -0.12545226514339447,
                -0.09868690371513367,
                -0.10790374875068665,
                0.13282836973667145,
                -0.07921574264764786,
                0.11902523040771484,
                0.010758417658507824,
                -0.001461621024645865,
                0.02574707567691803,
                -0.07772888988256454,
                -0.06380581855773926,
                0.0345010869204998,
                0.020836779847741127,
                0.017160339280962944,
                0.08985398709774017,
                -0.1264098882675171,
                0.006963116582483053,
                -0.08688757568597794,
                0.06961870193481445,
                -0.069923996925354,
                0.16678915917873383,
                -0.03299697861075401,
                -0.03928803279995918,
                -0.11675509810447693,
                0.011023694649338722,
                0.09677081555128098,
                0.07043981552124023,
                -0.08156020194292068,
                0.003276311792433262,
                -0.08947145193815231,
                0.06557708978652954,
                0.07297664135694504,
                0.086390919983387,
                0.07295919954776764,
                0.04001012071967125,
                0.045833658427000046,
                0.06634192168712616,
                -0.006203763652592897,
                -0.02123294398188591,
                0.014040316455066204,
                -0.10291071236133575,
                0.026798557490110397,
                0.09579727798700333,
                0.00983539316803217,
                -0.10829172283411026,
                0.08096013218164444,
                0.0605328343808651,
                0.16035059094429016,
                0.0944860652089119,
                -0.029651373624801636,
                0.12111196666955948,
                0.024894366040825844,
                -0.08605751395225525,
                0.01038543414324522,
                -0.04634987935423851,
                -0.12538856267929077,
                0.05474250018596649,
                -0.10321663320064545,
                0.035777874290943146,
                -0.06742363423109055,
                -0.03219578042626381,
                0.09363966435194016,
                0.014044225215911865,
                -0.004429929424077272,
                -0.0825825184583664,
                0.10300630331039429,
                0.08314797282218933,
                0.023240648210048676,
                -0.0411866120994091,
                -0.126667320728302,
                -0.08235874027013779,
                -0.008572285063564777,
                -0.13296039402484894,
                -0.015619870275259018,
                -0.03618445247411728,
                -0.08074145764112473,
                -0.053402192890644073,
                0.14912278950214386,
                0.07223310321569443,
                0.1347554475069046,
                0.10177123546600342,
                0.09086207300424576,
                -0.026123005896806717,
                0.017677422612905502,
                -0.041312843561172485,
                0.047745656222105026,
                0.08153148740530014,
                -0.06229698285460472,
                0.03478720411658287,
                0.06522507965564728,
                0.03642284870147705,
                0.03838825598359108,
                0.02116222307085991,
                -0.056426841765642166,
                0.07645227760076523,
                -0.107461117208004,
                0.018885677680373192,
                -0.12766782939434052,
                0.01862308941781521,
                -0.10930433869361877,
                0.005073958542197943,
                0.0635666772723198,
                0.10477416962385178,
                -0.011003140360116959,
                -0.09596472978591919,
                0.014124480076134205,
                -0.0571768693625927,
                0.10527171194553375,
                -0.04444186016917229,
                0.14192509651184082,
                0.1657874584197998,
                -0.15221825242042542,
                0.03010769747197628,
                0.02170174941420555,
                0.12342892587184906,
                0.11879560351371765,
                0.06714833527803421,
                -0.16915759444236755,
                0.05250520259141922,
                0.035583458840847015,
                -0.1320084035396576,
                -0.0764189288020134,
                0.09560120105743408,
                -0.10181944072246552,
                -0.009067315608263016,
                0.0746971145272255,
                -0.06893575191497803,
                0.08532499521970749,
                -0.08103300631046295,
                0.010449455119669437,
                0.1407448798418045,
                0.05880571901798248,
                -0.05586004629731178,
                0.10126333683729172,
                -0.0779263898730278,
                0.08517438918352127,
                -0.09131988137960434,
                0.07428304851055145,
                0.051526304334402084,
                -0.029963145032525063,
                -0.04755613952875137,
                -0.09055102616548538,
                0.057599615305662155,
                0.028175130486488342,
                0.05426166206598282,
                -0.034620244055986404,
                0.13085801899433136,
                -0.011600709520280361,
                0.01659652404487133,
                -0.10541349649429321,
                0.025252243503928185,
                -0.050034813582897186,
                0.025387629866600037,
                0.13253624737262726,
                0.06157528981566429,
                0.028890378773212433,
                0.11510594934225082,
                -0.07803447544574738,
                -0.11240926384925842,
                -0.08183615654706955,
                0.12236841768026352,
                0.12078779935836792,
                0.10130055248737335,
                -0.0009882462909445167,
                -0.0441289097070694,
                -0.0914512425661087,
                -0.07910643517971039,
                -0.013593996874988079,
                -0.06091725826263428,
                -0.055607426911592484,
                0.05538591369986534,
                -0.004761509597301483,
                0.012958980165421963,
                -0.10455960035324097,
                -0.01705843023955822,
                0.08649198710918427,
                0.0033539962023496628,
                -0.08957154303789139,
                0.0062672230415046215,
                -0.10046698898077011,
                -0.04584304615855217,
                0.013072160072624683,
                -0.08051235228776932,
                -0.030933914706110954,
                0.00043554938747547567,
                -0.029800929129123688,
                0.04054401442408562,
                0.021279169246554375,
                -0.016746535897254944,
                0.009063039906322956,
                -0.11957372725009918,
                0.10969309508800507,
                -0.04881821945309639,
                -0.054953351616859436,
                -0.05896690487861633,
                -0.06330833584070206,
                -0.07707146555185318,
                -0.020936643704771996,
                -0.1050172969698906,
                -0.01914554089307785,
                -0.09370969980955124,
                -0.08349966257810593,
                -0.0032512496691197157,
                0.05287565663456917,
                0.040493208914995193,
                -0.029860788956284523,
                0.07167140394449234,
                -0.04712449759244919,
                -0.15075433254241943,
                -0.11183297634124756,
                -0.0061967819929122925,
                0.010562684386968613,
                0.03751668706536293,
                -0.13115057349205017,
                0.11243399977684021,
                0.10115957260131836,
                0.10538802295923233,
                -0.09852711856365204,
                0.04571902006864548,
                0.07603536546230316,
                0.011112796142697334,
                0.08011024445295334,
                -0.07755260914564133,
                -0.0015248219715431333,
                -0.09382475912570953,
                0.10198715329170227,
                0.08432939648628235,
                0.11646367609500885,
                -0.016979502514004707,
                -0.0006332623306661844,
                -0.04094924405217171,
                0.11627943813800812,
                -0.03554863855242729,
                0.04174627736210823,
                0.06894940137863159,
                -0.001693176687695086,
                0.07012645155191422,
                0.004444072488695383,
                -0.11218234896659851,
                -0.021480858325958252,
                0.07699346542358398,
                -0.0001391617115586996,
                0.10485272854566574,
                -0.1889486461877823,
                -0.10296588391065598,
                0.10519377887248993,
                0.06252625584602356,
                0.07350757718086243,
                -0.08403075486421585,
                -0.11608641594648361,
                -0.10837007313966751,
                0.07910063862800598,
                -0.006909101270139217,
                0.11337795853614807,
                0.07727298140525818,
                0.052151381969451904,
                0.06954215466976166,
                -0.012406744994223118,
                0.0600610189139843,
                -0.07496112585067749,
                0.10787161439657211,
                -0.027677282691001892,
                0.008954955264925957,
                0.11270523816347122,
                0.0744718536734581,
                -0.07119524478912354,
                -0.06731264293193817,
                -0.05277023836970329,
                -0.030761852860450745,
                0.11724262684583664,
                0.11046335846185684,
                -0.028647270053625107,
                0.09861205518245697,
                0.07283339649438858,
                -0.01398104801774025,
                0.09902864694595337,
                -0.11760612577199936,
                0.12613114714622498,
                0.10694652795791626,
                0.01767466589808464,
                -0.01654178276658058,
                -0.011510239914059639,
                -0.023698590695858,
                -0.11613740772008896,
                -0.04670622572302818,
                -0.03829816356301308,
                -0.05739402770996094,
                0.12550519406795502,
                -0.05527138710021973,
                -0.07479232549667358,
                -0.06315763294696808,
                -0.02716643363237381,
                0.0847146138548851,
                -0.06554262340068817,
                0.026629047468304634,
                -0.1179753839969635,
                0.06447574496269226,
                -0.012402603402733803,
                -0.09545678645372391,
                -0.0819188579916954,
                -0.11898449808359146,
                -0.07981742173433304,
                -0.08486609160900116,
                -0.024606281891465187,
                0.006905337795615196,
                0.05081340670585632,
                -0.07130758464336395,
                0.10292216390371323,
                0.10783397406339645,
                -0.039475928992033005,
                0.10255775600671768,
                0.11938389390707016,
                0.07564135640859604,
                0.10030267387628555,
                0.021571457386016846,
                0.07105852663516998,
                -0.06746659427881241,
                -0.10057602822780609,
                0.08375443518161774,
                -0.13219638168811798,
                0.04704703763127327,
                -0.02079552784562111,
                -0.05990125611424446,
                0.015935251489281654,
                -0.0905432179570198,
                0.06454147398471832,
                -0.042389485985040665,
                -0.036652740091085434,
                0.016585538163781166,
                0.02916063368320465,
                0.01445270050317049,
                0.022098155692219734,
                -0.03945283591747284,
                0.09139358997344971,
                0.05471397563815117,
                -0.020466621965169907,
                -0.001679686363786459,
                -0.0298323892056942,
                0.022814558818936348,
                -0.08474452793598175,
                -0.0315672941505909,
                -0.04037676379084587,
                -0.047483887523412704,
                -0.06906189769506454,
                0.05090450122952461,
                -0.035106778144836426,
                7.231081690406427e-05,
                -0.0007019637268967927,
                0.11415430158376694,
                0.06737368553876877,
                0.037822481244802475,
                0.04814561456441879,
                0.08190203458070755,
                -0.018365930765867233,
                0.006833865772932768,
                -0.0742591992020607,
                -0.09580466896295547,
                -0.004390240181237459,
                0.10290855914354324,
                -0.0403214655816555,
                -0.10629189014434814,
                0.11473477631807327,
                -0.07293775677680969,
                0.049387458711862564,
                -0.012052659876644611,
                -0.08517564088106155,
                -0.0051980093121528625,
                -0.09444858133792877,
                -0.04797002300620079,
                0.018676700070500374,
                0.10072612017393112,
                0.09878361225128174,
                0.017149873077869415,
                0.004290918819606304,
                -0.06612086296081543,
                -0.10178262740373611,
                0.09718047827482224,
                0.12402894347906113,
                0.088189035654068,
                -0.09251411259174347,
                0.058395884931087494,
                -0.10629801452159882,
                -0.09024318307638168,
                -0.015642058104276657,
                -0.08000881969928741,
                -0.02030397579073906,
                -0.07551341503858566,
                -0.07855496555566788,
                0.07525631040334702,
                0.13861899077892303,
                0.09599867463111877,
                0.04151371493935585,
                0.046504437923431396,
                0.08290424942970276,
                -0.03526851534843445,
                0.05765155330300331,
                -0.04759524017572403,
                -0.08966994285583496,
                -0.04969463124871254,
                -0.09007352590560913,
                -0.026798376813530922,
                0.12938421964645386,
                0.06734798103570938,
                0.10966646671295166,
                0.10815080255270004,
                0.06158243864774704,
                -0.01881241798400879,
                0.051837991923093796,
                -0.04035267233848572,
                0.09898089617490768,
                0.11387865990400314,
                0.022071784362196922,
                0.0058542946353554726,
                -0.0861392468214035,
                -0.019830789417028427,
                0.11161767691373825,
                -0.03739607706665993,
                0.015063155442476273,
                0.003265972016379237,
                0.010874675586819649,
                -0.11920373141765594,
                0.031791094690561295,
                0.09723463654518127,
                -0.08930522948503494,
                0.11390644311904907,
                -0.03822006285190582,
                -0.04161405563354492,
                0.011221501044929028,
                0.008802383206784725,
                -0.048939939588308334,
                -0.09468934684991837,
                -0.05579178035259247,
                0.026920488104224205,
                0.07298295199871063,
                -0.0007976439665071666,
                0.060806382447481155,
                -0.0942716896533966,
                0.10209133476018906,
                0.012231972999870777,
                -0.121103435754776,
                -0.002720578107982874,
                -0.11504724621772766,
                -0.060438066720962524,
                -0.100384421646595,
                0.00035526769352145493,
                -0.06363335996866226,
                0.06956050544977188,
                0.07627077400684357,
                0.07476545125246048,
                -0.11978587508201599,
                -0.006271095480769873,
                -0.0007146181305870414,
                -0.11077295243740082,
                0.06932301819324493,
                0.12526603043079376,
                -0.06651660054922104,
                0.06112542748451233,
                0.07902554422616959,
                0.06679733842611313,
                0.09530136734247208,
                -0.11236786097288132,
                0.05491521209478378,
                0.024163879454135895,
                -0.02186392806470394,
                0.11446470767259598,
                0.09581036865711212,
                0.0004055076860822737,
                0.03423323854804039,
                0.011479667387902737,
                0.10468258708715439,
                -0.06334278732538223,
                -0.08396907895803452,
                0.04620243236422539,
                -0.033903978765010834,
                -0.0038330138195306063,
                -0.055509213358163834,
                0.10057671368122101,
                -0.009045683778822422,
                -0.0037218036595731974,
                -0.06522196531295776,
                -0.00018540327437222004,
                -0.0479307658970356,
                0.0057127391919493675,
                -0.029560059309005737,
                0.030722130089998245,
                -0.0028618110809475183,
                0.06495914608240128,
                -0.02182777412235737,
                -0.0950244814157486,
                0.1307632029056549,
                -0.0003843365702778101,
                0.07161785662174225,
                -0.02239682897925377,
                0.0009416703833267093,
                0.12252960354089737,
                -0.09193574637174606,
                0.05617952719330788,
                0.08186750113964081,
                0.06470798701047897,
                -0.11690358072519302,
                0.12827961146831512,
                0.0004032160504721105,
                0.06474761664867401,
                0.055100422352552414,
                0.08062214404344559,
                0.143221914768219,
                -0.018245084211230278,
                0.08858229219913483,
                -0.05459361523389816,
                0.04673423990607262,
                -0.0018583642086014152,
                -0.12294436246156693,
                -0.0016757099656388164,
                0.08091473579406738,
                -0.059065353125333786,
                0.06850822269916534,
                -0.06576450914144516,
                0.03886151686310768,
                0.012196208350360394,
                -0.10662737488746643,
                0.1286061853170395,
                -0.13109926879405975,
                -0.06586030125617981,
                0.03518005087971687,
                -0.024958038702607155,
                -0.14509892463684082,
                -0.08799510449171066,
                -0.09625952690839767,
                0.08469877392053604,
                0.011130032129585743,
                -0.12794630229473114,
                0.051745541393756866,
                -0.05269869044423103,
                -0.01512931752949953,
                -0.010306661017239094,
                -0.030107339844107628,
                -0.05097825452685356,
                -0.08518393337726593,
                -0.0678643137216568,
                -0.08270479738712311,
                -0.04136257618665695,
                0.0023662785533815622,
                0.04590762406587601,
                0.027779873460531235,
                0.1403583288192749,
                -0.015048903413116932,
                0.06966609507799149,
                0.11553430557250977,
                -0.03148696944117546,
                -0.09149650484323502,
                0.0018088027136400342,
                -0.10112181305885315,
                0.005169888958334923,
                -0.09436199069023132,
                0.07161786407232285,
                -0.05159103125333786,
                0.05898743122816086,
                -0.12244390696287155,
                0.11708000302314758,
                0.12869320809841156,
                0.03586459532380104,
                -0.025034325197339058,
                -0.08085402101278305,
                -0.1009654849767685,
                0.05998801812529564,
                0.09103015065193176,
                0.08639378845691681,
                0.013508212752640247,
                -0.015243561007082462,
                -0.01618282124400139,
                -0.12854580581188202,
                0.07797005027532578,
                -0.04681947082281113,
                0.04246561601758003,
                0.053476836532354355,
                0.04824824631214142,
                0.018774623051285744,
                -0.0791778415441513,
                -0.0293410811573267,
                0.08041763305664062,
                0.10300018638372421,
                -0.10778357833623886,
                -0.028952063992619514,
                0.07365798205137253,
                -0.11373399198055267,
                0.05219021812081337,
                0.0744885727763176,
                -0.10395403206348419,
                -0.044788163155317307,
                0.09518895298242569,
                -0.019260680302977562,
                -0.003226865315809846,
                0.02772051841020584,
                -0.019791027531027794,
                -0.0645560696721077,
                0.08275488018989563,
                -0.0993310883641243,
                -0.07631110399961472,
                -0.04264033958315849,
                0.039746493101119995,
                -0.09933051466941833,
                -0.09383717179298401,
                -0.08088938146829605,
                -0.0649438127875328,
                0.0955851823091507,
                0.08402696996927261,
                0.016538508236408234,
                0.12657566368579865,
                -0.013002867810428143,
                0.03894433751702309,
                0.10869010537862778,
                0.060586538165807724,
                0.09092314541339874,
                0.1077558770775795,
                -0.06395672261714935,
                -0.077482208609581,
                0.11959987878799438,
                0.05089126527309418,
                0.1260857731103897,
                -0.07684022188186646,
                0.038522057235240936,
                0.10384844988584518,
                0.043448492884635925,
                -0.05429142713546753,
                0.13825412094593048,
                0.10651659220457077,
                0.07051227986812592,
                -0.013252298347651958,
                -0.0342935286462307,
                -0.09407994896173477,
                -0.10919893532991409,
                -0.09912534058094025,
                -0.11492594331502914,
                0.0025830338709056377,
                0.047033846378326416,
                0.12282697856426239,
                0.10248131304979324,
                -0.04108596593141556,
                0.03268136829137802,
                -0.061764709651470184,
                -0.11689340323209763,
                0.010012409649789333,
                -0.017819838598370552,
                -0.03545532003045082,
                -0.09794691950082779,
                -0.04465922713279724,
                -0.01770816557109356,
                -0.04114367812871933,
                -0.12568345665931702,
                -0.034712016582489014,
                -0.04697053134441376,
                0.0050993687473237514,
                -0.11347638070583344,
                0.13052859902381897,
                0.013559293933212757,
                0.09356727451086044,
                0.11776029318571091,
                0.0012676705373451114,
                0.05914560705423355,
                -0.07404068857431412,
                -0.061510320752859116,
                0.05034340173006058,
                -0.016941705718636513,
                -0.12110285460948944,
                -0.042946722358465195,
                -0.12215185910463333,
                -0.07116735726594925,
                0.11263719946146011,
                0.08383087068796158,
                0.0371677540242672,
                0.035770609974861145,
                0.0027433298528194427,
                -0.043973542749881744,
                -0.06829853355884552,
                0.09859905391931534,
                -0.05543680861592293,
                -0.03619123622775078,
                0.084872767329216,
                0.008181164972484112,
                -0.03856418654322624,
                -0.08776705712080002,
                -0.04154422506690025,
                -0.053889818489551544,
                0.1031852439045906,
                0.015210175886750221,
                0.0626915693283081,
                0.04603113234043121,
                -0.08515121787786484,
                -0.0459928959608078,
                -0.05326816439628601,
                -0.06194498762488365,
                -0.0025699089746922255,
                0.036127954721450806,
                0.027044029906392097,
                -0.011094022542238235,
                -0.0052207643166184425,
                -0.047099754214286804,
                -0.04675798863172531,
                0.07559052109718323,
                -0.06687454879283905,
                -0.08772613108158112,
                -0.11280534416437149,
                0.08416520059108734,
                0.0606968067586422,
                0.003232342889532447,
                -0.05053044855594635,
                0.03281078487634659,
                -0.06080294027924538,
                0.0925435870885849,
                0.1361909955739975,
                0.03588882461190224,
                0.00675148144364357,
                0.043819088488817215,
                -0.0033477426040917635,
                -0.03284911438822746,
                -0.0073953550308942795,
                0.03623693436384201,
                0.019958604127168655,
                -0.0629558116197586,
                0.03716176375746727,
                0.07018069177865982,
                -0.023413313552737236,
                0.027977047488093376,
                0.12071068584918976,
                -0.05516868457198143,
                -0.06832855939865112,
                0.06584150344133377,
                0.043384768068790436,
                0.12133276462554932,
                -0.060659345239400864,
                -0.02012917771935463,
                -0.004918798338621855,
                0.1251067966222763,
                -0.008434214629232883,
                -0.025849392637610435,
                0.01065196841955185,
                0.09169673174619675,
                -0.1073225736618042,
                0.04319818317890167,
                -0.01653164066374302,
                0.06807006150484085,
                -0.08063942939043045,
                0.02379516325891018,
                -0.06916744261980057,
                0.05646755173802376,
                0.09325270354747772,
                -0.09584973007440567,
                0.042433999478816986,
                0.006981808692216873,
                0.07777553796768188,
                -0.0964302197098732,
                -0.017543569207191467,
                0.038418807089328766,
                0.09268774837255478,
                0.0899306908249855,
                0.044129882007837296,
                -0.060234177857637405,
                -0.0617058128118515,
                -0.0595538504421711,
                0.11193140596151352,
                -0.011370835825800896,
                -0.09185304492712021,
                -0.07025453448295593,
                -0.13538360595703125,
                -0.07323180139064789,
                -0.11229340732097626,
                -0.07661794126033783,
                0.15560317039489746,
                0.00045190699165686965,
                -0.09786994010210037,
                0.11035274714231491,
                -0.11648768186569214,
                0.12901507318019867,
                0.042736414819955826,
                0.09091787040233612,
                0.09434685111045837,
                -0.07355902343988419,
                0.05214287340641022,
                -0.07720865309238434,
                0.11337679624557495,
                -0.05692104995250702,
                0.07131082564592361,
                0.10243167728185654,
                -0.050960298627614975,
                0.054720450192689896,
                0.03369806706905365,
                0.10351777821779251,
                0.04934559762477875,
                0.09544772654771805,
                0.030657699331641197,
                0.001317561254836619,
                -0.04692019149661064,
                0.002221781061962247,
                -0.09403057396411896,
                0.1273667812347412,
                0.04511266574263573,
                0.026939893141388893,
                -0.06438994407653809,
                -0.08711665868759155,
                -0.053844794631004333,
                -0.008540437556803226,
                -0.10756166279315948,
                0.08066229522228241,
                0.13140971958637238,
                -0.13728101551532745,
                0.07408646494150162,
                -0.012224403209984303,
                -0.05435942858457565,
                -0.06912361085414886,
                -0.00017094191571231931,
                0.023889020085334778,
                0.06891795247793198,
                -0.06639998406171799,
                0.05483829230070114,
                -0.045886509120464325,
                -0.0006987290689721704,
                0.143118217587471,
                0.11581245809793472,
                -0.045263975858688354,
                -0.04971107468008995,
                -0.04141635820269585,
                0.07644887268543243,
                0.03462350368499756,
                -0.12758325040340424,
                -0.02956927753984928,
                0.07049501687288284,
                0.10654253512620926,
                -0.008297200314700603,
                0.008852018043398857,
                0.056877437978982925,
                0.11369853466749191,
                0.12550193071365356,
                0.08811034262180328,
                -0.07559950649738312,
                0.10081129521131516,
                0.030983377248048782,
                -0.022197255864739418,
                -0.12233181297779083,
                0.0540873147547245,
                -0.0002094477240461856,
                -0.11943713575601578,
                -0.10315044969320297,
                0.10396567732095718,
                -0.023374952375888824,
                -0.1022200807929039,
                0.012987631373107433,
                0.09570835530757904,
                0.11553549766540527,
                0.10647821426391602,
                0.03519808501005173,
                0.011119073256850243,
                0.10194534808397293,
                -0.10589563101530075,
                -0.0468440018594265,
                0.09444817900657654,
                0.015878962352871895,
                -0.03192921355366707,
                0.09503093361854553,
                0.015316157601773739,
                0.058563701808452606,
                -0.11674277484416962,
                -0.05692780762910843,
                0.05888792499899864,
                0.11306127160787582,
                -0.030278684571385384,
                0.09241850674152374,
                -0.03692477196455002,
                -0.07880791276693344,
                -0.11625754833221436,
                -0.11873859912157059,
                -0.018416160717606544,
                -0.07967012375593185,
                -0.012730678543448448,
                0.03976460173726082,
                -0.08500344306230545,
                0.0877527967095375,
                -0.05353999882936478,
                -0.015528326854109764,
                -0.0006509626400656998,
                0.0867212563753128,
                -0.18198014795780182,
                -0.026677284389734268,
                -0.06523444503545761,
                0.20507721602916718,
                0.0748458132147789,
                -0.06577055901288986,
                -0.05213123559951782,
                -0.044034652411937714,
                0.05229897424578667,
                -0.11189405620098114,
                0.053086698055267334,
                -0.07271356880664825,
                0.11641974747180939,
                0.07686924934387207,
                0.12018854916095734,
                -0.05125090852379799,
                0.012739310972392559,
                -0.07258200645446777,
                -0.07109487801790237,
                0.11656535416841507,
                -0.11751091480255127,
                0.13176172971725464,
