{"input_shape": [null, 19], "output_shape": [null, 1], "activations": "Relu", "layers": [{"weight": [-0.07084985077381134, -0.10118574649095535, -0.15690051019191742, -0.0627380982041359, -0.16068248450756073, 0.11448388546705246, -0.08496399223804474, -0.1379549652338028, -0.11503005027770996, -0.15268239378929138, 0.20227621495723724, -0.11709919571876526, 0.17185918986797333, 0.019364872947335243, 0.2040872424840927, -0.1118859127163887, 0.026001911610364914, -0.03456836938858032, -0.08361802250146866, 0.07023974508047104, -0.1780843287706375, 0.03302937000989914, -0.039869699627161026, 0.2080705761909485, -0.0054054176434874535, -0.21556639671325684, -0.08136532455682755, -0.12772561609745026, -0.16034112870693207, 0.13484406471252441, 0.2206040322780609, 0.060696158558130264, -0.17889511585235596, -0.22339586913585663, -0.10636680573225021, 0.012284793891012669, -0.1745978146791458, 0.16349346935749054, -0.23019006848335266, -0.12220073491334915, -0.03544490039348602, 0.010491573251783848, -0.1837596297264099, 0.09164337068796158, -0.10281910002231598, 0.1787162870168686, 0.2188182771205902, 0.11532934010028839, 0.12523694336414337, -0.07072729617357254, -0.08187757432460785, 0.1656550019979477, 0.1383100301027298, -0.2131897509098053, -0.015006954781711102, -0.1453343629837036, -0.0471668541431427, 0.15250124037265778, -0.1093783974647522, 0.17406333982944489, 0.047446221113204956, -0.04845008626580238, 0.0300075002014637, -0.061959486454725266, 0.0035965018905699253, 0.02737613208591938, 0.08760418742895126, -0.15963003039360046, 0.1409858763217926, 0.012869434431195259, 0.21919137239456177, -0.1018628403544426, -0.09655062854290009, 0.1855071634054184, 0.13362960517406464, 0.04243393987417221, -0.2157106250524521, 0.11733508855104446, 0.06397204846143723, 0.2157408893108368, 0.007726706564426422, 0.2200213521718979, 0.2174813449382782, -0.19710171222686768, 0.21155917644500732, -0.15427909791469574, 0.045663993805646896, -0.07466825842857361, -0.05315561592578888, -0.1472811996936798, 0.21698814630508423, 0.12988023459911346, -0.1653294712305069, -0.0306203942745924, -0.02283480018377304, 0.18125052750110626, -0.09125388413667679, 0.1903897523880005, -0.028085529804229736, -0.20841263234615326, 0.05219380930066109, 0.17229841649532318, 0.035764358937740326, 0.12849415838718414, -0.15114358067512512, -0.10883519053459167, -0.08193396031856537, -0.06761890649795532, 0.07644914835691452, 0.14317195117473602, -0.017071204259991646, -0.011106978170573711, 0.07617185264825821, -0.07932420074939728, 0.19109468162059784, -0.20153012871742249, 0.09476093202829361, -0.15051259100437164, -0.022143108770251274, -0.11645364761352539, -0.01969212479889393, -0.16116982698440552, -0.1782117336988449, 0.10131903737783432, 0.1412988305091858, -0.07683773338794708, -0.047270383685827255, 0.09488637745380402, 0.11780314147472382, 0.16627439856529236, 0.13517124950885773, 0.13589905202388763, -0.13645732402801514, -0.08809179067611694, -0.01688575930893421, -0.1213638037443161, -0.21581371128559113, 0.2168666422367096, 0.125118687748909, -0.17139653861522675, 0.22479407489299774, -0.2108338624238968, 0.10167492926120758, -0.09930679202079773, 0.2192004770040512, -0.07437301427125931, 0.16804681718349457, 0.09517398476600647, 0.191285640001297, -0.05466178059577942, 0.17787843942642212, 0.0703197792172432, 0.004091080278158188, 0.004681340418756008, 0.07666635513305664, 0.22208468616008759, 0.15792638063430786, 0.18363375961780548, -0.09991374611854553, -0.15764252841472626, 0.10978128761053085, -0.07878506928682327, 0.21163566410541534, -0.03915415704250336, 0.20567740499973297, -0.1633637547492981, -0.2126426249742508, 0.12431543320417404, -0.06182796135544777, 0.15760500729084015, -0.18840141594409943, -0.19753427803516388, 0.04982360824942589, 0.07540146261453629, 0.166590616106987, -0.14680644869804382, 0.02907635271549225, 0.0028748763725161552, 0.12878663837909698, -0.10305662453174591, 0.049345217645168304, 0.21102869510650635, 0.049370523542165756, 0.13848483562469482, -0.15730348229408264, 0.20802658796310425, 0.03377946838736534, 0.18209317326545715, 0.07426636666059494, -0.0417550727725029, -0.1362646222114563, -0.04670611768960953, -0.23013605177402496, -0.0713534951210022, -0.19777821004390717, 0.1780572086572647, -0.07292883843183517, 0.07890228927135468, 0.1814994364976883, 0.05937633290886879, -0.07424522191286087, -0.1292131245136261, -0.04228738695383072, -0.1802198886871338, 0.04689091444015503, -0.19586044549942017, -0.028834953904151917, -0.17332682013511658, 0.05271236598491669, -0.046677835285663605, -0.222123384475708, -0.11965330690145493, 0.08970953524112701, 0.15596556663513184, 0.08463999629020691, 0.22759497165679932, 0.11612801253795624, 0.1003318578004837, -0.031292930245399475, 0.1705809235572815, 0.09665005654096603, 0.17434988915920258, -0.13161543011665344, 0.17229950428009033, -0.07880803942680359, 0.21545806527137756, 0.054135385900735855, 0.11102576553821564, 0.2290426343679428, 0.030183138325810432, -0.03048829361796379, 0.17468051612377167, -0.10552053153514862, -0.07139170169830322, -0.041840046644210815, 0.2087082713842392, 0.17888584733009338, -0.033396027982234955, 0.1474371701478958, -0.17980577051639557, 0.15800224244594574, 0.042132098227739334, 0.008082648739218712, -0.015476158820092678, -0.2124541848897934, 0.045961812138557434, -0.073316790163517, 0.043006330728530884, 0.07165157049894333, -0.13185563683509827, 0.18091239035129547, -0.2082875818014145, -0.06304933875799179, -0.2034449279308319, 0.13965186476707458, 0.03272479772567749, -0.21000610291957855, 0.012598815374076366, 0.07502472400665283, -0.1939971148967743, -0.22382038831710815, 0.14221727848052979, 0.1521700769662857, -0.15691275894641876, -0.1014532670378685, -0.22315284609794617, 0.05521418899297714, -0.08506396412849426, -0.04096531495451927, -0.15875914692878723, -0.0058255004696547985, 0.10637665539979935, -0.16279152035713196, 0.003977550193667412, 0.0694354772567749, 0.2185335010290146, -0.21505680680274963, -0.07516957074403763, -0.1526317447423935, 0.1356639415025711, -0.09455962479114532, 0.12632979452610016, -0.20858368277549744, -0.013658123090863228, 0.1659647673368454, -0.049024369567632675, -0.03499242663383484, -0.07576237618923187, -0.009489405900239944, 0.10712332278490067, 0.002222856041043997, 0.09244629740715027, 0.02961578033864498, -0.2087489515542984, -0.18861249089241028, -0.1281682848930359, -0.015196507796645164, 0.10204494744539261, -0.1262606382369995, -0.10775431245565414, 0.002888800110667944, -0.09369087219238281, -0.11939556151628494, -0.21773040294647217, 0.007694396656006575, 0.16718646883964539, 0.11240748316049576, -0.15189947187900543, 0.027120862156152725, -0.04796876013278961, -0.1876145601272583, 0.06563349813222885, -0.023567045107483864, 0.07573884725570679, -0.07956244796514511, 0.17491525411605835, 0.16465431451797485, 0.21827088296413422, -0.1574021577835083, -0.08958956599235535, 0.19915999472141266, 0.18439459800720215, -0.02020300179719925, 0.08084741234779358, -0.1774216890335083, 0.23717477917671204, -0.009599263779819012, 0.008543960750102997, 0.07081157714128494, 0.12249517440795898, 0.15574634075164795, -0.10427924990653992, 0.18078742921352386, -0.19898754358291626, -0.015209832228720188, -0.2120341658592224, -0.10703091323375702, 0.00039496200042776763, 0.198027104139328, 0.09322377294301987, 0.18550926446914673, -0.010453032329678535, -0.19477632641792297, -0.10252037644386292, -0.019897183403372765, -0.17685894668102264, 0.13429895043373108, 0.021659422665834427, -0.004731987603008747, 0.00688190059736371, 0.11536433547735214, 0.12789131700992584, -0.023398859426379204, -0.011732202023267746, -0.13720902800559998, -0.20818538963794708, 0.10753820836544037, -0.1040283590555191, 0.22037816047668457, 0.07231935113668442, 0.04175601527094841, 0.02030138671398163, -0.014527124352753162, 0.2001519650220871, 0.2242249995470047, 0.035835202783346176, 0.14159658551216125, 0.11913780122995377, 0.04841319099068642, -0.2188922017812729, 0.14649149775505066, 0.039496757090091705, -0.059159304946660995, 0.015981117263436317, 0.05664556846022606, -0.16963165998458862, -0.08419176936149597, 0.1542527824640274, -0.1285184621810913, 0.2182619571685791, 0.1233970895409584, 0.04991653934121132, -0.103009894490242, 0.16299915313720703, 0.14391668140888214, -0.19800260663032532, -0.04486740753054619, 0.02261795848608017, 0.14612412452697754, -0.18916957080364227, -0.04173457622528076, 0.13488797843456268, 0.17971067130565643, 0.09259915351867676, 0.020157789811491966, -0.04869407042860985, -0.037797700613737106, 0.18661566078662872, -0.12587088346481323, 0.026634681969881058, -0.13057845830917358, -0.10739266127347946, -0.21457195281982422, -0.18547077476978302, 0.1138639971613884, -0.07102739810943604, 0.10327071696519852, -0.20681215822696686, -0.19448810815811157, -0.031123554334044456, 0.024965140968561172, 0.17938582599163055, -0.02027025818824768, 0.06605538725852966, -0.1549970507621765, 0.04848318174481392, -0.18930767476558685, -0.07119180262088776, 0.11630180478096008, 0.18131251633167267, 0.17857153713703156, 0.07640025019645691, -0.09987177699804306, -0.1316438913345337, -0.051784973591566086, -0.15910956263542175, 0.1699693351984024, -0.11064807325601578, -0.12473013997077942, 0.04189208894968033, 0.18258856236934662, 0.14463521540164948, -0.13757146894931793, 0.07357630133628845, -0.14241591095924377, -0.08550196141004562, 0.0024133087135851383, -0.06799593567848206, 0.14392437040805817, 0.12101385742425919, -0.0645519569516182, 0.11227785795927048, 0.008530362509191036, -0.06107225641608238, 0.014997708611190319, -0.015477193519473076, -0.06835669279098511, 0.1647191345691681, 0.14007635414600372, 0.1133909523487091, 0.13079752027988434, 0.13477464020252228, -0.22032834589481354, 0.14755332469940186, 0.019346024841070175, -0.1362466961145401, -0.06352408230304718, 0.08233052492141724, -0.11943812668323517, -0.16908873617649078, -0.0718693658709526, -0.05243547260761261, 0.1272030621767044, -0.12214212864637375, -0.20536881685256958, 0.10780861973762512, 0.174759641289711, 0.208795428276062, 0.0725674256682396, -0.1515224575996399, -0.05011200159788132, -0.20824314653873444, 0.10060250759124756, 0.23259803652763367, 0.086516372859478, 0.22930653393268585, -0.028604090213775635, 0.07040989398956299, -0.1056121438741684, 0.14190039038658142, -0.13554808497428894, 0.030702179297804832, -0.09902314841747284, -0.09455662965774536, 0.1076560989022255, -0.07261043041944504, -0.0841674953699112, 0.00824533961713314, -0.00442687189206481, 0.07536442577838898, 0.1520804464817047, -0.19733968377113342, 0.2065328061580658, -0.18644335865974426, -0.11791262775659561, -0.1857631802558899, 0.1374182105064392, -0.17678141593933105, -0.2135762721300125, -0.015612728893756866, -0.05755717307329178, -0.11689743399620056, -0.13954798877239227, -0.13207578659057617, 0.017424751073122025, 0.12357586622238159, 0.19296160340309143, -0.20980840921401978, -0.09722647070884705, 0.20872199535369873, 0.2319575995206833, 0.002644871361553669, 0.12502272427082062, 0.1446348875761032, -0.1338302493095398, 0.13157889246940613, 0.0024891106877475977, -0.10686419159173965, 0.17317354679107666, 0.0681353434920311, 0.047651275992393494, 0.14804291725158691, -0.02656657062470913, 0.18192830681800842, 0.018794775009155273, 0.03705773875117302, 0.0445212759077549, -0.13413400948047638, 0.1903015375137329, 0.022963471710681915, 0.09400992095470428, 0.11920582503080368, 0.19631065428256989, 0.07410778105258942, 0.13339151442050934, -0.21938075125217438, -0.1413455456495285, -0.08312094211578369, 0.16148966550827026, 0.044162556529045105, -0.1458788812160492, 0.14722840487957, 0.11956309527158737, -0.01721099764108658, 0.04105052724480629, -0.17619606852531433, 0.11846891045570374, 0.18111833930015564, -0.14036397635936737, 0.043228521943092346, 0.05329708755016327, -0.07490736246109009, 0.037206389009952545, -0.09966261684894562, -0.0788111463189125, -0.0638745054602623, 0.12064675241708755, 0.18436141312122345, -0.17727313935756683, 0.014522483572363853, 0.20910701155662537, -0.20204350352287292, -0.180632084608078, -0.05848947539925575, 0.15704014897346497, 0.026176054030656815, -0.11220487207174301, -0.06574640423059464, -0.10331765562295914, 0.07492402195930481, -0.1397639960050583, 0.07907388359308243, -0.1956930160522461, -0.1447615772485733, -0.19105662405490875, -0.14182858169078827, 0.10341056436300278, 0.0757245197892189, -0.14114557206630707, -0.14205974340438843, 0.17404966056346893, -0.029550956562161446, 0.09906285256147385, 0.10225452482700348, -0.12903915345668793, -0.16374292969703674, 0.1081799641251564, 0.20169411599636078, -0.012987209483981133, 0.23062092065811157, 0.0664684846997261, -0.02347666211426258, -0.1363837718963623, 0.11677590757608414, 0.19008339941501617, -0.11047155410051346, -0.22268235683441162, -0.14333714544773102, 0.1760839819908142, -0.08306397497653961, -0.054843902587890625, -0.18870387971401215, -0.1730397343635559, -0.16475756466388702, -0.02654380537569523, -0.007596874609589577, -0.05688249692320824, -0.13666364550590515, 0.04066166654229164, 0.11991360038518906, 0.014574465341866016, 0.1049683541059494, 0.20446588099002838, -0.016953062266111374, -0.22094956040382385, 0.010730299167335033, -0.21494314074516296, 0.1364731639623642, -0.01947331242263317, -0.05721719190478325, 0.0545312836766243, -0.02649475634098053, 0.21376477181911469, -0.13462410867214203, -0.023535730317234993, 0.04258207231760025, 0.21591171622276306, -0.1805371195077896, -0.09240860491991043, 0.04424382001161575, -0.1713879406452179, 0.1532299667596817, -0.09385638684034348, 0.18190671503543854, 0.018731961026787758, 0.18957453966140747, -0.23003904521465302, 0.09659846127033234, -0.00041490711737424135, -0.16754215955734253, 0.1397734433412552, 0.017641987651586533, 0.03770008683204651, -0.16193461418151855, 0.1369839906692505, 0.1023627519607544, 0.2085731029510498, 0.08404631912708282, 0.14949002861976624, 0.04951133579015732, 0.18925468623638153, -0.003963792696595192, 0.15941597521305084, -0.009081096388399601, 0.16177530586719513, 0.1873406022787094, 0.026029648259282112, 0.06492628157138824, -0.09490332752466202, -0.07513296604156494, -0.1865932047367096, -0.10829643160104752, 0.11596784740686417, -0.21827705204486847, -0.04984109103679657, -0.11021170765161514, -0.0816272497177124, -0.08145502209663391, -0.10889049619436264, -0.11237529665231705, -0.08142860978841782, -0.15183839201927185, 0.21261025965213776, -0.007319920230656862, -0.05140923708677292, 0.142389178276062, 0.18480856716632843, -0.02459733374416828, -0.06616104394197464, -0.22158417105674744, -0.16588756442070007, 0.10798965394496918, 0.005280456505715847, 0.09536842256784439, -0.0590607151389122, 0.12082021683454514, 0.21510615944862366, -0.010937897488474846, -0.11765586584806442, 0.22412294149398804, -0.19743141531944275, -0.11899774521589279, -0.18969152867794037, 0.06389568001031876, 0.1793976128101349, 0.044271208345890045, -0.0854884460568428, 0.04101482033729553, 0.031056027859449387, -0.1784110814332962, -0.15233257412910461, -0.20047712326049805, 0.18813377618789673, 0.16527698934078217, -0.16543850302696228, -0.20538029074668884, -0.02394760586321354, -0.1794382780790329, -0.17832224071025848, 0.17884458601474762, 0.10668683797121048, 0.010573011822998524, 0.0841994658112526, 0.010192547924816608, 0.06881190836429596, 0.17396555840969086, 0.17617109417915344, 0.1787348985671997, -0.01374016236513853, 0.12957093119621277, 0.15440988540649414, 0.09985797107219696, 0.019542699679732323, 0.16528727114200592, 0.07699594646692276, 0.030064979568123817, 0.04378913715481758, 0.061507295817136765, -0.21479150652885437, -0.2134002149105072, -0.1544950157403946, 0.08015584945678711, 0.14331825077533722, -0.15806663036346436, 0.20994651317596436, 0.11967622488737106, -0.20759139955043793, 0.20634639263153076, -0.0371522381901741, 0.15460634231567383, 0.15661880373954773, -0.06398532539606094, 0.12927290797233582, 0.02003595605492592, -0.16217641532421112, -0.21732456982135773, 0.17166244983673096, -0.10173910856246948, 0.0811205580830574, -0.21948367357254028, -0.1672029048204422, -0.178476020693779, 0.10319969058036804, 0.07994389533996582, 0.16042478382587433, -0.14344710111618042, 0.03573061153292656, -0.0044638970866799355, 0.07721152901649475, -0.22864720225334167, -0.1901351511478424, 0.20437785983085632, -0.13100777566432953, 0.03279558941721916, 0.13255931437015533, 0.14796283841133118, -0.017958780750632286, -0.015178248286247253, 0.17418982088565826, 0.1551913022994995, 0.11998189985752106, 0.15166647732257843, -0.07920581847429276, 0.19130851328372955, -0.20750583708286285, -0.05818268656730652, 0.19635729491710663, -0.10334079712629318, 0.1665249913930893, -0.016050908714532852, 0.08688182383775711, -0.09202411770820618, 0.098210908472538, 0.22776277363300323, -0.1384674608707428, -0.21613916754722595, 0.19091375172138214, 0.04515378177165985, -0.04804466664791107, -0.18085741996765137, -0.20521071553230286, 0.13137845695018768, 0.07168257236480713, 0.01380796916782856, -0.0015974148409441113, -0.1535014808177948, 0.06949755549430847, -0.18230152130126953, 0.18278177082538605, -0.12339343875646591, 0.08500581234693527, 0.16774481534957886, 0.019551021978259087, 0.04938999563455582, -0.09840982407331467, -0.007499091327190399, 0.13335606455802917, 0.10503532737493515, 0.037985026836395264, 0.14379674196243286, -0.19360323250293732, 0.12221339344978333, 0.10342641919851303, -0.12176471203565598, -0.20793558657169342, 0.03567003086209297, 0.0456184521317482, 0.12053733319044113, -0.1472998410463333, -0.03426029905676842, -0.222271129488945, -0.14806345105171204, -0.10603532195091248, -0.23592732846736908, -0.17996063828468323, -0.18177524209022522, -0.1859719157218933, -0.13471204042434692, -0.1829891949892044, 0.10934858024120331, -0.021255340427160263, 0.04554671421647072, -0.17453524470329285, -0.07564061135053635, 0.2217443585395813, -0.22439932823181152, 0.03669019415974617, -0.19533589482307434, -0.1753290742635727, 0.18307942152023315, -0.02449002116918564, 0.08678523451089859, -0.09166637063026428, -0.0247651357203722, -0.0351460799574852, 0.11200544983148575, 0.12101699411869049, 0.14878052473068237, 0.22219805419445038, -0.17811429500579834, 0.14949411153793335, 0.0432901531457901, 0.10166879743337631, 0.06365929543972015, 0.16936014592647552, 0.08458516001701355, -0.2011961042881012, -0.11748193949460983, -0.16698408126831055, -0.08962765336036682, 0.17230772972106934, 0.1460278183221817, -0.058902110904455185, -0.09080928564071655, -0.19338403642177582, -0.014844102784991264, -0.11925286054611206, 0.07465024292469025, 0.16682817041873932, -0.07634986937046051, 0.22440357506275177, -0.20093660056591034, -0.2234896868467331, -0.052671320736408234, -0.1869245320558548, -0.006928909104317427, 0.08957711607217789, -0.01840917579829693, 0.08646871149539948, 0.12287767976522446, 0.04435914754867554, -0.18798959255218506, 0.10878155380487442, -0.12546251714229584, 0.23637305200099945, 0.0859682485461235, 0.09550049901008606, -0.1343897581100464, -0.06458143889904022, -0.17874327301979065, -0.060870300978422165, -0.052300821989774704, -0.12125912308692932, -0.0015202477807179093, 0.17362423241138458, 0.16179890930652618, 0.17508992552757263, -0.20684406161308289, 0.08583453297615051, -0.11835448443889618, -0.18363741040229797, 0.1255428045988083, 0.101638063788414, 0.028237218037247658, 0.01870892196893692, 0.03649117425084114, 0.033313918858766556, -0.22248700261116028, -0.005651135463267565, 0.00624381098896265, -0.16003865003585815, 0.14314806461334229, 0.12652669847011566, -0.22973208129405975, 0.18690548837184906, 0.18961802124977112, -0.20080097019672394, -0.2151566594839096, -0.07253337651491165, 0.15558071434497833, -0.15075081586837769, 0.18033349514007568, 0.1075502261519432, -0.10197176039218903, 0.0434994176030159, -0.04982864856719971, 0.04607316106557846, -0.13730640709400177, 0.09098830074071884, -0.01755843311548233, 0.18545381724834442, 0.03458642587065697, 0.026100343093276024, 0.17316636443138123, 0.1772453784942627, -0.0852624773979187, 0.1292150914669037, -0.19201946258544922, -0.13695888221263885, -0.06584767997264862, -0.1798742711544037, -0.0013397320872172713, 0.0956520065665245, -0.17083553969860077, -0.12911325693130493, -0.13378535211086273, 0.1428651064634323, 0.20910510420799255, 0.20243233442306519, -0.11799261718988419, 0.16013012826442719, 0.014250403270125389, 0.22292542457580566, -0.08913072198629379, -0.12876003980636597, 0.08394649624824524, 0.1734614074230194, -0.1444791853427887, -0.1599636673927307, -0.04157746210694313, -0.21276672184467316, -0.15635792911052704, -0.03875769302248955, -0.13306009769439697, 0.037146467715501785, -0.23726150393486023, -0.17575693130493164, 0.19166894257068634, 0.12482059001922607, -0.16531330347061157, 0.09359278529882431, -0.08871113508939743, 0.15984265506267548, -0.044852323830127716, -0.03780126944184303, -0.17698027193546295, 0.07261856645345688, -0.03610401600599289, -0.22027866542339325, 0.15384143590927124, -0.08495210111141205, -0.15897975862026215, -0.09035952389240265, -0.1940091848373413, -0.05329141765832901, -0.055431753396987915, 0.040732283145189285, 0.17500704526901245, -0.1872384250164032, -0.2293420433998108, 0.04964491352438927, -0.08928974717855453, 0.1474287360906601, 0.2012028843164444, 0.037080876529216766, -0.1600501388311386, 0.04956165701150894, 0.014784165658056736, -0.060188814997673035, -0.09143032133579254, -0.07366111129522324, -0.12315768748521805, 0.10808001458644867, 0.05710713192820549, -0.06618445366621017, 0.08962796628475189, -0.12496110051870346, 0.1353607475757599, 0.062320828437805176, -0.1389259397983551, 0.14536045491695404, 0.15296393632888794, -0.11916982382535934, 0.13595128059387207, -0.01088985987007618, -0.13288335502147675, -0.18593589961528778, 0.12696589529514313, -0.20426519215106964, 0.04553502798080444, 0.09607228636741638, 0.06352967768907547, -0.14029212296009064, 0.14868420362472534, 0.2343692183494568, 0.21699409186840057, 0.11088812351226807, -0.005163298454135656, -0.20942698419094086, 0.23650027811527252, 0.23086868226528168, 0.25240686535835266, 0.2363569289445877, 0.07799039781093597, -0.03399471193552017, -0.19431070983409882, -0.10248595476150513, 0.07750263065099716, 0.04324446991086006, 0.12964609265327454, -0.06362518668174744, 0.10662204027175903, -0.031224900856614113, -0.11619807779788971, -0.1327883005142212, 0.18982431292533875, -0.08202926814556122, 0.014625892974436283, 0.060654670000076294, 0.24136357009410858, 0.01019943319261074, 0.18622548878192902, -0.18084847927093506, 0.007380226626992226, -0.018049344420433044, -0.16049295663833618, -0.14115780591964722, 0.16504208743572235, 0.08354080468416214, 0.04565262421965599, -0.2505262792110443, -0.0815039575099945, 0.22687895596027374, -0.015406427904963493, -0.13408011198043823, -0.049695637077093124, -0.01737874001264572, -0.2837817966938019, -0.23294298350811005, 0.06351315975189209, 0.1005529910326004, 0.03975704684853554, 0.012808006256818771, -0.021539615467190742, -0.11257676035165787, 0.10977449268102646, -0.09838565438985825, 0.1450873762369156, 0.049724530428647995, 0.02425151877105236, -0.279504656791687, -0.20752570033073425, -0.11421898752450943, 0.18301710486412048, 0.19825607538223267, 0.1870388239622116, 0.12736985087394714, 0.0020971556659787893, 0.11480803042650223, -0.11611353605985641, -0.08537272363901138, -0.013127937912940979, 0.11505020409822464, -0.14910109341144562, -0.11189128458499908, 0.007308733183890581, -0.032935693860054016, 0.016414806246757507, -0.13864552974700928, -0.2799379229545593, 0.10204380750656128, 0.19573654234409332, -0.028681783005595207, -0.13279901444911957, -0.15838859975337982, -0.2503132224082947, 0.005981061607599258, -0.2596372663974762, 0.039837129414081573, 0.07955826073884964, 0.09428421407938004, -0.04299432784318924, 0.0983058363199234, 0.0234679002314806, 0.15343298017978668, -0.15308064222335815, 0.23657989501953125, -0.21657167375087738, -0.09087198227643967, 0.011629872024059296, 0.18240052461624146, 0.08237916976213455, 0.19314822554588318, -0.09169765561819077, -0.16505560278892517, -0.0304389838129282, 0.18460923433303833, 0.15363027155399323, -0.2036348581314087, 0.015839193016290665, -0.10499092191457748, -0.1826936900615692, 0.2865484952926636, 0.04025403782725334, -0.012465852312743664, 0.08820823580026627, 0.05113673582673073, -0.09434308856725693, -0.06076179817318916, 0.002639087848365307, 0.1204509288072586, -0.1084689274430275, 0.10330142080783844, 0.18629945814609528, 0.1576913297176361, 0.17613159120082855, -0.14706756174564362, 0.17946089804172516, 0.09330732375383377, 0.08123840391635895, -0.12988878786563873, 0.14871478080749512, 0.10025728493928909, 0.17498117685317993, -0.21225914359092712, -0.16087408363819122, -0.011812439188361168, -0.31898558139801025, -0.08308473229408264, 0.28756409883499146, -0.033377062529325485, -0.16439110040664673, 0.12846897542476654, -0.007229088805615902, -0.14529861509799957, 0.2240733951330185, 0.24149879813194275, 0.20985651016235352, 0.19134651124477386, 0.03766258805990219, 0.06723843514919281, 0.05365952104330063, 0.0034284889698028564, 0.2021207958459854, 0.09274934977293015, -0.2111702710390091, -0.0009238675702363253, -0.16720420122146606, 0.2145506590604782, -0.1795482188463211, 0.1278086155653, -0.032523706555366516, 0.16716314852237701, 0.05118260160088539, 0.22522038221359253, 0.1511973887681961, -0.2329702079296112, 0.14736442267894745, -0.03436446562409401, 0.022782884538173676, 0.09472024440765381, -0.14400866627693176, 0.1077730655670166, 0.051357440650463104, -0.16061720252037048, 0.09146183729171753, -0.20075871050357819, -0.2009861320257187, 0.28772974014282227, 0.09403920918703079, 0.14425413310527802, 0.09802103042602539, 0.1312965601682663, 0.018763169646263123, -0.280947744846344, 0.22318732738494873, 0.24476072192192078, 0.2155444622039795, 0.11299630999565125, 0.07226376235485077, -0.08816619217395782, 0.043320607393980026, 0.27615490555763245, -0.13015440106391907, 0.06338594853878021, -0.1997702270746231], "weight_shape": [64, 19], "bias": [-0.09117642790079117, -0.0743807852268219, 0.06036483123898506, -0.0348777212202549, -0.11050621420145035, 0.0007318582502193749, 0.19713422656059265, 0.047991205006837845, 0.02170521393418312, 0.21528509259223938, -0.10770123451948166, 0.11288982629776001, -0.1640540361404419, -0.13520307838916779, 0.05943428725004196, -0.010182850994169712, -0.1322033852338791, 0.16693487763404846, 0.15431290864944458, -0.04367292672395706, 0.16123908758163452, -0.027012290433049202, -0.014126264490187168, -0.019039420410990715, 0.11405996978282928, -0.15818344056606293, 0.0018060103757306933, -0.12256458401679993, -0.05884532630443573, 0.13317124545574188, -0.12445675581693649, -0.011043345555663109, 0.2399788498878479, 0.04401078820228577, 0.07573068886995316, -0.041666410863399506, -0.2169417291879654, -0.21550749242305756, 0.03898393735289574, -0.057754114270210266, 0.2195591926574707, 0.214722141623497, 0.19074071943759918, 0.00253135128878057, -0.06954848021268845, 0.041487809270620346, 0.16352885961532593, -0.14818325638771057, 0.08395863324403763, 0.10883814096450806, -0.12110099196434021, -0.042980968952178955, 0.08705554902553558, -0.015869440510869026, 0.21361610293388367, 0.03151647001504898, -0.041974037885665894, -0.05754167586565018, 0.09608542919158936, -0.009267225861549377, 0.18393367528915405, 0.14226563274860382, -0.018460949882864952, 0.16096684336662292], "bias_shape": [64]}, {"weight": [0.059942569583654404, 0.02447991445660591, -0.050076283514499664, -0.12374181300401688, -0.11525751650333405, 0.029763564467430115, 0.09275052696466446, 0.10317585617303848, -0.005311478860676289, -0.007088093552738428, 0.12043193727731705, -0.06378433853387833, 0.07004072517156601, 0.033204108476638794, -0.12683969736099243, -0.024313904345035553, -0.07009590417146683, 0.0669415146112442, 0.022136207669973373, 0.12180765718221664, 0.04586955904960632, 0.011071023531258106, -0.10293668508529663, 0.04093898832798004, 0.10954562574625015, -0.12640418112277985, 0.08383646607398987, -0.1099797710776329, 0.05499080568552017, -0.04021114483475685, 0.07801584154367447, 0.06544871628284454, -0.11085068434476852, -0.03246498852968216, 0.07462383806705475, -0.07847227156162262, -0.06501214951276779, 0.01828635483980179, -0.0633854791522026, -0.005482886452227831, 0.10211717337369919, 0.08701661229133606, 0.12116014957427979, 0.06888826936483383, -0.06802881509065628, 0.013405999168753624, 0.045521244406700134, -0.11704449355602264, 0.00587438652291894, -0.04957428202033043, 0.0607980452477932, 0.07511462271213531, -0.06404559314250946, 0.05203945189714432, -0.0727250874042511, 0.08873763680458069, 0.08719711005687714, 0.0970989242196083, 0.06844081729650497, 0.09258613735437393, -0.07459969818592072, -0.07980387657880783, -0.07720313966274261, 0.09758873283863068, 0.029235079884529114, 0.03439446911215782, 0.05476341024041176, 0.013269112445414066, 0.010798796080052853, -0.01602553203701973, 0.03624984622001648, -0.042152803391218185, -0.10199220478534698, 0.12282723933458328, -0.04105766862630844, 0.15486735105514526, -0.04272026568651199, 0.06717502325773239, -0.058051832020282745, 0.10556591302156448, 0.09652513265609741, -0.10364260524511337, 0.005643773823976517, 0.08348789811134338, -0.12445109337568283, -0.0771237313747406, -0.11360710859298706, -0.0756106749176979, 0.05084201693534851, -0.00030732416780665517, 0.100370392203331, -0.0885336622595787, -0.021142562851309776, 0.03906412050127983, 0.07275894284248352, 0.043351706117391586, -0.027626724913716316, -0.03271699324250221, -0.07269128412008286, 0.0644875168800354, 0.0014126566238701344, -0.10346099734306335, -0.05107299983501434, -0.01563129387795925, -0.03791935741901398, 0.06384992599487305, 0.0980675145983696, 0.0827266275882721, -0.11569289863109589, -0.08280365914106369, 0.05269380286335945, -0.01932791993021965, 0.037329837679862976, -0.035909801721572876, 0.08972738683223724, 0.07742613554000854, -0.09277981519699097, -0.11346721649169922, -0.009870477952063084, 0.046371057629585266, -0.03990693762898445, -0.10357502847909927, -0.06356362998485565, 0.061640094965696335, -0.08501342684030533, -0.0028853481635451317, -0.11583413183689117, 0.03119879588484764, -0.11056652665138245, -0.03782186284661293, -0.06925243884325027, 0.044252894818782806, -0.011552073061466217, 0.04603007063269615, 0.11656977236270905, -0.02411681041121483, 0.12715572118759155, 0.09989800304174423, 0.010061518289148808, 0.07687977701425552, -0.035237379372119904, 0.08305619657039642, 0.0591718815267086, 0.08226104825735092, 0.11801654100418091, 0.10340991616249084, 0.02781418152153492, -0.02465233765542507, -0.0821196436882019, 0.021159343421459198, 0.10576172173023224, -0.05211788788437843, -0.09825193881988525, 0.022511400282382965, 0.07535064965486526, 0.06094212457537651, -0.05189628154039383, 0.05713645741343498, -0.09180955588817596, 0.08856762200593948, 0.10300406813621521, 0.013265966437757015, -0.011087705381214619, -0.07970762997865677, -0.11224592477083206, -0.07964682579040527, 0.013875909149646759, -0.10582587122917175, -0.003779203863814473, 0.1028197854757309, 0.11461292952299118, 0.06946136057376862, -0.12078601121902466, -0.03809578716754913, 0.10865380614995956, 0.08875550329685211, 0.08258030563592911, 0.0719163566827774, 0.11130022257566452, -0.08670372515916824, -0.02043372578918934, -0.09061795473098755, 0.11920122057199478, -0.04388456419110298, 0.0644456222653389, 0.09713353216648102, -0.023306695744395256, -0.06942331045866013, 0.11360212415456772, -0.05722220614552498, 0.07366742938756943, -0.039909545332193375, 0.11594761162996292, 0.050386060029268265, -0.03723342344164848, 0.048719458281993866, 0.11481916904449463, -0.03983849659562111, 0.0625343918800354, -0.10657544434070587, -0.09716224670410156, -0.11729660630226135, 0.11494002491235733, 0.09123804420232773, -0.008711569011211395, 0.07137572020292282, -0.08384950459003448, 0.11750461906194687, -0.09280385822057724, 0.12188950181007385, -0.08466681838035583, 0.07833992689847946, -0.019627099856734276, 0.12709495425224304, -0.0635576918721199, -0.1139058917760849, 0.11682700365781784, -0.010043355636298656, -0.03418660908937454, -0.0903438925743103, -0.10037895292043686, -0.016377972438931465, -0.10411302745342255, -0.09193108975887299, -0.060393817722797394, 0.10980509221553802, 0.0375777967274189, 0.04222201928496361, -0.08144319802522659, -0.09436281025409698, -0.019136466085910797, 0.0610973984003067, -0.04978933185338974, -0.10735536366701126, 0.10863767564296722, -0.017828460782766342, -0.12808652222156525, -0.10675553977489471, -0.07946373522281647, -0.06273259222507477, -0.11299455165863037, 0.008194158785045147, 0.08108366280794144, -0.011969804763793945, -0.05704433098435402, -0.10800013691186905, -0.10699383169412613, 0.11245521903038025, 0.034658677875995636, -0.01321929320693016, -0.12409701198339462, 0.05653604865074158, -0.035496391355991364, -0.02337285317480564, 0.12379665672779083, 0.09544776380062103, -0.03201136738061905, 0.05057906359434128, 0.07865165919065475, -0.004996137227863073, 0.1102018654346466, -0.04243834689259529, -0.017589271068572998, -0.02713862992823124, 0.07184853404760361, -0.029024723917245865, -0.07198792695999146, 0.026630697771906853, 0.1134641245007515, -0.03832971304655075, 0.04626604914665222, -0.1044926643371582, -0.14165370166301727, 0.023925160989165306, 0.0889267697930336, 0.056301359087228775, -0.07429831475019455, 0.0025357792619615793, 0.08400372415781021, 0.04342655465006828, -0.12874530255794525, 0.13160313665866852, 0.010529720224440098, 0.07112079113721848, -0.06394892930984497, 0.02414974570274353, 0.00019143859390169382, -0.10535162687301636, 0.08421749621629715, 0.0360163189470768, 0.055568765848875046, -0.11414089798927307, -0.04476825147867203, -0.061025768518447876, 0.014964846894145012, 0.11667200177907944, -0.0016989922150969505, -0.07860653102397919, 0.021293485537171364, 0.051214125007390976, 0.024703368544578552, 0.05505332723259926, 0.01199907623231411, -0.008960291743278503, 0.06901386380195618, 0.07202459126710892, 0.09551697224378586, -0.004219948314130306, -0.059246357530355453, 0.06901231408119202, -0.09890903532505035, -0.016682345420122147, -0.09914527833461761, 0.08670651167631149, 0.11602345108985901, -0.09571179002523422, 0.0734754353761673, -0.021173272281885147, 0.10280784964561462, 0.08787088096141815, 0.10982264578342438, -0.0117099704220891, 0.04501936584711075, 0.12063690274953842, 0.014097301289439201, -0.08488038182258606, 0.08511010557413101, -0.010005893185734749, 0.10012649744749069, -0.03276777267456055, -0.009650573134422302, -0.025059083476662636, 0.01382805872708559, -0.018218936398625374, 0.07269217073917389, 0.07623081654310226, 0.07252780348062515, -0.07595975697040558, 0.1333884596824646, -0.053672417998313904, -0.10949920117855072, -0.013953221961855888, 0.17765244841575623, -0.0016834094421938062, 0.03959840536117554, 0.051211804151535034, 0.04224974662065506, -0.06284112483263016, -0.020405273884534836, -0.056801293045282364, -0.020162347704172134, 0.09157814830541611, -0.0823264867067337, -0.09419772773981094, -0.05714591592550278, 0.09299818426370621, 0.0954940915107727, -0.07492958009243011, 0.11354026198387146, -0.09087569266557693, 0.08562693744897842, 0.04059378430247307, 0.10777042806148529, 0.038147665560245514, -0.003337726928293705, 0.10095299780368805, -0.08924420922994614, -0.019606349989771843, -0.022084195166826248, 0.0405963771045208, 0.06884927302598953, 0.08096379786729813, -0.08156320452690125, 0.08233720064163208, 0.035020604729652405, -0.07151412218809128, 0.039434678852558136, 0.15408170223236084, 0.12378926575183868, 0.03103039041161537, 0.11558728665113449, -0.02396145649254322, -0.06885118037462234, 0.10440390557050705, 0.0056566642597317696, 0.07736723124980927, 0.1266016662120819, 0.11869776248931885, -0.07011114805936813, 0.013780288398265839, -0.10510868579149246, -0.04368332773447037, -0.08796697854995728, -0.0023127354215830564, 0.0034725915174931288, -0.12257784605026245, 0.08527283370494843, -0.06431081891059875, 0.02092909999191761, 0.12418978661298752, 0.03986143320798874, 0.1069440022110939, 0.0847172737121582, -0.10028210282325745, 0.06345537304878235, -0.07518383860588074, 0.008349663577973843, 0.01950868032872677, -0.11430764943361282, 0.04521440342068672, -0.012069940567016602, -0.03760576620697975, -0.10165593773126602, 0.03852586820721626, -0.008454139344394207, 0.004396778531372547, -0.015507945790886879, -0.024235812947154045, -0.030951298773288727, -0.07251910865306854, 0.035116296261548996, -0.10372985899448395, 0.019248006865382195, -0.10734520852565765, -0.07574095577001572, -0.07207094132900238, 0.09576216340065002, 0.11263982206583023, 0.11445313692092896, -0.08344091475009918, 0.1132134422659874, -0.04178881645202637, -0.08497040718793869, -0.12307870388031006, -0.029266642406582832, -0.02188573032617569, -0.10898078233003616, 0.004835627507418394, -0.02393493428826332, -0.013590030372142792, -0.07330986857414246, 0.11859267950057983, -0.055934350937604904, 0.044739674776792526, -0.08277440071105957, -0.025806300342082977, 0.05059752240777016, -0.07994619011878967, -0.1211269199848175, 0.09275145083665848, -0.09849986433982849, -0.02295711077749729, 0.10778692364692688, 0.04420550540089607, -0.007308358792215586, -0.1244635209441185, 0.11666633188724518, 0.06610731035470963, -0.09244829416275024, 0.09654010087251663, -0.04946104437112808, 0.13382059335708618, 0.057942818850278854, -0.09262361377477646, -0.0014356363099068403, 0.0032329934183508158, 0.046363018453121185, 0.04385579377412796, -0.08853590488433838, -0.12055974453687668, 0.09414263069629669, -0.09949137270450592, -0.07373376190662384, 0.11476774513721466, -0.005670937709510326, -0.012552700936794281, -0.09669426828622818, 0.02939417026937008, -0.04496272653341293, -0.004126552492380142, -0.04726114869117737, 0.0809440165758133, -0.004701011814177036, 0.01819932833313942, -0.010926092974841595, -0.043779004365205765, 0.016326341778039932, -0.0027827343437820673, -0.02544790506362915, -0.04022892192006111, -0.043868694454431534, -0.060366541147232056, -0.10149645060300827, -0.04443970322608948, 0.0969451442360878, 0.007614717818796635, 0.042237307876348495, -0.010028167627751827, 0.003063393523916602, -0.09024560451507568, 0.02944127470254898, 0.03776654228568077, 0.025983300060033798, 0.019367890432476997, 0.04845498502254486, -0.11756536364555359, -0.0864691436290741, 0.04463353753089905, 0.01217762753367424, 0.10744801163673401, 0.06436299532651901, -0.055238038301467896, -0.03978784754872322, 0.12402188777923584, 0.08090077340602875, 0.01365565974265337, 0.06636082381010056, -0.060556862503290176, -0.003288855543360114, -0.05479731038212776, 0.03362489119172096, -0.03850381076335907, -0.11828374862670898, -0.034160301089286804, -0.058321334421634674, 0.12308895587921143, 0.02187490090727806, 0.10194722563028336, 0.05467117577791214, -0.0740073025226593, 0.07967314124107361, 0.02712998539209366, 0.06041712313890457, -0.12313602864742279, -0.11564593017101288, 0.09041574597358704, 0.02985518053174019, -0.05826575309038162, -0.06725741177797318, 0.054633766412734985, 0.006987969856709242, -0.1157291978597641, 0.007573755923658609, -0.019390862435102463, 0.09958489239215851, -0.022611046209931374, -0.12289781123399734, 0.1286880373954773, -0.06657432019710541, 0.1398705691099167, 0.06499659270048141, -0.019719351083040237, -0.034848403185606, 0.09588003903627396, 0.03847399353981018, -0.05258776992559433, -0.12101887166500092, -0.015140191651880741, -0.027435410767793655, 0.09413538873195648, 0.05571304261684418, -0.03626761585474014, 0.059522777795791626, 0.02550802379846573, 0.04065984860062599, -0.10649783164262772, -0.02040848322212696, -0.006403870414942503, -0.11682102084159851, -0.07709881663322449, -0.009070494212210178, -0.04104750603437424, 0.008465217426419258, -0.12515658140182495, -0.034339480102062225, 0.06994150578975677, 0.038147810846567154, 0.11149001121520996, 0.07035688310861588, -0.07571467757225037, -0.0012143178610131145, -0.06847099214792252, 0.09805047512054443, 0.01952255889773369, 0.09340397268533707, -0.016615312546491623, 0.12513822317123413, -0.024936288595199585, -0.08785484731197357, 0.08645817637443542, 0.09216222912073135, 0.08851753920316696, -0.04882843792438507, -0.03935534507036209, -0.05944570153951645, 0.09727220982313156, -0.07610922306776047, -0.07211507111787796, -0.0392875112593174, 0.1002996563911438, -0.11554978042840958, -0.06883764266967773, -0.012607868760824203, -0.01407945528626442, 0.00015374158101622015, -0.02690335549414158, 0.025277217850089073, -0.07331901788711548, 0.09332039207220078, 0.11136617511510849, 0.026303263381123543, -0.004830827470868826, -0.07702996581792831, -0.01870107650756836, 0.08596484363079071, 0.0673070177435875, 0.0160777997225523, 0.0789782777428627, -0.06682901084423065, -0.09136521816253662, 0.05203969404101372, 0.07367091625928879, 0.10965653508901596, -0.0578276701271534, -0.07390967756509781, -0.028681671246886253, -0.03576672449707985, -0.027056997641921043, -0.058830928057432175, 0.08398495614528656, 0.08201820403337479, 0.03881814703345299, -0.013820068910717964, 0.030481640249490738, 0.10739744454622269, -0.020510569214820862, 0.11983399093151093, -0.05887135863304138, 0.0367194339632988, -0.03284383937716484, -0.02920280583202839, 0.10800357162952423, -0.09551816433668137, -0.031774669885635376, -0.03862149268388748, -0.05682768300175667, -0.09491442143917084, -0.11498833447694778, -0.11142627894878387, 0.06745670735836029, -0.10420113801956177, 0.034383416175842285, 0.013830401003360748, -0.11849336326122284, 0.03193466737866402, 0.0018430872587487102, -0.11307843774557114, -0.06503107398748398, -0.0843624472618103, 0.11592515558004379, -0.07343786209821701, -0.029491763561964035, 0.06354834139347076, 0.03710618615150452, -0.002835821360349655, 0.1223473772406578, -0.029352864250540733, 0.054481618106365204, 0.007419764995574951, 0.012093707919120789, 0.047000616788864136, -0.025939323008060455, -0.08679548650979996, 0.018431100994348526, 0.10167951136827469, 0.08821651339530945, 0.13098971545696259, -0.1079724058508873, 0.017363160848617554, 0.089145727455616, -0.06626598536968231, -0.020513396710157394, -0.10917072743177414, -0.010170712135732174, -0.006513617001473904, -0.11223684251308441, 0.030880024656653404, -0.03809811547398567, -0.01807641237974167, 0.11717940121889114, 0.09538546949625015, -0.030518390238285065, -0.053018711507320404, 0.0646730437874794, 0.07704459875822067, 0.08743710815906525, -0.09295085072517395, 0.0815361961722374, -0.10074757784605026, 0.11378569900989532, 0.05261087045073509, 0.11487916857004166, -0.0760076716542244, -0.009021064266562462, -0.11406908184289932, 0.01329041551798582, 0.0016354514518752694, -0.08188193291425705, -0.10395883023738861, 0.057262253016233444, 0.030107097700238228, 0.05112263560295105, 0.02451477013528347, 0.018844300881028175, 0.11206712573766708, -0.06277752667665482, 0.10099148005247116, -0.07794652879238129, 0.002786702709272504, 0.03516889363527298, -0.03292657807469368, 0.014568078331649303, 0.010737445205450058, -0.0417756550014019, 0.03182842209935188, -0.026290450245141983, 0.008479940705001354, -6.203541852300987e-05, 0.024573763832449913, 0.10395815968513489, 0.05318819731473923, 0.049812253564596176, 0.038069359958171844, -0.07625839114189148, -0.13980095088481903, 0.03870607912540436, 0.06303443759679794, -0.13129234313964844, -0.059162795543670654, 0.03025614470243454, 0.0013435273431241512, 0.08954080194234848, -0.00671174144372344, 0.09471622109413147, -0.06050288304686546, 0.016996070742607117, 0.0038705202750861645, 0.043416790664196014, -0.00964791513979435, -0.06687352061271667, 0.07167980819940567, -0.026389919221401215, -0.006730963476002216, 0.13465088605880737, -0.08626016974449158, 0.008923049084842205, 0.0414663664996624, -0.034081656485795975, 0.11492018401622772, -0.11579705774784088, -0.03642263635993004, 0.06680641323328018, 0.09345334768295288, 0.0916939526796341, 0.018789447844028473, 0.011945773847401142, 0.04252558946609497, 0.06882156431674957, 0.015661941841244698, -0.0752854123711586, -0.10768567770719528, 0.11735992133617401, 0.07087238878011703, 0.07700663805007935, 0.06533502787351608, -0.0011209988733753562, 0.08524566888809204, 0.029804829508066177, 0.022011958062648773, -0.10949323326349258, 0.0921681597828865, -0.03601919487118721, 0.05012419819831848, -0.08398975431919098, -0.10604683309793472, 0.08445574343204498, -0.0667698085308075, -0.10122022032737732, 0.08989714831113815, 0.0923089012503624, 0.12688706815242767, -0.030818507075309753, 0.11048217862844467, -0.03254281356930733, 0.012106174603104591, 0.012353962287306786, -0.0930919498205185, 0.05934593081474304, 0.008687648922204971, 0.0815252810716629, -0.005504044238477945, 0.012202741578221321, -0.02652052976191044, -0.028981737792491913, 0.06704585999250412, -0.056770503520965576, -0.043167974799871445, 0.04846358671784401, 0.03142359107732773, 0.03353310748934746, 0.07037457823753357, 0.05836056172847748, -0.007993128150701523, 0.11525297909975052, -0.06741034239530563, -0.06866169720888138, -0.027939140796661377, -0.0951068252325058, 0.06466113030910492, 0.09310760349035263, -0.055763132870197296, -0.02487729676067829, 0.08773715794086456, 0.1225598081946373, 0.01877480372786522, 0.06805354356765747, 0.07563412189483643, 0.032014936208724976, -0.10543633997440338, 0.1091867983341217, 0.08487556129693985, -0.028953978791832924, 0.09092377126216888, 0.0829639658331871, -0.023449981585144997, 0.06084593012928963, 0.08609198033809662, 0.14323289692401886, 0.07709327340126038, -0.12405022978782654, 0.08398783206939697, 0.03883159160614014, -0.0719865933060646, 0.06950824707746506, -0.06546414643526077, -0.02629709430038929, 0.06459566950798035, -0.05389992892742157, -0.11695283651351929, 0.02528510056436062, 0.10268262028694153, -0.08486496657133102, 0.10149797052145004, -0.10517584532499313, -0.10667235404253006, -0.11442495882511139, 0.022580040618777275, -0.07905851304531097, 0.11808576434850693, 0.10348396748304367, 0.1487320065498352, -0.060610439628362656, 0.012660941109061241, 0.07162224501371384, 0.1128888800740242, 0.04564188793301582, 0.02691274881362915, 0.11976224929094315, 0.0509992390871048, 0.056426044553518295, 0.030125228688120842, 0.07775218039751053, 0.056158192455768585, -0.09425896406173706, 0.10454074293375015, 0.13849873840808868, 0.09166984260082245, 0.10781732201576233, -0.08660420030355453, 0.07807381451129913, -0.058658234775066376, 0.04039674997329712, 0.11389072239398956, -0.07699154317378998, -0.083734430372715, 0.07607143372297287, -0.015905268490314484, 0.0028776891995221376, 0.12242897599935532, 0.017254333943128586, -0.03695007786154747, 0.08804842829704285, 0.10690580308437347, -0.05239824205636978, -0.0827709510922432, -0.0590425506234169, 0.054742325097322464, 0.05863962695002556, 0.08473088592290878, -0.13285839557647705, -0.01759238913655281, 0.14467810094356537, -0.07703380286693573, 0.04036606475710869, -0.03943705931305885, -0.0003033445682376623, -0.08679696917533875, -0.006279947701841593, -0.11156778782606125, 0.08769825100898743, 0.04046829044818878, -0.052526626735925674, 0.08829544484615326, 0.030037136748433113, -0.04057235270738602, -0.07494089752435684, 0.10597028583288193, 0.01980581507086754, 0.09052702784538269, 0.049508512020111084, 0.0799122303724289, -0.006767572369426489, 0.089859738945961, 0.027254942804574966, -0.0140986954793334, -0.030109476298093796, -0.06282132863998413, 0.06762390583753586, 0.11374873667955399, 0.060057442635297775, -0.11349213123321533, 0.046961016952991486, 0.1726447492837906, -0.025912033393979073, 0.03734329342842102, 0.08479292690753937, 0.030435940250754356, 0.0013838360318914056, -0.10479219257831573, -0.029576806351542473, 0.07759668678045273, -0.046282581984996796, 0.032591503113508224, 0.13018180429935455, 0.045308440923690796, 6.2403611082118e-05, -0.038045886904001236, -0.08585257828235626, 0.05187104642391205, 0.03318767622113228, -0.09970467537641525, 0.08141300082206726, -0.07109588384628296, 0.0040963562205433846, 0.10160659998655319, -0.015058072283864021, 0.01762380637228489, -0.10501615703105927, -0.09004810452461243, 0.04516684636473656, -0.03938290476799011, 0.10002916306257248, 0.060878850519657135, 0.0088863056153059, -0.0962257981300354, 0.12390390038490295, -0.03353174403309822, -9.762889385456219e-05, -0.06172996759414673, 0.10381172597408295, -0.021857237443327904, -0.028093354776501656, -0.06230007857084274, 0.1348525881767273, 0.046837110072374344, 0.05158638954162598, 0.1548425853252411, 0.05618562176823616, -0.041192252188920975, -0.11918827891349792, -0.024764075875282288, 0.06053313985466957, 0.05085104703903198, -0.11234688013792038, -0.09910614788532257, -0.021045483648777008, -0.031283535063266754, 0.13016600906848907, 0.0766705572605133, -0.08941232413053513, -0.0924537405371666, -0.043900974094867706, 0.04418842867016792, 0.01798352226614952, 0.07660555094480515, -0.013036699034273624, -0.1254572570323944, -0.05566101893782616, 0.0673745721578598, -0.13722826540470123, -0.013596130535006523, 0.005827302113175392, 0.07817492634057999, 0.037497494369745255, 0.02340051718056202, -0.0656072273850441, -0.04857470095157623, -0.07043531537055969, -0.0649849995970726, -0.05267877131700516, -0.08990470319986343, 0.12719085812568665, -0.1060522049665451, 0.03319486975669861, 0.08095099031925201, -0.05014368146657944, 0.14443503320217133, -0.06146479770541191, 0.02630610577762127, 0.022871065884828568, 0.07637684047222137, 0.006097054574638605, 0.07816313207149506, 0.04030609875917435, -0.018023518845438957, -0.05425436794757843, -0.1393478661775589, -0.10294781625270844, 0.05506676807999611, -0.026285048574209213, -0.12449090927839279, -0.07747825980186462, 0.09977477043867111, 0.09585553407669067, -0.12008036673069, 0.08985856920480728, 0.0966385155916214, 0.01634015329182148, 0.016611497849225998, 0.09916414320468903, 0.1347871571779251, -0.06671001017093658, -0.03931545838713646, 0.06114211305975914, -0.08834370225667953, 0.10889390856027603, 0.12427104264497757, 0.03826666250824928, 0.09152868390083313, 0.06634914129972458, -0.025645537301898003, -0.05151820555329323, 0.03852662444114685, -0.058467842638492584, -0.057186100631952286, -0.10731751471757889, -0.04954826459288597, -0.10770228505134583, 0.0629170835018158, 0.049775734543800354, -0.06951084733009338, -0.08960352838039398, 0.07196208089590073, 0.05997888743877411, 0.12480712682008743, 0.10694704949855804, -0.1082933321595192, -0.09461378306150436, 0.022147681564092636, 0.05042541027069092, 0.09282154589891434, 0.09310851991176605, 0.06471378356218338, 0.11065644770860672, 0.12018053233623505, 0.04133174568414688, -0.10025489330291748, 0.05153600499033928, 0.05852669104933739, -0.047567903995513916, 0.06390795111656189, -0.025228217244148254, -0.06848934292793274, -0.05734509229660034, 0.09284574538469315, -0.05545280501246452, 0.004595869220793247, -0.09208851307630539, -0.08819657564163208, 0.04534297063946724, -0.05512228608131409, 0.03468581289052963, 0.06190596893429756, 0.1271551549434662, 0.03187982365489006, 0.03377866372466087, 0.04390235245227814, -0.05764845386147499, -0.014315619133412838, -0.04202502593398094, -0.12034498155117035, 0.07772205770015717, -0.03373713418841362, -0.06057116389274597, -0.10344991832971573, -0.1081424430012703, -0.10322748869657516, 0.00017292193660978228, 0.09065117686986923, 0.0783432126045227, -0.030536962673068047, 0.10848064720630646, 0.05260659381747246, 0.1087983027100563, -0.08896033465862274, -0.11320953816175461, -0.06768357753753662, 0.10098598152399063, 0.031053170561790466, 0.0984962210059166, -0.09341101348400116, -0.11829178035259247, 0.10069960355758667, -0.012942945584654808, 0.01891574077308178, -0.07322545349597931, 0.10268086940050125, 0.07081189751625061, 0.052180252969264984, -0.07929164171218872, -0.08366438746452332, 0.1337742805480957, -0.048849113285541534, 0.06416326016187668, 0.08023732900619507, -0.08598357439041138, -0.019298817962408066, -0.0895809605717659, -0.08210135251283646, -0.11546915024518967, 0.06917939335107803, -0.12406159192323685, -0.082163967192173, -0.12356548756361008, -0.07633282989263535, -0.06049766391515732, 0.024194765836000443, 0.09422938525676727, 0.11122407764196396, -0.0384359210729599, 0.10729057341814041, -0.019653091207146645, 0.10693365335464478, -0.0029762908816337585, -0.051906947046518326, -0.06789224594831467, 0.10178674012422562, -0.12347285449504852, -0.026063404977321625, 0.10919565707445145, 0.05298645421862602, 0.022165384143590927, 0.04195353761315346, 0.06104709580540657, 0.004220925737172365, -0.02371654286980629, 0.11460995674133301, -0.05229756608605385, -0.09197458624839783, 0.024130521342158318, 0.018079524859786034, -0.09225931763648987, 0.08289407193660736, -0.11619991064071655, -0.017972329631447792, -0.08686697483062744, 0.05730706453323364, 0.12120994180440903, -0.11124397814273834, -0.08901315182447433, -0.013583198189735413, 0.02176591567695141, 0.06660278886556625, 0.08460372686386108, 0.02163933590054512, 0.09263285249471664, -0.0711718499660492, 0.060427792370319366, 0.09231406450271606, -0.06932316720485687, 0.052912984043359756, 0.010452897287905216, -0.07799380272626877, 0.104835644364357, 0.050554074347019196, -0.005813951604068279, -0.031315263360738754, 0.10481111705303192, -0.03115253336727619, 0.03164776787161827, 0.016477104276418686, 0.023535121232271194, 0.03057699091732502, 0.02056744694709778, -0.027646468952298164, 0.04070869833230972, -0.11260786652565002, 0.06823966652154922, -0.028097664937376976, 0.04732462391257286, 0.11262009292840958, -0.00034053446142934263, -0.05635257437825203, -0.0728333443403244, -0.020268695428967476, 0.009309224784374237, 0.02876083180308342, 0.018212566152215004, 0.06450122594833374, 0.04050097241997719, 0.1249048113822937, 0.025028493255376816, 0.09861114621162415, -0.11461104452610016, 0.1166859045624733, 0.011234310455620289, -0.03409246727824211, -0.1204913929104805, 0.11900481581687927, -0.022560594603419304, -0.03793804347515106, -0.056163474917411804, 0.07959531992673874, -0.04579979181289673, -0.01886390894651413, -0.036400239914655685, 0.04573685675859451, -0.024291465058922768, -0.011596595868468285, 0.03147569298744202, -0.06540388613939285, 0.09969604015350342, -0.0677543357014656, 0.061375971883535385, -0.02179071307182312, -0.06774396449327469, -0.0664413794875145, -0.05807117000222206, -0.03069249354302883, 0.042503926903009415, -0.05022866278886795, 0.10585251450538635, -0.023265419527888298, 0.09894540905952454, -0.024359721690416336, 0.06439919769763947, 0.009216981939971447, -0.10701503604650497, 0.009429446421563625, -0.06062593683600426, 0.0037197917699813843, 0.030907941982150078, 0.008373770862817764, 0.09507768601179123, -0.0005516389501281083, -0.05492691695690155, -0.10894858837127686, 0.07065396010875702, -0.07766371965408325, 0.07328279316425323, -0.012035800144076347, 0.11908372491598129, 0.005470457952469587, 0.04880732297897339, 0.05271776393055916, -0.022055290639400482, -0.060019172728061676, 0.09698490053415298, -0.07261098176240921, 0.012948122806847095, -0.09783817827701569, -0.07995408028364182, 0.11319200694561005, 0.07982344925403595, -0.06849152594804764, -0.09610622376203537, -0.07211445271968842, -0.012400341220200062, -0.0602293387055397, -0.01580764912068844, 0.04084843397140503, 0.059542134404182434, 0.041512906551361084, -0.06529901921749115, 0.07298123091459274, 0.02614985592663288, 0.03934168443083763, 0.044501546770334244, 0.11373529583215714, 0.057901766151189804, -0.02728985622525215, -0.09013369679450989, -0.10482347756624222, 0.030146420001983643, 0.07948053628206253, 0.051846105605363846, -0.07640694081783295, 0.01021835207939148, 0.03415783867239952, 0.10187716782093048, -0.11021032184362411, -0.004406097810715437, -0.03269267454743385, -0.08304859697818756, 0.045304328203201294, -0.09867445379495621, -0.06843896955251694, 0.10940401256084442, -0.11018236726522446, -0.047541189938783646, 0.06027968227863312, 0.023439837619662285, -0.05905812606215477, -0.01197081245481968, 0.007104999851435423, 0.020337341353297234, 0.03562386333942413, 0.07722951471805573, -0.09529010206460953, 0.04854709282517433, -0.049993809312582016, -0.11867830157279968, 0.012098705396056175, 0.11794726550579071, 0.07670386135578156, 0.04816135764122009, -0.0906316339969635, -0.003052713116630912, -0.010014703497290611, -0.0494423545897007, -0.007340011186897755, -0.004967950750142336, 0.04437921196222305, -0.07488984614610672, -0.10240473598241806, 0.06801440566778183, -0.030859123915433884, 0.09459148347377777, 0.03102327138185501, 0.13064371049404144, 0.06486723572015762, 0.10432181507349014, 0.06028579920530319, 0.0013294806703925133, -0.035795167088508606, 0.11606081575155258, -0.09633509814739227, -0.06305834650993347, -0.06841360032558441, -0.012157248333096504, 0.12077832967042923, -0.11151387542486191, -0.018057148903608322, -0.10957109183073044, -0.051981888711452484, -0.0034595283214002848, -0.033926717936992645, -0.018767714500427246, 0.10703941434621811, -0.05016295984387398, -0.01027266588062048, 0.04648225009441376, 0.0374349020421505, -0.051821134984493256, -0.049378182739019394, 0.12517797946929932, -0.04176633059978485, -0.04044793173670769, 0.11682353913784027, 0.00924909207969904, -0.06887280195951462, 0.05607154965400696, 0.030921779572963715, -0.11380057036876678, -0.037737518548965454, 0.11707250028848648, 0.09539695829153061, 0.1249627098441124, -0.08421234786510468, 0.059868406504392624, -0.0011789799900725484, 0.10058072209358215, -0.015456411987543106, -0.11602605134248734, -0.08457020670175552, 0.06994825601577759, -0.05339953303337097, -0.031339798122644424, -0.012754191644489765, -0.0341467559337616, 0.14179463684558868, -0.02113575115799904, 0.02864242158830166, 0.024346973747015, 0.07662729918956757, -0.03537933900952339, -0.08177700638771057, 0.017192546278238297, 0.04347357153892517, -0.07086507976055145, -0.026308516040444374, 0.014273335225880146, -0.11440069228410721, -0.0364394374191761, 0.06743331998586655, -0.003830098081380129, 0.09823949635028839, -0.004207434132695198, -0.02696000225841999, -0.04186892509460449, -0.10497459024190903, -0.04546119645237923, 0.017917385324835777, 0.12086239457130432, -0.10553575307130814, 0.11015821248292923, 0.08814694732427597, -0.12146788090467453, -0.08987580984830856, 0.0493934191763401, 0.04218773916363716, -0.12260589748620987, 0.006868612486869097, -0.02744380757212639, -0.02371969260275364, -0.023091580718755722, 0.10121285915374756, 0.0883200541138649, 0.02708485908806324, -0.07654976099729538, -0.055519670248031616, -0.024519480764865875, 0.00911126472055912, -0.10573052614927292, 0.020904360339045525, 0.04122591391205788, -0.09608762711286545, -0.06077339127659798, -0.048045430332422256, 0.08446136116981506, 0.10724645107984543, -0.13466979563236237, -0.06704247742891312, -0.1145811602473259, 0.02455361746251583, -0.04698741063475609, 0.0671592429280281, -0.12277079373598099, 0.10156600177288055, -0.11148534715175629, 0.07828182727098465, -0.03009110689163208, -0.12394380569458008, -0.023744437843561172, 0.02242356352508068, 0.0253819078207016, 0.02946481481194496, 0.1113610565662384, 0.09350496530532837, 0.00770228635519743, -0.07452194392681122, -0.028375795111060143, -0.08009947836399078, 0.09064614027738571, 0.057359423488378525, -0.10966245830059052, -0.09130295366048813, -0.015984557569026947, -0.02684374526143074, -0.032340552657842636, -0.03284367546439171, 0.0021771718747913837, -0.07110545039176941, -0.12818846106529236, 0.10838790237903595, -0.07999268919229507, -0.10119287669658661, 0.07473944127559662, -0.06574582308530807, 0.0640023872256279, 0.0006992850685492158, -0.08456217497587204, 0.07470677047967911, -0.01915976032614708, -0.03598498925566673, -0.023835046216845512, -0.08298277854919434, -0.03290839120745659, 0.016318893060088158, 0.08219213783740997, 0.08995797485113144, 0.10196733474731445, -0.11164229363203049, 0.03295983374118805, -0.11505036801099777, 0.08671595901250839, -0.12019268423318863, 0.013140980154275894, -0.0778246819972992, 0.005359278060495853, 0.05347742885351181, -0.07678504288196564, -0.054478298872709274, -0.016283702105283737, -0.1209874302148819, -0.07270460575819016, 0.10083068162202835, 0.11949769407510757, 0.053127046674489975, -0.001736134523525834, 0.11011525243520737, -0.10976254194974899, 0.05580321326851845, 0.03330236300826073, 0.025645749643445015, 0.0046256412751972675, 0.09875942021608353, 0.0020880200900137424, 0.10851484537124634, -0.0005582015146501362, 0.08258926868438721, 0.07281993329524994, 0.09171206504106522, -0.06826741993427277, 0.03839496895670891, -0.03179829567670822, -0.06627762317657471, -0.08812028914690018, -0.022281035780906677, 0.038366321474313736, -0.02011573687195778, 0.003745101625099778, -0.021355390548706055, 0.06625103205442429, 0.09348061680793762, -0.05687619000673294, -0.03910566493868828, -0.12074983865022659, -0.11331116408109665, 0.08728403598070145, -0.07781519740819931, 0.009984135627746582, -0.04926729574799538, -0.11510331183671951, 0.02591373212635517, 0.03878794610500336, -0.041772954165935516, 0.0379917286336422, 0.08423510938882828, 0.06325012445449829, 0.07719887048006058, 0.11873500794172287, -0.08630140870809555, 0.08595334738492966, 0.0925740897655487, -0.06696905195713043, -0.01368456706404686, -0.07547823339700699, 0.046209197491407394, -0.06443477421998978, -0.06324397772550583, 0.08942966163158417, 0.06861888617277145, -0.06537454575300217, 0.050198525190353394, 0.050441354513168335, 0.07143746316432953, -0.05780038237571716, 0.043150804936885834, 0.09217046946287155, -0.12074723094701767, 0.07671736180782318, -0.06344248354434967, 0.05313238501548767, -0.08454681932926178, 0.13827402889728546, -0.02123187482357025, -0.024563664570450783, -0.10757101327180862, 0.09282046556472778, -0.0731905847787857, 0.03617699816823006, 0.11149553954601288, 0.0316220223903656, -0.02197963371872902, 0.014738599769771099, -0.011496035382151604, -0.038902901113033295, 0.06351354718208313, 0.10781494528055191, 0.0047002327628433704, 0.006765368394553661, 0.07599518448114395, 0.026760684326291084, -0.08377186954021454, 0.0334569588303566, 0.0336579792201519, 0.06918680667877197, 0.03869984298944473, -0.12384556233882904, 0.14698727428913116, 0.09150023013353348, 0.10754621028900146, -0.030832378193736076, -0.06276802718639374, 0.09217847138643265, -0.03241095691919327, 0.004847701173275709, 0.08860868960618973, 0.038366202265024185, 0.053248219192028046, 0.11418621987104416, -0.09260222315788269, 0.033282287418842316, -0.034225963056087494, -0.11272633820772171, 0.042836472392082214, -0.04432336613535881, -0.06284742057323456, 0.002416627947241068, -0.12402357161045074, -0.058313943445682526, 0.06282856315374374, -0.05065884441137314, 0.023143501952290535, 0.06253742426633835, 0.06905317306518555, 0.03958691656589508, 0.03311995789408684, 0.044120904058218, 0.027674006298184395, -0.04979876056313515, 0.13886868953704834, 0.06873533874750137, -0.08259819447994232, 0.0995139479637146, -0.06457556784152985, -0.11602427065372467, 0.0833786204457283, 0.051195427775382996, -0.049727004021406174, -0.1079459860920906, 0.044559627771377563, -0.07709460705518723, -0.12486035376787186, 0.05062331259250641, -0.10361107438802719, -0.04394863545894623, -0.044864729046821594, -0.01160162128508091, 0.11872079223394394, 0.1010269895195961, 0.1376248300075531, 0.036638516932725906, 0.056794703006744385, -0.051088232547044754, -0.06841860711574554, -0.0993724912405014, 0.06270842254161835, -0.03282976150512695, -0.03144688159227371, -0.1268686205148697, -0.11549452692270279, 0.09706062823534012, -0.006013290025293827, -0.021785462275147438, -0.11694139242172241, 0.08789444714784622, -0.11827581375837326, -0.02676565758883953, -0.024108946323394775, 0.0636715218424797, 0.1339324563741684, -0.01549504604190588, -0.04673147201538086, 0.02677641063928604, -0.04952866584062576, 0.045499879866838455, -0.0039723520167171955, -0.0894225463271141, -0.06255115568637848, 0.09328215569257736, -0.01995505392551422, -0.12280438095331192, 0.06980340927839279, -0.0030642389319837093, -0.047935664653778076, 0.07864153385162354, 0.026149164885282516, 0.09536299109458923, -0.052980661392211914, -0.0195375457406044, 0.10252057760953903, 0.06545322388410568, -0.08186009526252747, 0.06691202521324158, -0.09542137384414673, -0.11253882199525833, -0.053340572863817215, -0.006781481206417084, 0.06569726020097733, 0.05384618788957596, -0.06989405304193497, -0.01843733713030815, 0.03607603907585144, -0.07660821825265884, 0.11112211644649506, 0.021182715892791748, -0.12181058526039124, -0.02834911085665226, 0.06758411228656769, -0.10909648984670639, -0.024276116862893105, 0.09657984972000122, -0.0641997754573822, 0.032728783786296844, 0.06296749413013458, -0.08584612607955933, 0.0014878655783832073, 0.13076213002204895, -0.03365544229745865, 0.08433297276496887, -0.11431609839200974, 0.05881441757082939, 0.02364209294319153, -0.08951667696237564, 0.06878124177455902, -0.1171611025929451, 0.1328919231891632, -0.012034161016345024, -0.10624845325946808, 0.07078409940004349, 0.07600177824497223, -0.10002867132425308, -0.07845216244459152, 0.005223039072006941, 0.100563645362854, 0.12365970015525818, 0.060056205838918686, 0.1395277976989746, 0.03433455526828766, 0.10913831740617752, 0.08937348425388336, -0.03401340916752815, 0.09451978653669357, 0.06587717682123184, -0.11040663719177246, -0.05706232413649559, -0.00807325728237629, 0.07734524458646774, 0.011968466453254223, 0.035147737711668015, -0.03800676390528679, -0.05211643502116203, 0.026299769058823586, -0.08435499668121338, -0.014572328887879848, 0.13598686456680298, 0.04954172670841217, 0.08075156807899475, 0.10381250828504562, -0.05174704268574715, -0.10106125473976135, -0.019940409809350967, -0.07499012351036072, 0.06038986146450043, -0.0742054209113121, 0.0635615661740303, -0.127732053399086, 0.1201520636677742, 0.02545398846268654, -0.022722573950886726, -0.06596652418375015, 0.02348894625902176, 0.026989813894033432, 0.0758378654718399, 0.05324176698923111, 0.10061019659042358, 0.09746735543012619, -0.11853887885808945, 0.07245586067438126, 0.0803297609090805, -0.05570753291249275, 0.07721985876560211, 0.08165822178125381, -0.09464149177074432, 0.016811411827802658, 0.03694840148091316, -0.09819099307060242, -0.06581440567970276, 0.01688215509057045, 0.014913653954863548, 0.09926553070545197, 0.0019931981805711985, 0.0413411408662796, -0.05129513144493103, 0.0765203908085823, 0.08048764616250992, -0.06842964142560959, -0.013041879050433636, -0.01011594943702221, -0.05209878832101822, -0.021135274320840836, -0.04400473088026047, -0.06557539105415344, 0.0743117406964302, 0.0024613053537905216, -0.09067889302968979, 0.045283298939466476, 0.06584711372852325, -0.10923019051551819, 0.03713512793183327, -0.11301832646131516, 0.01077254954725504, 0.1126144528388977, -0.030434299260377884, -0.12077271938323975, -0.00873262993991375, 0.11211477220058441, -0.07346966117620468, 0.05070552974939346, -0.09214818477630615, 0.087544284760952, 0.01575210504233837, -0.10105998814105988, 0.09824638068675995, 0.07423341274261475, -0.08208183199167252, 0.011966719292104244, 0.0028938394971191883, -0.11146373301744461, -0.009294066578149796, 0.07153920084238052, -0.03599861264228821, -0.06289255619049072, -0.09387709200382233, -0.07404927164316177, 0.0816461518406868, -0.01628749817609787, -0.08226105570793152, -0.05314290151000023, -0.1200331300497055, -0.0375240184366703, -0.09078311920166016, -0.03459689021110535, 0.0038566605653613806, -0.0004803107294719666, -0.10967309772968292, 0.09357555210590363, -0.09476985037326813, -0.030397875234484673, -0.04207281023263931, -0.016823790967464447, -0.12100079655647278, -0.07044810056686401, 0.021143583580851555, 0.05047311261296272, -0.11750633269548416, 0.09903901815414429, -0.0797668918967247, -0.1296919882297516, 0.12897904217243195, -0.027799051254987717, -0.07727672159671783, -0.0556890070438385, -0.036136332899332047, 0.005987461190670729, 0.04453207552433014, 0.04568395018577576, 0.023863449692726135, 0.01679168827831745, -0.1056901142001152, -0.09100182354450226, -0.07347695529460907, -0.05601077154278755, 0.04312238097190857, -0.04366051033139229, 0.14165811240673065, 0.001897310372442007, 0.12659789621829987, -0.01479785144329071, 0.10256402939558029, 0.11587715893983841, 0.02031131461262703, 0.01356431096792221, 0.07873670756816864, -0.0156788919121027, -0.09162642061710358, -0.012840528972446918, 0.06483262777328491, 0.1023128405213356, 0.07371748983860016, 0.1139029860496521, 0.05683713033795357, 0.09150601923465729, 0.0609162263572216, 0.1003628671169281, -0.08408725261688232, -0.11633088439702988, 0.0014609097270295024, 0.01859823241829872, -0.06710414588451385, -0.007606834638863802, -0.012238842435181141, -0.07571747153997421, 0.00012649687414523214, 0.002356114098802209, -0.03320124372839928, 0.0961579829454422, 0.11887996643781662, 0.056119538843631744, 0.06221359223127365, -0.05223814770579338, -0.04184524342417717, -0.09377297013998032, -0.11483759433031082, 0.13105323910713196, -0.037036921828985214, -0.08401855826377869, -0.09364982694387436, 0.08034361898899078, 0.08422355353832245, -0.11997753381729126, 0.11424523591995239, -0.019860824570059776, 0.07111099362373352, -0.017277581617236137, 0.030438506975769997, -0.0786767452955246, 0.12925544381141663, -0.07460182905197144, 0.07897204905748367, -0.06123645603656769, 0.00359435030259192, 0.0426824688911438, -0.06469780206680298, -0.08609525114297867, 0.007686950266361237, -0.10597098618745804, -0.11708091199398041, -0.11284758895635605, 0.13343514502048492, -0.07905345410108566, -0.10709080845117569, 0.10703366994857788, -0.11425213515758514, -0.025344086810946465, -0.02238878235220909, -0.0756298303604126, 0.09079396724700928, 0.12425817549228668, -0.06925518065690994, -0.03691579028964043, 0.08886225521564484, -0.02750004082918167, -0.009277284145355225, 0.0755406841635704, -0.0917196199297905, 0.09206052869558334, 0.012404934503138065, -0.06211867555975914, 0.07840828597545624, 0.12329553812742233, -0.02555401436984539, 0.09730634838342667, -0.08613085001707077, -0.03430335223674774, 0.01840999722480774, -0.06300804018974304, 0.019849475473165512, -0.01931515522301197, -0.06387396156787872, -0.07899895310401917, -0.10080944001674652, -0.07883859425783157, -0.017039630562067032, -0.06885989010334015, 0.02130845934152603, -0.08454972505569458, 0.10285137593746185, -0.0007127818535082042, 0.0915537029504776, 0.027615400031208992, 0.021063610911369324, -0.03177735209465027, 0.11953282356262207, 0.038286156952381134, 0.1183704361319542, -0.028948767110705376, -0.032142523676157, 0.0220634788274765, -0.08242471516132355, 0.09299381822347641, -0.047749146819114685, 0.04135289415717125, 0.14872175455093384, -0.07949371635913849, 0.08640006929636002, -0.08391792327165604, 0.05785860866308212, -0.09341267496347427, 0.0452042855322361, -0.011686394922435284, -0.09117760509252548, -0.09288237243890762, -0.039466552436351776, 0.07159151136875153, -0.042702894657850266, 0.006346596870571375, 0.08183757960796356, 0.037517815828323364, 0.05003199353814125, -0.04490124434232712, 0.021701078861951828, -0.09841713309288025, -0.03483730927109718, -0.078767791390419, -0.014592224732041359, 0.04533596336841583, -0.023355305194854736, 0.031305454671382904, 0.016808049753308296, -0.002145752077922225, 0.11140639334917068, 0.06177699565887451, 0.07644739747047424, 0.033013854175806046, -0.1188138797879219, 0.02003253623843193, -0.046645764261484146, -0.000139860188937746, 0.05971987918019295, 0.025542892515659332, -0.02211962826550007, -0.04443379491567612, -0.05946314334869385, -0.04762982577085495, 0.09097211807966232, 0.030562659725546837, 0.08493109792470932, 0.04714811220765114, 0.11899783462285995, -0.08423182368278503, -0.09383350610733032, -0.0057409536093473434, -0.10313768684864044, 0.08119343221187592, 0.03365176171064377, 0.037904292345047, 0.13901400566101074, 0.042037319391965866, -0.044557660818099976, 0.005301589611917734, 0.07513369619846344, 0.007839040830731392, -0.003025570884346962, -0.03924713283777237, 0.03488706797361374, 0.12453470379114151, 0.03424305468797684, -0.07812482118606567, 0.03888952359557152, -0.02385810948908329, 0.071205273270607, 0.09165996313095093, -0.058491870760917664, -0.05798530578613281, -0.055876437574625015, -0.0011152097722515464, -0.09476614743471146, -0.05658424273133278, -0.1216418519616127, 0.12225161492824554, -0.05692420154809952, 0.029605470597743988, 0.11082794517278671, -0.04199416562914848, -0.013230144046247005, -0.032331887632608414, -0.11180158704519272, -0.027744751423597336, 0.06038141995668411, -0.09831304848194122, -0.005775248631834984, 0.06975818425416946, 0.04076068475842476, 0.036394476890563965, -0.05691917613148689, 0.010862685739994049, 0.09132169187068939, -0.10595683753490448, -0.0014452000614255667, 0.0686529278755188, -0.020099351182579994, 0.08633389323949814, -0.03868706524372101, -0.014641358517110348, 0.033454764634370804, -0.06987534463405609, 0.09114232659339905, 0.03154594078660011, 0.029044000431895256, -0.12162313610315323, 0.03455202654004097, 0.0971585139632225, 0.021505607292056084, -0.11828415840864182, -0.05288045108318329, -0.11584433168172836, -0.03276053071022034, 0.014867032878100872, 0.05927817150950432, 0.11223277449607849, 0.07745326310396194, 0.022571755573153496, 0.11092391610145569, -0.08031074702739716, -0.033813685178756714, -0.016796445474028587, -0.0010915766470134258, 0.01359353307634592, 0.11369730532169342, -0.0779159665107727, -0.0021806228905916214, 0.021281616762280464, 0.11529740691184998, 0.04572252556681633, -0.06020320579409599, 0.094866082072258, 0.09072336554527283, 0.0767161026597023, 0.08939844369888306, -0.020752517506480217, -0.05515424162149429, -0.10644502937793732, 0.10938575863838196, -0.12396549433469772, 0.07041244208812714, -0.12280179560184479, 0.1074909046292305, 0.056502871215343475, -0.049297917634248734, -0.0004437555908225477, -0.05443362146615982, -0.009215034544467926, 0.04305386170744896, 0.0020456393249332905, 0.09323789179325104, -0.06902521103620529, 0.07012245804071426, 0.04477044567465782, -0.1028824970126152, 0.061973415315151215, 0.0500224307179451, 0.0029143942520022392, 0.03446132317185402, -0.09129641950130463, 0.009161869063973427, 0.03551914542913437, 0.003533722599968314, 0.107658252120018, 0.08349084109067917, 0.05236061289906502, 0.03069022297859192, -0.11958155035972595, -0.05401818826794624, 0.10019433498382568, 0.09675663709640503, -0.0037033536937087774, -0.012963158078491688, 0.08006462454795837, 0.08050740510225296, -0.040261268615722656, 0.05532902479171753, 0.026927994564175606, 0.12067218869924545, 0.04518440365791321, 0.022576535120606422, 0.01427548099309206, 0.10513151437044144, 0.03713498264551163, 0.11108840256929398, 0.05116848647594452, -0.005826267413794994, 0.011805696412920952, -0.05458221212029457, -0.07875783741474152, 0.019019151106476784, 0.06124254688620567, -0.014421192929148674, 0.1060682088136673, -0.10274488478899002, -0.09789986908435822, -0.11383334547281265, 0.003726221388205886, -0.09948853403329849, 0.06942548602819443, 0.06610789895057678, -0.007190091069787741, 0.09736139327287674, -0.08042744547128677, 0.04942573234438896, -0.1056482195854187, 0.014518934302031994, -0.052587516605854034, -0.06651125848293304, 0.035577964037656784, -0.013285796158015728, 0.13768945634365082, -0.08312242478132248, 0.012061136774718761, -0.028732912614941597, 0.11194755882024765, 0.06228068098425865, -0.11407505720853806, 0.11696462333202362, -0.12022565305233002, 0.12793013453483582, -0.1096678227186203, 0.09175042808055878, -0.0376572459936142, 0.09587112814188004, -0.1255761682987213, -0.016736231744289398, -0.09389074891805649, -0.11773614585399628, -0.10304728150367737, -0.09567797183990479, -0.024234715849161148, -0.07047904282808304, -0.020567266270518303, -0.04461444914340973, 0.06403287500143051, 0.14166496694087982, -0.0912257730960846, 0.10859096050262451, -0.12604601681232452, -0.08527310937643051, 0.012192033231258392, 0.10600090026855469, -0.029075684025883675, 0.07532132416963577, 0.11520730704069138, 0.07310131937265396, -0.06922393292188644, -0.017317727208137512, 0.08491627871990204, 0.03050466999411583, -0.07514233142137527, 0.059032291173934937, 0.10015251487493515, -0.0066556609235703945, 0.04233788698911667, -0.06512192636728287, -0.08509864658117294, 0.07558437436819077, 0.14658619463443756, 0.07134650647640228, 0.12753009796142578, 0.10707256197929382, 0.008190157823264599, -0.05729210749268532, -0.02477301098406315, 0.06255501508712769, -0.059442564845085144, -0.11988480389118195, -0.03620593622326851, -0.0437360554933548, -0.045045770704746246, 0.013064426369965076, 0.06511759757995605, -0.009917300194501877, -0.05843895301222801, -0.00929642841219902, 0.0018027372425422072, -0.06687922030687332, -0.08548558503389359, -0.06211951747536659, 0.12154786288738251, -0.13033141195774078, -0.10059743374586105, 0.08735275268554688, 0.017321214079856873, 0.05148572847247124, 0.05733778327703476, 0.11721406877040863, -0.05159854143857956, 0.14120863378047943, 0.13195684552192688, -0.02226644568145275, 0.03307129442691803, 0.08533041179180145, 0.012049810960888863, -0.10056086629629135, 0.12703002989292145, -0.00795234739780426, -0.032113783061504364, 0.047360967844724655, -0.11023128777742386, 0.11188557744026184, 0.043489959090948105, -0.06215072423219681, 0.06215192750096321, 0.09355684369802475, 0.05296967551112175, 0.08794685453176498, -0.035588864237070084, 0.006356064695864916, 0.030095485970377922, 0.026781437918543816, 0.02206321805715561, 0.07980301976203918, -0.0936635211110115, 0.059111338108778, 0.02315446361899376, -0.08204526454210281, -0.07965391129255295, -0.12153381109237671, 0.0969400405883789, -0.07000335305929184, 0.007824542000889778, 0.04090021550655365, 0.015503622591495514, 0.10590308904647827, 0.07717683166265488, -0.08987967669963837, 0.029010524973273277, -0.038356881588697433, -0.11095885932445526, -0.07872752100229263, -0.11278951168060303, -0.05163702741265297, -0.10686605423688889, -0.06427972763776779, 0.024405332282185555, 0.0990545004606247, -0.013416692614555359, 0.005587195511907339, 0.005120246671140194, -0.09575526416301727, -0.04908538982272148, 0.11731088906526566, -0.021520251408219337, 0.04835771396756172, -0.009451065212488174, 0.03462906554341316, -0.10612166672945023, 0.06598667800426483, -0.0787823498249054, 0.048764120787382126, -0.08692675083875656, 0.030343588441610336, 0.13005009293556213, -0.016075236722826958, 0.1062842383980751, 0.09393922984600067, -0.03447306156158447, -0.0073528168722987175, 0.11083153635263443, -0.10340212285518646, 0.05894027277827263, -0.0564739927649498, 0.04461449757218361, -0.12237828969955444, 0.08009977638721466, 0.046722784638404846, 0.04204783961176872, -0.07719001173973083, 0.1339046061038971, 0.05781491845846176, 0.10973033308982849, 0.027773529291152954, 0.07400748878717422, -0.10171876102685928, 0.012037004344165325, -0.03893055021762848, 0.0003091571561526507, -0.07348280400037766, -0.062061965465545654, -0.03653364256024361, 0.06614820659160614, -0.05239805951714516, -0.053244344890117645, -0.02062932588160038, -0.10898581147193909, 0.028151778504252434, -0.00350156775675714, 0.06889322400093079, 0.03212333098053932, 0.05733625218272209, -0.04953622817993164, -0.057357024401426315, -0.011855184100568295, 0.03451443836092949, -0.03103414550423622, -0.0671715959906578, 0.13258422911167145, -0.03271541744470596, -0.02382858842611313, -0.04444267973303795, 0.06789478659629822, -0.007066827267408371, -0.008302035741508007, -0.06511742621660233, 0.004743326921015978, -0.06984572857618332, 0.09120901674032211, 0.08634119480848312, -0.013605116866528988, 0.09468770772218704, -0.12403503060340881, 0.003952898550778627, 0.010370868258178234, 0.0006005117320455611, 0.06404611468315125, -0.10200429707765579, -0.11718077212572098, -0.10876129567623138, 0.08136565238237381, -0.04314688965678215, 0.0169016532599926, -0.10626817494630814, 0.0018445659661665559, -0.02000250294804573, -0.04955749586224556, -0.10993348062038422, 0.05715056508779526, 0.11573159694671631, 0.07248269766569138, 0.033268291503190994, 0.12548255920410156, 0.07457008957862854, 0.0331997312605381, -0.11516168713569641, -0.07428427785634995, -0.07594237476587296, 0.016965050250291824, -0.08181259781122208, 0.04680155962705612, 0.04908030480146408, -0.05630021542310715, -0.06264565140008926, -0.028051797300577164, -0.022878047078847885, -0.1194048598408699, -0.11811380088329315, -0.0019042191561311483, 0.0010350911179557443, -0.03971824422478676, -0.09928935766220093, -0.01337803341448307, -0.07217127829790115, 0.026274878531694412, -0.04482626914978027, -0.1027180403470993, 0.014066077768802643, -0.017727628350257874, 0.06314390897750854, -0.061693061143159866, 0.05932413786649704, -0.061342258006334305, 0.07272433489561081, -0.02354489080607891, 0.05093557387590408, 0.008992310613393784, -0.13276369869709015, -0.06786065548658371, 0.017588358372449875, -0.07504331320524216, -0.048257581889629364, 0.004826786462217569, 0.04585407301783562, 0.0881044790148735, -0.0975186824798584, -0.07025627791881561, 0.10954862833023071, -0.021800413727760315, -0.013837303034961224, 0.1183258518576622, -0.06514027714729309, 0.0025880190078169107, -0.04989377409219742, -0.03640775755047798, -0.1021113470196724, -0.09786141663789749, 0.020982855930924416, 0.06791333109140396, 0.017253410071134567, -0.08856228739023209, 0.039778053760528564, -0.13903100788593292, 0.09368041157722473, 0.03054785169661045, 0.08473720401525497, 0.029982350766658783, 0.1182965487241745, -0.1071646586060524, -0.0073992046527564526, -0.019651612266898155, 0.007496780715882778, 0.11620830744504929, 0.14276428520679474, 0.08781053125858307, 0.11715663969516754, 0.05059237778186798, -0.09891976416110992, 0.0681334063410759, 0.12057830393314362, 0.11076358705759048, -0.10294196754693985, -0.09151124954223633, 0.05785628408193588, 0.0979037657380104, 0.12690229713916779, -0.07709889113903046, -0.05952594801783562, -0.018425341695547104, 0.0870680883526802, -0.029389817267656326, 0.04366622120141983, -0.0020046907011419535, 0.005251987371593714, 0.005986389704048634, 0.03912371024489403, 0.02170083113014698, -0.0019009077223017812, 0.025489497929811478, 0.09368901699781418, 0.029553787782788277, 0.0739867314696312, 0.11960704624652863, -0.050284191966056824, -0.08522374927997589, 0.03501736745238304, -0.07349055260419846, -0.06768453121185303, 0.08451852202415466, -0.0573209673166275, -0.045618172734975815, 0.05781913176178932, -0.02439063787460327, -0.06386618316173553, 0.05573626607656479, 0.07042454183101654, 0.09480631351470947, -0.005754553247243166, -0.08404828608036041, -0.09817091375589371, -0.09769315272569656, -0.030556371435523033, -0.04139647260308266, -0.024670396000146866, 0.0206814743578434, -0.07651267945766449, -0.11569485068321228, 0.013792166486382484, 0.03159964457154274, -0.08833333849906921, -0.009732775390148163, -0.08711910992860794, 0.0495629645884037, -0.1307007372379303, 0.04054739698767662, -0.0027534652035683393, 0.0723523199558258, -0.1200895681977272, -0.07176955789327621, 0.06430470198392868, 0.10211801528930664, 0.023705344647169113, -0.0001823374768719077, 0.08453994989395142, 0.11673282831907272, -0.0229403804987669, 0.08356329053640366, -0.08243820816278458, -0.11902844160795212, -0.08566197007894516, 0.057231027632951736, -0.11129768192768097, 0.11932025849819183, 0.006980696227401495, 0.007269375491887331, -0.127909854054451, -0.0447089746594429, 0.0663205161690712, -0.06196434050798416, -0.005852087400853634, 0.03653404489159584, 0.11361223459243774, 0.029778720811009407, -0.05393025279045105, -0.009976455941796303, 0.046030692756175995, 0.038978882133960724, -0.032534897327423096, -0.11322116106748581, 0.0697413757443428, 0.004502876661717892, -0.08249954134225845, -0.1038503423333168, -0.043428774923086166, -0.02141059748828411, 0.003024864476174116, 0.10311352461576462, 0.004165858495980501, 0.0437503419816494, -0.06651325523853302, -0.03601721674203873, 0.027958504855632782, -0.11625702679157257, -0.04718933627009392, -0.11746346950531006, -0.042490314692258835, -0.06284771859645844, -0.003180424217134714, -0.026515649631619453, 0.08202691376209259, 0.11166339367628098, -0.09379944205284119, 0.04587695375084877, 0.1137516126036644, -0.0521383099257946, -0.06640418618917465, 0.10336839407682419, 0.02384299226105213, 0.03085385076701641, -0.08754712343215942, -0.0018755384953692555, -0.07607381790876389, -0.06775262206792831, -0.04491361230611801, -0.045732371509075165, 0.11075478047132492, 0.04513641819357872, -0.005926009267568588, -0.010554124601185322, 0.0008986300672404468, 0.021006058901548386, 0.08061695098876953, -0.05952936038374901, 0.01926429197192192, 0.08521796762943268, -0.09825004637241364, -0.09893184155225754, 0.044475313276052475, 0.023455072194337845, 0.11592718958854675, 0.02350703254342079, 0.09641434997320175, -0.008800351060926914, 0.042188990861177444, 0.11838897317647934, 0.06508419662714005, 0.08290331065654755, -0.06812089681625366, 0.08171997964382172, -0.1044652909040451, -0.09526833891868591, 0.039285656064748764, 0.09126284718513489, -0.10581354796886444, -0.11808939278125763, 0.013987548649311066, -0.028759315609931946, 0.03405767306685448, -0.029783861711621284, -0.09406121075153351, 0.08262557536363602, -0.06357655674219131, -0.0028436037246137857, -0.028781957924365997, 0.09500596672296524, -0.034445080906152725, 0.12128297984600067, 0.10162867605686188, 0.08002346754074097, -0.07328272610902786, -0.05784163996577263, -0.11195799708366394, 0.10513504594564438, 0.11143210530281067, 0.0464632548391819, -0.05206669867038727, 0.052215252071619034, -0.06780973821878433, -0.04881519079208374, 0.041985299438238144, 0.0493088960647583, 0.087864950299263, -0.03598320111632347, -0.08640912175178528, 0.04230722412467003, -0.012243201956152916, -0.1221235916018486, -0.09074920415878296, 0.06077126786112785, -0.08238013088703156, -0.03035305254161358, -0.06525257229804993, 0.03655393794178963, 0.06288621574640274, 0.08698660880327225, 0.016811924055218697, -0.03910117968916893, -0.1257597655057907, -0.07135523110628128, 0.04692389816045761, -0.054919421672821045, 0.08250884711742401, 0.092206209897995, -0.10794544219970703, 0.12767985463142395, 0.10983587801456451, -0.04534515365958214, 0.03683499991893768, -0.02273811772465706, -0.06657149642705917, -0.00876130536198616, 0.06315586715936661, -0.004520069342106581, -0.02351796254515648, -0.1062026247382164, 0.009701496921479702, 0.01032637245953083, 0.07622359693050385, -0.05354747548699379, 0.052585262805223465, -0.034794844686985016, 0.07762229442596436, 0.0890374407172203, 0.019321801140904427, 0.04711137339472771, -0.11038748174905777, -0.008536133915185928, -0.024590373039245605, -0.0553763285279274, -0.009453793056309223, -0.04585358873009682, -0.05376070737838745, -0.011713361367583275, -0.09743484109640121, 0.09229506552219391, 0.11445049196481705, -0.09407401829957962, 0.03462233021855354, -0.022094711661338806, 0.08969391882419586, 0.047716449946165085, 0.0897301658987999, 0.009844728745520115, -0.11624439805746078, 0.007745095994323492, 0.08403092622756958, 0.11516337096691132, -0.08644269406795502, -0.10949374735355377, 0.028302647173404694, 0.06843481212854385, 0.040201470255851746, -0.09421677142381668, 0.08087293803691864, 0.0023669127840548754, -0.02874669060111046, 0.09350777417421341, -0.06576185673475266, -0.024124860763549805, -0.08619633316993713, -0.007652842439711094, -0.10465575009584427, -0.008338275365531445, 0.048579346388578415, 0.04241311177611351, -0.010185541585087776, 0.047652825713157654, 0.05061255767941475, -0.010473203845322132, -0.004472002852708101, 0.027725744992494583, -0.015739114955067635, 0.023890260607004166, 0.10306036472320557, -0.11901730298995972, 0.12480857968330383, 0.08956299722194672, -0.10967507213354111, 0.05440656840801239, -0.0058770631439983845, 0.0026730962563306093, -0.013003269210457802, -0.07886827737092972, 0.10788244009017944, -0.07160661369562149, -0.08746849000453949, -0.06235131993889809, 0.08079538494348526, -0.07108313590288162, -0.07312524318695068, 0.11280514299869537, 0.07053437829017639, 0.09723224490880966, -0.11350987106561661, -0.049903322011232376, -0.09585631638765335, 0.03291482850909233, -0.05970096215605736, 0.03520407900214195, 0.035834893584251404, -0.04162003844976425, 0.02899593487381935, 0.056377772241830826, -0.053629275411367416, -0.09092916548252106, -0.030913980677723885, 0.05471987649798393, 0.031070491299033165, 0.020025091245770454, 0.06520380824804306, -0.0013727328041568398, -0.1284206509590149, -0.07993918657302856, 0.02253355272114277, -0.1052519828081131, 0.027477972209453583, 0.13426923751831055, 0.042130082845687866, 0.05847670137882233, 0.06367164850234985, 0.11823233217000961, -0.005400646012276411, -0.043474916368722916, 0.0565052330493927, 0.05826175957918167, 0.06787257641553879, -0.05753491818904877, -0.11996041983366013, 0.07085864245891571, -0.07458572834730148, 0.09751049429178238, 0.12814472615718842, 0.09244780242443085, 0.038861751556396484, -0.01500613335520029, 0.1140926256775856, -0.1266602724790573, -0.04244324564933777, 0.05600176006555557, -0.033999789506196976, 0.050704777240753174, 0.07627315074205399, 0.016352809965610504, 0.060953911393880844, -0.05693373829126358, 0.0105330441147089, -0.07542696595191956, 0.02921781875193119, -0.08886188268661499, 0.07481824606657028, 0.08892566710710526, 0.09497113525867462, -0.05461462587118149, 0.10678001493215561, -0.11403944343328476, 0.14987784624099731, -0.021505849435925484, 0.02310270071029663, -0.027270548045635223, 0.08631503582000732, 0.0699354037642479, -0.05917118489742279, -0.05860203504562378, -0.09199151396751404, 0.0932614803314209, 0.04734044894576073, -0.0002381797239650041, -0.014974129386246204, 0.11472047120332718, -0.011979831382632256, -0.11076702177524567, -0.08251076936721802, -0.021287573501467705, 0.023024845868349075, 0.07759755849838257, 0.04876691475510597, -0.09458515048027039, -0.11310223489999771, 0.06019849330186844, -0.03052310086786747, 0.07968378812074661, 0.022955186665058136, 0.06631419062614441, -0.06986777484416962, 0.015542106702923775, 0.026990273967385292, -0.02841475047171116, -0.03476805239915848, -0.08363541960716248, -0.06734073907136917, 0.03369687870144844, -0.0018538895528763533, 0.025849919766187668, 0.06323051452636719, -0.046188004314899445, 0.04191098362207413, -0.07878632098436356, -0.09803266823291779, 0.029480133205652237, -0.011736764572560787, 0.07941312342882156, -0.04423297196626663, 0.030045121908187866, -0.12092088162899017, -0.09563551843166351, 0.08339685201644897, 0.0424695648252964, -0.08521119505167007, -0.10026948899030685, 0.024463478475809097, -0.10108064860105515, -0.036910515278577805, -0.02104269154369831, -0.10275492072105408, -0.00045324891107156873, 0.01860554702579975, 0.03299534320831299, 0.05828269198536873, -0.024479089304804802, -0.06970582157373428, -0.11983107030391693, -0.058300573378801346, 0.016433633863925934, -0.1064475029706955, -0.037564318627119064, 0.12292524427175522, 0.05973648652434349, -0.0157083198428154, -0.11624952405691147, 0.12326537072658539, 0.07564894109964371, -0.037789709866046906, 0.07362784445285797, -0.010463087819516659, 0.07819201797246933, -0.0003207793633919209, 0.113404780626297, 0.006955053191632032, -0.03826718404889107, -0.0008612723322585225, 0.007735378108918667, -0.019934017211198807, 0.053680773824453354, -0.10387790948152542, -0.07809044420719147, 0.11208876967430115, -0.05866299569606781, 0.12077591568231583, 0.004100293852388859, -0.022721080109477043, 0.05062125623226166, 0.009646721184253693, 0.009293381124734879, 0.10850420594215393, 0.09665948152542114, -0.12085889279842377, -0.058368515223264694, -0.025715017691254616, -0.046587951481342316, 0.049214914441108704, 0.0764884501695633, -0.09165351092815399, 0.059110064059495926, 0.06716235727071762, 0.034411344677209854, -0.10533078759908676, 0.02649352140724659, 0.04466388747096062, -0.004091346170753241, -0.08818439394235611, 0.09085997939109802, -0.0721278265118599, 0.009414942935109138, -0.0002989112981595099, -0.10526424646377563, -0.019573092460632324, -0.007010173983871937, -0.0643218383193016, -0.10899221152067184, -0.10084576904773712, -0.12186072766780853, 0.025310354307293892, -0.08329259604215622, 0.02138723060488701, 0.01245819590985775, -0.0863569974899292, -0.038173969835042953, 0.02925732173025608, 0.05660238489508629, -0.1131960079073906, -0.0025319026317447424, -0.02160361409187317, -0.10523218661546707, -0.0028928418178111315, 0.06269858777523041, -0.08117051422595978, 0.12620943784713745, -0.0005051753832958639, -0.04223453253507614, 0.10165778547525406, -0.026651086285710335, -0.054817840456962585, -0.05758044123649597, 0.06494346261024475, 0.08590765297412872, -0.020479092374444008, 0.050028882920742035, 0.09640276432037354, 0.013671539723873138, -0.10524927079677582, 0.06342444568872452, 0.061891891062259674, 0.09852060675621033, -0.0410626046359539, -0.06639175862073898, -0.0037616901099681854, 0.020118320360779762, 0.09139803051948547, 0.05250868573784828, 0.013716158457100391, -0.12314073741436005, 0.05454802140593529, 0.06559965759515762, 0.12044309079647064, -0.0396634116768837, -0.06394405663013458, 0.03830987215042114, -0.014109455980360508, 0.10113117098808289, -0.003167970571666956, 0.06152473762631416, -0.004902440123260021, -0.0749557614326477, -0.10407591611146927, 0.025651857256889343, -0.11228938400745392, 0.10905011743307114, -0.09289932250976562, -0.05936987325549126, -0.08035840094089508, -0.06903444975614548, 0.03244742751121521, -0.09267323464155197, -0.08360347896814346, -0.1171635240316391, -0.09339673817157745, -0.0760796070098877, 0.0849824920296669, 0.0812663808465004, -0.043844353407621384, 0.10464482009410858, -0.1206308975815773, 0.06904803961515427, 0.10684119164943695, 0.05711299180984497, 0.053673990070819855, -0.12061113864183426, 0.028943002223968506, 0.007212373428046703, -0.007395098451524973, -0.01566128432750702, 0.02734476700425148, 0.06006454676389694, 0.07503572851419449, -0.08133817464113235, 0.0544745996594429, 0.04329374432563782, -0.04368148371577263, 0.12168779224157333, -0.1192721426486969, -0.07035534083843231, -0.09978638589382172, -0.009562673978507519, -0.013670079410076141, 0.09089832752943039, -0.10842180252075195, 0.05452210456132889, -0.09312880039215088, -0.08501120656728745, -0.04160631448030472, -0.014713946729898453, 0.08280760049819946, -0.001836707117035985, -0.020024150609970093, 0.03240795433521271, -0.12033136934041977, 0.09144040942192078, 0.045895472168922424, 0.08999674022197723, 0.027365459129214287, -0.08057436347007751, 0.06679566949605942, -0.09394397586584091, -0.018722541630268097, 0.004611197393387556, 0.1178627535700798, -0.022336279973387718, -0.11201231926679611, -0.046712297946214676, 0.061615195125341415, 0.03960810601711273, 0.05048953369259834, 0.11854241788387299, 0.056889280676841736, -0.00039490399649366736, -0.09855812788009644, 0.01727696880698204, -0.020527752116322517, -0.07361878454685211, 0.003113351995125413, 0.021009536460042, 0.11863229423761368, 0.0877717062830925, -0.017743892967700958, 0.00264633446931839, 0.010819421149790287, -0.06112872064113617, -0.07596886157989502, -0.1091575026512146, 0.030068928375840187, 0.10308808088302612, 0.05335145443677902, 0.023275017738342285, -0.07089793682098389, 0.010867561213672161, 0.06446563452482224, -0.06986410915851593, -0.14243873953819275, 0.030474267899990082, -0.13833191990852356, -0.04234922677278519, -0.007983568124473095, 0.1068146601319313, -0.0938924103975296, -0.013780462555587292, 0.030288293957710266, 0.005600136239081621, 0.049554262310266495, 0.03255106881260872, 0.0008334033191204071, 0.03317062184214592, 0.09510131925344467, -0.12685979902744293, 0.015338500030338764, 0.03293907269835472, 0.06277374923229218, 0.041717078536748886, -0.1107102781534195, 0.05487409606575966, -0.03694649785757065, -0.0025608567520976067, 0.06941717118024826, 0.05175471305847168, 0.13093583285808563, 0.12107089161872864, 0.12567391991615295, -0.06267506629228592, 0.009192407131195068, -0.032762009650468826, -0.018680179491639137, 0.16931886970996857, -0.08622545003890991, -0.028384126722812653, -0.001742513501085341, -0.038090094923973083, 0.012764960527420044, -0.06157973036170006, 0.029863066971302032, 0.03288540244102478, -0.056800566613674164, 0.11463871598243713, 0.056267693638801575, 0.06234518066048622, 0.07572443783283234, -0.12968559563159943, -0.11132380366325378, -0.0074190436862409115, 0.08615007996559143, 0.08326605707406998, -0.05065396428108215, 0.022851400077342987, 0.05485173687338829, 0.012330467812716961, 0.08097671717405319, -0.06224891170859337, 0.13691182434558868, 0.04756537079811096, 0.015939490869641304, -0.06689196825027466, 0.03176392987370491, 0.058401383459568024, -0.032404933124780655, -0.01771688275039196, 0.01800858974456787, -0.0004233510699123144, 0.14515522122383118, 0.06396453827619553, 0.0032856445759534836, -0.06105591356754303, 0.09254579991102219, 0.07178264856338501, -0.009504354558885098, -0.09800194948911667, 0.07211095094680786, 0.009131435304880142, 0.08622560650110245, 0.04116528481245041, -0.07143815606832504, 0.062409937381744385, 0.09674863517284393, 0.0755883976817131, -0.0007451177225448191, -0.018627585843205452, -0.01620396412909031, -0.022198209539055824, 0.10523607581853867, 0.0935465395450592, 0.08088793605566025, 0.1271202713251114, 0.050432730466127396, -0.0037197950296103954, 0.07841455191373825, 0.12647263705730438, -0.06347423791885376, -0.1427721083164215, 0.005111079663038254, -0.031022273004055023, -0.09303055703639984, -0.11495555937290192, 0.10501504689455032, -0.08634733408689499, -0.089406818151474, -0.0025257354136556387, 0.0918978750705719, 0.09119123965501785, 0.07436678558588028, 0.030834795907139778, -0.0782945454120636, 0.02672821283340454, -0.03432483971118927, -0.02709014341235161, -0.11147912591695786, 0.03445103392004967, -0.021819796413183212, -0.026465149596333504, -0.07713358104228973, -0.08553081750869751, 0.11032877117395401, -0.04361037164926529, -0.06413496285676956, -0.11153680086135864, 0.0033317033667117357, 0.07410749047994614, 0.07977579534053802, -0.0870220959186554, -0.030859878286719322, 0.10506443679332733, -0.03016982413828373, -0.02726355753839016, 0.035972341895103455, 0.11581441760063171, 0.05080144852399826, 0.12522588670253754, -0.05374005064368248, -0.0813174620270729, 0.08647343516349792, 0.023161185905337334, -0.017949851229786873, -0.02332049235701561, 0.11998368799686432, 0.08685306459665298, -0.02040366642177105, 0.1116691306233406, -0.057592760771512985, 0.07918661087751389, -0.04580898582935333, 0.10975233465433121, 0.10170900821685791, 0.042533472180366516, -0.10534818470478058, 0.04354514926671982, -0.08108659833669662, 0.13210321962833405, -0.04602999985218048, -0.036515429615974426, 0.10181575268507004, 0.028367340564727783, 0.06887715309858322, 0.06583137810230255, -0.09393632411956787, 0.11417635530233383, 0.10218222439289093, -0.08952520787715912, 0.07458969205617905, -0.0866427943110466, 0.08031976968050003, -0.04651661589741707, -0.10517532378435135, -0.08076228201389313, 0.09379185736179352, 0.05666832998394966, 0.02747441455721855, -0.010403413325548172, 0.018600521609187126, 0.01902923919260502, -0.08983822166919708, 0.0462290421128273, 0.05359630286693573, 0.01717410981655121, -0.012360332533717155, 0.02193549834191799, -0.005425103008747101, -0.0032782142516225576, -0.0945800319314003, 0.02161179482936859, -0.07603191584348679, -0.07547638565301895, 0.05951541289687157, 