{
    "input_shape": [
        null,
        19
    ],
    "output_shape": [
        null,
        1
    ],
    "activations": "Relu",
    "layers": [
        {
            "weight": [
                0.12353872507810593,
                -0.17239981889724731,
                -0.1078142374753952,
                -0.19597963988780975,
                -0.2359074503183365,
                0.061657171696424484,
                -0.17791414260864258,
                0.1804267168045044,
                -0.19707395136356354,
                0.03961179032921791,
                0.1906253695487976,
                0.07637447863817215,
                -0.1874275654554367,
                0.15959110856056213,
                0.06466425210237503,
                0.08470910787582397,
                0.13793744146823883,
                -0.1648634821176529,
                0.13510337471961975,
                0.15610091388225555,
                0.22204509377479553,
                0.028829729184508324,
                -0.15191636979579926,
                -0.24674320220947266,
                -0.15972566604614258,
                0.053647689521312714,
                -0.20562301576137543,
                -0.22815804183483124,
                0.1318192481994629,
                0.22168214619159698,
                -0.05067099630832672,
                0.15078559517860413,
                0.15649108588695526,
                0.11151697486639023,
                0.10678810626268387,
                -0.10136426240205765,
                0.027839217334985733,
                -0.05052332580089569,
                0.1414254903793335,
                0.14890332520008087,
                -0.19721169769763947,
                -0.21558628976345062,
                0.18797938525676727,
                0.005847280845046043,
                0.11790565401315689,
                0.0934022068977356,
                -0.09237068146467209,
                -0.16252410411834717,
                -0.043407831341028214,
                -0.19257275760173798,
                0.08283597230911255,
                -0.06262270361185074,
                0.18051011860370636,
                -0.10509678721427917,
                0.0656886026263237,
                0.3394230306148529,
                0.20006325840950012,
                0.10477200895547867,
                0.22540690004825592,
                0.18131712079048157,
                -0.17816607654094696,
                -0.0898716151714325,
                0.07836778461933136,
                -0.19264109432697296,
                -0.03569822758436203,
                -0.029621167108416557,
                -0.14007768034934998,
                -0.04267485812306404,
                0.17547616362571716,
                -0.21746976673603058,
                0.13000139594078064,
                -0.12421201169490814,
                -0.14357970654964447,
                -0.05559753626585007,
                0.32759299874305725,
                0.25338098406791687,
                -0.1370163857936859,
                -0.14671139419078827,
                -0.1528349369764328,
                0.11694391071796417,
                -0.22330106794834137,
                0.11795590072870255,
                -0.17881450057029724,
                0.07448410242795944,
                0.1971115618944168,
                0.17605385184288025,
                0.0949835255742073,
                -0.22325581312179565,
                -0.10974974185228348,
                -0.12633171677589417,
                -0.15128512680530548,
                -0.19378581643104553,
                -0.3790753185749054,
                -0.10393007844686508,
                -0.11926645785570145,
                0.0978299081325531,
                0.057222045958042145,
                -0.12892024219036102,
                -0.10507897287607193,
                0.00806878600269556,
                -0.012361458502709866,
                0.20823676884174347,
                -0.056657660752534866,
                -0.11549770087003708,
                -0.16616716980934143,
                0.06152224913239479,
                -0.1661841869354248,
                0.10950272530317307,
                0.04615846648812294,
                -0.191087543964386,
                -0.07929148524999619,
                -0.23682984709739685,
                0.0789903774857521,
                0.14848297834396362,
                -0.1837388426065445,
                -0.09236996620893478,
                -0.15364596247673035,
                -0.1946861892938614,
                -0.010708495043218136,
                -0.13176555931568146,
                -0.07429889589548111,
                -0.07980674505233765,
                -0.029741045087575912,
                -0.12344315648078918,
                -0.21393407881259918,
                -0.15867921710014343,
                -0.04261600226163864,
                0.025078650563955307,
                0.14966189861297607,
                0.11109545826911926,
                0.2750159502029419,
                0.32135888934135437,
                -0.25239765644073486,
                -0.04606658220291138,
                0.1618965119123459,
                0.01636815257370472,
                0.021771326661109924,
                0.20952078700065613,
                0.2258237898349762,
                -0.11728646606206894,
                0.1492534726858139,
                -0.056252770125865936,
                -0.04043466970324516,
                -0.21020804345607758,
                -0.16554144024848938,
                0.21431532502174377,
                -0.09589491039514542,
                0.1677427887916565,
                0.16468201577663422,
                0.28193962574005127,
                -0.26778456568717957,
                0.08674829453229904,
                0.08506523817777634,
                0.022156525403261185,
                0.13868840038776398,
                -0.034756287932395935,
                0.0461038276553154,
                -0.21506154537200928,
                0.18810586631298065,
                -0.025364015251398087,
                -0.1840808242559433,
                0.18633823096752167,
                0.1616118848323822,
                -0.21688109636306763,
                -0.009332545101642609,
                0.06834837049245834,
                0.176853746175766,
                -0.13046760857105255,
                0.09371237456798553,
                -0.13687658309936523,
                0.16893282532691956,
                0.19525370001792908,
                -0.059559352695941925,
                0.10168471187353134,
                0.016925668343901634,
                -0.20142494142055511,
                0.22476418316364288,
                -0.2000025063753128,
                -0.15137043595314026,
                0.15271009504795074,
                -0.10610485076904297,
                0.032572537660598755,
                -0.03544778376817703,
                0.06378643959760666,
                -0.14756208658218384,
                0.05683305487036705,
                -0.02336994744837284,
                -0.024333162233233452,
                0.09838538616895676,
                -0.2607276141643524,
                0.07460357248783112,
                -0.10512585937976837,
                0.04505712538957596,
                -0.1370835304260254,
                0.18180996179580688,
                -0.13788945972919464,
                0.1754613071680069,
                -0.08889471739530563,
                -0.06736494600772858,
                0.1636752188205719,
                -0.16598837077617645,
                -0.06838688999414444,
                0.13373340666294098,
                -0.025621039792895317,
                -0.11674652248620987,
                0.05095064640045166,
                0.14386853575706482,
                0.010256350971758366,
                0.006604177877306938,
                0.21994252502918243,
                0.17327749729156494,
                -0.06469085067510605,
                0.15974381566047668,
                0.10875636339187622,
                0.11610233038663864,
                0.13161030411720276,
                0.08318731188774109,
                -0.034577932208776474,
                0.13281777501106262,
                0.04407241567969322,
                0.15184824168682098,
                -0.007625092752277851,
                -0.12452316284179688,
                0.19888971745967865,
                -0.09426657855510712,
                0.23254379630088806,
                -0.05556883290410042,
                -0.07701070606708527,
                -0.1973477452993393,
                -0.09522975236177444,
                0.050522103905677795,
                0.05895727872848511,
                0.1654593050479889,
                0.18348295986652374,
                -0.1131226196885109,
                0.08448752760887146,
                -0.03788674995303154,
                -0.08655523508787155,
                -0.1286287009716034,
                0.23490378260612488,
                0.011047989130020142,
                -0.20397081971168518,
                0.20187918841838837,
                -0.10818317532539368,
                -0.06492342054843903,
                -0.016527192667126656,
                0.22298255562782288,
                -0.03785533830523491,
                -0.009777288883924484,
                0.17419379949569702,
                -0.2356829047203064,
                -0.08590325713157654,
                0.19012492895126343,
                -0.12542614340782166,
                -0.09734342992305756,
                0.1920444667339325,
                -0.04061284288764,
                -0.18785494565963745,
                0.13055860996246338,
                -0.12714622914791107,
                0.15111708641052246,
                0.2053547501564026,
                -0.09916655719280243,
                0.006599135231226683,
                0.12075711786746979,
                -0.3545815050601959,
                0.0648423358798027,
                0.10723410546779633,
                0.21282896399497986,
                0.0942242294549942,
                0.17517511546611786,
                -0.23381982743740082,
                0.07278791069984436,
                0.21456997096538544,
                0.03922267258167267,
                0.12432529032230377,
                0.1556137502193451,
                -0.11966978758573532,
                -0.11169849336147308,
                0.010488241910934448,
                -0.08906534314155579,
                0.028970517218112946,
                -0.19260986149311066,
                -0.21868987381458282,
                0.07760902494192123,
                -0.05032730475068092,
                0.20829983055591583,
                -0.09895636141300201,
                -0.047400183975696564,
                -0.0016753023955971003,
                0.02003745548427105,
                -0.02976352348923683,
                0.10252215713262558,
                0.1576453447341919,
                -0.1391879916191101,
                0.177212655544281,
                -0.18445727229118347,
                0.08234353363513947,
                -0.12135478854179382,
                0.17646612226963043,
                0.0598912388086319,
                -0.007966904900968075,
                -0.24777984619140625,
                -0.1934610903263092,
                0.1550551950931549,
                0.03184179961681366,
                0.06842794269323349,
                -0.13024362921714783,
                -0.11406048387289047,
                -0.08383478969335556,
                0.133283793926239,
                -0.09469122439622879,
                -0.09060671180486679,
                0.0761849507689476,
                0.03127273544669151,
                0.16013549268245697,
                0.18139047920703888,
                -0.1650211066007614,
                0.15772274136543274,
                -0.10458393394947052,
                -0.018944673240184784,
                0.14965051412582397,
                -0.3683150112628937,
                -0.06710240244865417,
                -0.184408038854599,
                0.007112432736903429,
                -0.03588683158159256,
                -0.07877139747142792,
                -0.06646297127008438,
                0.12134893238544464,
                0.21443235874176025,
                -0.1059313490986824,
                -0.1144261583685875,
                0.231963649392128,
                0.03746316209435463,
                -0.09070011228322983,
                -0.020451463758945465,
                -0.2024160772562027,
                0.19215556979179382,
                -0.13910526037216187,
                -0.1104692742228508,
                0.03728150203824043,
                -0.030891178175807,
                -0.1844204217195511,
                -0.2071571797132492,
                -0.1547979861497879,
                0.24128952622413635,
                -0.1046246588230133,
                0.05966454744338989,
                -0.05691128969192505,
                -0.008362247608602047,
                0.033111684024333954,
                -0.019297471269965172,
                -0.006637828890234232,
                0.1408160924911499,
                0.11302302032709122,
                0.05056898668408394,
                -0.08261527121067047,
                -0.09066131711006165,
                -0.21945418417453766,
                -0.09566687792539597,
                -0.0019006389193236828,
                0.10617851465940475,
                0.10092562437057495,
                -0.21704986691474915,
                0.0641336590051651,
                0.07117779552936554,
                -0.23418840765953064,
                0.13337849080562592,
                -0.15295098721981049,
                0.015554972924292088,
                -0.034403249621391296,
                0.07168463617563248,
                -0.08878002315759659,
                -0.08145146071910858,
                -0.019592029973864555,
                -0.12353531271219254,
                -0.2448498010635376,
                -0.16315336525440216,
                -0.11117824167013168,
                0.07256009429693222,
                -0.1664084792137146,
                0.17271150648593903,
                -0.07618946582078934,
                -0.1718107908964157,
                -0.2094806432723999,
                -0.2272099405527115,
                -0.14359910786151886,
                0.14420469105243683,
                0.07008962333202362,
                -0.13980552554130554,
                -0.03662077710032463,
                -0.2010991871356964,
                0.12750545144081116,
                0.15166546404361725,
                -0.22055961191654205,
                0.300286203622818,
                -0.0560775026679039,
                -0.05322203040122986,
                0.22831827402114868,
                -0.1996169090270996,
                0.058793868869543076,
                -0.17666450142860413,
                -0.1403922736644745,
                0.006780542898923159,
                0.22976836562156677,
                0.20494262874126434,
                0.19926266372203827,
                -0.09104635566473007,
                -0.07333860546350479,
                -0.19166022539138794,
                -0.2232392281293869,
                0.10735849291086197,
                0.08615777641534805,
                0.013012497685849667,
                -0.28675320744514465,
                -0.13815748691558838,
                0.15803101658821106,
                0.21368548274040222,
                0.20772626996040344,
                -0.14584770798683167,
                -0.14259333908557892,
                -0.10251004993915558,
                -0.02172948606312275,
                -0.1676606982946396,
                -0.007833970710635185,
                0.21669915318489075,
                -0.18006117641925812,
                -0.0798039361834526,
                -0.05954016372561455,
                0.03767796978354454,
                0.022518709301948547,
                -0.07834330201148987,
                -0.13331440091133118,
                0.0026370470877736807,
                -0.17170289158821106,
                0.2541290819644928,
                -0.0174472164362669,
                0.18373148143291473,
                0.1507251113653183,
                0.05549734830856323,
                -0.2056940346956253,
                -0.18727995455265045,
                -0.14988474547863007,
                -0.170787513256073,
                0.023442374542355537,
                -0.13712872564792633,
                -0.0713551789522171,
                0.17913001775741577,
                0.023955607786774635,
                0.1768862009048462,
                -0.06300799548625946,
                0.04674392566084862,
                0.08161801844835281,
                0.03983580321073532,
                -0.02631973661482334,
                -0.11683987081050873,
                -0.045018214732408524,
                -0.1859920471906662,
                0.037010252475738525,
                -0.09296795725822449,
                -0.13320708274841309,
                0.003171938704326749,
                -0.13368093967437744,
                0.14143939316272736,
                -0.027488242834806442,
                0.17600028216838837,
                0.07650930434465408,
                -0.12482092529535294,
                -0.2338007092475891,
                0.2323063313961029,
                0.09456832706928253,
                -0.10106100887060165,
                -0.1920274794101715,
                0.03687078878283501,
                -0.0849585011601448,
                0.16830787062644958,
                0.0023301304318010807,
                0.03012046590447426,
                -0.06375464797019958,
                0.21211563050746918,
                0.18146437406539917,
                0.05224256217479706,
                -0.19207385182380676,
                -0.1906144618988037,
                0.2315068244934082,
                0.13022327423095703,
                0.15190058946609497,
                0.13836990296840668,
                0.24359287321567535,
                -0.11886178702116013,
                -0.14513438940048218,
                0.010400359518826008,
                0.09062553197145462,
                -0.16059546172618866,
                -0.1734602004289627,
                -0.17731702327728271,
                0.0785004198551178,
                -0.01534268632531166,
                -0.039849162101745605,
                0.08025707304477692,
                0.055608417838811874,
                -0.1454676240682602,
                0.0551181323826313,
                0.012013636529445648,
                0.18529364466667175,
                -0.04102122411131859,
                -0.01494458969682455,
                -0.04346722364425659,
                0.11398810893297195,
                0.07188441604375839,
                0.004049590323120356,
                -0.0819312259554863,
                -0.16492991149425507,
                0.07827325910329819,
                0.01911056600511074,
                0.18774044513702393,
                -0.00789708737283945,
                -0.21104653179645538,
                -0.18005840480327606,
                0.19672715663909912,
                0.15835048258304596,
                0.06094096601009369,
                0.20300179719924927,
                -0.13051000237464905,
                0.21228910982608795,
                -0.10547381639480591,
                0.04289674386382103,
                0.03395400196313858,
                0.16905103623867035,
                0.030969848856329918,
                -0.01853744499385357,
                -0.02886546216905117,
                0.12744899094104767,
                0.10820066928863525,
                -0.05935867875814438,
                -0.00513342022895813,
                -0.001688635442405939,
                0.1891068071126938,
                -0.21492841839790344,
                0.06391489505767822,
                0.18822592496871948,
                0.044625263661146164,
                0.18433979153633118,
                -0.18463057279586792,
                0.04178597033023834,
                -0.12281463295221329,
                0.21481119096279144,
                0.08715851604938507,
                0.046919167041778564,
                0.1538139134645462,
                0.04809846356511116,
                -0.06781776249408722,
                -0.11260832101106644,
                -0.20068269968032837,
                -0.011049093678593636,
                0.07878806442022324,
                -0.06302222609519958,
                -0.08708840608596802,
                0.11186259239912033,
                0.0757564827799797,
                -0.2201986312866211,
                0.14255569875240326,
                -0.16518235206604004,
                0.027125284075737,
                -0.06713058799505234,
                -0.13442718982696533,
                -0.24308814108371735,
                0.14400102198123932,
                0.3353124260902405,
                -0.1066204309463501,
                -0.035860683768987656,
                0.17547447979450226,
                -0.05508511886000633,
                -0.009771944023668766,
                -0.17366895079612732,
                -0.006057007238268852,
                -0.23692026734352112,
                0.013793841004371643,
                -0.11792803555727005,
                0.013923650607466698,
                -0.17401175200939178,
                0.11709471046924591,
                0.2129894345998764,
                -0.038369081914424896,
                0.11374590545892715,
                -0.20115207135677338,
                -0.08244471997022629,
                0.016646506264805794,
                -0.22695675492286682,
                0.11381092667579651,
                0.22473442554473877,
                -0.03332376852631569,
                0.18455064296722412,
                0.2172052413225174,
                -0.12995341420173645,
                -0.10953711718320847,
                -0.0661330595612526,
                -0.10435599088668823,
                0.16943414509296417,
                -0.14846666157245636,
                0.04623598977923393,
                0.1336485594511032,
                0.034992773085832596,
                0.07777191698551178,
                -0.18241477012634277,
                -0.1325354427099228,
                -0.16359049081802368,
                0.11053077131509781,
                0.21109779179096222,
                -0.22897809743881226,
                0.2282208502292633,
                -0.11242938041687012,
                -0.1268763244152069,
                0.003848952241241932,
                0.07810407131910324,
                -0.054668501019477844,
                -0.21957972645759583,
                -0.18269068002700806,
                0.20397613942623138,
                -0.1003400981426239,
                0.07729770988225937,
                0.2237549126148224,
                -0.14465557038784027,
                0.06306500732898712,
                -0.1810620278120041,
                -0.18623659014701843,
                -0.11318300664424896,
                0.22907213866710663,
                0.22140853106975555,
                0.12038109451532364,
                -0.1832062005996704,
                -0.2150859832763672,
                0.1425238847732544,
                0.07731330394744873,
                -0.07336591929197311,
                0.057296011596918106,
                0.0997394546866417,
                0.05368117243051529,
                0.0029796850867569447,
                0.07819022238254547,
                0.22838683426380157,
                0.14838828146457672,
                0.1351572722196579,
                -0.20648330450057983,
                0.018027616664767265,
                0.2314976006746292,
                0.02613622136414051,
                0.03413048014044762,
                -0.1635240912437439,
                0.06118597835302353,
                0.2084217518568039,
                0.008431381545960903,
                0.014762370847165585,
                0.07522587478160858,
                0.027330517768859863,
                -0.11312814056873322,
                -0.21511636674404144,
                -0.05158529058098793,
                -0.09135215729475021,
                0.0288007203489542,
                0.05799625813961029,
                0.024134092032909393,
                -0.24610388278961182,
                -0.24099291861057281,
                -0.17415198683738708,
                -0.0006020635482855141,
                -0.12396961450576782,
                0.12504585087299347,
                -0.10248632729053497,
                0.14377360045909882,
                0.06435968726873398,
                -0.18511483073234558,
                0.14457859098911285,
                0.20921535789966583,
                -0.0015280222287401557,
                -0.0933927372097969,
                -0.13204507529735565,
                0.19160489737987518,
                -0.20093189179897308,
                0.15533879399299622,
                -0.06370215117931366,
                0.05207667127251625,
                0.2103605568408966,
                0.14149434864521027,
                0.09887846559286118,
                0.20918908715248108,
                -0.006668423768132925,
                0.19795820116996765,
                -0.1213657408952713,
                -0.1393720656633377,
                -0.06939112395048141,
                -0.1483980268239975,
                -0.20196689665317535,
                -0.13729232549667358,
                0.05679939687252045,
                -0.10246911644935608,
                -0.0662907287478447,
                0.1896311342716217,
                0.14006447792053223,
                -0.01436081063002348,
                0.23197422921657562,
                -0.3360079526901245,
                0.16457942128181458,
                0.2018926590681076,
                -0.048473138362169266,
                -0.008599036373198032,
                0.12325374037027359,
                -0.0442168153822422,
                0.12745851278305054,
                -0.12196864187717438,
                -0.09256633371114731,
                0.021835867315530777,
                -0.034359995275735855,
                -0.04373113065958023,
                -0.21101294457912445,
                -0.08787751942873001,
                -0.14019159972667694,
                -0.09274515509605408,
                0.10895191878080368,
                0.14127779006958008,
                0.22991162538528442,
                -0.08056510984897614,
                -0.046057604253292084,
                -0.11706864088773727,
                0.21945230662822723,
                -0.012824434787034988,
                -0.12124675512313843,
                -0.19140625,
                0.019099118188023567,
                -0.024083329364657402,
                0.09442178905010223,
                0.09652713686227798,
                -0.07919103652238846,
                -0.0816112607717514,
                0.1332419365644455,
                0.22833704948425293,
                -0.08024553209543228,
                0.3188914656639099,
                -0.24989961087703705,
                -0.24559693038463593,
                0.17903101444244385,
                -0.19217079877853394,
                0.06958018243312836,
                0.19345752894878387,
                -0.16051524877548218,
                0.09901371598243713,
                -0.15918420255184174,
                0.20289307832717896,
                0.22037512063980103,
                -0.11932792514562607,
                -0.20063091814517975,
                0.06772498041391373,
                0.0877581313252449,
                0.19921846687793732,
                -0.013896971009671688,
                0.028256990015506744,
                0.19904091954231262,
                0.09687760472297668,
                0.038121722638607025,
                0.1280023753643036,
                -0.06993181258440018,
                -0.04705767706036568,
                0.1033039465546608,
                -0.18536381423473358,
                -0.2267291247844696,
                0.08644949644804001,
                0.010049724020063877,
                -0.11657197028398514,
                -0.05916367471218109,
                -0.049275510013103485,
                0.013126273639500141,
                0.02228822559118271,
                0.04836650192737579,
                0.23691923916339874,
                -0.11574866622686386,
                0.16409613192081451,
                -0.09428039938211441,
                0.18997345864772797,
                0.2409166544675827,
                0.03470920771360397,
                -0.021451132372021675,
                -0.20326757431030273,
                0.07691539078950882,
                -0.17883530259132385,
                -0.09318295866250992,
                -0.19142335653305054,
                -0.06609246134757996,
                -0.1749858260154724,
                0.14776794612407684,
                -0.0603184849023819,
                -0.07307639718055725,
                0.17895163595676422,
                0.01710798218846321,
                -0.07208197563886642,
                -0.3264174461364746,
                0.05605437606573105,
                0.0128730284050107,
                0.04823167249560356,
                -0.0663900226354599,
                -0.042674046009778976,
                -0.152057483792305,
                -0.19181188941001892,
                -0.1488770991563797,
                -0.0029033960308879614,
                -0.0969727635383606,
                0.10407748818397522,
                0.1552383303642273,
                -0.018852263689041138,
                0.08608677238225937,
                -0.15729279816150665,
                -0.1422414630651474,
                0.22752584517002106,
                -0.22430935502052307,
                -0.23794105648994446,
                0.08523376286029816,
                -0.33493879437446594,
                -0.0895577222108841,
                0.08728625625371933,
                -0.07015800476074219,
                0.02180647663772106,
                -0.01764102838933468,
                0.12119103968143463,
                -0.01841820776462555,
                0.1753799319267273,
                -0.13529404997825623,
                0.27836084365844727,
                0.04130755364894867,
                -0.19329364597797394,
                -0.12229638546705246,
                0.04274247959256172,
                0.05439720302820206,
                0.07021094113588333,
                -0.07276836782693863,
                0.20948906242847443,
                0.09216301143169403,
                -0.0430181622505188,
                0.1876436024904251,
                -0.08961953222751617,
                -0.050105445086956024,
                -0.12648190557956696,
                0.034460172057151794,
                0.048999588936567307,
                -0.17014075815677643,
                -0.06503003090620041,
                0.09722292423248291,
                0.2005278468132019,
                -0.19273394346237183,
                0.1279120296239853,
                -0.04637075588107109,
                0.1051776260137558,
                0.1415805071592331,
                -0.24512571096420288,
                0.1316623091697693,
                -0.07362943142652512,
                -0.00836032535880804,
                0.19611291587352753,
                -0.054094232618808746,
                -0.21251459419727325,
                -0.1553986370563507,
                0.15512646734714508,
                -0.23272302746772766,
                -0.04242744669318199,
                0.07836443930864334,
                0.12317109107971191,
                -0.05066068097949028,
                -0.04601861909031868,
                -0.1416570246219635,
                0.1331525444984436,
                0.20616072416305542,
                -0.044151242822408676,
                0.2657147943973541,
                -0.17643685638904572,
                0.004150610417127609,
                0.0853792056441307,
                -0.005951664876192808,
                -0.03477445989847183,
                0.06662038713693619,
                0.12306927144527435,
                0.07582090049982071,
                -0.23002633452415466,
                -0.030768193304538727,
                0.1803196221590042,
                -0.1708439141511917,
                0.061379820108413696,
                -0.07297905534505844,
                0.21374274790287018,
                -0.23138092458248138,
                0.10590142011642456,
                -0.016501136124134064,
                -0.37620270252227783,
                -0.05713898688554764,
                -0.05831190571188927,
                -0.19302743673324585,
                0.20577748119831085,
                0.17673873901367188,
                0.19653216004371643,
                -0.1021004393696785,
                0.03731898218393326,
                0.14334166049957275,
                -0.21337424218654633,
                0.12698237597942352,
                0.16779324412345886,
                -0.050092775374650955,
                0.06828764826059341,
                -0.003444101894274354,
                -0.16114085912704468,
                -0.006360611412674189,
                -0.06863653659820557,
                0.0782918781042099,
                0.09158148616552353,
                0.07738763839006424,
                0.06435805559158325,
                -0.05740911141037941,
                -0.11323380470275879,
                -0.1992642879486084,
                -0.015201947651803493,
                -0.015188067220151424,
                -0.02268526889383793,
                -0.18690989911556244,
                -0.12993229925632477,
                0.05804070830345154,
                0.16744065284729004,
                -0.056494805961847305,
                -0.14828775823116302,
                -0.1534673422574997,
                0.03101745992898941,
                -0.014502499252557755,
                0.33948808908462524,
                0.038023464381694794,
                0.22035367786884308,
                0.11014048755168915,
                -0.02347669005393982,
                0.18980200588703156,
                0.07312271744012833,
                0.08700436353683472,
                0.05173424631357193,
                -0.17707696557044983,
                -0.21676898002624512,
                0.16492576897144318,
                0.10153188556432724,
                -0.07021030783653259,
                0.09076621383428574,
                -0.09728386253118515,
                -0.1888083815574646,
                0.1497604250907898,
                0.0041174800135195255,
                -0.15043114125728607,
                0.09167157113552094,
                0.332134872674942,
                -0.12423543632030487,
                0.12137027084827423,
                0.12134836614131927,
                -0.22146886587142944,
                0.16640418767929077,
                0.0856141597032547,
                -0.15452203154563904,
                -0.1404763013124466,
                0.004506438039243221,
                -0.08158094435930252,
                -0.0010510855354368687,
                0.03904907405376434,
                -0.11255400627851486,
                0.03374871239066124,
                0.1144590973854065,
                -0.19649216532707214,
                0.04085766524076462,
                0.1951579749584198,
                0.045077353715896606,
                -0.09711256623268127,
                -0.024779638275504112,
                -0.021749839186668396,
                -0.06155693531036377,
                0.0023299313616007566,
                0.03889646753668785,
                -0.05201030150055885,
                -0.16766305267810822,
                0.09576534479856491,
                -0.12980441749095917,
                0.1879366785287857,
                0.20683449506759644,
                0.20261196792125702,
                0.10974396765232086,
                -0.09795939922332764,
                0.13031306862831116,
                0.12627024948596954,
                -0.09297063946723938,
                -0.24894173443317413,
                -0.19164231419563293,
                0.1799389272928238,
                -0.1738976389169693,
                0.04096732661128044,
                0.05029786005616188,
                -0.12608709931373596,
                0.17628604173660278,
                0.20385833084583282,
                -0.09454860538244247,
                -0.0014311257982626557,
                0.08394566923379898,
                0.07458548247814178,
                -0.18798892199993134,
                0.051649484783411026,
                -0.049865126609802246,
                0.1908116191625595,
                -0.008554903790354729,
                0.060664091259241104,
                -0.17118683457374573,
                0.16036644577980042,
                -0.02159947343170643,
                0.11535989493131638,
                -0.12575243413448334,
                -0.18013198673725128,
                -0.13159498572349548,
                -0.06948818266391754,
                -0.049180883914232254,
                -0.1190563514828682,
                0.078043133020401,
                0.05095309019088745,
                0.04973042756319046,
                -0.19380052387714386,
                -0.21861138939857483,
                -0.02891744114458561,
                -0.04065314307808876,
                0.3262227773666382,
                0.050473302602767944,
                0.28103184700012207,
                0.11789581924676895,
                -0.19687840342521667,
                0.012870728969573975,
                0.03180713951587677,
                -0.06131400167942047,
                -0.22842250764369965,
                0.027128208428621292,
                0.029606087133288383,
                -0.1002630665898323,
                -0.20483693480491638,
                0.023366417735815048,
                -0.045792147517204285,
                -0.06219064071774483,
                0.13995318114757538,
                0.15012073516845703,
                0.02090863510966301,
                0.11576812714338303,
                0.030306076630949974,
                -0.1063365638256073,
                0.01084731426090002,
                -0.18519172072410583,
                -0.2089417427778244,
                -0.10057936608791351,
                -0.0029291834216564894,
                -0.17975665628910065,
                -0.15783490240573883,
                0.13816149532794952,
                0.0406157523393631,
                -0.18710246682167053,
                -0.14205564558506012,
                0.154129758477211,
                0.1114836037158966,
                0.16498512029647827,
                0.22343893349170685,
                -0.1169862449169159,
                -0.3822302222251892,
                0.1735704243183136,
                0.20188778638839722,
                0.1176091656088829,
                0.16037516295909882,
                -0.16830974817276,
                0.18502238392829895,
                -0.20101401209831238,
                -0.19232551753520966,
                -0.035448361188173294,
                -0.21505260467529297,
                -0.02300647459924221,
                0.21164067089557648,
                -0.04682813957333565,
                -0.21182870864868164,
                0.17485477030277252,
                -0.058392252773046494,
                0.20877406001091003,
                0.12154701352119446,
                0.06681612133979797,
                0.13594330847263336,
                -0.16929323971271515,
                -0.20418088138103485,
                -0.045411285012960434,
                -0.14067721366882324,
                0.01861715316772461,
                0.07078883051872253,
                0.09717273712158203,
                -0.08919591456651688,
                -0.06263504177331924,
                0.18586140871047974,
                -0.0694679319858551,
                -0.11068831384181976,
                0.13085120916366577,
                -0.050270531326532364,
                0.07715297490358353,
                -0.05606464669108391,
                0.20358026027679443,
                -0.20277343690395355,
                0.1676214635372162,
                0.06973336637020111,
                -0.02523779682815075,
                0.08767916262149811,
                -0.22008582949638367,
                -0.20911340415477753,
                0.1587870568037033,
                -0.10416539758443832,
                -0.0018711005104705691,
                -0.19644105434417725,
                -0.2148551195859909,
                0.022344041615724564,
                0.08621173352003098,
                -0.1380690485239029,
                0.02354542911052704,
                0.07614485174417496,
                -0.07124317437410355,
                0.19045081734657288,
                -0.08773631602525711,
                0.25809353590011597,
                0.12586145102977753,
                -0.00857429951429367,
                -0.16229769587516785,
                -0.1049375981092453,
                0.046216145157814026,
                -0.14825578033924103,
                0.10307721793651581,
                -0.04491722583770752,
                -0.008499818854033947,
                -0.10019908100366592,
                0.16865718364715576,
                -0.23249100148677826,
                -0.11874412000179291,
                0.138784721493721,
                -0.14143022894859314,
                0.10522105544805527,
                -0.11356356739997864,
                -0.21472731232643127,
                -0.045035865157842636,
                0.21149949729442596,
                0.2090948224067688,
                -0.11453429609537125,
                0.04207192733883858,
                0.11612790077924728,
                0.006550142541527748,
                0.005026382859796286,
                0.042325057089328766,
                0.12893280386924744,
                0.02966390736401081,
                -0.0857585147023201,
                0.04302314668893814,
                0.1878875494003296,
                -0.06640911847352982,
                0.2056095153093338,
                0.20859159529209137,
                -0.25193363428115845,
                -0.17418009042739868,
                0.07445336133241653,
                -0.0012573529966175556,
                0.17829202115535736,
                -0.22445666790008545,
                -0.11429988592863083,
                -0.15964826941490173,
                0.168051615357399,
                0.03186643496155739,
                -0.10240194946527481,
                0.03501240536570549,
                0.07969823479652405,
                0.22084517776966095,
                0.08044187724590302,
                -0.16426002979278564,
                -0.1242174580693245,
                -0.23170676827430725,
                0.1475980579853058,
                -0.14496995508670807,
                -0.036628466099500656,
                -0.10659816116094589,
                -0.2716076076030731,
                -0.1600237786769867,
                0.061533957719802856,
                0.08879637718200684,
                0.15485705435276031,
                -0.21591173112392426,
                0.07547212392091751,
                0.1029597595334053,
                -0.12332857400178909,
                -0.06734733283519745,
                0.20339377224445343,
                0.1372595727443695,
                0.0288834311068058,
                0.2350381463766098,
                0.012319821864366531,
                -0.04925555735826492,
                0.15947465598583221,
                -0.17927438020706177,
                -0.30557718873023987,
                0.09437244385480881,
                -0.19397525489330292,
                0.04674196243286133,
                -0.19941435754299164,
                0.10256145149469376,
                0.07945985347032547,
                -0.15996813774108887,
                0.11689677089452744,
                0.17751666903495789,
                0.19543427228927612,
                0.08660689741373062,
                0.16846051812171936,
                -0.19183774292469025,
                -0.10726437717676163,
                -0.07080062478780746,
                -0.059956640005111694,
                0.15658602118492126,
                -0.22218921780586243,
                0.2966272532939911,
                -0.3395388424396515
            ],
            "weight_shape": [
                64,
                19
            ],
            "bias": [
                0.20715740323066711,
                -0.20497719943523407,
                -0.09573399275541306,
                0.20594526827335358,
                0.10118158161640167,
                0.0632832795381546,
                0.06409385055303574,
                0.1896350383758545,
                -0.17391476035118103,
                -0.11171993613243103,
                0.0583493635058403,
                0.02812814898788929,
                -0.14191807806491852,
                -0.06326032429933548,
                -0.07473903149366379,
                -0.10583803802728653,
                -0.18262970447540283,
                1.559391967020929e-05,
                0.234135240316391,
                0.2272404581308365,
                -0.14432312548160553,
                -0.19162487983703613,
                0.22672131657600403,
                0.02193368226289749,
                0.1160959005355835,
                -0.1300095170736313,
                0.13880665600299835,
                0.07519270479679108,
                -0.19526474177837372,
                0.006627322174608707,
                0.20746470987796783,
                -0.08191153407096863,
                -0.014016849920153618,
                -0.1964103728532791,
                0.1204977035522461,
                -0.12329588085412979,
                -0.10981953144073486,
                0.1878502517938614,
                0.047347765415906906,
                0.21607740223407745,
                -0.07764041423797607,
                -0.05144055187702179,
                -0.03847651183605194,
                0.14647020399570465,
                0.1479893922805786,
                -0.10079804062843323,
                0.2397783100605011,
                -0.06919907033443451,
                -0.01963184028863907,
                0.03810278698801994,
                -0.2055191844701767,
                0.15890809893608093,
                0.11232328414916992,
                0.03430503234267235,
                -0.027794791385531425,
                -0.12561827898025513,
                -0.19491975009441376,
                0.15835179388523102,
                -0.011997651308774948,
                0.11479295045137405,
                -0.06876686960458755,
                -0.19803288578987122,
                0.1565738022327423,
                -0.11363376677036285
            ],
            "bias_shape": [
                64
            ]
        },
        {
            "weight": [
                0.017243731766939163,
                0.018061833456158638,
                -0.07608209550380707,
                0.1294790357351303,
                0.01612614467740059,
                0.07457341253757477,
                0.1038418561220169,
                -0.050049301236867905,
                -0.01780635118484497,
                -0.007068358361721039,
                0.01522066816687584,
                0.023192785680294037,
                0.02829878404736519,
                0.04398185759782791,
                0.09102523326873779,
                0.0016835395945236087,
                0.1379980891942978,
                -0.010326513089239597,
                0.13806462287902832,
                0.010486326180398464,
                -0.0945790484547615,
                0.05882135033607483,
                -0.04366378113627434,
                -0.007228929083794355,
                0.06964695453643799,
                0.2378443330526352,
                0.11199407279491425,
                0.08401871472597122,
                -0.1100350171327591,
                -0.06424961984157562,
                -0.10607440024614334,
                -0.10369905084371567,
                0.04918203130364418,
                -0.05494904890656471,
                -0.13433878123760223,
                0.031003322452306747,
                -0.11206196248531342,
                0.10711818188428879,
                -0.11847954988479614,
                -0.13153472542762756,
                -0.06818230450153351,
                0.007384031545370817,
                -0.0005065470468252897,
                -0.02143177017569542,
                -0.04427759721875191,
                0.09119844436645508,
                -0.0610467791557312,
                0.04059769585728645,
                -0.006897798739373684,
                0.03644949942827225,
                -0.02923799864947796,
                0.09478522837162018,
                0.08239710330963135,
                -0.11254961788654327,
                0.10123425722122192,
                -0.02335335873067379,
                0.11101923137903214,
                -0.07342776656150818,
                -0.0745890662074089,
                0.03100750967860222,
                0.04781360179185867,
                0.07379819452762604,
                -0.040427066385746,
                -0.07488426566123962,
                0.002593688201159239,
                0.0826253741979599,
                -0.07725773006677628,
                -0.08118998259305954,
                0.016821203753352165,
                0.0769345611333847,
                0.10991013050079346,
                -0.05883883684873581,
                0.028043020516633987,
                -0.04213359206914902,
                0.11084829270839691,
                -0.11911939829587936,
                0.07017843425273895,
                -0.03225860372185707,
                -0.08895822614431381,
                -0.053225964307785034,
                -0.11500329524278641,
                0.09930894523859024,
                0.07630200684070587,
                7.493804878322408e-05,
                0.0026998971588909626,
                0.0801023542881012,
                0.07852062582969666,
                -0.03891020640730858,
                -0.043571047484874725,
                -0.04836934432387352,
                0.101814404129982,
                -0.06731091439723969,
                0.13920703530311584,
                -0.10181646049022675,
                -0.008711064234375954,
                0.08282604068517685,
                -0.029265714809298515,
                0.11966525763273239,
                0.004760716110467911,
                -0.07302314788103104,
                0.05378173291683197,
                -0.03665916994214058,
                0.036352310329675674,
                0.04010907933115959,
                -0.009045633487403393,
                -0.09435435384511948,
                -0.11500990390777588,
                0.021234354004263878,
                0.023315055295825005,
                0.0028737199027091265,
                0.07559513300657272,
                0.037601131945848465,
                -0.03433356434106827,
                0.09308003634214401,
                -0.00630565732717514,
                0.01469398569315672,
                0.09556499868631363,
                -0.11620756983757019,
                0.015350292436778545,
                0.060805678367614746,
                -0.07843397557735443,
                0.02336832880973816,
                -0.12144092470407486,
                0.05934000387787819,
                -0.009563213214278221,
                -0.08106951415538788,
                0.08560620248317719,
                -0.00018913322128355503,
                -0.10928790271282196,
                0.07182061672210693,
                0.028329741209745407,
                0.016278784722089767,
                0.000506513228174299,
                0.011754058301448822,
                -0.08694344758987427,
                0.05453969165682793,
                0.08268648386001587,
                0.11209060251712799,
                -0.11068486422300339,
                0.012036115862429142,
                -0.025704490020871162,
                0.03733457624912262,
                0.08275703340768814,
                0.06412822008132935,
                0.15476545691490173,
                -0.10015305876731873,
                0.09313761442899704,
                0.0431126207113266,
                0.10202299058437347,
                0.05249170586466789,
                -0.03297552093863487,
                0.00476617319509387,
                -0.018710466101765633,
                -0.11956295371055603,
                0.08824507147073746,
                0.022033831104636192,
                -0.08352744579315186,
                0.05600119009613991,
                0.02359849214553833,
                -0.015617621131241322,
                0.03698036074638367,
                -0.10840461403131485,
                0.0522807314991951,
                -0.059408899396657944,
                0.12018772959709167,
                -0.028121720999479294,
                -0.016005996614694595,
                -0.004400127101689577,
                -0.07174830138683319,
                0.04359915852546692,
                0.00500823138281703,
                -0.04835093021392822,
                -0.08128148317337036,
                0.12165027111768723,
                -0.005143934860825539,
                -0.08237186074256897,
                0.08609116822481155,
                -0.02492660842835903,
                0.007425153162330389,
                -0.12114352732896805,
                -0.04705272987484932,
                0.06185015290975571,
                0.05703062564134598,
                0.0692775771021843,
                -0.051107313483953476,
                -0.08169138431549072,
                -0.02694695070385933,
                -0.0895576998591423,
                0.08008312433958054,
                0.05975983291864395,
                -0.10452010482549667,
                0.055814579129219055,
                0.03211028128862381,
                -0.0361749604344368,
                0.1010560542345047,
                -0.054415132850408554,
                0.04575907438993454,
                -0.0159258171916008,
                0.023847801610827446,
                0.03366090729832649,
                0.07746946066617966,
                0.13313600420951843,
                0.12585531175136566,
                0.12523463368415833,
                0.021206805482506752,
                -0.08270184695720673,
                0.06726355105638504,
                -0.082121841609478,
                0.1806342750787735,
                0.1034187376499176,
                0.1429743617773056,
                -0.05150692164897919,
                0.1124088391661644,
                -0.08048588782548904,
                0.12512044608592987,
                0.018259070813655853,
                0.09819621592760086,
                0.08026394248008728,
                0.06007896363735199,
                0.005353120155632496,
                0.05698150396347046,
                0.005024263169616461,
                -0.049886662513017654,
                0.015291621908545494,
                0.13293135166168213,
                -0.048947252333164215,
                0.11370373517274857,
                0.12166576087474823,
                -0.0045909876935184,
                -0.0870138481259346,
                0.06732561439275742,
                0.11663753539323807,
                -0.11867529153823853,
                -0.11158647388219833,
                0.041318636387586594,
                -0.11576133221387863,
                -0.08814705908298492,
                0.133872389793396,
                0.013527930714190006,
                0.012470247223973274,
                -0.04191765561699867,
                0.1080322116613388,
                -0.08627491444349289,
                -0.06291511654853821,
                -0.07086284458637238,
                -0.017269382253289223,
                -0.011502773500978947,
                0.08343466371297836,
                -0.04478546604514122,
                -0.02786153368651867,
                0.0023397025652229786,
                0.04452433064579964,
                -0.06771337240934372,
                0.02073149010539055,
                0.05535689741373062,
                -0.06205632910132408,
                -0.01375937182456255,
                0.04402269795536995,
                -0.008849588222801685,
                -0.0469474196434021,
                0.08189348876476288,
                -0.0915643647313118,
                0.03855142369866371,
                0.05519246309995651,
                0.06802991032600403,
                0.1269477903842926,
                -0.04029388725757599,
                0.0783214196562767,
                -0.09973032772541046,
                0.017406417056918144,
                0.04523756355047226,
                0.11418513208627701,
                0.11449853330850601,
                0.12648886442184448,
                0.12331214547157288,
                -0.036481209099292755,
                0.07579820603132248,
                -0.07126126438379288,
                0.024746021255850792,
                -0.022153791040182114,
                0.026848169043660164,
                -0.04162070155143738,
                0.07126129418611526,
                -0.057188622653484344,
                0.0031556186731904745,
                0.08498360216617584,
                0.11630763858556747,
                0.06670508533716202,
                -0.006328461691737175,
                0.05319606885313988,
                0.13598807156085968,
                -0.10264430940151215,
                0.09205662459135056,
                0.05986318737268448,
                0.005540983285754919,
                0.05933390185236931,
                -0.12112505733966827,
                -0.007458813022822142,
                -0.04553448036313057,
                -0.06804744154214859,
                0.005909517407417297,
                -0.10738714039325714,
                -0.03744117170572281,
                0.038621604442596436,
                -0.09467055648565292,
                0.08966203778982162,
                0.07373882085084915,
                -0.0926385223865509,
                0.04619499668478966,
                -0.10499414801597595,
                0.08226572722196579,
                -0.008361059240996838,
                0.0772232711315155,
                -0.0908380076289177,
                -0.014206447638571262,
                0.085886150598526,
                0.03592805191874504,
                0.0511682853102684,
                -0.12352821975946426,
                -0.1225912794470787,
                -0.05305400863289833,
                0.005126278847455978,
                0.1705872118473053,
                0.05864356830716133,
                -0.05201130360364914,
                0.08621546626091003,
                0.00458056665956974,
                0.04072974994778633,
                0.03553992137312889,
                -0.042350687086582184,
                -0.0516594797372818,
                0.08558635413646698,
                -0.028200196102261543,
                0.004504571668803692,
                -0.01002014335244894,
                -0.034049566835165024,
                0.07067711651325226,
                0.05201592668890953,
                -0.0848904475569725,
                -0.05493255332112312,
                -0.11404810845851898,
                0.055811841040849686,
                -0.03643083572387695,
                -0.03944447264075279,
                -0.021394260227680206,
                0.03293817862868309,
                -0.06372565776109695,
                -0.047797657549381256,
                0.1264503449201584,
                -0.10628537833690643,
                0.051010292023420334,
                0.047164130955934525,
                -0.04689132794737816,
                0.12679621577262878,
                -0.06706483662128448,
                0.10779223591089249,
                0.1380055546760559,
                0.040811073035001755,
                0.10787451267242432,
                0.05388009548187256,
                -0.051031798124313354,
                0.07150368392467499,
                0.008465463295578957,
                -0.06473269313573837,
                -0.040733177214860916,
                -0.08446621149778366,
                -0.005229608621448278,
                0.028906118124723434,
                0.10013635456562042,
                0.035373248159885406,
                -0.012200871482491493,
                0.1264232099056244,
                0.10874062031507492,
                -0.06561364978551865,
                0.05812213942408562,
                0.010816090740263462,
                -0.0014774702722206712,
                0.11012844741344452,
                -0.08297966420650482,
                -0.09246720373630524,
                0.09677770733833313,
                0.09949974715709686,
                0.1439676135778427,
                -0.028513677418231964,
                -0.11400195956230164,
                -0.07585128396749496,
                0.1597931832075119,
                -0.10296748578548431,
                -0.024467455223202705,
                0.07152948528528214,
                0.002819937653839588,
                -0.009804943576455116,
                0.04535919427871704,
                -0.07798562943935394,
                -0.11794374883174896,
                0.01779531128704548,
                -0.054779719561338425,
                0.03728529065847397,
                -0.007629012688994408,
                -0.01691160537302494,
                -0.11425010859966278,
                -0.048398833721876144,
                -0.10423655062913895,
                0.016351820901036263,
                0.0668332651257515,
                0.05639723688364029,
                0.10024857521057129,
                -0.037439554929733276,
                0.0185630451887846,
                0.16033531725406647,
                -0.03957468271255493,
                0.0660473108291626,
                0.05377226695418358,
                -0.0684766098856926,
                0.10142293572425842,
                0.023798303678631783,
                0.13853241503238678,
                -0.09891298413276672,
                0.02608671970665455,
                -0.10235645622015,
                -0.023343471810221672,
                -0.0216971468180418,
                0.13890071213245392,
                0.002146060112863779,
                0.026016464456915855,
                0.02621588110923767,
                -0.03167610988020897,
                -0.06329572945833206,
                0.07712984830141068,
                0.11061638593673706,
                -0.07792344689369202,
                0.09268874675035477,
                -0.012766129337251186,
                -0.06991280615329742,
                -0.11165819317102432,
                0.08100420981645584,
                -0.10580577701330185,
                0.05711985379457474,
                0.06021014228463173,
                -0.1618671864271164,
                -0.09052280336618423,
                -0.0003043459728360176,
                -0.03810223937034607,
                0.029302511364221573,
                0.003674735315144062,
                -0.03158865496516228,
                0.04419867694377899,
                0.11631932854652405,
                -0.020389994606375694,
                -0.05129658803343773,
                0.07148747891187668,
                0.08981699496507645,
                -0.04118666052818298,
                -0.0802302211523056,
                0.001070289290510118,
                0.06386008113622665,
                -0.05946782976388931,
                0.07346569001674652,
                0.05457557365298271,
                0.04092707484960556,
                -0.11532566696405411,
                0.06056442856788635,
                -0.026764702051877975,
                -0.05900174379348755,
                0.09805140644311905,
                -0.03228071331977844,
                -0.03638920560479164,
                -0.031435929238796234,
                0.019823089241981506,
                0.015196596272289753,
                0.047408342361450195,
                0.004908500239253044,
                0.06253116577863693,
                0.07026127725839615,
                -0.11751952767372131,
                0.04747861251235008,
                0.01253107562661171,
                0.06032954528927803,
                -0.08648594468832016,
                -0.035969771444797516,
                0.081477090716362,
                0.08153320848941803,
                0.1269213855266571,
                0.07939758896827698,
                -0.03444407507777214,
                0.036448001861572266,
                -0.11208350211381912,
                0.10393166542053223,
                0.05999798700213432,
                0.004058546386659145,
                0.11985079199075699,
                0.0877753421664238,
                0.019825708121061325,
                0.10522601008415222,
                -0.08418918401002884,
                0.08541066199541092,
                -0.09454844146966934,
                -0.08427579700946808,
                0.08920211344957352,
                0.06189985200762749,
                0.07189038395881653,
                -0.06009187549352646,
                0.025871409103274345,
                0.1452757567167282,
                0.02419298328459263,
                -0.0015326978173106909,
                -0.005246743094176054,
                -0.022745277732610703,
                0.1640239655971527,
                0.007083960343152285,
                -0.05429544672369957,
                -0.20485931634902954,
                -0.05178245157003403,
                0.07190051674842834,
                -0.015520806424319744,
                0.056100498884916306,
                0.1076444610953331,
                -0.056657303124666214,
                -0.05943278595805168,
                -0.0034460490569472313,
                0.05529336258769035,
                -0.11246445029973984,
                -0.1098167672753334,
                -0.018714308738708496,
                0.10134605318307877,
                -0.02069626934826374,
                -0.06282594799995422,
                0.05903478339314461,
                -0.10805558413267136,
                0.12718796730041504,
                -0.019151005893945694,
                -0.12608596682548523,
                -0.11561626940965652,
                -0.049534235149621964,
                0.08334359526634216,
                0.04479554668068886,
                -0.09217874705791473,
                0.014505356550216675,
                0.03372521325945854,
                0.09785299748182297,
                -0.04636353626847267,
                -0.0923120453953743,
                0.05645037069916725,
                0.1281479299068451,
                0.1060265377163887,
                -0.005159629043191671,
                -0.0788080021739006,
                -0.004503084812313318,
                -0.06691186875104904,
                -0.014207092113792896,
                -0.07847433537244797,
                -0.046086061745882034,
                0.12216649204492569,
                0.01922772265970707,
                0.05280815064907074,
                0.010637748055160046,
                -0.07011009752750397,
                0.0642666444182396,
                0.0805455669760704,
                0.09720894694328308,
                0.1185428574681282,
                0.02045479789376259,
                0.04092103987932205,
                0.00909308809787035,
                0.11504195630550385,
                0.03858008235692978,
                -0.08125137537717819,
                0.001942595699802041,
                0.12420143187046051,
                -0.03563997149467468,
                0.07520952075719833,
                0.12109407782554626,
                -0.10468606650829315,
                -0.015301108360290527,
                0.13609755039215088,
                0.10881908237934113,
                -0.02477913163602352,
                0.030135048553347588,
                0.15485313534736633,
                0.04783804342150688,
                -0.042395737022161484,
                0.11937467753887177,
                0.10984772443771362,
                -0.012584897689521313,
                -0.007693755440413952,
                -0.11498437821865082,
                0.02274101972579956,
                0.06963938474655151,
                0.10554356127977371,
                -0.05232623219490051,
                -0.05278710275888443,
                -0.029464207589626312,
                -0.03884083405137062,
                -0.04585209861397743,
                -0.01886923797428608,
                0.0007955764303915203,
                -0.004970450885593891,
                -0.018487300723791122,
                -0.04811348021030426,
                0.10363026708364487,
                0.10735807567834854,
                0.06951766461133957,
                0.004091060720384121,
                0.04409286752343178,
                0.09628965705633163,
                -0.07973526418209076,
                0.0834776759147644,
                -0.0668647289276123,
                0.11903629451990128,
                0.08689603954553604,
                0.027303267270326614,
                0.026634231209754944,
                0.051178690046072006,
                -0.10438284277915955,
                0.1123197004199028,
                0.04513705149292946,
                -0.04437011107802391,
                -0.12128351628780365,
                0.014167590998113155,
                -0.009198564104735851,
                0.039612993597984314,
                0.059262678027153015,
                0.01242887508124113,
                -0.0770251527428627,
                0.14159557223320007,
                -0.120753712952137,
                0.07590969651937485,
                0.049480900168418884,
                0.10174673795700073,
                -0.07089979201555252,
                0.025644153356552124,
                -0.0002819849469233304,
                -0.11843404173851013,
                0.00995500199496746,
                0.05109207332134247,
                0.03538510203361511,
                0.03407736495137215,
                0.03794474899768829,
                -0.10399443656206131,
                -0.03165137767791748,
                0.08230642229318619,
                -0.045345403254032135,
                0.05263891443610191,
                0.037386201322078705,
                0.07034727931022644,
                0.05039342865347862,
                -0.06408665329217911,
                -0.01644718647003174,
                0.05794654041528702,
                -0.06825457513332367,
                -0.07123833894729614,
                0.04000166803598404,
                -0.10019973665475845,
                0.10187392681837082,
                -0.021863896399736404,
                0.11171595752239227,
                -0.05276453495025635,
                0.0175067987293005,
                0.05840245261788368,
                -0.03830178827047348,
                -0.04473727568984032,
                -0.12219574302434921,
                -0.08531253039836884,
                0.10205848515033722,
                0.11985471099615097,
                0.03342206031084061,
                0.10690496116876602,
                0.10518800467252731,
                -0.010554861277341843,
                0.00845519918948412,
                0.008998097851872444,
                0.07611101865768433,
                0.05685638636350632,
                -0.02163085900247097,
                -0.04635123535990715,
                -0.0033194678835570812,
                0.05587341636419296,
                -0.11333708465099335,
                0.12498753517866135,
                0.045989736914634705,
                0.11294732242822647,
                0.05070437118411064,
                -0.018305931240320206,
                0.07881496101617813,
                0.061108410358428955,
                0.09820220619440079,
                -0.013040812686085701,
                0.0008026006980799139,
                -0.0013842900516465306,
                0.004522739909589291,
                0.04977453872561455,
                -0.014186041429638863,
                0.021956101059913635,
                0.11578474193811417,
                0.06176437810063362,
                -0.10052192956209183,
                0.03232349827885628,
                -0.0525936633348465,
                0.10528004169464111,
                -0.05256948620080948,
                -0.11537820845842361,
                0.05708436667919159,
                -0.11138687282800674,
                -0.09913410991430283,
                0.13394436240196228,
                0.04105828329920769,
                0.08552670478820801,
                -0.00842464528977871,
                0.008928311988711357,
                0.0519796647131443,
                -0.10350735485553741,
                0.11844342201948166,
                0.10850878059864044,
                0.014353175647556782,
                -0.081077940762043,
                -0.06133868172764778,
                0.12098041921854019,
                -0.054710112512111664,
                0.10324402153491974,
                -0.08686225116252899,
                0.02387642301619053,
                0.10889916867017746,
                0.009139730595052242,
                -0.0884695053100586,
                0.08050599694252014,
                0.129874587059021,
                -0.0014705277280882,
                0.04056538641452789,
                0.03821709379553795,
                -0.03100399672985077,
                0.11043906211853027,
                0.12057477235794067,
                -0.04141344875097275,
                -0.0648399144411087,
                -0.11106033623218536,
                -0.05789992958307266,
                -0.007333492860198021,
                -0.09047877043485641,
                0.05159763991832733,
                -0.00513697974383831,
                -0.09028879553079605,
                -0.11050435900688171,
                0.010305085219442844,
                -0.05736226961016655,
                0.0917491763830185,
                0.09853477030992508,
                -0.05395876243710518,
                0.14627386629581451,
                -0.041862741112709045,
                -0.11325366050004959,
                -0.03524196520447731,
                -0.021904699504375458,
                0.0710979700088501,
                0.08028940856456757,
                0.09924258291721344,
                0.07264475524425507,
                0.11182714253664017,
                -0.04103914648294449,
                0.02120877616107464,
                -0.04791936278343201,
                0.03326347842812538,
                -0.09229253232479095,
                0.1108417883515358,
                -0.11389616876840591,
                0.013966938480734825,
                -0.025209778919816017,
                0.04501831531524658,
                0.044606588780879974,
                -0.08814913779497147,
                -0.004739724565297365,
                -0.0987456813454628,
                -0.07470650970935822,
                0.08878853917121887,
                0.12675771117210388,
                0.005560507066547871,
                0.06987538933753967,
                0.06771146506071091,
                0.08281166851520538,
                -0.04147768393158913,
                -0.11400055885314941,
                -0.04212616756558418,
                0.025975262746214867,
                0.0612630732357502,
                0.00670130830258131,
                -0.0037429083604365587,
                0.04273578152060509,
                -0.02995195984840393,
                -0.048727814108133316,
                -0.09256325662136078,
                0.1234627515077591,
                0.11708422005176544,
                0.0263983067125082,
                0.041694313287734985,
                -0.08238763362169266,
                -0.021002357825636864,
                0.0036081429570913315,
                -0.0345936045050621,
                -0.043594688177108765,
                0.04706544801592827,
                0.09453286230564117,
                0.07011110335588455,
                0.07982145994901657,
                0.060690999031066895,
                0.01342174131423235,
                -0.07821857184171677,
                0.10652297735214233,
                0.09281791001558304,
                0.09935646504163742,
                0.007845328189432621,
                0.08133570104837418,
                -0.0010588809382170439,
                -0.09701451659202576,
                -0.04010492563247681,
                0.0056347898207604885,
                0.11119728535413742,
                -0.0638204887509346,
                0.12074309587478638,
                -0.08537106961011887,
                0.11157049983739853,
                0.035941775888204575,
                0.06650595366954803,
                -0.11191969364881516,
                -0.01164152193814516,
                0.01129668578505516,
                0.10560423880815506,
                0.0011884378036484122,
                0.11623741686344147,
                0.014117333106696606,
                -0.0016950799617916346,
                -0.021328048780560493,
                -0.07508934289216995,
                -0.09342540800571442,
                0.10282230377197266,
                -0.0019827610813081264,
                -0.10797745734453201,
                -0.06954654306173325,
                0.031128669157624245,
                0.0373225100338459,
                -0.08916332572698593,
                0.10978157073259354,
                0.05695166811347008,
                -0.03451116383075714,
                -0.004385084845125675,
                0.0504428967833519,
                -0.11753351986408234,
                0.07270690053701401,
                -0.10178861767053604,
                0.028838155791163445,
                0.00046056092833168805,
                0.023844823241233826,
                0.07501024007797241,
                -0.07741578668355942,
                -0.09693197160959244,
                -0.039618540555238724,
                0.09898115694522858,
                0.056174032390117645,
                0.080040343105793,
                -0.03828481212258339,
                0.10326671600341797,
                0.016217965632677078,
                -0.13233910501003265,
                0.015858443453907967,
                0.05449148640036583,
                0.0711604431271553,
                0.0007606937433592975,
                -0.08068454265594482,
                -0.058807410299777985,
                0.021017253398895264,
                0.0373542495071888,
                -0.00019423916819505394,
                0.07873751223087311,
                0.08821960538625717,
                0.01661263406276703,
                -0.05105023458600044,
                -0.1346091628074646,
                -0.008013450540602207,
                -0.07203780859708786,
                -0.12411818653345108,
                0.0038788181263953447,
                -0.11959410458803177,
                0.06918366998434067,
                0.08066803216934204,
                -0.013279388658702374,
                -0.04623812437057495,
                -0.030334988608956337,
                -0.12584024667739868,
                0.06601110845804214,
                0.0415622815489769,
                0.06354453414678574,
                -0.13139183819293976,
                0.018160048872232437,
                -0.12108726054430008,
                0.05645408853888512,
                -0.05780620872974396,
                0.07192186266183853,
                -0.047454871237277985,
                0.1201796755194664,
                -0.08500022441148758,
                -0.01251374650746584,
                -0.07831188291311264,
                -0.08303806185722351,
                -0.0005156886763870716,
                0.07833241671323776,
                -0.03893064334988594,
                0.12314902991056442,
                0.04547455161809921,
                -0.09534905105829239,
                0.07931502908468246,
                -0.09731701016426086,
                -0.04321885108947754,
                -0.08451636135578156,
                0.0661223754286766,
                -0.1185896098613739,
                -0.07362299412488937,
                0.12088152021169662,
                -0.10982688516378403,
                0.0015890274662524462,
                0.05079788714647293,
                6.35307005723007e-05,
                -0.06035028398036957,
                0.07482168078422546,
                0.10161097347736359,
                -0.09131720662117004,
                0.01622181199491024,
                -0.007703673560172319,
                -0.05575739964842796,
                0.060724180191755295,
                -0.04065128415822983,
                -0.05510710924863815,
                0.008895291946828365,
                -0.051062218844890594,
                -0.03631680831313133,
                0.06084649637341499,
                0.04828382655978203,
                0.0949161946773529,
                -0.07929875701665878,
                0.06310547888278961,
                0.04255322739481926,
                -0.025120988488197327,
                0.10259900987148285,
                -0.11011534184217453,
                -0.09172676503658295,
                -0.06354036182165146,
                0.03892337530851364,
                0.11569401621818542,
                0.007831224240362644,
                0.12572933733463287,
                0.004430304281413555,
                0.03857956826686859,
                -0.05600755661725998,
                0.08388388901948929,
                0.012195353396236897,
                0.031233301386237144,
                0.11868827044963837,
                0.11347116529941559,
                0.05592961609363556,
                -0.05621986836194992,
                0.008794382214546204,
                -0.06159592792391777,
                0.06296508014202118,
                -0.05409533157944679,
                0.03593185544013977,
                0.07728372514247894,
                -0.01676982082426548,
                0.03356371074914932,
                0.04228929057717323,
                -0.10255695879459381,
                0.10456851124763489,
                -0.10135345160961151,
                0.06242621690034866,
                0.01799832284450531,
                0.07137949764728546,
                -0.07423131912946701,
                0.1183529868721962,
                -0.00699679646641016,
                -0.09364485740661621,
                -0.06883972138166428,
                0.09883469343185425,
                0.02728438936173916,
                0.08480764925479889,
                0.01307236310094595,
                0.022191781550645828,
                -0.005577850621193647,
                -0.05507773905992508,
                -0.07719671726226807,
                0.0034944016952067614,
                -0.027345160022377968,
                -0.04103277251124382,
                -0.04044056683778763,
                0.016262054443359375,
                -0.008276245556771755,
                -0.06259897351264954,
                -0.10793668031692505,
                -0.10822263360023499,
                0.10178429633378983,
                -0.08624493330717087,
                0.04989740997552872,
                -0.091189444065094,
                -0.07314972579479218,
                0.021350668743252754,
                0.11897823214530945,
                0.0681258961558342,
                0.11161606013774872,
                -0.020810231566429138,
                0.09625951945781708,
                -0.07833739370107651,
                0.07169179618358612,
                -0.016671117395162582,
                0.026889830827713013,
                -0.05972926691174507,
                0.02685435675084591,
                0.11115647107362747,
                -0.05736786127090454,
                -0.020878644660115242,
                0.1300513744354248,
                -0.022529859095811844,
                -0.004904869943857193,
                -0.12826846539974213,
                0.04646928980946541,
                0.09568744897842407,
                -0.08746042102575302,
                -0.06636174023151398,
                0.02441364713013172,
                -0.003925502300262451,
                0.026719773188233376,
                -0.10478334873914719,
                0.015020071528851986,
                0.13563397526741028,
                0.07897178828716278,
                -0.04204857721924782,
                0.01512010209262371,
                0.07066702097654343,
                0.11145202815532684,
                -0.04758095741271973,
                -0.04710286483168602,
                -0.044559579342603683,
                -0.008991636335849762,
                0.05399692431092262,
                0.10830727964639664,
                -0.004541897680610418,
                0.1586179882287979,
                0.0575544498860836,
                -0.006719534285366535,
                0.08489709347486496,
                0.10657993704080582,
                -0.08952482789754868,
                -0.0901656299829483,
                -0.07811874151229858,
                0.11214832216501236,
                0.0841665267944336,
                -0.04316723346710205,
                0.008838675916194916,
                0.04547407850623131,
                -0.09933801740407944,
                0.026625799015164375,
                -0.021801531314849854,
                -0.10258813947439194,
                0.05561553314328194,
                0.001180739258415997,
                0.007714981213212013,
                0.010282972827553749,
                0.12993142008781433,
                -0.04362859949469566,
                0.09779372811317444,
                0.032064978033304214,
                -0.11991611868143082,
                -0.03917655721306801,
                -0.10525189340114594,
                0.008522800169885159,
                0.00603470066562295,
                0.05461420863866806,
                0.043410774320364,
                -0.10147678852081299,
                -0.05217534303665161,
                -0.07188858091831207,
                -0.09885634481906891,
                -0.01342236902564764,
                0.07910081744194031,
                -0.05372564122080803,
                0.11531253159046173,
                0.016239844262599945,
                0.13241101801395416,
                -0.03802889958024025,
                -0.08845285326242447,
                -0.06189271807670593,
                0.013756348751485348,
                -0.056868333369493484,
                -0.05270719155669212,
                -0.08536197245121002,
                -0.06140745431184769,
                -0.14739391207695007,
                -0.03573131188750267,
                -0.12086312472820282,
                0.009333755820989609,
                0.04988529160618782,
                0.017287688329815865,
                0.01983601227402687,
                -0.04401211068034172,
                0.10939456522464752,
                0.10357309132814407,
                0.029663654044270515,
                -0.08422766625881195,
                0.0523623563349247,
                -0.06810339540243149,
                0.0315822996199131,
                0.06433974951505661,
                0.04507385939359665,
                -0.058436568826436996,
                0.040590379387140274,
                0.008012908510863781,
                -0.048072658479213715,
                0.12650306522846222,
                -0.09310788661241531,
                -0.045107077807188034,
                -0.010935205966234207,
                0.07062617689371109,
                0.01178819127380848,
                0.059139009565114975,
                -0.08613401651382446,
                0.0777696967124939,
                -0.1289113163948059,
                0.12253861874341965,
                0.02607455663383007,
                0.01723935268819332,
                0.09924671798944473,
                -0.06759427487850189,
                -0.08336113393306732,
                0.1650930643081665,
                0.057456932961940765,
                -0.07850473374128342,
                0.0015648161061108112,
                0.055426981300115585,
                0.005997319705784321,
                -0.023481888696551323,
                -0.027318473905324936,
                0.0919964462518692,
                0.10601431131362915,
                0.04302433878183365,
                -0.03631845861673355,
                -0.0356803834438324,
                -0.06500814855098724,
                -0.05497393384575844,
                -0.09567280858755112,
                0.13357430696487427,
                0.11718437820672989,
                -0.05157208442687988,
                -0.08542777597904205,
                -0.00031107995891943574,
                0.028011862188577652,
                -0.07286739349365234,
                -0.04210564121603966,
                -0.02787097357213497,
                0.07000461965799332,
                0.033540017902851105,
                0.036444105207920074,
                -0.09047109633684158,
                0.11286529898643494,
                -0.10306098312139511,
                0.05965079367160797,
                0.015310496091842651,
                -0.10662621259689331,
                -0.08106309920549393,
                0.10366079211235046,
                0.04227105900645256,
                0.0712425708770752,
                0.02561654895544052,
                -0.11226807534694672,
                0.11208600550889969,
                -0.16794216632843018,
                0.1180880069732666,
                0.02284916676580906,
                -0.00512138893827796,
                0.08204535394906998,
                -0.11142565310001373,
                -0.03978559374809265,
                0.03460024669766426,
                0.018999259918928146,
                0.062021415680646896,
                0.0005150860524736345,
                0.10804219543933868,
                0.11387749761343002,
                0.014015069231390953,
                0.12598121166229248,
                -0.049264468252658844,
                -0.0022889133542776108,
                -0.00015042300219647586,
                -0.07333813607692719,
                0.11481162905693054,
                0.09909550100564957,
                0.1269727498292923,
                -0.04384307935833931,
                -0.03671710193157196,
                0.08531127870082855,
                0.027631834149360657,
                -0.1074792742729187,
                0.08320564776659012,
                0.07984445244073868,
                0.011891801841557026,
                0.05106000602245331,
                0.12395463138818741,
                -0.04194234311580658,
                -0.05573643743991852,
                -0.05678018927574158,
                -0.05463632941246033,
                0.04683912545442581,
                0.06844022125005722,
                -0.03852780908346176,
                -0.1350298970937729,
                -0.06943823397159576,
                -0.03341592103242874,
                0.12065599858760834,
                0.06803932785987854,
                0.07192501425743103,
                -0.015116246417164803,
                0.07651279866695404,
                0.12237616628408432,
                -0.06684090942144394,
                0.045951057225465775,
                -0.06626307219266891,
                -0.07092416286468506,
                0.13507139682769775,
                -0.09121004492044449,
                -0.09701523929834366,
                0.05140429362654686,
                0.016694718971848488,
                0.11248211562633514,
                0.08368625491857529,
                0.11804892867803574,
                0.021429501473903656,
                -0.019545668736100197,
                -0.01258889865130186,
                -0.07412303984165192,
                0.1215093731880188,
                0.08064620196819305,
                0.06821237504482269,
                -0.01231415569782257,
                0.11856397241353989,
                0.08798955380916595,
                -0.01508329901844263,
                0.05056355893611908,
                0.057823967188596725,
                0.07183320075273514,
                -0.07957351952791214,
                -0.04038436710834503,
                0.018070761114358902,
                0.1277158111333847,
                -0.06904225796461105,
                -0.04465022310614586,
                -0.11308341473340988,
                -0.06534244865179062,
                0.09867870807647705,
                -0.11141233891248703,
                0.13107439875602722,
                -0.011470753699541092,
                -0.06397143751382828,
                -0.10149449110031128,
                0.002270097378641367,
                0.0863654688000679,
                -0.004576912149786949,
                0.06492407619953156,
                0.09667821228504181,
                0.06409019976854324,
                -0.10934664309024811,
                -0.007172769401222467,
                -0.053162116557359695,
                -0.09657187759876251,
                -0.036234013736248016,
                -0.04180769622325897,
                0.03261348977684975,
                -0.10363853722810745,
                -0.043356649577617645,
                -0.06531812995672226,
                -0.024299973621964455,
                -0.09331277757883072,
                0.057247333228588104,
                0.03732622414827347,
                0.18691770732402802,
                0.03148883581161499,
                -0.02023640088737011,
                -0.016049081459641457,
                0.1026735007762909,
                0.04033498093485832,
                0.0760076567530632,
                -0.0438021644949913,
                -0.10931041091680527,
                0.11918698251247406,
                0.08331387490034103,
                0.02198379673063755,
                0.1066349521279335,
                -0.09049350023269653,
                0.02294762246310711,
                0.1064276471734047,
                0.0488237664103508,
                0.06672725826501846,
                -0.09879212826490402,
                0.04976799711585045,
                0.03251808509230614,
                -0.058785244822502136,
                0.07565920799970627,
                0.018034087494015694,
                0.04128298535943031,
                -0.10212947428226471,
                0.11065153032541275,
                -0.033152442425489426,
                0.06581862270832062,
                0.012983810156583786,
                0.0012641232460737228,
                -0.10707347840070724,
                -0.0868762880563736,
                0.04938078671693802,
                0.08724209666252136,
                0.10716338455677032,
                0.12526589632034302,
                0.054937586188316345,
                -0.11565753817558289,
                -0.01663118414580822,
                -0.10895517468452454,
                0.000965627608820796,
                -0.0965186133980751,
                0.05488193780183792,
                0.11818000674247742,
                0.03276778757572174,
                0.09810803085565567,
                0.13681279122829437,
                0.10917136073112488,
                -0.041487254202365875,
                -0.11202079057693481,
                0.03916854411363602,
                0.09771691262722015,
                -0.06462288647890091,
                0.009711052291095257,
                -0.07098668068647385,
                0.13334721326828003,
                -0.06933696568012238,
                -0.0641259029507637,
                -0.08604204654693604,
                0.08454081416130066,
                -0.008419273421168327,
                0.11849752068519592,
                0.0675230324268341,
                -0.07418779283761978,
                -0.07940471917390823,
                -0.09022873640060425,
                -0.06527510285377502,
                0.025403495877981186,
                0.031496692448854446,
                0.0010890424018725753,
                -0.04398130252957344,
                0.05251391604542732,
                -0.10232128947973251,
                0.03766089677810669,
                -0.010011776350438595,
                -0.01733909547328949,
                -0.021908357739448547,
                -0.1277509331703186,
                -0.012997061014175415,
                0.010733622126281261,
                0.11072016507387161,
                -0.11042577773332596,
                0.1089358776807785,
                -0.12311630696058273,
                0.08358936756849289,
                0.06372302770614624,
                -0.03733298182487488,
                0.08071870356798172,
                -0.049765072762966156,
                -0.07657964527606964,
                -0.03274788707494736,
                0.06695021688938141,
                0.11252550035715103,
                0.015810910612344742,
                0.07615531235933304,
