{
    "input_shape": [
        null,
        19
    ],
    "output_shape": [
        null,
        1
    ],
    "activations": "Relu",
    "dummy_input": [
        [
            1.0,
            1.0,
            1.0,
            1.0,
            1.0,
            1.0,
            1.0,
            1.0,
            1.0,
            1.0,
            1.0,
            1.0,
            1.0,
            1.0,
            1.0,
            1.0,
            1.0,
            1.0,
            1.0
        ]
    ],
    "dummy_output": [
        [
            0.12520593404769897
        ]
    ],
    "layers": [
        {
            "weight": [
                -0.10446364432573318,
                0.03396732360124588,
                0.15142038464546204,
                -0.04108579084277153,
                0.027411723509430885,
                -0.018942026421427727,
                -0.14013966917991638,
                0.06779635697603226,
                0.15679912269115448,
                0.222752183675766,
                -0.021502558141946793,
                0.012138056568801403,
                0.022667134180665016,
                -0.1654655486345291,
                -0.12963135540485382,
                0.12405619025230408,
                0.1667167693376541,
                -0.20443059504032135,
                -0.15719535946846008,
                0.0648103728890419,
                0.1652022749185562,
                -0.1120859682559967,
                0.06636017560958862,
                -0.017191244289278984,
                0.07603207230567932,
                0.03378858044743538,
                0.07262449711561203,
                -0.18178656697273254,
                -0.11594519019126892,
                0.21496371924877167,
                0.141615092754364,
                -0.05872479826211929,
                0.07176538556814194,
                -0.1349719762802124,
                -0.0184645876288414,
                0.1037520244717598,
                -0.13445168733596802,
                0.12205381691455841,
                -0.07592988014221191,
                0.08792506903409958,
                -0.025235047563910484,
                -0.056964654475450516,
                -0.19592350721359253,
                0.13511092960834503,
                0.0540166050195694,
                -0.10910423845052719,
                -0.10956675559282303,
                0.1027512401342392,
                -0.015625152736902237,
                -0.14910243451595306,
                0.06393395364284515,
                0.19182901084423065,
                -0.1585804969072342,
                0.008122134953737259,
                -0.21874824166297913,
                0.18364116549491882,
                0.0007052765577100217,
                0.1667076051235199,
                -0.11054515838623047,
                -0.21300099790096283,
                -0.07349137961864471,
                -0.04532431438565254,
                -0.026204245164990425,
                0.06874854117631912,
                -0.11659679561853409,
                0.057806920260190964,
                0.07874079048633575,
                0.232367604970932,
                -0.21641425788402557,
                -0.20538581907749176,
                0.04904012754559517,
                -0.12164036184549332,
                0.12462479621171951,
                0.15212522447109222,
                -0.05692588537931442,
                -0.23574495315551758,
                -0.22130054235458374,
                0.09039098024368286,
                -0.14190801978111267,
                -0.13142617046833038,
                -0.22083823382854462,
                0.19707681238651276,
                -0.13970282673835754,
                -0.22478675842285156,
                0.12367450445890427,
                0.15564808249473572,
                0.04117540270090103,
                -0.16660407185554504,
                0.0011921616969630122,
                -0.020128965377807617,
                0.03899037465453148,
                -0.11603308469057083,
                -0.020731419324874878,
                -0.1911696493625641,
                0.12843094766139984,
                -0.1327405869960785,
                0.144999161362648,
                0.11730480939149857,
                -0.14529955387115479,
                0.18621142208576202,
                -0.17719832062721252,
                -0.10093199461698532,
                0.2067556381225586,
                0.0694289356470108,
                -0.16577363014221191,
                -0.05232395604252815,
                -0.14055463671684265,
                -0.049524616450071335,
                -0.19253654778003693,
                -0.01860334537923336,
                0.0441109873354435,
                0.13452355563640594,
                -0.09875866025686264,
                0.20155881345272064,
                0.19083674252033234,
                -0.1554509848356247,
                -0.0796060860157013,
                -0.01033171359449625,
                -0.09461703896522522,
                -0.14295369386672974,
                0.030772853642702103,
                0.06577661633491516,
                -0.03594634681940079,
                -0.0017771550919860601,
                -0.06807583570480347,
                0.1375449001789093,
                -0.06719845533370972,
                0.042009394615888596,
                -0.15693946182727814,
                0.11766283214092255,
                -0.19964976608753204,
                -0.17929525673389435,
                0.08801130205392838,
                -0.19817453622817993,
                -0.1907617747783661,
                0.10947948694229126,
                0.23334702849388123,
                -0.06743330508470535,
                -0.22511276602745056,
                0.1080540269613266,
                6.544803454744397e-06,
                -0.06308939307928085,
                -0.10807764530181885,
                0.19186894595623016,
                -0.05754252150654793,
                0.09205711632966995,
                -0.009826263412833214,
                0.19000200927257538,
                -0.03823985159397125,
                0.21868878602981567,
                0.01504835207015276,
                -0.09666909277439117,
                0.19440102577209473,
                0.09017821401357651,
                -0.13883177936077118,
                -0.04663655161857605,
                0.1673152595758438,
                0.22580444812774658,
                -0.07406139373779297,
                0.11044032871723175,
                0.10180886089801788,
                0.17554442584514618,
                -0.016591673716902733,
                0.10659032315015793,
                0.1516934335231781,
                -0.07640472054481506,
                0.1830882877111435,
                0.08695383369922638,
                -0.1360192447900772,
                -0.08321768045425415,
                -0.19854269921779633,
                -0.03934584558010101,
                -0.14177830517292023,
                -0.18512484431266785,
                -0.014202714897692204,
                0.14973798394203186,
                -0.061514850705862045,
                0.11073175817728043,
                0.023515524342656136,
                0.003076591296121478,
                0.21736279129981995,
                -0.20176948606967926,
                0.008654839359223843,
                0.17259499430656433,
                -0.020058544352650642,
                0.034550610929727554,
                -0.22481155395507812,
                -0.18718281388282776,
                -0.010158894583582878,
                -0.12786905467510223,
                0.20925591886043549,
                0.0028971624560654163,
                -0.11577550321817398,
                -0.08119647949934006,
                -0.02717689797282219,
                -0.08764714747667313,
                -0.1018735021352768,
                0.0663965493440628,
                0.05968023091554642,
                0.21443228423595428,
                0.14623881876468658,
                0.23767022788524628,
                0.1552482545375824,
                0.07462611049413681,
                -0.10353589802980423,
                -0.12738607823848724,
                0.15437346696853638,
                0.16821174323558807,
                0.060358840972185135,
                -0.022724328562617302,
                -0.18031345307826996,
                -0.17653773725032806,
                0.22639164328575134,
                -0.1315760314464569,
                0.1756444126367569,
                0.09729797393083572,
                0.09567662328481674,
                0.16030821204185486,
                0.11278944462537766,
                -0.18167294561862946,
                -0.006991283968091011,
                -0.13639840483665466,
                -0.03432080149650574,
                0.0244322270154953,
                -0.13310299813747406,
                0.13600103557109833,
                0.19549144804477692,
                -0.0016117582563310862,
                -0.03459441289305687,
                -0.07455620169639587,
                0.17758801579475403,
                -0.10153195261955261,
                -0.041347209364175797,
                -0.23383000493049622,
                -0.10550549626350403,
                0.0588860809803009,
                -0.1560019999742508,
                0.09802420437335968,
                -0.13852927088737488,
                0.07375069707632065,
                0.028091460466384888,
                0.12538990378379822,
                0.22882629930973053,
                0.16738839447498322,
                0.043908555060625076,
                -0.0057824766263365746,
                -0.1116742417216301,
                -0.1204017922282219,
                0.029203059151768684,
                0.1942356377840042,
                0.19073419272899628,
                0.054225001484155655,
                0.15059399604797363,
                -0.06795461475849152,
                -0.0886906087398529,
                -0.0014780474593862891,
                0.16812695562839508,
                0.15532994270324707,
                -0.04795295000076294,
                -0.10672545433044434,
                -0.06298184394836426,
                0.1984540969133377,
                0.0476040281355381,
                -0.0035889397840946913,
                0.06097948178648949,
                -0.23217777907848358,
                -0.21436695754528046,
                -0.1097332313656807,
                0.1449887752532959,
                -0.1125812903046608,
                0.20806048810482025,
                0.14444632828235626,
                0.21940115094184875,
                -0.13411039113998413,
                -0.03722523897886276,
                -0.03792676329612732,
                -0.17558810114860535,
                0.18193018436431885,
                0.13088898360729218,
                -0.10084225237369537,
                0.0024112050887197256,
                -0.20455917716026306,
                -0.21042509377002716,
                0.06448183953762054,
                0.12778650224208832,
                -0.08446689695119858,
                0.21137458086013794,
                -0.1854410320520401,
                0.15042273700237274,
                0.20089076459407806,
                0.03890658915042877,
                0.16896720230579376,
                0.0227443166077137,
                0.023768579587340355,
                0.09234324842691422,
                0.20896637439727783,
                0.0927562415599823,
                0.05711311101913452,
                0.19504331052303314,
                0.2180771380662918,
                0.126749649643898,
                -0.188563272356987,
                0.09326593577861786,
                0.11018136888742447,
                -0.1966177076101303,
                -0.07240783423185349,
                -0.15562978386878967,
                -0.008205072954297066,
                -0.035383086651563644,
                -0.18725916743278503,
                0.08471439778804779,
                -0.12517397105693817,
                0.10366777330636978,
                -0.144098162651062,
                -0.16736142337322235,
                -0.005788888316601515,
                0.14355751872062683,
                0.07737594097852707,
                -0.07453703135251999,
                -0.15787364542484283,
                0.18566514551639557,
                0.2246672511100769,
                0.21339775621891022,
                0.16875676810741425,
                0.21276584267616272,
                -0.14400960505008698,
                0.1785983443260193,
                -0.1147334948182106,
                0.22227124869823456,
                -0.229732483625412,
                -0.10662353038787842,
                0.08571971207857132,
                -0.04882640391588211,
                0.17219902575016022,
                0.153269425034523,
                -0.1369040608406067,
                -0.13799850642681122,
                -0.13441623747348785,
                -0.13035918772220612,
                -0.2014928162097931,
                -0.11122186481952667,
                -0.09222592413425446,
                0.027016054838895798,
                0.13398168981075287,
                -0.14939986169338226,
                -0.14683422446250916,
                0.14461909234523773,
                -0.15887130796909332,
                0.19517624378204346,
                -0.21553032100200653,
                0.06099308654665947,
                0.04879916459321976,
                0.11345228552818298,
                0.20018929243087769,
                0.15061861276626587,
                -0.2129974067211151,
                -0.03477069362998009,
                0.07052968442440033,
                -0.05320977047085762,
                -0.17451336979866028,
                -0.13888253271579742,
                -0.17000077664852142,
                -0.06801531463861465,
                -0.011245264671742916,
                -0.037736017256975174,
                -0.13877616822719574,
                -0.1998266577720642,
                0.18117046356201172,
                0.1301848441362381,
                0.03441644459962845,
                -0.20845216512680054,
                -0.07887595146894455,
                0.08471797406673431,
                0.14865848422050476,
                0.21081854403018951,
                0.17433132231235504,
                0.08493783324956894,
                -0.12542566657066345,
                0.039069730788469315,
                0.09424993395805359,
                -0.2108539640903473,
                0.06084081530570984,
                0.12954767048358917,
                -0.07816002517938614,
                0.1864936351776123,
                -0.10804694145917892,
                -0.15364162623882294,
                -0.11092419177293777,
                -0.10028397291898727,
                0.0901150330901146,
                0.15314017236232758,
                -0.13606595993041992,
                -0.19749101996421814,
                0.005822614300996065,
                -0.02170007862150669,
                0.08065559715032578,
                -0.21267102658748627,
                0.13986915349960327,
                -0.009480861015617847,
                0.10521049797534943,
                0.04581882059574127,
                -0.025684693828225136,
                -0.020488958805799484,
                -0.21416659653186798,
                -0.1828826367855072,
                -0.23032905161380768,
                0.1995590180158615,
                0.11857771873474121,
                0.1931414008140564,
                -0.05227671191096306,
                0.212000772356987,
                -0.20299705862998962,
                0.18762709200382233,
                -0.07053747773170471,
                -0.004189575091004372,
                0.029800819233059883,
                0.0874151960015297,
                0.05261236056685448,
                0.16207745671272278,
                -0.14591795206069946,
                0.0014617551350966096,
                0.17540955543518066,
                0.09158606827259064,
                -0.07081671059131622,
                0.010110771283507347,
                0.1750875562429428,
                -0.12750330567359924,
                0.05469429865479469,
                -0.05792013928294182,
                -0.02925858274102211,
                0.06191634386777878,
                0.12274475395679474,
                -0.11795298010110855,
                -0.155952587723732,
                0.11382997781038284,
                -0.16476397216320038,
                -0.12652261555194855,
                0.06437411159276962,
                0.08664862811565399,
                -0.172525554895401,
                -0.22306765615940094,
                -0.2307645082473755,
                -0.17487116158008575,
                0.06168694794178009,
                0.16680584847927094,
                0.1756509691476822,
                0.11679736524820328,
                0.024093469604849815,
                0.17620277404785156,
                0.01338652241975069,
                -0.01588297262787819,
                -0.16616149246692657,
                0.18038634955883026,
                -0.17156046628952026,
                -0.10512460768222809,
                -0.1815183013677597,
                -0.0740489810705185,
                -0.18057796359062195,
                -0.12410367280244827,
                -0.18323001265525818,
                -0.04062659293413162,
                -0.14101485908031464,
                0.11882473528385162,
                0.052438873797655106,
                0.16378092765808105,
                0.10133030265569687,
                0.038849733769893646,
                0.1083623394370079,
                -0.07576601952314377,
                -0.1401558369398117,
                -0.22160059213638306,
                0.23317861557006836,
                0.22961828112602234,
                0.12714631855487823,
                -0.07548464834690094,
                -0.03416280820965767,
                0.06451201438903809,
                0.020328331738710403,
                -0.05369861051440239,
                0.11238245666027069,
                -0.011480683460831642,
                -0.06556470692157745,
                -0.05138370394706726,
                -0.04354403540492058,
                0.14279402792453766,
                -0.15699875354766846,
                -0.07361207902431488,
                0.17622753977775574,
                0.23806080222129822,
                -0.14543646574020386,
                -0.051615819334983826,
                0.14249567687511444,
                -0.0753365010023117,
                0.11936797201633453,
                -0.23542366921901703,
                -0.07787811756134033,
                0.20179632306098938,
                0.0979880690574646,
                -0.025688152760267258,
                -0.0014323409413918853,
                -0.07769452780485153,
                0.059543635696172714,
                -0.1970851570367813,
                -0.01955336146056652,
                -0.19765128195285797,
                0.18247054517269135,
                0.18495069444179535,
                -0.16928526759147644,
                -0.12469542771577835,
                -0.20327821373939514,
                -0.010391387157142162,
                -0.028681308031082153,
                -0.1851881593465805,
                0.03984486684203148,
                0.11834017932415009,
                0.20278383791446686,
                0.030202217400074005,
                0.03705720230937004,
                -0.18989074230194092,
                0.11309255659580231,
                -0.15568740665912628,
                0.11424564570188522,
                -0.22473013401031494,
                -0.11752215027809143,
                -0.2261471152305603,
                0.05362805351614952,
                -0.15557719767093658,
                0.05820305645465851,
                -0.05522744357585907,
                -0.12085369974374771,
                0.12069707363843918,
                0.06956834346055984,
                0.08832132071256638,
                0.015863535925745964,
                -0.21843309700489044,
                0.17258086800575256,
                0.1702917367219925,
                0.08201167732477188,
                -0.1332329660654068,
                -0.191078782081604,
                0.18812985718250275,
                0.14822229743003845,
                -0.0954476073384285,
                0.11100614070892334,
                -0.09476952254772186,
                -0.10853628814220428,
                0.024133814498782158,
                -0.07375048846006393,
                -0.20916442573070526,
                0.09602290391921997,
                0.14911210536956787,
                0.15446966886520386,
                0.050791118294000626,
                -0.17663931846618652,
                0.03442149981856346,
                -0.12218901515007019,
                0.0027886342722922564,
                -0.09133891016244888,
                -0.12120085209608078,
                -0.04291626065969467,
                -0.07452709227800369,
                -0.2029242068529129,
                0.040963076055049896,
                -0.2155119925737381,
                -0.14151620864868164,
                -0.18258264660835266,
                -0.12224879860877991,
                0.08241677284240723,
                -0.18878111243247986,
                -0.16245466470718384,
                -0.15616615116596222,
                -0.18963085114955902,
                -0.20279203355312347,
                -0.19935867190361023,
                -0.12142728269100189,
                -0.01845584809780121,
                -0.12890583276748657,
                0.1256134957075119,
                -0.08694138377904892,
                0.03025485947728157,
                0.09998753666877747,
                -0.19206495583057404,
                -0.04082069918513298,
                0.08839457482099533,
                -0.05434513837099075,
                0.15145933628082275,
                -0.16899845004081726,
                -0.07708773016929626,
                0.08381017297506332,
                -0.04419693350791931,
                0.1706533133983612,
                -0.03432874381542206,
                0.098868228495121,
                -0.21229524910449982,
                0.10414242744445801,
                -0.03386165574193001,
                0.15550734102725983,
                -0.11444684118032455,
                -0.04389503598213196,
                -0.1332227885723114,
                -0.18123014271259308,
                0.18340091407299042,
                -0.04944585636258125,
                0.2180345207452774,
                0.10476630181074142,
                -0.2280896008014679,
                -0.06498580425977707,
                -0.18214641511440277,
                0.2264072746038437,
                0.06485936790704727,
                0.048521291464567184,
                -0.19946813583374023,
                0.1214381530880928,
                0.10676038265228271,
                0.08668116480112076,
                0.18598000705242157,
                0.14334632456302643,
                -0.15720999240875244,
                -0.13037928938865662,
                -0.22029393911361694,
                -0.035129524767398834,
                0.04773261770606041,
                0.12172744423151016,
                -0.09561624377965927,
                0.054749175906181335,
                -0.14506453275680542,
                -0.09851057827472687,
                -0.2006502002477646,
                0.05065222457051277,
                -0.21680347621440887,
                0.13868069648742676,
                -0.0021065634209662676,
                0.06743203103542328,
                0.07833459973335266,
                0.0476597435772419,
                0.07700656354427338,
                -0.11757425963878632,
                0.10799556225538254,
                -0.16818022727966309,
                0.15182265639305115,
                -0.1370047926902771,
                9.705108095658943e-05,
                -0.11935887485742569,
                0.02791883796453476,
                0.022518504410982132,
                -0.008843017742037773,
                0.11736449599266052,
                0.08709973096847534,
                -0.08412954956293106,
                -0.06779469549655914,
                -0.10304060578346252,
                0.04130317643284798,
                0.02651991881430149,
                -0.015851879492402077,
                -0.07794822752475739,
                0.15441593527793884,
                -0.04777493327856064,
                0.14789347350597382,
                0.020649418234825134,
                -0.07626678049564362,
                -0.16245713829994202,
                -0.018600456416606903,
                0.06960001587867737,
                0.10843536257743835,
                0.22110562026500702,
                0.15125644207000732,
                -0.09988228231668472,
                -0.11126095801591873,
                0.0009229759452864528,
                0.2203323096036911,
                -0.13972485065460205,
                -0.03860888630151749,
                -0.06191437318921089,
                -0.04752872511744499,
                -0.11771011352539062,
                0.21751908957958221,
                0.07959330826997757,
                0.15944048762321472,
                0.2149783819913864,
                -0.04704747721552849,
                0.08176392316818237,
                -0.06701995432376862,
                0.13322749733924866,
                -0.09549597650766373,
                0.07677428424358368,
                0.15030713379383087,
                0.056033484637737274,
                0.08564724773168564,
                -0.06114215403795242,
                -0.20485398173332214,
                -0.2279820740222931,
                0.11881580203771591,
                0.023361368104815483,
                -0.06748495250940323,
                0.012534034438431263,
                -0.22618348896503448,
                0.1581198126077652,
                0.21093042194843292,
                -0.15262728929519653,
                -0.11592001467943192,
                -0.2098357230424881,
                -0.09324828535318375,
                -0.15762801468372345,
                -0.20704534649848938,
                -0.01740178093314171,
                0.10842512547969818,
                0.11173702776432037,
                -0.04172288253903389,
                -0.1413765400648117,
                0.10450604557991028,
                0.06632166355848312,
                0.19307273626327515,
                0.03148844838142395,
                0.07671379297971725,
                0.03383268415927887,
                -0.05958404019474983,
                -0.11729903519153595,
                0.1752515733242035,
                0.11434268951416016,
                -0.22156868875026703,
                0.20477832853794098,
                -0.1276005357503891,
                -0.049147605895996094,
                0.20984315872192383,
                -0.1064639762043953,
                -0.1938304305076599,
                0.11949574947357178,
                0.003929467406123877,
                0.049739960581064224,
                0.010854044929146767,
                -0.02654200792312622,
                0.15284490585327148,
                -0.10517524927854538,
                -0.11662602424621582,
                0.08344865590333939,
                -0.10188189148902893,
                -0.00026593831717036664,
                0.1509246975183487,
                -0.1615515947341919,
                0.1330222338438034,
                -0.08770338445901871,
                0.09772078692913055,
                -0.13585230708122253,
                -0.07192288339138031,
                -0.050085682421922684,
                -0.20519892871379852,
                -0.025816867128014565,
                -0.03342253714799881,
                0.09337403625249863,
                0.17131607234477997,
                -0.19575782120227814,
                -0.16576406359672546,
                0.08220834285020828,
                0.07235530018806458,
                0.2035370022058487,
                -0.20507046580314636,
                -0.028216194361448288,
                0.22159674763679504,
                0.061721447855234146,
                -0.04035543277859688,
                0.15083442628383636,
                -0.1455761045217514,
                -0.0981067419052124,
                0.10833599418401718,
                0.15402226150035858,
                0.13272814452648163,
                0.11073219776153564,
                0.052528154104948044,
                -0.12577131390571594,
                -0.06408380717039108,
                0.15449514985084534,
                -0.05545146018266678,
                0.05166398361325264,
                0.06212204694747925,
                0.057702887803316116,
                -0.024049216881394386,
                0.09501152485609055,
                0.21869626641273499,
                0.09846550971269608,
                0.1098518818616867,
                -0.09329314529895782,
                0.13721343874931335,
                -0.055160969495773315,
                -0.1944662183523178,
                -0.08194258064031601,
                -0.09658505022525787,
                -0.09781461209058762,
                -0.21874241530895233,
                -0.12696720659732819,
                0.1795666664838791,
                -0.05892641842365265,
                -0.1913045197725296,
                0.11027566343545914,
                -0.08672084659337997,
                0.08182276785373688,
                -0.06205132231116295,
                -0.14497672021389008,
                0.09766313433647156,
                0.04599219933152199,
                0.22291018068790436,
                0.0718277245759964,
                0.1419692486524582,
                0.01334617380052805,
                -0.1702243983745575,
                -0.09392418712377548,
                -0.11028550565242767,
                -0.12281491607427597,
                -0.09069973230361938,
                0.06998950242996216,
                -0.15658125281333923,
                0.24172605574131012,
                0.041413333266973495,
                -0.18368153274059296,
                0.09940517693758011,
                0.16378600895404816,
                -0.18558838963508606,
                -0.16491501033306122,
                -0.004572917241603136,
                -0.016067881137132645,
                0.02518824115395546,
                -0.13693058490753174,
                -0.1299992948770523,
                0.20190976560115814,
                -0.1472192406654358,
                -0.0786561369895935,
                -0.0998794287443161,
                -0.13257306814193726,
                -0.1670907586812973,
                0.02908715046942234,
                -0.13574282824993134,
                -0.22258634865283966,
                0.055072419345378876,
                -0.1574510782957077,
                0.23339062929153442,
                0.07917121052742004,
                -0.19257627427577972,
                -0.09950075298547745,
                -0.04834510385990143,
                0.07620180398225784,
                -0.06383800506591797,
                0.18558020889759064,
                0.007368767634034157,
                0.18026261031627655,
                0.051379915326833725,
                0.06405581533908844,
                -0.08967259526252747,
                0.06089170277118683,
                0.12650568783283234,
                0.14575925469398499,
                -0.15787824988365173,
                -0.05955919995903969,
                0.02060539275407791,
                -0.010777887888252735,
                -0.176252543926239,
                0.08406764268875122,
                0.047777265310287476,
                0.08269166946411133,
                0.002047996036708355,
                -0.024572065100073814,
                -0.1959841251373291,
                -0.08739392459392548,
                0.15231293439865112,
                -0.10452011972665787,
                0.10984905809164047,
                -0.09456296265125275,
                0.09848548471927643,
                0.1948920637369156,
                -0.22004348039627075,
                -0.1398252546787262,
                -0.08507034927606583,
                0.11068959534168243,
                0.05777732655405998,
                -0.1659109890460968,
                0.008532403968274593,
                -0.050274841487407684,
                -0.1824842244386673,
                0.18268410861492157,
                0.056464049965143204,
                0.16047334671020508,
                -0.11964869499206543,
                -0.12823808193206787,
                0.09431605041027069,
                0.13747131824493408,
                -0.20405961573123932,
                0.062254391610622406,
                -0.07715235650539398,
                0.21414248645305634,
                -0.2208814024925232,
                -0.08468787372112274,
                0.23070895671844482,
                0.11347683519124985,
                -0.13805101811885834,
                0.07145895808935165,
                0.0197403933852911,
                0.11191585659980774,
                -0.046555936336517334,
                -0.003361686132848263,
                0.15719935297966003,
                0.16302277147769928,
                -0.07595282793045044,
                0.23516981303691864,
                -0.11216042935848236,
                -0.16627641022205353,
                0.059543803334236145,
                0.10754677653312683,
                -0.2117440402507782,
                0.03878936916589737,
                -0.055573657155036926,
                -0.22304482758045197,
                -0.16523867845535278,
                0.19656068086624146,
                0.00687651801854372,
                -0.2190595120191574,
                0.029003942385315895,
                0.16557259857654572,
                0.2051769196987152,
                -0.15617509186267853,
                -0.18204918503761292,
                -0.11749822646379471,
                0.08307189494371414,
                0.17580577731132507,
                0.19875049591064453,
                0.12619858980178833,
                0.1630479395389557,
                -0.1756981611251831,
                0.10997854918241501,
                0.0384613536298275,
                0.19268156588077545,
                0.0052038622088730335,
                0.15664340555667877,
                -0.008362594991922379,
                0.06680847704410553,
                0.12845265865325928,
                -0.22930069267749786,
                -0.05479659512639046,
                -0.09086152166128159,
                -0.20552554726600647,
                -0.15380798280239105,
                0.01102613378316164,
                0.0026207224000245333,
                -0.20338495075702667,
                0.1901606023311615,
                -0.18224652111530304,
                0.10142790526151657,
                0.14849334955215454,
                -0.04449839144945145,
                -0.16414876282215118,
                0.05742816999554634,
                0.22591927647590637,
                0.040831729769706726,
                0.14078332483768463,
                0.016235055401921272,
                0.08892590552568436,
                -0.048003342002630234,
                0.18586920201778412,
                0.03812997788190842,
                -0.15310795605182648,
                0.0927259624004364,
                0.16874168813228607,
                0.17306889593601227,
                0.11709985882043839,
                -0.11085033416748047,
                0.09781549870967865,
                -0.1802985966205597,
                0.19473876059055328,
                -0.05039851367473602,
                -0.005345187149941921,
                0.03568514436483383,
                -0.16664278507232666,
                -0.05090268701314926,
                -0.1924980729818344,
                0.07957611978054047,
                0.09177002310752869,
                -0.126386821269989,
                0.03382103890180588,
                0.19017909467220306,
                0.12324593216180801,
                -0.20016469061374664,
                0.21038228273391724,
                0.15450619161128998,
                0.05378619581460953,
                -0.02520631067454815,
                0.09616023302078247,
                0.20911255478858948,
                0.13863778114318848,
                0.15718689560890198,
                -0.0469704195857048,
                0.12340841442346573,
                -0.11619513481855392,
                0.21602986752986908,
                0.19617219269275665,
                0.19978687167167664,
                -0.00490718986839056,
                0.1081739142537117,
                0.1890636384487152,
                -0.17525455355644226,
                0.19407494366168976,
                0.07397603243589401,
                0.08825182169675827,
                -0.00018186420493293554,
                0.11778706312179565,
                0.11102801561355591,
                -0.0332585871219635,
                -0.13087604939937592,
                0.14402036368846893,
                0.14398835599422455,
                -0.17553789913654327,
                -0.11734068393707275,
                0.16434599459171295,
                -0.1188499704003334,
                -0.14344121515750885,
                0.09940817952156067,
                -0.16717346012592316,
                -0.1489650011062622,
                -0.00802065059542656,
                -0.13175679743289948,
                0.2024964690208435,
                0.03457081317901611,
                -0.12312693893909454,
                0.1383150815963745,
                -0.0005941408453509212,
                0.008832413703203201,
                -0.16811801493167877,
                0.0706879124045372,
                -0.044982973486185074,
                -0.27477729320526123,
                0.15408533811569214,
                0.11380571126937866,
                0.2644994556903839,
                0.13012422621250153,
                -0.048282306641340256,
                -0.04126901179552078,
                -0.08299639075994492,
                0.24354727566242218,
                0.21355246007442474,
                -0.2733023166656494,
                -0.1063842624425888,
                0.11308716237545013,
                -0.19687049090862274,
                0.2863989472389221,
                0.14223748445510864,
                0.1328381896018982,
                -0.148935928940773,
                -0.12355078011751175,
                0.08669105172157288,
                -0.2133040428161621,
                -0.06293771415948868,
                -0.0774565190076828,
                -0.26407575607299805,
                -0.07276739925146103,
                -0.1315258890390396,
                -0.2699618339538574,
                -0.12894850969314575,
                0.15142466127872467,
                -0.16325923800468445,
                0.2381930649280548,
                0.02024676650762558,
                -0.13198009133338928,
                -0.2224133312702179,
                0.07726826518774033,
                -0.332170695066452,
                0.167560875415802,
                -0.27275100350379944,
                -0.14935976266860962,
                0.04984081909060478,
                0.16009122133255005,
                -0.02127193659543991,
                -0.022626077756285667,
                -0.013423537835478783,
                -0.16472460329532623,
                -0.21335646510124207,
                -0.0635622888803482,
                0.08331024646759033,
                -0.02170446142554283,
                -0.2793651521205902,
                -0.09050165116786957,
                0.07838104665279388,
                0.1846534013748169,
                0.1674395054578781,
                0.24371984601020813,
                0.06781312078237534,
                0.05036177858710289,
                -0.04569464176893234,
                0.002447031671181321,
                0.20384842157363892,
                0.056654006242752075,
                0.32353389263153076,
                0.04949434474110603,
                -0.21057584881782532,
                -0.09658142179250717,
                0.10981835424900055,
                0.0866389200091362,
                0.23884819447994232,
                -0.018612222746014595,
                -0.20146039128303528,
                0.012326315976679325,
                0.004080822225660086,
                0.061304010450839996,
                -0.21844682097434998,
                0.1501164436340332,
                0.10130798816680908,
                0.06785449385643005,
                0.21922796964645386,
                0.1622893065214157,
                -0.09773790091276169,
                -0.09245840460062027,
                -0.04076515510678291,
                0.10355912148952484,
                0.16313591599464417,
                0.010677486658096313,
                0.2552919089794159,
                -0.017726916819810867,
                -0.04089688882231712,
                0.10186156630516052,
                -0.05015187710523605,
                -0.020386269316077232,
                -0.009228895418345928,
                0.12107278406620026,
                0.1523740440607071,
                -0.12551277875900269,
                -0.12812989950180054,
                0.1404161900281906,
                0.0913512334227562,
                -0.045481156557798386,
                -0.009422888979315758,
                -0.028564753010869026,
                0.009129990823566914,
                0.0945967584848404,
                0.004668685141950846,
                0.30647316575050354,
                0.18981622159481049,
                0.12278729677200317,
                -0.10688134282827377,
                -0.21124382317066193,
                0.06445273011922836,
                0.2399437427520752,
                0.11034871637821198,
                0.2100759893655777,
                -0.06692170351743698,
                -0.0385948084294796,
                -0.12484592199325562,
                0.08426020294427872,
                0.05654438957571983,
                0.110758937895298,
                -0.027528250589966774,
                0.15728557109832764,
                -0.14793315529823303,
                0.24783313274383545,
                0.09231380373239517,
                0.06881588697433472,
                -0.130599245429039,
                -0.03496825695037842,
                -0.02460373006761074,
                0.008209881372749805,
                -0.18241018056869507,
                0.18333442509174347,
                0.2541159987449646,
                0.08788010478019714,
                -0.13685859739780426,
                0.25290796160697937,
                0.05620785802602768,
                0.04793033003807068,
                -0.2175801396369934,
                -0.31413009762763977,
                -0.2039743810892105,
                -0.26417380571365356,
                0.2694157660007477,
                -0.2656339704990387,
                -0.12717224657535553,
                0.19528497755527496,
                0.08798864483833313,
                -0.20605503022670746,
                -0.04407442733645439,
                0.26994937658309937,
                -0.032353475689888,
                0.023113179951906204,
                -0.026925766840577126,
                0.21189336478710175,
                0.08468730747699738,
                -0.15124410390853882,
                0.07051575928926468,
                0.0200958289206028,
                -0.08745146542787552,
                0.1493210345506668,
                0.2208978533744812,
                -0.2719501554965973,
                0.11753607541322708,
                0.0006269532605074346,
                -0.17931582033634186,
                0.14062032103538513,
                0.18695835769176483,
                -0.2096312940120697,
                0.07695043832063675,
                0.293988436460495,
                -0.18481206893920898,
                -0.23393265902996063,
                -0.12942230701446533,
                0.2358335554599762,
                -0.049732696264982224,
                -0.049417536705732346,
                -0.018433840945363045,
                -0.015685997903347015,
                -0.020713234320282936,
                0.18282057344913483,
                -0.2949709892272949,
                -0.0975646823644638,
                0.23699940741062164,
                0.08388817310333252,
                -0.014661953784525394,
                0.23771409690380096,
                -0.015172424726188183,
                0.004262103233486414,
                0.062120165675878525,
                -0.15727099776268005,
                0.18563543260097504,
                -0.027819951996207237
            ],
            "weight_shape": [
                64,
                19
            ],
            "bias": [
                -0.17696958780288696,
                0.23098118603229523,
                0.05014358088374138,
                -0.14331354200839996,
                -0.15433502197265625,
                0.11768357455730438,
                0.13707955181598663,
                0.0815320834517479,
                0.02205628715455532,
                0.006911610718816519,
                -0.1503951996564865,
                0.07062676548957825,
                0.20629234611988068,
                -0.03064027801156044,
                -0.19671525061130524,
                0.1931999772787094,
                -0.039487529546022415,
                0.15548895299434662,
                0.09970511496067047,
                -0.1929195076227188,
                0.17890506982803345,
                0.19398249685764313,
                0.018976252526044846,
                0.014339379966259003,
                -0.22819392383098602,
                -0.002462850883603096,
                -0.1023259162902832,
                -0.049906179308891296,
                0.04513964802026749,
                -0.03180908039212227,
                0.044293664395809174,
                -0.16680072247982025,
                0.0456022284924984,
                -0.12040434032678604,
                0.17200495302677155,
                -0.081362284719944,
                0.11557704210281372,
                0.2387760877609253,
                0.014274703338742256,
                0.0469195581972599,
                0.08994781225919724,
                0.08379636704921722,
                -0.11395704746246338,
                0.07147747278213501,
                0.21678976714611053,
                0.17245595157146454,
                0.012493051588535309,
                -0.13421288132667542,
                0.2132280468940735,
                0.06077102571725845,
                -0.09609052538871765,
                -0.15285657346248627,
                -0.16232483088970184,
                -0.09787829965353012,
                0.046810492873191833,
                0.11360587179660797,
                0.06172642484307289,
                -0.15994897484779358,
                0.20885954797267914,
                0.0550808422267437,
                -0.21280023455619812,
                -0.13983850181102753,
                0.048972491174936295,
                -0.03011467307806015
            ],
            "bias_shape": [
                64
            ]
        },
        {
            "weight": [
                -0.13313719630241394,
                0.028973376378417015,
                0.04892155900597572,
                0.010152695700526237,
                -0.11586520075798035,
                -0.044831082224845886,
                0.10334638506174088,
                0.036538347601890564,
                0.09578967094421387,
                0.1125977486371994,
                0.018847394734621048,
                -0.04421297088265419,
                0.06410414725542068,
                -0.0516970232129097,
                -0.0026637010741978884,
                -0.027638116851449013,
                0.04217743128538132,
                -0.0273550134152174,
                -0.038633838295936584,
                -0.04323843866586685,
                -0.12655235826969147,
                -0.07929985225200653,
                0.04760194197297096,
                0.048601698130369186,
                -0.012285998091101646,
                0.07249435782432556,
                0.06380025297403336,
                -0.08419076353311539,
                0.1193041130900383,
                0.12379930168390274,
                0.027877220883965492,
                0.09609991312026978,
                0.044816676527261734,
                0.07552479207515717,
                0.022485455498099327,
                -0.029088523238897324,
                0.000980681856162846,
                -0.005195823032408953,
                -0.003756333142518997,
                0.05667737498879433,
                -0.09858805686235428,
                0.008766192011535168,
                0.027502508834004402,
                0.08780079334974289,
                0.0683455541729927,
                0.08291856944561005,
                -0.008560258895158768,
                -0.05550825223326683,
                0.021127913147211075,
                -0.05586307495832443,
                0.03732218220829964,
                0.0982728824019432,
                0.02731078676879406,
                0.13075241446495056,
                -0.011609885841608047,
                -0.06737742573022842,
                -0.05552312359213829,
                0.17963813245296478,
                -0.07605501264333725,
                0.05504969507455826,
                -0.07764943689107895,
                0.0761069804430008,
                0.07851387560367584,
                -0.0152859166264534,
                0.03498765826225281,
                0.09770423918962479,
                0.06710153073072433,
                -0.07264476269483566,
                0.03369709104299545,
                -0.09699207544326782,
                0.0198754221200943,
                0.02578197978436947,
                0.06427039206027985,
                -0.07664971798658371,
                -0.04512579366564751,
                0.02983580343425274,
                -0.043035075068473816,
                0.06387178599834442,
                0.1100514754652977,
                0.00031616431078873575,
                -0.0664936751127243,
                0.12516051530838013,
                -0.08744572103023529,
                0.13008606433868408,
                0.027270060032606125,
                -0.040619466453790665,
                0.06753528118133545,
                0.016623616218566895,
                0.10221987962722778,
                -0.06306416541337967,
                -0.10125719755887985,
                0.026335660368204117,
                -0.003025225130841136,
                -0.032303471118211746,
                -0.041825070977211,
                0.10832510143518448,
                -0.03900092467665672,
                0.0573439821600914,
                -0.06777475774288177,
                0.07735127955675125,
                -0.08093232661485672,
                0.12066792696714401,
                -0.12514133751392365,
                0.02947968617081642,
                0.0055634137243032455,
                -0.068919338285923,
                -0.07970623672008514,
                0.05527786910533905,
                0.11960729211568832,
                -0.057521164417266846,
                -0.06647950410842896,
                0.007593485061079264,
                0.06510493904352188,
                -0.007276487071067095,
                0.09967907518148422,
                -0.1028728112578392,
                -0.13130724430084229,
                -0.008293092250823975,
                -0.09721776098012924,
                0.11691047996282578,
                -0.06401729583740234,
                0.07043110579252243,
                0.05767429992556572,
                0.04472075402736664,
                -0.07330034673213959,
                -0.014356482774019241,
                -0.13278664648532867,
                0.12044727057218552,
                -0.0054456330835819244,
                0.04642920568585396,
                -0.1156938448548317,
                -0.000878155289683491,
                0.005616347771137953,
                0.11086864769458771,
                0.05184042081236839,
                0.08349671214818954,
                0.09176183491945267,
                -0.08252169191837311,
                -0.07022438198328018,
                0.12115295231342316,
                -0.06781670451164246,
                -0.05122606083750725,
                -0.049257077276706696,
                -0.04236024245619774,
                -0.04160867631435394,
                0.10139467567205429,
                0.017134465277194977,
                -0.10172650963068008,
                0.10759378969669342,
                -0.02213229425251484,
                -0.011161007918417454,
                0.11141208559274673,
                0.0407421849668026,
                -0.11717205494642258,
                -0.022253943607211113,
                -0.12236808240413666,
                -0.021621737629175186,
                -0.04775671288371086,
                -0.10849115997552872,
                -0.07193337380886078,
                0.07929698377847672,
                -0.02074572630226612,
                0.11743414402008057,
                0.06637405604124069,
                -0.03216711804270744,
                0.10784246772527695,
                0.07072515040636063,
                -0.10392584651708603,
                -0.07815025001764297,
                0.0025644004344940186,
                -0.06670868396759033,
                -0.1284112185239792,
                -0.030891835689544678,
                0.07504380494356155,
                0.04536045342683792,
                0.11121033132076263,
                0.06138434633612633,
                -0.04536551982164383,
                0.09090930223464966,
                0.01929011195898056,
                0.02068585529923439,
                0.10036399215459824,
                0.020098242908716202,
                -0.09721233695745468,
                0.11582585424184799,
                -0.06776105612516403,
                0.08363133668899536,
                -0.10315364599227905,
                0.11602329462766647,
                0.0187535397708416,
                -0.07263482362031937,
                -0.11088109016418457,
                0.12047034502029419,
                -0.06558825820684433,
                0.13761499524116516,
                -0.1386348456144333,
                -0.07074683159589767,
                0.06446783989667892,
                0.13190479576587677,
                -0.08538202941417694,
                -0.04321708902716637,
                0.0003305301652289927,
                0.14238087832927704,
                -0.11463254690170288,
                0.07964861392974854,
                -0.10091391205787659,
                -0.05674052983522415,
                -0.09470708668231964,
                -0.061942748725414276,
                0.08269704878330231,
                -0.07943160831928253,
                0.1163143515586853,
                0.061780404299497604,
                0.08450743556022644,
                0.11112349480390549,
                -0.11746371537446976,
                0.045947134494781494,
                0.0027017199900001287,
                0.0827222615480423,
                0.03640417754650116,
                -0.023745300248265266,
                -0.06912817806005478,
                0.05287111550569534,
                -0.14033430814743042,
                0.03535105660557747,
                0.12720081210136414,
                0.05084068700671196,
                0.0093084666877985,
                -0.13787740468978882,
                0.061475954949855804,
                0.10077867656946182,
                -0.052530437707901,
                0.023475822061300278,
                -0.13398459553718567,
                0.06303703784942627,
                0.04633151367306709,
                0.021066177636384964,
                -0.12735630571842194,
                -0.04660288617014885,
                -0.08496857434511185,
                0.12996742129325867,
                -0.014318767003715038,
                0.10742216557264328,
                -0.06192426383495331,
                0.08739987760782242,
                0.11316018551588058,
                0.054469361901283264,
                0.09367184340953827,
                -0.08046355843544006,
                0.03542851656675339,
                -0.07094426453113556,
                -0.04824400320649147,
                -0.05947413295507431,
                0.11710208654403687,
                -0.12703776359558105,
                0.10682863742113113,
                -0.017636647447943687,
                -0.0514613576233387,
                -0.008303254842758179,
                -0.00786711648106575,
                0.12510068714618683,
                0.02965448424220085,
                0.010832731612026691,
                -0.052315354347229004,
                0.021824678406119347,
                -0.09057194739580154,
                0.036882635205984116,
                -0.05658424273133278,
                0.0854555293917656,
                0.08219239860773087,
                -0.09521768987178802,
                -0.013852308504283428,
                -0.07218730449676514,
                -0.12197107076644897,
                -0.07254989445209503,
                -0.13304324448108673,
                -0.056907497346401215,
                -0.09022543579339981,
                0.015733813866972923,
                0.13171038031578064,
                0.0473502017557621,
                -0.14183703064918518,
                -0.09121325612068176,
                -0.020006489008665085,
                -0.055184829980134964,
                -0.1063079908490181,
                -0.001509823021478951,
                -0.12105371057987213,
                0.04637232795357704,
                0.1062818095088005,
                0.13131366670131683,
                -0.08088228106498718,
                0.02844170294702053,
                -0.0989011600613594,
                -0.014221501536667347,
                -0.0781509205698967,
                0.04509933665394783,
                -0.06995730847120285,
                0.08959046751260757,
                0.0885031670331955,
                -0.09089183062314987,
                -0.11159460991621017,
                0.03150006756186485,
                -0.0751146525144577,
                0.09785857796669006,
                0.08535873144865036,
                -0.05577164143323898,
                0.09460079669952393,
                0.08579333871603012,
                -0.0037501815240830183,
                -0.11565466225147247,
                -0.0004694921080954373,
                0.1737070083618164,
                -0.10180313885211945,
                0.07874562591314316,
                0.01095571368932724,
                -0.0636775940656662,
                0.04392542690038681,
                -0.0463111512362957,
                0.09500516206026077,
                -0.10820774734020233,
                -0.06676148623228073,
                0.07702399045228958,
                0.11738237738609314,
                0.015224765986204147,
                0.06209859251976013,
                0.10629827529191971,
                -0.08724641799926758,
                0.12420062720775604,
                0.08011529594659805,
                -0.017282383516430855,
                0.09068302810192108,
                0.04453008249402046,
                -0.03334054350852966,
                0.08946578949689865,
                0.0574244000017643,
                0.01963239721953869,
                0.07435818761587143,
                -0.018331192433834076,
                -0.09962369501590729,
                -0.1057920828461647,
                0.02375669963657856,
                -0.013729557394981384,
                0.11477349698543549,
                0.06677582859992981,
                -0.09912266582250595,
                0.006684689782559872,
                0.09411686658859253,
                0.05035002529621124,
                0.1103188544511795,
                0.05024559795856476,
                -0.1463952213525772,
                -0.07728609442710876,
                -0.009869332425296307,
                0.04582076519727707,
                0.11070060729980469,
                -0.0632261335849762,
                0.07616893947124481,
                -0.09470239281654358,
                0.10758958756923676,
                0.08838605880737305,
                -0.0001189438917208463,
                0.014445394277572632,
                0.06427650153636932,
                0.09156805276870728,
                -0.10625042021274567,
                -0.04561147093772888,
                0.03318120166659355,
                0.022097688168287277,
                0.04499141126871109,
                0.09310374408960342,
                -0.039561089128255844,
                0.05376739799976349,
                0.13226816058158875,
                0.0026385097298771143,
                -0.042086660861968994,
                -0.054809778928756714,
                0.044087301939725876,
                0.02377561293542385,
                0.004607487935572863,
                -0.051545385271310806,
                -0.08480215817689896,
                -0.03284904733300209,
                -0.09172728657722473,
                0.06076691672205925,
                0.09750157594680786,
                -0.08261672407388687,
                0.06558727473020554,
                -0.050741616636514664,
                -0.10271996259689331,
                0.010623719543218613,
                -0.11395301669836044,
                0.11001081019639969,
                -0.028177788481116295,
                -0.10733417421579361,
                0.1077454462647438,
                -0.12150104343891144,
                0.06778208911418915,
                0.024644862860441208,
                0.011588050983846188,
                -0.05905306711792946,
                0.10333144664764404,
                -0.10852193832397461,
                -0.07427235692739487,
                0.13145926594734192,
                -0.018562516197562218,
                0.1092684268951416,
                -0.1020086333155632,
                0.04787510260939598,
                0.06881438195705414,
                -0.048480287194252014,
                0.040507737547159195,
                0.010553489439189434,
                0.05815085396170616,
                0.0149039002135396,
                -0.03370623290538788,
                -0.03190150856971741,
                -0.023052861914038658,
                0.0566558875143528,
                0.052290525287389755,
                0.09488480538129807,
                -0.08680188655853271,
                0.012951837852597237,
                -0.09590208530426025,
                -0.03400028496980667,
                -0.10376018285751343,
                -0.011712214909493923,
                -0.021182101219892502,
                0.09929926693439484,
                0.05713403970003128,
                -0.08171295374631882,
                -0.1240263357758522,
                -0.09359350055456161,
                0.033296484500169754,
                0.11458141356706619,
                0.08854077756404877,
                0.07416190207004547,
                0.008809760212898254,
                0.043166596442461014,
                -0.04136868938803673,
                -0.023128759115934372,
                0.17099939286708832,
                -0.014597523957490921,
                -0.015235461294651031,
                0.05849546939134598,
                0.08601746708154678,
                0.11244635283946991,
                -0.018304599449038506,
                -0.04031626880168915,
                -0.0026737104635685682,
                0.07740447670221329,
                -0.06637876480817795,
                -0.07668432593345642,
                0.0516870953142643,
                0.10400275141000748,
                0.12188133597373962,
                -0.02574082650244236,
                0.11553946882486343,
                0.027612924575805664,
                0.11862049996852875,
                0.02638733759522438,
                -0.007606755010783672,
                -0.060746800154447556,
                0.10327298939228058,
                0.09343091398477554,
                0.08375796675682068,
                0.10282937437295914,
                0.11561831086874008,
                0.11807071417570114,
                0.07850681245326996,
                0.0955556184053421,
                -0.0929771363735199,
                -0.0827406719326973,
                0.09734515100717545,
                -0.13440273702144623,
                -0.06933113187551498,
                -0.06459599733352661,
                -0.08071238547563553,
                -0.05763550102710724,
                -0.03584820032119751,
                -0.03425014019012451,
                -0.019711142405867577,
                0.029156893491744995,
                -0.10028158873319626,
                -0.03520814701914787,
                -0.03126291185617447,
                0.09916750341653824,
                0.0925828292965889,
                0.123881034553051,
                0.0712582990527153,
                0.11211052536964417,
                0.040565188974142075,
                -0.10100673884153366,
                -0.10586316138505936,
                -0.11323507130146027,
                -0.001607536687515676,
                0.07847009599208832,
                0.051194436848163605,
                -0.02500789426267147,
                0.030179690569639206,
                -0.04621404409408569,
                0.04249104484915733,
                0.04979928582906723,
                -0.10153825581073761,
                -0.09865768253803253,
                0.1088375672698021,
                0.021449066698551178,
                0.017738565802574158,
                -0.001664027920924127,
                -0.058930326253175735,
                -0.051469963043928146,
                0.0997268483042717,
                -0.04023480787873268,
                -0.08151546865701675,
                0.024283399805426598,
                0.05191202461719513,
                0.06052348390221596,
                0.06988059729337692,
                -0.09701883047819138,
                0.10422507673501968,
                -0.05296322703361511,
                -0.10645142197608948,
                0.07306620478630066,
                0.057917553931474686,
                0.08687292039394379,
                -0.09504538774490356,
                -0.02759745344519615,
                -0.051041703671216965,
                0.012919843196868896,
                -0.11672498285770416,
                0.09462857246398926,
                0.07133813947439194,
                -0.030051719397306442,
                0.06325720250606537,
                -0.055774662643671036,
                0.09463997185230255,
                -0.04732341691851616,
                0.01199728436768055,
                0.023227304220199585,
                0.11898360401391983,
                0.09187503159046173,
                -0.031843140721321106,
                0.0848308578133583,
                0.014108004048466682,
                0.03779695928096771,
                -0.013597674667835236,
                0.12125088274478912,
                -0.021944178268313408,
                0.0412883460521698,
                0.041808754205703735,
                -0.028833908960223198,
                0.11769365519285202,
                -0.11311200261116028,
                0.10419921576976776,
                -0.07314112782478333,
                0.06336895376443863,
                0.12169341742992401,
                -0.0030043739825487137,
                0.11607123166322708,
                0.08035996556282043,
                -0.02320760488510132,
                0.03816600143909454,
                -0.02872173860669136,
                -0.0027960219886153936,
                -0.03581021726131439,
                -0.08517947047948837,
                0.1136510968208313,
                -0.09318142384290695,
                0.033464327454566956,
                -0.056201111525297165,
                -0.1313716471195221,
                -0.003588881343603134,
                -0.05256958678364754,
                0.1326555609703064,
                0.026201331987977028,
                -0.05595619976520538,
                -0.0751648098230362,
                -0.06978496164083481,
                0.07316064834594727,
                0.09064900875091553,
                -0.11705024540424347,
                0.12317902594804764,
                -0.06993609666824341,
                -0.08207792043685913,
                -0.06393102556467056,
                0.02368449978530407,
                -0.11543414741754532,
                -0.07540534436702728,
                -0.060135286301374435,
                0.12190556526184082,
                0.06864889711141586,
                -0.06670983880758286,
                0.0563930980861187,
                -0.06686890125274658,
                0.06099355220794678,
                0.014116594567894936,
                0.04748496785759926,
                -0.003041651798412204,
                -0.0893658995628357,
                0.07760002464056015,
                -0.05805903300642967,
                0.11063826829195023,
                0.0833515077829361,
                -0.0042361547239124775,
                -0.12908370792865753,
                -0.05541321635246277,
                0.08228833973407745,
                -0.11831259727478027,
                0.052909769117832184,
                0.09830421209335327,
                0.0775529071688652,
                -0.03962241858243942,
                0.08820059895515442,
                -0.06389573216438293,
                -0.017586076632142067,
                -0.10144806653261185,
                -0.050620097666978836,
                0.11457036435604095,
                0.0069069936871528625,
                -0.05372566357254982,
                0.1233874037861824,
                0.029901348054409027,
                0.08577971160411835,
                0.0031793778762221336,
                0.05604681000113487,
                0.04066525772213936,
                -0.13457566499710083,
                0.047421589493751526,
                0.022803712636232376,
                -0.08893750607967377,
                0.09279749542474747,
                0.028252197429537773,
                -0.014119046740233898,
                0.04717407003045082,
                -0.12522689998149872,
                -0.1206459179520607,
                -0.06375391036272049,
                -0.024768352508544922,
                0.1073237955570221,
                -0.015553658828139305,
                -0.07725370675325394,
                -0.06211832910776138,
                -0.010679107159376144,
                0.0973711609840393,
                0.05623090639710426,
                -0.1021835133433342,
                0.053455665707588196,
                -0.07233334332704544,
                -0.05537349358201027,
                -0.08352719992399216,
                -0.09387359768152237,
                -0.0996854156255722,
                0.035701338201761246,
                -0.01104767620563507,
                0.0342777818441391,
                -0.06617674231529236,
                0.002626983681693673,
                -0.04991079121828079,
                0.02546314336359501,
                -0.054998770356178284,
                -0.043758101761341095,
                -0.04130858927965164,
                -0.04800128936767578,
                0.052481550723314285,
                0.03279079869389534,
                -0.16261281073093414,
                -0.06580028682947159,
                -0.03416416421532631,
                -0.04944327473640442,
                0.1083269864320755,
                -0.024903664365410805,
                -0.055936384946107864,
                0.08463407307863235,
                -0.027664585039019585,
                0.06421058624982834,
                -0.07866812497377396,
                -0.054566390812397,
                -0.11522293835878372,
                0.10268501192331314,
                -0.03587838262319565,
                -0.1261443942785263,
                -0.008045224472880363,
                0.051645342260599136,
                0.11496074497699738,
                0.06294382363557816,
                0.07994731515645981,
                -0.07902087271213531,
                0.12582527101039886,
                -0.03121808171272278,
                0.05311063304543495,
                0.05069291964173317,
                0.15333054959774017,
                0.11713160574436188,
                0.013501978479325771,
                -0.13138240575790405,
                -0.08059100806713104,
                0.1454802304506302,
                -0.0693555399775505,
                -0.06964606791734695,
                -0.10071258991956711,
                0.055453963577747345,
                0.08023260533809662,
                0.08953077346086502,
                -0.04009152203798294,
                0.138129323720932,
                0.10080467909574509,
                0.059807002544403076,
                -0.025078456848859787,
                0.12729236483573914,
                -0.06446139514446259,
                -0.11874829977750778,
                0.030878977850079536,
                0.1098056435585022,
                -0.10741696506738663,
                0.0008158941054716706,
                0.03323598578572273,
                -0.03738684207201004,
                0.12282431125640869,
                -0.09762981534004211,
                0.11411532014608383,
                0.07135146856307983,
                -0.06754519790410995,
                -0.05647621676325798,
                -0.09344885498285294,
                0.07058057934045792,
                -0.022789139300584793,
                -0.03697844222187996,
                -0.03702591359615326,
                0.08217235654592514,
                -0.12817025184631348,
                0.04772045463323593,
                -0.0956551730632782,
                0.03127892687916756,
                -0.008211405016481876,
                -0.08239591121673584,
                -0.11357005685567856,
                -0.04193725809454918,
                -0.0921502485871315,
                -0.04858102276921272,
                0.11052187532186508,
                -0.06786492466926575,
                -0.08952048420906067,
                0.04788285493850708,
                0.03293348103761673,
                0.09754906594753265,
                0.08332925289869308,
                -0.02452118694782257,
                0.04135413095355034,
                0.09518049657344818,
                0.03164321929216385,
                -0.1163761168718338,
                0.005375150125473738,
                0.029540028423070908,
                4.309243377065286e-05,
                0.01406509056687355,
                0.028949188068509102,
                0.05778032913804054,
                -0.021802803501486778,
                0.10111095756292343,
                -0.11492662876844406,
                0.032682791352272034,
                -0.0002523449657019228,
                -0.024718910455703735,
                -0.09654279053211212,
                -0.02443927340209484,
                0.03269613906741142,
                -0.016496963798999786,
                0.004355708137154579,
                -0.038931794464588165,
                -0.08415715396404266,
                -0.010579018853604794,
                0.006081010214984417,
                -0.037325240671634674,
                -0.09790460020303726,
                -0.10195232927799225,
                -0.1023796796798706,
                -0.03025343269109726,
                0.06553423404693604,
                0.06950955092906952,
                -0.01738389953970909,
                0.016537094488739967,
                0.04792371019721031,
                -0.03960169479250908,
                -0.05923349782824516,
                -0.1163344755768776,
                0.03788219764828682,
                0.06840008497238159,
                0.04267720505595207,
                0.13385632634162903,
                0.035243261605501175,
                0.10152512788772583,
                0.1103133112192154,
                -0.07726038247346878,
                0.11069604754447937,
                0.12843483686447144,
                0.0865560844540596,
                0.06680018454790115,
                0.048366788774728775,
                0.07539495825767517,
                -0.09135924279689789,
                -0.05222605913877487,
                0.03513351455330849,
                0.013419793918728828,
                -0.05981012433767319,
                -0.0033936696127057076,
                0.0959457978606224,
                0.09731151163578033,
                -0.06189954653382301,
                0.13498836755752563,
                -0.1013827994465828,
                -0.09923569858074188,
                0.09042561054229736,
                0.11834447830915451,
                0.09285299479961395,
                -0.13029801845550537,
                -0.11666348576545715,
                -0.0125488406047225,
                -0.06258779764175415,
                -0.08038674294948578,
                -0.045691490173339844,
                -0.1150151863694191,
                0.053748298436403275,
                0.03795691952109337,
                0.06350138783454895,
                0.051266081631183624,
                0.07738062739372253,
                0.011105195619165897,
                -0.10550133138895035,
                0.11183103919029236,
                -0.09160932153463364,
                -0.11343381553888321,
                -0.07244027405977249,
                0.015882713720202446,
                -0.01733904704451561,
                0.08286380022764206,
                -0.010078312829136848,
                0.03337598592042923,
                0.07982000708580017,
                -0.0575362853705883,
                -0.019093908369541168,
                -0.09158458560705185,
                -0.038548439741134644,
                -0.0013477419270202518,
                -0.12491393089294434,
                0.06773896515369415,
                -0.020820533856749535,
                -0.01969362050294876,
                0.11793678998947144,
                -0.011596396565437317,
                -0.005762496963143349,
                0.009111390449106693,
                -0.05164262279868126,
                0.01075072679668665,
                0.09771652519702911,
                -0.05913925543427467,
                -0.06263216584920883,
                0.0682762935757637,
                -0.039906565099954605,
                0.11565124988555908,
                0.050118520855903625,
                -0.019959522411227226,
                0.028970913961529732,
                -0.07663621008396149,
                -0.010546229779720306,
                -0.1080259382724762,
                -0.037547510117292404,
                0.023159274831414223,
                -0.07902806997299194,
                0.07583225518465042,
                0.026706520467996597,
                0.1621759533882141,
                0.06876864284276962,
                -0.053471315652132034,
                0.08945445716381073,
                0.11150963604450226,
                -0.008742799051105976,
                -0.11496920138597488,
                0.1318986564874649,
                0.11348024010658264,
                0.06261888146400452,
                0.09280695766210556,
                -0.11171136051416397,
                0.04981541261076927,
                0.09493483603000641,
                0.10526546835899353,
                -0.05514856055378914,
                -0.03655415400862694,
                -0.10050912201404572,
                -0.00013641634723171592,
                0.12355383485555649,
                0.013457209803164005,
                0.11491262912750244,
                -0.07075351476669312,
                -0.08088695257902145,
                0.09112481772899628,
                -0.07510163635015488,
                -0.07951606810092926,
                -0.014758436009287834,
                0.14156216382980347,
                0.0324428454041481,
                0.05261578410863876,
                0.16247962415218353,
                -0.08012904226779938,
                -0.05153439939022064,
                -0.07177721709012985,
                -0.15943214297294617,
                -0.154885396361351,
                0.02427360601723194,
                0.04456271976232529,
                -0.007161574438214302,
                0.016267796978354454,
                0.03489139303565025,
                -0.032172791659832,
                -0.0350029394030571,
                0.011707778088748455,
                0.04918218031525612,
                -0.0167832151055336,
                0.09859627485275269,
                -0.08697887510061264,
                0.10154955834150314,
                0.07128787040710449,
                -0.06583581119775772,
                -0.05093785375356674,
                -0.08409073948860168,
                -0.04299436882138252,
                -0.036482084542512894,
                -0.025377249345183372,
                0.08790667355060577,
                -0.003964598756283522,
                -0.1365649700164795,
                0.0668390691280365,
                0.014584501273930073,
                -0.05524628236889839,
                -0.09928946197032928,
                0.08477422595024109,
                -0.034997135400772095,
                -0.062170907855033875,
                -0.07572989910840988,
                -0.09860531240701675,
                0.04295538738369942,
                -0.11773599684238434,
                -0.0590757317841053,
                0.19024649262428284,
                0.05713095888495445,
                -0.0727192759513855,
                -0.12481929361820221,
                -0.04914756119251251,
                0.004730809945613146,
                0.11424443870782852,
                -0.04078541696071625,
                0.014264648780226707,
                -0.10639309138059616,
                -0.07639164477586746,
                0.1389472931623459,
                -0.11159934848546982,
                -0.014199591241776943,
                -0.046485479921102524,
                -0.1178833469748497,
                0.056276243180036545,
                0.13120882213115692,
                0.12059753388166428,
                -0.04972919821739197,
                0.026823969557881355,
                -0.04133954271674156,
                0.12611714005470276,
                -0.0127043966203928,
                0.09956212341785431,
                0.04797005280852318,
                -0.11749660223722458,
                0.16345232725143433,
                0.12167009711265564,
                0.0034084501676261425,
                0.10708195716142654,
                -0.15344998240470886,
                -0.044760145246982574,
                0.027870837599039078,
                -0.010140136815607548,
                0.02865585684776306,
                -0.006548420060425997,
                0.08643469214439392,
                0.12132595479488373,
                0.09480999410152435,
                0.1003418043255806,
                0.09442247450351715,
                0.12300097197294235,
                -0.06609459221363068,
                -0.08955483138561249,
                0.024054130539298058,
                0.10398165136575699,
                -0.0175800621509552,
                -0.004419476725161076,
                -0.02390773594379425,
                0.12702400982379913,
                0.01706055924296379,
                -0.05210378021001816,
                0.13508008420467377,
                0.051186151802539825,
                -0.043184272944927216,
                0.05574887618422508,
                0.023192834109067917,
                -0.04131655767560005,
                -0.09690707176923752,
                -0.006356199271976948,
                -0.12461666762828827,
                -0.09624762833118439,
                -0.11016970872879028,
                0.04243295267224312,
                -0.033836692571640015,
                -0.0282572153955698,
                0.1390242874622345,
                -0.08758331835269928,
                -0.05646570399403572,
                -0.12191023677587509,
                0.016082007437944412,
                -0.005958979483693838,
                0.011039079166948795,
                -0.036985285580158234,
                -0.011631728149950504,
                0.0008231326355598867,
                -0.0541963055729866,
                0.02972552925348282,
                -0.11496325582265854,
                0.08212743699550629,
                -0.01630231738090515,
                0.0022983718663454056,
                0.03671460971236229,
                0.049554962664842606,
                -0.01357817929238081,
                -0.025113537907600403,
                0.13614729046821594,
                0.07996440678834915,
                -0.1059185042977333,
                0.05633988603949547,
                0.04445261135697365,
                0.09010224044322968,
                -0.07751861214637756,
                -0.09818367660045624,
                0.06384847313165665,
                -0.09096894413232803,
                0.006905816961079836,
                0.10632620006799698,
                0.07188466936349869,
                -0.12033051997423172,
                0.07754151523113251,
                0.02479800395667553,
                -0.1361566185951233,
                0.006390983704477549,
                0.08352907747030258,
                -0.08195021003484726,
                0.056698478758335114,
                0.036103054881095886,
                -0.07031971216201782,
                0.07382798194885254,
                0.06738006323575974,
                0.10677473992109299,
                -0.00925794243812561,
                0.10434924811124802,
                0.005008516367524862,
                -0.013305021449923515,
                0.13727730512619019,
                0.03466489538550377,
                -0.07184682041406631,
                0.08486046642065048,
                0.0666050910949707,
                0.07973203808069229,
                0.03145994618535042,
                -0.024944934993982315,
                0.050372615456581116,
                -0.03667287901043892,
                0.007082696072757244,
                -0.09544120728969574,
                0.02518312819302082,
                0.11971694231033325,
                0.07694494724273682,
                -0.09716474264860153,
                0.06581763923168182,
                -0.07694884389638901,
                0.03132644295692444,
                -0.003023595781996846,
                0.004583852831274271,
                -0.13099049031734467,
                0.14002910256385803,
                -0.039442483335733414,
                -0.003943305462598801,
                0.003634655149653554,
                -0.0067750015296041965,
                -0.01989288069307804,
                0.07175236195325851,
                0.08740062266588211,
                0.023676356300711632,
                -0.014393101446330547,
                -0.06244691461324692,
                -0.03172166645526886,
                0.0519709549844265,
                0.08380774408578873,
                0.06229477375745773,
                -0.0746505931019783,
                0.08020566403865814,
                -0.08017107844352722,
                -0.04007571563124657,
                -0.045027051120996475,
                0.025918666273355484,
                0.07249868661165237,
                0.07276290655136108,
                0.09971822053194046,
                0.02856900542974472,
                0.0893113762140274,
                0.08090794086456299,
                0.12688645720481873,
                -0.0688396692276001,
                0.10603280365467072,
                -0.10980971902608871,
                -0.10411065071821213,
                0.04157157987356186,
                0.07158565521240234,
                0.014155302196741104,
                0.02989383600652218,
                -0.10371237993240356,
                -0.06355900317430496,
                0.04806360974907875,
                -0.05276494473218918,
                0.030239367857575417,
                -0.1326584666967392,
                0.049999624490737915,
                0.016942288726568222,
                -0.06035276874899864,
                0.007170108146965504,
                0.06421533972024918,
                -0.05544251948595047,
                0.05862021446228027,
                0.12328678369522095,
                -0.056225504726171494,
                -0.038384538143873215,
                -0.09425586462020874,
                -0.06503000855445862,
                0.08830677717924118,
                -0.06514966487884521,
                -0.007722920272499323,
                -0.035205405205488205,
                0.05425293743610382,
                -0.10595444589853287,
                -0.005492230877280235,
                0.046611249446868896,
                -0.020890362560749054,
                0.039368633180856705,
                0.006623621564358473,
                0.07615943253040314,
                -0.09476760774850845,
                0.10784639418125153,
                -0.09304167330265045,
                0.10350663214921951,
                -0.04143200442194939,
                -0.10002127289772034,
                -0.08284883946180344,
                0.04864578694105148,
                0.11071567982435226,
                -0.004761373624205589,
                -0.03840412199497223,
                0.006128817796707153,
                -0.018728749826550484,
                -0.05025997385382652,
                0.1276744306087494,
                -0.030373914167284966,
                -0.00025243539130315185,
                0.023208575323224068,
                0.12887609004974365,
                -0.10779472440481186,
                0.11821425706148148,
                0.12196475267410278,
                -0.08615901321172714,
                0.11141372472047806,
                0.0005755942547693849,
                0.12218741327524185,
                0.07104074954986572,
                -0.09224299341440201,
                -0.0553198978304863,
                0.08622018247842789,
                0.08475349098443985,
                -0.04909645766019821,
                -0.0522017776966095,
                -0.012307458557188511,
                0.006052941083908081,
                0.05872073024511337,
                0.021446188911795616,
                -0.06799494475126266,
                0.06894146651029587,
                -0.018467918038368225,
                -0.032338377088308334,
                -0.031199192628264427,
                0.011471124365925789,
                -0.09714709967374802,
                -0.07127343118190765,
                0.000526578922290355,
                0.07794568687677383,
                -0.09787934273481369,
                0.0793234184384346,
                -0.05177188664674759,
                0.09019246697425842,
                0.0396844819188118,
                0.10704497992992401,
                -0.071219801902771,
                -0.03906149044632912,
                -0.006006748881191015,
                -0.14001913368701935,
                0.08147933334112167,
                0.06227627396583557,
                -0.023500459268689156,
                0.07287736982107162,
                -0.10308515280485153,
                -0.022263457998633385,
                -0.026720786467194557,
                0.09456045925617218,
                0.060647137463092804,
                0.07246176153421402,
                0.03856050223112106,
                -0.10313092917203903,
                -0.0003300111857242882,
                -0.02917124330997467,
                -0.113226518034935,
                0.029275832697749138,
                0.058164000511169434,
                0.07767407596111298,
                -0.04286788031458855,
                0.08066468685865402,
                -0.07698212563991547,
                -0.1022229790687561,
                -0.04014668986201286,
                -0.061209388077259064,
                -0.018001748248934746,
                -0.09794248640537262,
                -0.014284090138971806,
                -0.023611323907971382,
                0.017576150596141815,
                0.02311745099723339,
                0.06355775892734528,
                0.012604345567524433,
                0.06155877187848091,
                -0.06941477209329605,
                -0.07757023721933365,
                -0.1192605048418045,
                -0.06331136077642441,
                0.07976559549570084,
                -0.034299083054065704,
                0.033296771347522736,
                -0.02415781281888485,
                -0.06585242599248886,
                -0.112945556640625,
                0.00041576556395739317,
                -0.07638393342494965,
                0.07007845491170883,
                -0.07702320069074631,
                0.07282328605651855,
                -0.03033776581287384,
                -0.01711030676960945,
                0.06015981733798981,
                -0.006934639997780323,
                -0.04962890222668648,
                -0.09137950092554092,
                -0.0021111569367349148,
                0.05254840850830078,
                0.003437250154092908,
                0.001783675281330943,
                0.03765222430229187,
                0.04274994879961014,
                -0.09781243652105331,
                0.07240831851959229,
                0.038857415318489075,
                -0.0542016327381134,
                0.02612006850540638,
                0.019821379333734512,
                -0.0453638955950737,
                0.05612059310078621,
                0.0500602163374424,
                0.02451688051223755,
                -0.10473698377609253,
                0.026029735803604126,
                -0.023188233375549316,
                0.013613434508442879,
                -0.024126866832375526,
                -0.0016490606358274817,
                -0.027598615735769272,
                -0.07868468016386032,
                0.049975793808698654,
                -0.11100049316883087,
                -0.037098903208971024,
                0.10374511033296585,
                0.12987981736660004,
                -0.12588311731815338,
                -0.043560609221458435,
                -0.1487257033586502,
                0.03079664148390293,
                -0.10738930851221085,
                0.10951495915651321,
                -0.0843779519200325,
                -0.10001277178525925,
                -0.0976467877626419,
                -0.10147946327924728,
                0.040372710675001144,
                0.02996641956269741,
                -0.12229492515325546,
                0.11401781439781189,
                0.03644433617591858,
                -0.07435145229101181,
                -0.05706503242254257,
                -0.01777396909892559,
                -0.103238545358181,
                -0.046022433787584305,
                -0.045237552374601364,
                0.07218708842992783,
                -0.0003581788914743811,
                -0.003043426899239421,
                -0.07864049822092056,
                -0.10402646660804749,
                -0.05817994475364685,
                0.14246338605880737,
                -0.07495740056037903,
                0.05456188693642616,
                -0.08194714039564133,
                0.013750262558460236,
                0.018831048160791397,
                0.003388788551092148,
                0.028854090720415115,
                0.06407250463962555,
                0.004110294859856367,
                0.03711302950978279,
                -0.09258571267127991,
                0.06717447936534882,
                0.01920926757156849,
                -0.02102678082883358,
                -0.07889062166213989,
                0.06543789803981781,
                0.11334101855754852,
                -0.011092141270637512,
                0.08462914079427719,
                -0.09493750333786011,
                -0.03671993687748909,
                0.09293043613433838,
                0.14476335048675537,
                0.12260394543409348,
                0.06156951189041138,
                0.05508628487586975,
                0.07882629334926605,
                -0.052765555679798126,
                -0.10390385240316391,
                0.11654052883386612,
                -0.12216713279485703,
                0.041715942323207855,
                -0.09597870707511902,
                0.11830902844667435,
                -0.050294455140829086,
                -0.09021653234958649,
                0.07303517311811447,
                0.11444146186113358,
                -0.03552917018532753,
                -0.0872022956609726,
                -0.1056765466928482,
                0.08877898752689362,
                0.02607502043247223,
