{
    "input_shape": [
        null,
        19
    ],
    "output_shape": [
        null,
        1
    ],
    "activations": "Relu",
    "dummy_input": [
        [
            1.0,
            1.0,
            1.0,
            1.0,
            1.0,
            1.0,
            1.0,
            1.0,
            1.0,
            1.0,
            1.0,
            1.0,
            1.0,
            1.0,
            1.0,
            1.0,
            1.0,
            1.0,
            1.0
        ]
    ],
    "dummy_output": [
        [
            0.19629570841789246
        ]
    ],
    "layers": [
        {
            "weight": [
                0.1322324573993683,
                -0.15615437924861908,
                0.15797396004199982,
                0.0892925038933754,
                -0.18218715488910675,
                0.06237439811229706,
                -0.20734243094921112,
                0.19706138968467712,
                0.19717293977737427,
                -0.05785473808646202,
                0.11220543086528778,
                0.18842777609825134,
                -0.032065559178590775,
                -0.04162956401705742,
                0.08125132322311401,
                -0.09224625676870346,
                -0.047837235033512115,
                -0.08247722685337067,
                0.2692672908306122,
                -0.08951588720083237,
                -0.1728648841381073,
                -0.01565198041498661,
                0.05293107032775879,
                -0.014228989370167255,
                0.0717414990067482,
                0.23220638930797577,
                -0.01782090961933136,
                0.007203390821814537,
                0.11164811253547668,
                -0.17554467916488647,
                0.13644301891326904,
                -0.14919769763946533,
                -0.04935803264379501,
                -0.031843967735767365,
                0.011199679225683212,
                0.19665470719337463,
                0.19772186875343323,
                -0.1365615427494049,
                0.05267838016152382,
                0.02519216574728489,
                -0.14421072602272034,
                -0.2082204818725586,
                0.05347802862524986,
                0.05780234560370445,
                -0.10426591336727142,
                0.0002259821048937738,
                -0.04015360400080681,
                0.20270077884197235,
                0.08850730955600739,
                0.19806689023971558,
                -0.18405067920684814,
                -0.1448374092578888,
                -0.0009966432116925716,
                -0.11813434958457947,
                0.12946785986423492,
                0.02992136962711811,
                -0.23374202847480774,
                -0.04521143436431885,
                0.20665022730827332,
                -0.21282745897769928,
                0.08869201689958572,
                -0.22787915170192719,
                -0.1606653481721878,
                -0.18929938971996307,
                0.018334435299038887,
                -0.03903510794043541,
                -0.07055874913930893,
                -0.0008925545262172818,
                0.12051929533481598,
                0.1251131296157837,
                -0.14463618397712708,
                -0.23779888451099396,
                0.0704459622502327,
                -0.1583050936460495,
                -0.03406033292412758,
                -0.1317925751209259,
                -0.01162839587777853,
                -0.09911531209945679,
                -0.09000635892152786,
                -0.19348007440567017,
                -0.11812976002693176,
                -0.032181356102228165,
                0.13829301297664642,
                0.07083487510681152,
                -0.17371098697185516,
                0.17047500610351562,
                0.13244986534118652,
                -0.1598951816558838,
                0.10626869648694992,
                -0.049483343958854675,
                0.15902413427829742,
                -0.19769330322742462,
                -0.19855347275733948,
                0.18172946572303772,
                -0.2942005693912506,
                0.08982905000448227,
                -0.11073547601699829,
                -0.03187413513660431,
                -0.2051900327205658,
                -0.013895075768232346,
                -0.0031845199409872293,
                0.02403443306684494,
                -0.03398232161998749,
                -0.07236208021640778,
                -0.1435861438512802,
                -0.07982003688812256,
                0.178802952170372,
                0.1285294145345688,
                0.14188285171985626,
                -0.04787038266658783,
                0.10708201676607132,
                -0.2112472504377365,
                -0.2273446023464203,
                0.04919566959142685,
                -0.032985053956508636,
                0.06749191880226135,
                0.20507922768592834,
                0.02714458480477333,
                -0.12923483550548553,
                -0.10989076644182205,
                -0.11726316064596176,
                0.04457917809486389,
                -0.036663975566625595,
                0.13679498434066772,
                0.06735038757324219,
                0.04539357125759125,
                -0.09175428003072739,
                -0.07824292033910751,
                0.11698190122842789,
                0.1347682774066925,
                0.227140873670578,
                -0.05708548054099083,
                -0.1564093381166458,
                0.2169533520936966,
                -0.08955249190330505,
                -0.021401068195700645,
                0.07575687766075134,
                0.06466978788375854,
                0.19738079607486725,
                -0.1357658952474594,
                -0.11334355920553207,
                0.14353540539741516,
                -0.08289917558431625,
                0.13377472758293152,
                -0.07946852594614029,
                -0.22235356271266937,
                -0.13075074553489685,
                -0.11179165542125702,
                0.011330139823257923,
                -0.10814664512872696,
                -0.06302916258573532,
                0.244421124458313,
                0.04596756771206856,
                -0.20876455307006836,
                -0.1211712434887886,
                0.06336904317140579,
                -0.14416809380054474,
                -0.02318614348769188,
                -0.011769361793994904,
                -0.13848523795604706,
                0.026984654366970062,
                -0.10173860937356949,
                0.14354032278060913,
                -0.027246464043855667,
                0.07726013660430908,
                -0.030273061245679855,
                0.2139325886964798,
                -0.046006061136722565,
                0.16680186986923218,
                -0.14545804262161255,
                0.278064101934433,
                0.11232315003871918,
                -0.15845556557178497,
                0.1650466024875641,
                0.02858451008796692,
                -0.12377630174160004,
                0.14898113906383514,
                0.0071776257827878,
                -0.12057410925626755,
                -0.19526416063308716,
                -0.1333364099264145,
                -0.14593753218650818,
                -0.08900511264801025,
                0.0917934998869896,
                -0.18834730982780457,
                0.2182205766439438,
                0.059225331991910934,
                0.16221816837787628,
                0.07570315897464752,
                -0.22099146246910095,
                0.024873241782188416,
                -0.16247119009494781,
                0.00401004683226347,
                -0.11240682005882263,
                0.0166196059435606,
                -0.22706301510334015,
                0.1174030676484108,
                -0.1188456192612648,
                0.11674852669239044,
                0.1013379767537117,
                0.17923972010612488,
                -0.13062924146652222,
                -0.08823446184396744,
                0.1018301323056221,
                0.029570089653134346,
                -0.05984345078468323,
                0.2220860719680786,
                0.22531911730766296,
                0.2796759009361267,
                0.16900771856307983,
                0.12541478872299194,
                -0.1076335608959198,
                -0.1262967586517334,
                -0.22379016876220703,
                0.04511839523911476,
                0.16807867586612701,
                0.2006940394639969,
                -0.07158299535512924,
                -0.21044614911079407,
                0.16232328116893768,
                0.059851158410310745,
                -0.19936324656009674,
                0.045291535556316376,
                0.11714385449886322,
                -0.1322111338376999,
                -0.08303558081388474,
                -0.05093815177679062,
                -0.13207964599132538,
                -0.22040697932243347,
                0.22690631449222565,
                -0.02656959369778633,
                -0.012778395786881447,
                0.10412324965000153,
                -0.020285243168473244,
                -0.14860430359840393,
                0.10692435503005981,
                -0.17545491456985474,
                0.1076357364654541,
                0.08496756106615067,
                0.01784888468682766,
                -0.03220894932746887,
                -0.19862374663352966,
                -0.0838550254702568,
                -0.01175182219594717,
                -0.21159663796424866,
                0.04547497257590294,
                -0.2973996102809906,
                -0.14311353862285614,
                -0.21294082701206207,
                0.06969405710697174,
                -0.2212611734867096,
                0.08834794908761978,
                0.22728417813777924,
                -0.026246778666973114,
                -0.21909409761428833,
                0.02577536553144455,
                0.17205587029457092,
                -0.10207708925008774,
                0.0640396848320961,
                -0.2210427075624466,
                -0.08145453780889511,
                -0.038864344358444214,
                0.1789141446352005,
                -0.1054435670375824,
                -0.21909873187541962,
                0.22264261543750763,
                -0.2177402228116989,
                0.1495904177427292,
                -0.16388946771621704,
                -0.23693299293518066,
                0.13158969581127167,
                0.198590487241745,
                -0.018548715859651566,
                -0.23389776051044464,
                0.1886148899793625,
                -0.0983804240822792,
                0.22849141061306,
                -0.226117804646492,
                0.13036425411701202,
                0.0918314978480339,
                0.1321994662284851,
                0.018100189045071602,
                -0.0407949723303318,
                0.046787623316049576,
                -0.19735151529312134,
                0.015228116884827614,
                -0.16303308308124542,
                0.0843299850821495,
                -0.18930955231189728,
                -0.009904744103550911,
                -0.1604137271642685,
                -0.02534828893840313,
                0.05112672224640846,
                0.12153886258602142,
                0.2585398554801941,
                -0.08811762183904648,
                0.21801714599132538,
                0.008662334643304348,
                -0.04266497492790222,
                0.07468867301940918,
                0.20534954965114594,
                -0.07164061069488525,
                0.07060521841049194,
                0.10456342250108719,
                0.07957102358341217,
                0.11935292929410934,
                0.10110104829072952,
                0.1537737250328064,
                0.038733046501874924,
                0.05764654651284218,
                -0.1127641424536705,
                0.10996934771537781,
                -0.21575027704238892,
                0.21486136317253113,
                -0.20137225091457367,
                -0.15368272364139557,
                -0.021178513765335083,
                -0.07259386032819748,
                0.1692582070827484,
                0.10651259124279022,
                0.159397691488266,
                0.014456457458436489,
                0.0897168442606926,
                -0.08673899620771408,
                0.19731859862804413,
                0.06906909495592117,
                -0.1237228661775589,
                0.04430503770709038,
                -0.07305529713630676,
                -0.2221677601337433,
                -0.21874026954174042,
                -0.06564883142709732,
                0.1936345100402832,
                0.0443255715072155,
                0.011335634626448154,
                -0.03300540894269943,
                -0.04055634140968323,
                -0.1600874364376068,
                0.07572753727436066,
                -0.04457058757543564,
                -0.07477746903896332,
                0.29089897871017456,
                0.03583330288529396,
                0.09822951257228851,
                -0.10142721980810165,
                0.13753415644168854,
                0.19810931384563446,
                -0.014269618317484856,
                -0.11975347995758057,
                -0.08176775276660919,
                0.1820051670074463,
                -0.16720090806484222,
                0.16776542365550995,
                -0.19364133477210999,
                0.061215776950120926,
                -0.10607371479272842,
                0.09105764329433441,
                0.16337211430072784,
                0.15666456520557404,
                -0.13679231703281403,
                0.16014525294303894,
                0.22056591510772705,
                -0.07881759107112885,
                -0.010477017611265182,
                0.19955919682979584,
                0.03689930960536003,
                0.02259928360581398,
                -0.16504180431365967,
                -0.14850765466690063,
                0.22064365446567535,
                -0.1708095371723175,
                -0.20405837893486023,
                -0.15093259513378143,
                0.15641523897647858,
                -0.11518488824367523,
                -0.14529286324977875,
                -0.019165225327014923,
                -0.15996624529361725,
                0.11165948212146759,
                0.21325738728046417,
                0.18663737177848816,
                -0.025189323350787163,
                -0.026938341557979584,
                0.08955547213554382,
                0.19993677735328674,
                -0.15803098678588867,
                0.07829800993204117,
                0.007316621486097574,
                -0.026046060025691986,
                0.13367214798927307,
                0.22874751687049866,
                0.0981338769197464,
                0.1855200231075287,
                -0.14057058095932007,
                -0.12486409395933151,
                -0.11393192410469055,
                -0.2190161645412445,
                0.1949916034936905,
                0.05255421623587608,
                0.13714700937271118,
                0.12784622609615326,
                -0.0919082760810852,
                -0.17291098833084106,
                0.18184736371040344,
                0.06472497433423996,
                -0.07002989947795868,
                -0.030509276315569878,
                0.06129685044288635,
                -0.10516968369483948,
                0.010291919112205505,
                -0.07473912090063095,
                0.029821589589118958,
                -0.16642196476459503,
                0.16505590081214905,
                0.22792357206344604,
                0.1846592277288437,
                -0.07829172164201736,
                0.19488155841827393,
                -0.15482594072818756,
                -0.1357620805501938,
                0.1843792349100113,
                -0.07413522154092789,
                0.19799421727657318,
                0.05625202879309654,
                -0.11755060404539108,
                0.10025772452354431,
                -0.1952369064092636,
                -0.13789881765842438,
                0.022561129182577133,
                0.10662318021059036,
                -0.17446404695510864,
                0.11204200237989426,
                0.15749110281467438,
                -0.20066289603710175,
                0.18242943286895752,
                0.044766347855329514,
                -0.19546502828598022,
                -0.0776384249329567,
                -0.005823291838169098,
                0.0028581318911165,
                -0.02664918266236782,
                0.06837926059961319,
                0.04246283322572708,
                -0.1007421463727951,
                -0.02459138259291649,
                -0.19527524709701538,
                0.03095409646630287,
                0.017018577083945274,
                0.09321514517068863,
                0.09290044754743576,
                0.11924773454666138,
                0.11392228305339813,
                0.1295001059770584,
                -0.20186272263526917,
                -0.015134148299694061,
                0.15876683592796326,
                0.06705405563116074,
                -0.20540207624435425,
                -0.10401732474565506,
                -0.21488365530967712,
                0.16985628008842468,
                -0.04131375998258591,
                -0.21991614997386932,
                0.1850462704896927,
                0.09086587280035019,
                -0.22034160792827606,
                -0.11333373188972473,
                -0.22512748837471008,
                0.12705734372138977,
                -0.04101073741912842,
                0.19274267554283142,
                0.08372076600790024,
                0.15769387781620026,
                0.07147043943405151,
                -0.200567826628685,
                0.20369389653205872,
                0.07026876509189606,
                0.1824522316455841,
                0.049524497240781784,
                0.09913764894008636,
                -0.04555168375372887,
                0.18322430551052094,
                -0.18341262638568878,
                0.030193468555808067,
                0.21113432943820953,
                0.07985364645719528,
                -0.15305395424365997,
                0.1651470810174942,
                0.06247986480593681,
                0.014384063892066479,
                -0.052318159490823746,
                0.13790468871593475,
                -0.12152306735515594,
                0.05651967599987984,
                -0.10890673100948334,
                -0.0009219687199220061,
                -0.14323794841766357,
                0.047946568578481674,
                -0.08556536585092545,
                0.22790275514125824,
                0.04624991491436958,
                0.19884325563907623,
                0.18345467746257782,
                0.145438089966774,
                0.08604060113430023,
                0.12468412518501282,
                0.07463054358959198,
                -0.21889294683933258,
                -0.16331784427165985,
                -0.049619629979133606,
                -0.037369221448898315,
                0.2150910347700119,
                0.03857046738266945,
                -0.10089877247810364,
                -0.10015308111906052,
                -0.010760819539427757,
                -0.0003751851909328252,
                -0.1018354594707489,
                -0.11129429191350937,
                -0.13382714986801147,
                -0.04562443494796753,
                0.19286224246025085,
                0.14549529552459717,
                0.12694281339645386,
                0.20017533004283905,
                -0.21850919723510742,
                -0.18536320328712463,
                0.10556094348430634,
                -0.05801274999976158,
                -0.20248554646968842,
                -0.15780088305473328,
                0.01713830977678299,
                0.20970913767814636,
                -0.16786415874958038,
                0.13839204609394073,
                -0.15366066992282867,
                0.22071264684200287,
                0.017185639590024948,
                0.14567361772060394,
                -0.18920879065990448,
                0.11903766542673111,
                0.2321637123823166,
                0.1930679827928543,
                -0.1803368628025055,
                0.1101853996515274,
                0.0800958126783371,
                0.04972206428647041,
                0.006239824462682009,
                -0.13057264685630798,
                -0.0868653953075409,
                0.21644988656044006,
                -0.12143448740243912,
                -0.017419401556253433,
                0.16925647854804993,
                -0.1369270235300064,
                -0.006609795149415731,
                -0.17604246735572815,
                0.13787494599819183,
                -0.10071571916341782,
                0.21828347444534302,
                -0.11312346905469894,
                0.18742243945598602,
                0.2031644731760025,
                -0.049966320395469666,
                0.058193959295749664,
                0.16559576988220215,
                0.07638456672430038,
                0.20605777204036713,
                -0.10981204360723495,
                -0.0042104641906917095,
                -0.1302667260169983,
                -0.07870546728372574,
                -0.03459828346967697,
                0.12218325585126877,
                -0.20816543698310852,
                -0.09707513451576233,
                -0.19045324623584747,
                0.12298882007598877,
                0.1644362062215805,
                -0.012213876470923424,
                0.08024973422288895,
                -0.15180864930152893,
                -0.037668853998184204,
                -0.03920922428369522,
                0.19491583108901978,
                0.13051407039165497,
                -0.04871845245361328,
                0.04583102837204933,
                0.16067950427532196,
                0.11699316650629044,
                0.049621887505054474,
                -0.15598982572555542,
                0.012924933806061745,
                -0.12598596513271332,
                -0.21088086068630219,
                0.053570568561553955,
                0.20587190985679626,
                0.15707533061504364,
                0.07956166565418243,
                -0.06429064273834229,
                0.18750610947608948,
                -0.008988099172711372,
                -0.14364919066429138,
                -0.06238295137882233,
                0.0197089072316885,
                0.08898875117301941,
                -0.08437302708625793,
                -0.25665023922920227,
                0.07058003544807434,
                -0.16352294385433197,
                -0.15213210880756378,
                0.08467719703912735,
                -0.06167156249284744,
                -0.1466059386730194,
                0.15181253850460052,
                -0.09267262369394302,
                -0.15974904596805573,
                -0.08299782127141953,
                -0.15837201476097107,
                0.13781091570854187,
                0.15977078676223755,
                -0.09104055911302567,
                0.20448093116283417,
                -0.186120867729187,
                -0.181595116853714,
                0.21278145909309387,
                -0.1089620441198349,
                -0.10820093005895615,
                -0.20188403129577637,
                -0.02320447564125061,
                0.023659158498048782,
                -0.2101672887802124,
                0.025639135390520096,
                0.22439220547676086,
                0.05145087093114853,
                0.07546990364789963,
                0.15463128685951233,
                -0.0040300339460372925,
                0.07399803400039673,
                0.0710749626159668,
                -0.012076807208359241,
                0.15009038150310516,
                -0.15889972448349,
                0.1082577034831047,
                -0.2022361159324646,
                -0.008133912459015846,
                -0.05199712514877319,
                -0.14349599182605743,
                0.03230602666735649,
                0.07891711592674255,
                -0.1576058566570282,
                0.12284079939126968,
                0.04582662135362625,
                -0.19443850219249725,
                -0.008612796664237976,
                0.21292881667613983,
                -0.19170652329921722,
                -0.06679952889680862,
                0.19342176616191864,
                0.20930041372776031,
                0.018287068232893944,
                -0.19890201091766357,
                0.09967885911464691,
                -0.17029353976249695,
                0.08189897984266281,
                0.02592824399471283,
                -0.005432225298136473,
                0.1759786456823349,
                -0.20760303735733032,
                -0.09754964709281921,
                -0.12296649813652039,
                -0.02391495555639267,
                -0.1676146537065506,
                0.11340495198965073,
                -0.14612381160259247,
                -0.08875668793916702,
                0.015240990556776524,
                -0.19411738216876984,
                -0.14187809824943542,
                0.22155803442001343,
                -0.04761221259832382,
                -0.18850205838680267,
                0.15890640020370483,
                -0.23624490201473236,
                -0.12574373185634613,
                -0.0825406089425087,
                0.1823401004076004,
                0.1340663582086563,
                0.004879702348262072,
                0.18566113710403442,
                0.0746498703956604,
                -0.20757901668548584,
                -0.22213643789291382,
                0.10126221925020218,
                0.004911802709102631,
                -0.01596597209572792,
                0.2388537973165512,
                -0.0013359605800360441,
                -0.20859603583812714,
                0.1488715261220932,
                -0.17563752830028534,
                -0.05369081348180771,
                -0.2090972661972046,
                -0.025052102282643318,
                0.1732243448495865,
                0.1866789013147354,
                -0.1714852750301361,
                -0.07118356972932816,
                -0.1926407366991043,
                -0.06376715004444122,
                -0.19783255457878113,
                0.0995466485619545,
                -0.18566389381885529,
                0.2110162079334259,
                0.001180710969492793,
                0.19914886355400085,
                0.2005912959575653,
                0.17041651904582977,
                -0.12150127440690994,
                0.03613986819982529,
                0.20390941202640533,
                -0.1327800452709198,
                0.05060664191842079,
                0.1612374186515808,
                -0.1903388798236847,
                -0.1372002512216568,
                -0.14332254230976105,
                0.09425578266382217,
                -0.15075908601284027,
                -0.1896488070487976,
                -0.13679184019565582,
                0.00661240890622139,
                -0.20745137333869934,
                0.09499398618936539,
                -0.028615115210413933,
                0.18547005951404572,
                -0.1574033498764038,
                -0.06733927130699158,
                -0.08036544173955917,
                0.22481805086135864,
                0.1702500730752945,
                -0.023751607164740562,
                -0.16553369164466858,
                0.12153402715921402,
                0.17520318925380707,
                -0.20001280307769775,
                -0.06527242809534073,
                -0.17442560195922852,
                0.1381397545337677,
                0.10272989422082901,
                -0.20507916808128357,
                0.1269061118364334,
                -0.22069229185581207,
                0.1344221532344818,
                -0.009870794601738453,
                0.13525880873203278,
                -0.1449020951986313,
                -0.05583580583333969,
                -0.06742019951343536,
                -0.25204047560691833,
                -0.07221048325300217,
                -0.1908932626247406,
                0.16159088909626007,
                0.06866563856601715,
                0.11227815598249435,
                0.17218786478042603,
                0.12818166613578796,
                0.17915914952754974,
                -0.08657736331224442,
                -0.0399409644305706,
                0.014473815448582172,
                0.21533215045928955,
                0.08074072748422623,
                -0.21755528450012207,
                0.21225519478321075,
                0.1801140457391739,
                -0.2362886518239975,
                0.13301119208335876,
                0.2599118947982788,
                -0.08117960393428802,
                -0.06842683255672455,
                0.12337979674339294,
                0.09324520081281662,
                -0.08931876718997955,
                0.0047657545655965805,
                -0.17695531249046326,
                0.060010772198438644,
                -0.05225888639688492,
                0.11845103651285172,
                0.04917086660861969,
                -0.2191430926322937,
                -0.22908180952072144,
                -0.0827663242816925,
                -0.05131477117538452,
                -0.20570515096187592,
                -0.14515438675880432,
                0.06344394385814667,
                0.0722186490893364,
                -0.21867015957832336,
                -0.16667433083057404,
                -0.1693374067544937,
                -0.16066810488700867,
                0.037380825728178024,
                0.04551491513848305,
                0.055144451558589935,
                0.011534892953932285,
                -0.06847511976957321,
                -0.07704812288284302,
                0.20009812712669373,
                -0.0325438492000103,
                -0.22450587153434753,
                -0.07344555854797363,
                -0.06761056184768677,
                0.11133629828691483,
                -0.23880983889102936,
                0.14511173963546753,
                -0.15905100107192993,
                0.18779125809669495,
                0.20872080326080322,
                -0.09053588658571243,
                0.1444977968931198,
                -0.09858805686235428,
                -0.06462707370519638,
                0.06692031770944595,
                -0.1419980376958847,
                0.08324519544839859,
                0.15105164051055908,
                0.06345870345830917,
                -0.12048083543777466,
                0.14536873996257782,
                -0.14072032272815704,
                0.015877246856689453,
                -0.1477380245923996,
                -0.0571320578455925,
                -0.07063525170087814,
                -0.2905404567718506,
                0.028404492884874344,
                0.015382594428956509,
                0.11736717820167542,
                -0.1919737309217453,
                0.17128556966781616,
                -0.11003243923187256,
                -0.08991420269012451,
                -0.07762891054153442,
                0.04901907965540886,
                -0.03532445803284645,
                0.01541594136506319,
                0.07966876775026321,
                -0.019966119900345802,
                -0.09559563547372818,
                -0.14988666772842407,
                -0.10784982144832611,
                0.09946266561746597,
                0.21074272692203522,
                0.06424503028392792,
                0.17660045623779297,
                -0.07684427499771118,
                0.021534685045480728,
                0.21127431094646454,
                0.10446102172136307,
                0.18433134257793427,
                0.1909712553024292,
                -0.013548466376960278,
                0.1845245510339737,
                0.010335257276892662,
                -0.02526482567191124,
                -0.043732304126024246,
                -0.04531656205654144,
                -0.11491380631923676,
                -0.1126202940940857,
                -0.178212970495224,
                -0.022327670827507973,
                0.07953736186027527,
                -0.0410328283905983,
                -0.1629045307636261,
                -0.20363211631774902,
                0.2163688987493515,
                -0.21153992414474487,
                -0.000845752190798521,
                0.1990334540605545,
                0.1381205916404724,
                -0.19987475872039795,
                -0.08044799417257309,
                0.06119825690984726,
                0.10071802884340286,
                -0.07391367107629776,
                -0.20979970693588257,
                -0.07364365458488464,
                -0.21268947422504425,
                -0.08374927192926407,
                0.09973620623350143,
                0.12701261043548584,
                0.07744996249675751,
                -0.03818914294242859,
                -0.2118396759033203,
                0.11843852698802948,
                0.0018369401805102825,
                0.11067785322666168,
                -0.22414474189281464,
                -0.08670761436223984,
                0.06981467455625534,
                -0.12603245675563812,
                -0.19380463659763336,
                -0.06576091051101685,
                0.052008870989084244,
                -0.1846606433391571,
                0.16193629801273346,
                -0.09423679113388062,
                -0.05160827562212944,
                -0.1525406539440155,
                0.16940724849700928,
                0.11828871816396713,
                0.0035029412247240543,
                0.004338177386671305,
                -0.22031573951244354,
                -0.17096832394599915,
                -0.16129329800605774,
                0.21867556869983673,
                -0.13768333196640015,
                -0.1840292513370514,
                -0.19100171327590942,
                -0.03476414456963539,
                -0.004687365610152483,
                0.09767428785562515,
                0.10904467850923538,
                0.0148174948990345,
                -0.22454580664634705,
                -0.161835178732872,
                -0.07604380697011948,
                0.051837269216775894,
                0.036805227398872375,
                -0.09021221101284027,
                -0.22852949798107147,
                -0.07731436938047409,
                0.110651895403862,
                0.1315562129020691,
                0.10323068499565125,
                0.060689136385917664,
                -0.223854660987854,
                -0.12777331471443176,
                -0.01333274133503437,
                -0.11115076392889023,
                0.20926927030086517,
                0.09666159003973007,
                -0.029793713241815567,
                -0.013642240315675735,
                -0.18813982605934143,
                0.31450411677360535,
                0.1508389115333557,
                -0.14547939598560333,
                -0.18454775214195251,
                0.03903974965214729,
                -0.11207360774278641,
                0.14037516713142395,
                0.20497345924377441,
                0.19247005879878998,
                0.11241663992404938,
                0.20482000708580017,
                -0.08344874531030655,
                0.15210318565368652,
                -0.12719054520130157,
                0.16685990989208221,
                0.20808526873588562,
                0.013812243938446045,
                -0.08674803376197815,
                0.17176172137260437,
                0.07353926450014114,
                -0.11938025057315826,
                0.13758669793605804,
                -0.007422940339893103,
                -0.09366261214017868,
                0.06852532923221588,
                0.138853058218956,
                0.07613512128591537,
                -0.04500632360577583,
                -0.09481219202280045,
                -0.1043211817741394,
                -0.15624676644802094,
                0.120829738676548,
                -0.19446004927158356,
                0.0017618717392906547,
                0.08827806264162064,
                0.07924329489469528,
                -0.18758651614189148,
                -0.12783731520175934,
                0.1422826647758484,
                0.06977809965610504,
                -0.042458388954401016,
                -0.0671025887131691,
                0.19718635082244873,
                -0.08014455437660217,
                -0.2223820984363556,
                0.1147841364145279,
                0.014868581667542458,
                -0.09416486322879791,
                0.06673439592123032,
                0.06848740577697754,
                -0.15160518884658813,
                0.18067841231822968,
                -0.18784035742282867,
                -0.041062530130147934,
                0.04396626353263855,
                0.1889469474554062,
                -0.020719990134239197,
                -0.13907992839813232,
                0.19057703018188477,
                -0.19830062985420227,
                0.13974012434482574,
                0.06341271102428436,
                0.007958206348121166,
                0.1275137960910797,
                -0.21252591907978058,
                -0.03100472129881382,
                -0.01418379321694374,
                0.15326158702373505,
                -0.006138694938272238,
                -0.18948832154273987,
                0.07175552099943161,
                0.04646685719490051,
                -0.19515515863895416,
                -0.07070329040288925,
                0.13648860156536102,
                -0.11238221079111099,
                -0.02499222196638584,
                0.10041926801204681,
                0.019914936274290085,
                -0.1201801598072052,
                0.13778987526893616,
                0.0685843676328659,
                0.04735336825251579,
                -0.14924167096614838,
                0.13705629110336304,
                -0.16683228313922882,
                -0.17281828820705414,
                -0.19322597980499268,
                0.19487392902374268,
                -0.0014439037768170238,
                -0.15044721961021423,
                -0.16438274085521698,
                -0.20941399037837982,
                0.22096990048885345,
                0.01595091074705124,
                0.17996664345264435,
                -0.17960140109062195,
                0.06347725540399551,
                0.0012866988545283675,
                0.15227103233337402,
                0.009657899849116802,
                -0.21819725632667542,
                -0.09787631034851074,
                0.14655806124210358,
                -0.10570290684700012,
                0.13636818528175354,
                0.0002824119874276221,
                -0.10449030250310898,
                -0.1592951864004135,
                0.11552601307630539,
                -0.2135952264070511,
                -0.22554412484169006,
                0.10779460519552231,
                0.12151454389095306,
                -0.1369115561246872,
                0.17645946145057678,
                0.11680066585540771,
                0.1736566424369812,
                -0.07928678393363953,
                -0.16589392721652985,
                0.1499316394329071,
                0.09730568528175354,
                0.1346466839313507,
                0.18922735750675201,
                0.1544324904680252,
                -0.12441922724246979,
                0.1578315645456314,
                -0.026246203109622,
                0.18940238654613495,
                -0.22677741944789886,
                -0.08873796463012695,
                -0.1734444499015808,
                0.051092807203531265,
                0.14785099029541016,
                0.10056411474943161,
                -0.10195432603359222,
                -0.14550165832042694,
                0.06279782950878143,
                0.05947837978601456,
                0.15619701147079468,
                -0.18338347971439362,
                0.14148731529712677,
                -0.0031861765310168266,
                -0.007603041362017393,
                0.09554067999124527,
                -0.07335729897022247,
                -0.10358452796936035,
                0.07944228500127792,
                0.06859952956438065,
                0.14505745470523834,
                0.12941299378871918,
                0.10999009758234024,
                0.17438194155693054,
                0.019570987671613693,
                -0.0881761834025383,
                -0.03454788774251938,
                0.10073845088481903,
                -0.020239228382706642,
                -0.22971388697624207,
                0.09967271983623505,
                -0.04962450638413429,
                -0.020782599225640297,
                -0.16149024665355682,
                -0.05836515873670578,
                -0.06718980520963669,
                0.19223017990589142,
                0.13650210201740265,
                -0.06486538052558899,
                -0.19324950873851776,
                0.06399045139551163,
                0.034154895693063736,
                0.13285815715789795,
                -0.07126536220312119,
                -0.12720239162445068,
                0.04112881422042847,
                -0.21809671819210052,
                0.16669334471225739,
                0.20923537015914917,
                -0.19424274563789368,
                -0.22558124363422394,
                0.022380348294973373,
                0.07817929983139038,
                -0.18023228645324707,
                -0.03149734437465668,
                0.009314384311437607,
                -0.11596953123807907,
                -0.08692463487386703,
                0.23088273406028748,
                -0.15025347471237183,
                0.1476343423128128,
                0.07597073167562485,
                0.012539699673652649,
                -0.20484787225723267,
                -0.15872256457805634,
                0.04375604912638664,
                -0.20261074602603912,
                0.1987011432647705,
                -0.2114567905664444,
                0.21247915923595428,
                0.07800528407096863,
                -0.11249829828739166,
                -0.11622806638479233,
                -0.17615655064582825,
                0.08831018954515457,
                -0.1971237063407898,
                -0.15229012072086334,
                0.05556393414735794,
                -0.19618287682533264,
                0.0646946057677269,
                0.023267826065421104,
                -0.18845458328723907,
                -0.08859820663928986,
                0.13325431942939758,
                0.014099210500717163,
                -0.20749260485172272,
                -0.13359400629997253,
                -0.11971218883991241,
                -0.15709331631660461,
                0.20057599246501923,
                0.1906566619873047,
                0.010058658197522163,
                -0.005161846987903118,
                -0.014448505826294422,
                -0.10562656819820404,
                -0.037769537419080734,
                -0.1692749559879303,
                0.020148763433098793,
                0.18761979043483734,
                0.1434095799922943,
                0.24068164825439453,
                0.059561848640441895,
                0.1529548019170761,
                -0.07455652207136154,
                -0.10288830101490021,
                -0.057680726051330566,
                -0.06978236883878708,
                -0.15440542995929718,
                -0.11134682595729828,
                -0.22665727138519287,
                0.18068504333496094,
                -0.1473613828420639,
                0.17196837067604065,
                -0.1942979395389557,
                -0.20467518270015717,
                0.15517635643482208,
                -0.12317289412021637,
                0.13832472264766693,
                0.1184559017419815,
                -0.10887729376554489,
                -0.24477198719978333,
                0.08706825971603394,
                0.10998352617025375,
                -0.0497317798435688,
                0.21585117280483246,
                0.11352287232875824,
                0.15875516831874847,
                -0.004289495758712292,
                0.018369661644101143,
                -0.15414901077747345,
                -0.21030381321907043,
                0.04573948681354523,
                0.07190562784671783,
                0.13689693808555603,
                -0.16634081304073334,
                -0.004335818812251091,
                -0.052059073001146317,
                -0.2387678027153015,
                -0.09096036851406097,
                -0.20334766805171967
            ],
            "weight_shape": [
                64,
                19
            ],
            "bias": [
                0.20823298394680023,
                0.11833199858665466,
                0.09463460743427277,
                -0.015018770471215248,
                0.034681759774684906,
                0.019932767376303673,
                -0.10368838161230087,
                -0.18091833591461182,
                0.0072453999891877174,
                -0.05259789153933525,
                -0.20446352660655975,
                -0.06826531141996384,
                0.1953524798154831,
                0.020111722871661186,
                -0.2131073921918869,
                -0.18848462402820587,
                0.2132265716791153,
                -0.18492254614830017,
                0.14827483892440796,
                -0.1275331676006317,
                0.1982683390378952,
                0.10339672118425369,
                0.09175217151641846,
                0.10654302686452866,
                -0.18963950872421265,
                -0.0514775887131691,
                -0.07913348823785782,
                -0.13739067316055298,
                -0.026767060160636902,
                0.2132129669189453,
                0.02874644100666046,
                -0.0658816546201706,
                0.11038239300251007,
                -0.13250787556171417,
                -0.12402546405792236,
                -0.14924269914627075,
                0.10147184878587723,
                -0.17115916311740875,
                0.13819172978401184,
                -0.1185510903596878,
                0.08337506651878357,
                0.19129528105258942,
                0.012386388145387173,
                -0.2238617092370987,
                0.06757768243551254,
                -0.10908456891775131,
                0.11322254687547684,
                0.04918363317847252,
                0.1660155951976776,
                0.23490209877490997,
                -0.008113477379083633,
                -0.1181301400065422,
                0.21241894364356995,
                0.1720954328775406,
                0.17041538655757904,
                0.013147748075425625,
                -0.06839800626039505,
                0.1937641054391861,
                0.01636308617889881,
                0.15122590959072113,
                -0.05652396008372307,
                0.06170196458697319,
                -0.06102234497666359,
                -0.12583622336387634
            ],
            "bias_shape": [
                64
            ]
        },
        {
            "weight": [
                -0.12053143233060837,
                0.02038935013115406,
                -0.08733595162630081,
                0.04386299476027489,
                -0.06616926938295364,
                -0.05450280383229256,
                0.14630018174648285,
                -0.11285722255706787,
                -0.04023979231715202,
                -0.07797340303659439,
                -0.0336751714348793,
                0.18812306225299835,
                -0.06806046515703201,
                0.10844096541404724,
                -0.03217389062047005,
                0.08130781352519989,
                -0.048420388251543045,
                0.11270932108163834,
                -0.033172886818647385,
                -0.05301732197403908,
                -0.0038391388952732086,
                0.1251191943883896,
                0.08501214534044266,
                -0.006192209664732218,
                -0.07336080819368362,
                -0.04411887377500534,
                -0.026732707396149635,
                -0.06237785145640373,
                0.12338965386152267,
                0.12012749165296555,
                0.06892885267734528,
                -0.08993185311555862,
                0.12007778137922287,
                0.08467259258031845,
                0.0033305296674370766,
                -0.025796763598918915,
                -0.04828735440969467,
                -0.12073694914579391,
                0.05959923192858696,
                0.06358416378498077,
                0.05690785497426987,
                0.09152461588382721,
                0.02685323916375637,
                0.061552323400974274,
                -0.08779426664113998,
                -0.016248783096671104,
                -0.016250526532530785,
                -0.011222774162888527,
                -0.09637194126844406,
                -0.043276939541101456,
                -0.002730902284383774,
                -0.12475774437189102,
                -0.10549172759056091,
                0.040876779705286026,
                0.11814481019973755,
                -0.05658385902643204,
                0.09691648185253143,
                -0.001762507832609117,
                0.013295217417180538,
                -0.11993803083896637,
                0.14377374947071075,
                -0.0067491172812879086,
                0.026709459722042084,
                0.08171942830085754,
                0.09504140913486481,
                -0.09758996218442917,
                0.010398689657449722,
                0.03773874416947365,
                -0.04402851685881615,
                -0.0009767053415998816,
                0.02424956113100052,
                0.051105428487062454,
                -0.08058562874794006,
                0.06833583861589432,
                -0.07648628950119019,
                -0.013579251244664192,
                -0.06404855847358704,
                -0.04867785423994064,
                0.07137415558099747,
                0.04031568765640259,
                0.08310724049806595,
                0.10920049250125885,
                0.11036845296621323,
                0.029242511838674545,
                -0.032503239810466766,
                0.10666951537132263,
                -0.03545735403895378,
                0.05515429750084877,
                0.03593524917960167,
                0.024191463366150856,
                0.11362846940755844,
                0.1024772971868515,
                0.08899396657943726,
                -0.07988640666007996,
                -0.08890575915575027,
                0.06606946140527725,
                -0.06446759402751923,
                -0.037705663591623306,
                -0.08686697483062744,
                0.02504415437579155,
                0.05071975663304329,
                -0.029072454199194908,
                -0.03915441408753395,
                -0.04945136979222298,
                0.13345827162265778,
                -0.021361570805311203,
                -0.06616543233394623,
                0.12372083961963654,
                -0.11212336272001266,
                -0.0878060907125473,
                0.05232297256588936,
                0.083819679915905,
                0.09687953442335129,
                0.13759776949882507,
                0.05718008056282997,
                -0.11148244887590408,
                0.08705540746450424,
                0.0348731204867363,
                0.011549325659871101,
                -0.060759466141462326,
                -0.0924765095114708,
                -0.05862370505928993,
                -0.053801290690898895,
                -0.06020199880003929,
                -0.1035318523645401,
                -0.07910948991775513,
                0.03710493817925453,
                0.07017547637224197,
                0.08930595964193344,
                -0.0028944071382284164,
                0.004674903117120266,
                -0.055448390543460846,
                0.0752597525715828,
                -0.04077375307679176,
                -0.05390969663858414,
                0.10186754912137985,
                0.043721526861190796,
                -0.007083050440996885,
                0.09553223103284836,
                0.14858068525791168,
                -0.09367553144693375,
                -0.1045403927564621,
                -0.02921975590288639,
                0.1627153605222702,
                -0.08717988431453705,
                0.07498516142368317,
                -0.08357343822717667,
                0.013779224827885628,
                -0.0518123023211956,
                0.07782426476478577,
                0.03614954277873039,
                0.02304094284772873,
                -0.06262096017599106,
                0.019466975703835487,
                -0.07464859634637833,
                -0.07952413707971573,
                -0.09381739050149918,
                0.08880912512540817,
                -0.05327687785029411,
                -0.08660326898097992,
                0.03599770739674568,
                -0.025810055434703827,
                0.16684795916080475,
                -0.007895230315625668,
                0.023608466610312462,
                0.039226558059453964,
                0.09706827253103256,
                0.11678116768598557,
                0.14158660173416138,
                -0.0010071545839309692,
                -0.000787850352935493,
                0.008415939286351204,
                -0.0813387855887413,
                0.11154242604970932,
                -0.06333895772695541,
                0.11862323433160782,
                0.0026925229467451572,
                0.05183231085538864,
                -0.1083008199930191,
                -0.014035146683454514,
                0.13160394132137299,
                -0.10683391243219376,
                -0.002037700265645981,
                -0.12217849493026733,
                0.029833929613232613,
                0.08458424359560013,
                -0.11912184953689575,
                -0.11280563473701477,
                -0.060630083084106445,
                0.0039638034068048,
                -0.10321798920631409,
                -0.004630048759281635,
                0.00950637087225914,
                -0.08587813377380371,
                -0.03769271820783615,
                0.10772708058357239,
                0.0035381540656089783,
                0.08830008655786514,
                -0.008968760259449482,
                0.03539017587900162,
                -0.08505947142839432,
                -0.0861424058675766,
                -0.10051065683364868,
                -0.06106174364686012,
                -0.007499252911657095,
                -0.012292839586734772,
                -0.08804836869239807,
                0.027608858421444893,
                -0.09311568737030029,
                -0.10901804268360138,
                0.0019539024215191603,
                -0.05337943136692047,
                0.04303598031401634,
                -0.04494025558233261,
                0.023633504286408424,
                -0.018301593139767647,
                0.06910059601068497,
                0.01151843462139368,
                0.05557245761156082,
                -0.05770036205649376,
                -0.010710065253078938,
                -0.1072452962398529,
                -0.049399252980947495,
                0.03352944180369377,
                -0.09670025110244751,
                -0.08713807165622711,
                -0.051964886486530304,
                -0.05498566851019859,
                -0.0866289958357811,
                0.033571675419807434,
                -0.02725914679467678,
                -0.0959935113787651,
                0.005579428747296333,
                -0.07697314769029617,
                0.01706094667315483,
                0.008503963239490986,
                -0.05629850551486015,
                -0.06065822020173073,
                0.07906127721071243,
                -0.0872533917427063,
                -0.023723840713500977,
                -0.11449248343706131,
                0.005082889460027218,
                -0.09929081052541733,
                0.07609930634498596,
                0.08542121201753616,
                0.1046418771147728,
                0.061582498252391815,
                0.12052273005247116,
                0.009637637063860893,
                -0.10932838916778564,
                0.10213501006364822,
                -0.06841787695884705,
                -0.10975024104118347,
                0.016161326318979263,
                -0.06575340777635574,
                -0.03355740010738373,
                -0.01572568714618683,
                0.11218371242284775,
                0.034103844314813614,
                -0.0157480351626873,
                0.09355484694242477,
                0.009374579414725304,
                -0.0072553870268166065,
                -0.05280385538935661,
                -0.07959454506635666,
                0.10730714350938797,
                -0.09281556308269501,
                0.10983464121818542,
                -0.11062894016504288,
                0.01578393392264843,
                0.07252523303031921,
                0.09837962687015533,
                -0.06559393554925919,
                -0.03390295058488846,
                0.033244263380765915,
                -0.12045864015817642,
                0.11401720345020294,
                0.12765510380268097,
                -0.026308326050639153,
                0.12075549364089966,
                -0.008094415999948978,
                0.009032363072037697,
                0.043920863419771194,
                -0.04340094327926636,
                0.005827722605317831,
                -0.017439180985093117,
                -0.12099110335111618,
                -0.12319272756576538,
                0.09354522079229355,
                0.08481698483228683,
                0.07654540240764618,
                0.034638263285160065,
                -0.07198100537061691,
                0.07879457622766495,
                -0.04621298238635063,
                -0.014726169407367706,
                -0.11265917867422104,
                -0.05316873639822006,
                0.11161031574010849,
                -0.08943433314561844,
                -0.03104170598089695,
                0.1058807447552681,
                0.10870944708585739,
                -0.0323793925344944,
                -0.09804213792085648,
                -0.11409954726696014,
                0.06951634585857391,
                0.05689457431435585,
                0.022752879187464714,
                -0.08008119463920593,
                -0.09772597998380661,
                0.10230381041765213,
                -0.08719611167907715,
                0.08168936520814896,
                0.04539503529667854,
                0.054049305617809296,
                0.0798739343881607,
                0.11088939011096954,
                -0.0316004641354084,
                0.08420079946517944,
                0.10735943913459778,
                -0.02175739035010338,
                -0.056279394775629044,
                -0.10780929774045944,
                0.12337750941514969,
                0.009194906800985336,
                0.037439607083797455,
                -0.09271561354398727,
                -0.04250224307179451,
                -0.12383654713630676,
                0.03903611749410629,
                -0.01985524594783783,
                -0.032201312482357025,
                -0.11044539511203766,
                0.01250464003533125,
                -0.08925553411245346,
                -0.11963838338851929,
                -0.11844449490308762,
                -0.05610794574022293,
                0.10063418000936508,
                -0.07999833673238754,
                -0.021815355867147446,
                -0.07176750898361206,
                0.019045665860176086,
                -0.047064222395420074,
                -0.0989571362733841,
                0.09552285075187683,
                -0.08267462998628616,
                0.02317626215517521,
                0.009943688288331032,
                -0.07701555639505386,
                -0.04041552543640137,
                -0.0351409949362278,
                -0.06251121312379837,
                0.042855873703956604,
                0.07575519382953644,
                0.11540459841489792,
                -0.005836889613419771,
                0.09870258718729019,
                -0.04610086977481842,
                0.09722059220075607,
                -0.05094630643725395,
                -0.0216850396245718,
                -0.011557362042367458,
                -0.12516582012176514,
                -0.02497502975165844,
                0.07543091475963593,
                0.022036027163267136,
                0.03625556454062462,
                -0.06959839910268784,
                0.103220134973526,
                0.035117581486701965,
                0.10500794649124146,
                0.020791325718164444,
                0.021812336519360542,
                0.11256318539381027,
                0.10130573064088821,
                -0.09266143292188644,
                -0.06961693614721298,
                0.11823868006467819,
                -0.010797318071126938,
                0.017284708097577095,
                -0.12626072764396667,
                -0.10956257581710815,
                0.027791261672973633,
                -0.01180108729749918,
                -0.08900655806064606,
                0.08384083211421967,
                0.09403836727142334,
                -0.005547975655645132,
                -0.05037068575620651,
                -0.019780563190579414,
                0.01029279176145792,
                -0.053346186876297,
                0.1273767650127411,
                -0.07100790739059448,
                0.07452456653118134,
                -0.11697562038898468,
                -0.003235932206735015,
                -0.0954698771238327,
                -0.1030273362994194,
                0.008437159471213818,
                0.046200305223464966,
                0.07939792424440384,
                -0.09972529113292694,
                0.038823775947093964,
                -0.09799739718437195,
                0.053679175674915314,
                0.06585457921028137,
                0.03926180303096771,
                -0.0022147423587739468,
                0.006263702642172575,
                0.007427977863699198,
                -0.05569418519735336,
                0.07443702220916748,
                0.1291200965642929,
                0.03961450234055519,
                0.09467896074056625,
                -0.07132355868816376,
                -0.08756012469530106,
                0.03862510994076729,
                0.08597875386476517,
                -0.05582412704825401,
                0.09063345938920975,
                -0.050759024918079376,
                0.011140340939164162,
                0.12384416908025742,
                0.12456224858760834,
                0.012176597490906715,
                -0.04925983399152756,
                0.06331611424684525,
                -0.10540300607681274,
                -0.09051644057035446,
                -0.015351999551057816,
                -0.06462191045284271,
                0.0693952888250351,
                0.12036444246768951,
                -0.08211699873209,
                0.11749350279569626,
                0.0031880433671176434,
                0.05062944069504738,
                0.039531439542770386,
                -0.012645377777516842,
                0.07876776158809662,
                -0.012460451573133469,
                0.012026968412101269,
                -0.003968236967921257,
                0.12289337813854218,
                0.06880869716405869,
                -0.09070045500993729,
                0.1188448891043663,
                -0.04923751950263977,
                -0.11797820776700974,
                -0.14127835631370544,
                0.049534786492586136,
                0.07759016007184982,
                0.0832563191652298,
                0.12466617673635483,
                0.0336763970553875,
                0.021005580201745033,
                0.050144556909799576,
                0.08321826159954071,
                -0.07162847369909286,
                0.00550255598500371,
                0.0013195459032431245,
                -0.0843125656247139,
                0.11278533935546875,
                -0.03716569021344185,
                -0.04574242979288101,
                0.0978497564792633,
                -0.06563675403594971,
                0.06589695066213608,
                -0.034439679235219955,
                -0.11235351860523224,
                -0.09355612099170685,
                0.09225985407829285,
                0.10205178707838058,
                0.0460842065513134,
                -0.08034049719572067,
                0.050266116857528687,
                -0.053614675998687744,
                0.13764451444149017,
                -0.06586633622646332,
                0.009914782829582691,
                0.0024379442911595106,
                -0.06181161478161812,
                -0.1227344200015068,
                -0.07267693430185318,
                -0.01636541076004505,
                -0.09681413322687149,
                -0.09023594111204147,
                0.01106712594628334,
                0.051624223589897156,
                0.02132231555879116,
                -0.1211114376783371,
                0.09507192671298981,
                0.075294129550457,
                0.10417866706848145,
                -0.0353018119931221,
                0.07666707038879395,
                0.03401235491037369,
                0.03322109207510948,
                -0.07894779741764069,
                0.111308753490448,
                -0.025935057550668716,
                -0.06583049893379211,
                0.04925635829567909,
                0.09374698251485825,
                -0.04184717312455177,
                -0.061200160533189774,
                -0.12857694923877716,
                -0.11176855862140656,
                -0.06540162861347198,
                -0.08878462761640549,
                -0.020756414160132408,
                -0.07077162712812424,
                0.13453309237957,
                -0.05223045125603676,
                -0.024178003892302513,
                -0.04185209050774574,
                -0.1214263066649437,
                0.0425993874669075,
                -0.09415269643068314,
                -0.04621169716119766,
                0.06552356481552124,
                0.07957091927528381,
                0.1587640941143036,
                0.05092610791325569,
                0.10323693603277206,
                -0.08103319257497787,
                0.09546606987714767,
                -0.09181877225637436,
                0.12143491208553314,
                0.08158982545137405,
                -0.07669224590063095,
                -0.027010846883058548,
                0.04430565983057022,
                -0.08232129365205765,
                -0.10406021773815155,
                -0.09347108006477356,
                -0.033405695110559464,
                0.0986703559756279,
                0.0033998412545770407,
                0.0249696783721447,
                0.024992981925606728,
                0.012505576014518738,
                0.013245058245956898,
                -0.09507106244564056,
                0.1094769760966301,
                -0.007482154760509729,
                -0.11082563549280167,
                0.014079953543841839,
                0.12040150165557861,
                0.08991531282663345,
                -0.0024809588212519884,
                0.05607495829463005,
                0.014725214801728725,
                0.05020931363105774,
                -0.04123375564813614,
                0.09511276334524155,
                -0.05489320680499077,
                0.08459412306547165,
                -0.03197051212191582,
                0.046123817563056946,
                -0.06805634498596191,
                0.1280442774295807,
                -0.050166863948106766,
                -0.01471699122339487,
                -0.11175578087568283,
                -0.05211120843887329,
                0.03424829617142677,
                0.04104296490550041,
                -0.09057904779911041,
                0.09545683115720749,
                0.04811590909957886,
                0.041781626641750336,
                -0.0405820831656456,
                -0.029569203034043312,
                -0.10024430602788925,
                -0.06038103252649307,
                0.11514542251825333,
                -0.07794807851314545,
                -0.08995253592729568,
                0.12415711581707001,
                -0.10633894056081772,
                0.11319176852703094,
                0.0660700723528862,
                0.08524300903081894,
                -0.09835182875394821,
                0.06986377388238907,
                -0.008610209450125694,
                -0.08976592868566513,
                0.028717324137687683,
                0.12175517529249191,
                0.12694737315177917,
                -0.03596148267388344,
                -0.04972292110323906,
                -0.0007158287335187197,
                -0.16051025688648224,
                -0.008368982002139091,
                0.042174626141786575,
                -0.056708499789237976,
                0.031447943300008774,
                0.1133069321513176,
                0.016070155426859856,
                0.08849594742059708,
                -0.0619952566921711,
                0.15350203216075897,
                -0.0873754471540451,
                -0.031620871275663376,
                -0.019196342676877975,
                -0.1399216651916504,
                -0.11487870663404465,
                0.037724681198596954,
                0.0029306451324373484,
                0.08605216443538666,
                -0.00850505381822586,
                -0.07856635749340057,
                0.077520452439785,
                -0.01796646974980831,
                0.022831397131085396,
                -0.09103655815124512,
                -0.0027217285241931677,
                -0.040466684848070145,
                0.031683195382356644,
                -0.0361364372074604,
                -0.11123673617839813,
                -0.11978970468044281,
                0.10696285963058472,
                0.10669124126434326,
                -0.035218946635723114,
                0.023784371092915535,
                -0.1151498556137085,
                0.09071074426174164,
                0.03751852363348007,
                0.07998266816139221,
                -0.13685588538646698,
                0.03820259869098663,
                -0.11862222105264664,
                0.03342163562774658,
                -0.04176022857427597,
                0.10016537457704544,
                0.043394964188337326,
                0.13824310898780823,
                0.05172884464263916,
                -0.09122414141893387,
                -0.034378230571746826,
                0.05492094159126282,
                0.12103370577096939,
                -0.07527326792478561,
                0.09363849461078644,
                0.042071688920259476,
                -0.06401169300079346,
                0.03616534173488617,
                0.13587068021297455,
                0.031603701412677765,
                0.03565208986401558,
                0.06273871660232544,
                -0.05453011766076088,
                0.028301719576120377,
                0.06874086707830429,
                -0.05284085124731064,
                -0.07344719022512436,
                0.12417113035917282,
                0.03997347876429558,
                -0.09764325618743896,
                0.00935946125537157,
                -0.024846479296684265,
                0.07581133395433426,
                -0.0831703469157219,
                -0.06617620587348938,
                -0.02352510765194893,
                0.04183443263173103,
                0.0815812274813652,
                -0.08071313798427582,
                -0.02256225235760212,
                0.03782504424452782,
                0.13374203443527222,
                -0.10353916138410568,
                0.0974067971110344,
                0.039266712963581085,
                -0.08553314208984375,
                0.015593140386044979,
                0.1076795905828476,
                0.06612039357423782,
                0.07585907727479935,
                0.00012409962073434144,
                0.1024772971868515,
                0.04701226204633713,
                0.04251297935843468,
                0.03026384674012661,
                0.10399232059717178,
                0.023793548345565796,
                0.014585563912987709,
                -0.10299331694841385,
                0.0668359026312828,
                -0.1045486330986023,
                0.02799041010439396,
                -0.0523214116692543,
                -0.06515560299158096,
                0.018431449308991432,
                -0.009091990999877453,
                0.006819385103881359,
                -0.05704919621348381,
                0.05347062274813652,
                0.018742797896265984,
                0.0009174736915156245,
                0.08583419770002365,
                -0.05685890465974808,
                0.11286784708499908,
                0.029498720541596413,
                -0.11997135728597641,
                -0.07429788261651993,
                0.09889665991067886,
                0.04103095084428787,
                0.09530966728925705,
                -0.10759872198104858,
                -0.14013712108135223,
                -0.0782511979341507,
                -0.10779876261949539,
                0.11199658364057541,
                0.08124785870313644,
                0.019250523298978806,
                -0.07789894193410873,
                -0.11557073891162872,
                0.058898769319057465,
                -0.04114299640059471,
                0.09212759137153625,
                0.08941901475191116,
                -0.08779820054769516,
                0.054788511246442795,
                -0.04752686619758606,
                0.059911396354436874,
                -0.0060913944616913795,
                -0.045463334769010544,
                0.008103949017822742,
                0.1005229651927948,
                0.08720234036445618,
                -0.03851184621453285,
                0.11140289902687073,
                0.046875786036252975,
                -0.11677248775959015,
                -0.12353546917438507,
                -0.012795738875865936,
                -0.0518227256834507,
                -0.027102746069431305,
                -0.09977009892463684,
                -0.052702996879816055,
                0.026510775089263916,
                0.03784111887216568,
                -0.05151151120662689,
                0.08634329587221146,
                0.11789016425609589,
                0.012853214517235756,
                -0.11719953268766403,
                0.03071502596139908,
                0.0544392354786396,
                -0.07538190484046936,
                -0.12239984422922134,
                0.10619185119867325,
                0.008647254668176174,
                0.011705529876053333,
                0.08371598273515701,
                -0.1102815642952919,
                0.10837075114250183,
                -0.0964169055223465,
                0.05045939236879349,
                -0.033371035009622574,
                -0.08877067267894745,
                0.020451495423913002,
                -0.029414940625429153,
                -0.08325830101966858,
                -0.01727134920656681,
                0.07670867443084717,
                0.07590817660093307,
                -0.005409694742411375,
                -0.025293312966823578,
                0.045926474034786224,
                0.08718997985124588,
                -0.098517045378685,
                -0.005157134961336851,
                0.09037458151578903,
                0.03536918759346008,
                -0.056433096528053284,
                0.03331586346030235,
                0.025909818708896637,
                -0.036325063556432724,
                0.11193564534187317,
                -0.09062150865793228,
                -0.0012346841394901276,
                0.05705304443836212,
                -0.0965939536690712,
                -0.02822394110262394,
                0.05873836949467659,
                -0.09924539178609848,
                0.08780617266893387,
                -0.02969498373568058,
                -0.03433365002274513,
                -0.05118333548307419,
                -0.005615871399641037,
                -0.10191211849451065,
                -0.02381848357617855,
                -0.017035529017448425,
                0.03805316984653473,
                -0.0936821699142456,
                0.09815917909145355,
                -0.012733524665236473,
                -0.0437212698161602,
                0.11267982423305511,
                0.11527376621961594,
                -0.05620771646499634,
                0.04620747268199921,
                -0.02946903556585312,
                0.11758270114660263,
                0.02345563843846321,
                0.011575388722121716,
                0.12748192250728607,
                -0.09573864191770554,
                -0.07612844556570053,
                -0.0729808583855629,
                -0.06595799326896667,
                -0.05386872589588165,
                0.07289201766252518,
                -0.10911303013563156,
                -0.08259408175945282,
                0.08893277496099472,
                0.0782904177904129,
                -0.057274047285318375,
                0.0620146170258522,
                0.05905149132013321,
                0.028133248910307884,
                -0.11262486129999161,
                0.03206772729754448,
                0.10248149931430817,
                0.10926425457000732,
                -0.07364317774772644,
                -0.0300491601228714,
                -0.0010118026984855533,
                0.11932523548603058,
                0.08377189934253693,
                -0.008337600156664848,
                -0.01715780980885029,
                -0.030789509415626526,
                0.052839070558547974,
                -0.08273917436599731,
                -0.08699377626180649,
                0.017375469207763672,
                0.057790711522102356,
                0.10169892013072968,
                0.07723341882228851,
                0.0925980806350708,
                0.09513689577579498,
                0.12706629931926727,
                0.12916147708892822,
                -0.07392812520265579,
                0.07272406667470932,
                0.03264714032411575,
                0.041445571929216385,
                -0.03560170158743858,
                -0.04171150550246239,
                0.10227840393781662,
                0.09644867479801178,
                -0.01680018939077854,
                -0.0907396748661995,
                0.04812499135732651,
                0.005308732856065035,
                0.011772925965487957,
                -0.05664699524641037,
                0.09203176200389862,
                0.004427731037139893,
                0.10330623388290405,
                -0.0510476715862751,
                0.1131446436047554,
                -0.1009148508310318,
                -0.025953946635127068,
                0.03192678466439247,
                -0.057927995920181274,
                -0.12123461812734604,
                0.10847704857587814,
                0.0364656001329422,
                -0.10974803566932678,
                0.05878752842545509,
                0.033888816833496094,
                0.035169973969459534,
                0.08699065446853638,
                0.05545477196574211,
                -0.011661363765597343,
                0.0004669271584134549,
                0.08549527823925018,
                -0.02903982810676098,
                0.040721990168094635,
                -0.02360476367175579,
                -0.0012451043585315347,
                0.01621364802122116,
                -0.07621876895427704,
                -0.03493538871407509,
                0.03411939740180969,
                0.09570176154375076,
                0.06565433740615845,
                -0.01818506233394146,
                -0.11341800540685654,
                -0.09868425875902176,
                0.07877437025308609,
                -0.04616131633520126,
                -0.04295237362384796,
                -0.014113442040979862,
                0.09829747676849365,
                0.04285921901464462,
                -0.01618443988263607,
                -0.10151629149913788,
                0.1142454743385315,
                0.022834505885839462,
                -0.06653957068920135,
                0.06145619973540306,
                -0.08824975788593292,
                0.0778881311416626,
                0.012343055568635464,
                0.08050518482923508,
                0.08150172978639603,
                0.11843408644199371,
                -0.014128752052783966,
                -0.05216040089726448,
                -0.06762414425611496,
                0.00853973999619484,
                -0.023553909733891487,
                -0.12085283547639847,
                0.08913592249155045,
                -0.034829165786504745,
                0.04901992529630661,
                -0.0021168706007301807,
                -0.03075518272817135,
                0.09130153805017471,
                -0.07154210656881332,
                0.01583491638302803,
                -0.03447873890399933,
                0.06528720259666443,
                -0.09046749770641327,
                0.10088925063610077,
                0.11812391132116318,
                0.08796630054712296,
                0.04749564826488495,
                0.04654634743928909,
                -0.02833929844200611,
                0.07415198534727097,
                -0.07111702859401703,
                0.08788231760263443,
                -0.06227484345436096,
                -0.07031206041574478,
                -0.0075161391869187355,
                0.023274509236216545,
                0.02879677154123783,
                0.08286979049444199,
                -0.038139708340168,
                -0.09251844137907028,
                -0.010624700225889683,
                -0.017161648720502853,
                -0.09923752397298813,
                -0.05588868632912636,
                0.014294768683612347,
                -0.01596791110932827,
                0.01793758198618889,
                -0.12679454684257507,
                0.11044175922870636,
                -0.005387670826166868,
                -0.07575497776269913,
                -0.04710223898291588,
                0.09202098101377487,
                -0.0404474176466465,
                -0.09435222297906876,
                -0.013873360119760036,
                -0.010472268797457218,
                0.08332804590463638,
                0.03826766088604927,
                -0.07816939055919647,
                -0.04635349288582802,
                -0.06831711530685425,
                -0.10636628419160843,
                -0.017509475350379944,
                -0.0846872478723526,
                0.09021930396556854,
                0.09109608829021454,
                0.05009108781814575,
                0.02810545451939106,
                -0.06700007617473602,
                -0.023990653455257416,
                0.1089513972401619,
                0.09858086705207825,
                0.03933122009038925,
                0.049797799438238144,
                -0.006456009577959776,
                0.0032423408702015877,
                -0.0376964807510376,
                0.05955904349684715,
                0.09327233582735062,
                -0.06687827408313751,
                -0.04740394651889801,
                -0.09992717951536179,
                -0.05229710042476654,
                0.052544157952070236,
                0.006924531422555447,
                0.07293526083230972,
                0.037340644747018814,
                0.06645882874727249,
                0.0799112468957901,
                -0.08442522585391998,
                -0.044576555490493774,
                0.10258506238460541,
                -0.0547681488096714,
                -0.034383129328489304,
                0.05739898234605789,
                0.08119917660951614,
                0.11334660649299622,
                -0.1232151985168457,
                0.027182184159755707,
                0.02381765842437744,
                0.02104724571108818,
                0.022870352491736412,
                0.042015738785266876,
                0.04350251704454422,
                -0.040706817060709,
                0.13321641087532043,
                -0.02435569278895855,
                -0.11297713220119476,
                0.11995940655469894,
                -0.055210575461387634,
                -0.03322412818670273,
                -0.0543636754155159,
                -0.006113528739660978,
                -0.06945572793483734,
                0.12503138184547424,
                0.013870987109839916,
                0.019813980907201767,
                0.048000436276197433,
                -0.08159547299146652,
                0.13085104525089264,
                0.03848081827163696,
                -0.022006545215845108,
                -0.04632357880473137,
                0.14421142637729645,
                0.04710157960653305,
                -0.017320401966571808,
                -0.04877521097660065,
                0.03261394426226616,
                -0.016898151487112045,
                -0.09342296421527863,
                0.0737215057015419,
                0.02666928619146347,
                -0.002908974187448621,
                0.11565966159105301,
                -0.09848874062299728,
                0.05211067199707031,
                0.02507210522890091,
                0.04141204059123993,
                -0.06685018539428711,
                -0.06921297311782837,
                0.023781532421708107,
                0.025440586730837822,
                0.11385270953178406,
                0.03204961493611336,
                -0.08252666145563126,
                0.09968903660774231,
                0.03558468446135521,
                -0.07844186574220657,
                0.03779266029596329,
                0.03543490916490555,
                -0.005520223174244165,
                -0.0779484286904335,
                -0.035609111189842224,
                -0.014970391057431698,
                0.03122546710073948,
                -0.009602081961929798,
                -0.03891858458518982,
                0.04262891411781311,
                -0.042114317417144775,
                -0.0735761895775795,
                -0.05773288756608963,
                0.08142959326505661,
                -0.051198072731494904,
                -0.04280131682753563,
                0.0907692015171051,
                -0.04805608093738556,
                0.03355158492922783,
                0.0835069790482521,
                0.08822218328714371,
                0.17304563522338867,
                0.054790202528238297,
                0.13505060970783234,
                0.029330549761652946,
                0.0468340627849102,
                -0.099065862596035,
                0.09473805129528046,
                -0.01900552399456501,
                0.04758090898394585,
                0.12063746154308319,
                0.09137428551912308,
                0.1035088300704956,
                -0.08161270618438721,
                -0.10951729863882065,
                0.08852513134479523,
                -0.03302786871790886,
                0.07066339254379272,
                -0.007509436924010515,
                0.13531118631362915,
                -0.049493830651044846,
                -0.1071191057562828,
                0.0008944725850597024,
                -0.030379921197891235,
                -0.035983607172966,
                -0.07167571038007736,
                -0.015305137261748314,
                0.04090643674135208,
                -0.06231410428881645,
                -0.04515660181641579,
                -0.06706046313047409,
                0.08118007332086563,
                -0.08322742581367493,
                0.007974854670464993,
                -0.11259843409061432,
                -0.05149117112159729,
                0.026327811181545258,
                -0.057691387832164764,
                0.13240712881088257,
                -0.011595257557928562,
                0.0637354627251625,
                -0.005842365324497223,
                0.08094119280576706,
                -0.10225163400173187,
                0.10033693164587021,
                0.0725785568356514,
                0.0150747736915946,
                -0.06946373730897903,
                -0.026714041829109192,
                0.11734522879123688,
                -0.08966443687677383,
                0.06732034683227539,
                -0.08952786773443222,
                0.1296815276145935,
                -0.014926700852811337,
                -0.09870878607034683,
                -0.08391397446393967,
                0.033176686614751816,
                -0.022426355630159378,
                0.04143763706088066,
                0.05288073793053627,
                -0.0309461560100317,
                0.06221507117152214,
                0.02070830762386322,
                -0.06735208630561829,
                -0.07130543142557144,
                -0.03486809879541397,
                -0.07554888725280762,
                -0.03811591491103172,
                0.08803889155387878,
                0.03548671677708626,
                -0.085923932492733,
                0.007559821475297213,
                0.08561044186353683,
                0.04995883256196976,
                -0.08183076232671738,
                -0.08796891570091248,
                0.003225430380553007,
                0.10716096311807632,
                -0.0031670378521084785,
                0.027073688805103302,
                0.00031153266900219023,
                0.1289423108100891,
                -0.01819017343223095,
                -0.04938812926411629,
                -0.07018031179904938,
                0.0389859601855278,
                -0.013255399651825428,
                0.04184544458985329,
                -0.00704833073541522,
                0.03242069110274315,
                -0.1423124521970749,
                -0.02067681960761547,
                0.11991298198699951,
                -0.017795536667108536,
                -0.08192060887813568,
                -0.09079320728778839,
                -0.08434624969959259,
                -0.0845734104514122,
                0.08060982078313828,
                -0.0649341270327568,
                0.06312993913888931,
                -0.04753662273287773,
                -0.07335907965898514,
                -0.07005415856838226,
                -0.05738843232393265,
                0.043272823095321655,
                0.12189645320177078,
                0.06741081178188324,
                -0.06981125473976135,
                -0.10441428422927856,
                0.11314701288938522,
                -0.006446004845201969,
                0.07313784956932068,
                -0.10466853529214859,
                0.09535371512174606,
                0.04258189722895622,
                0.16517432034015656,
                0.11698295176029205,
                0.07218717783689499,
                0.11678989231586456,
                0.013168513774871826,
                -0.0508355088531971,
                0.019971055909991264,
                0.03064098209142685,
                0.11278606206178665,
                -0.007491142489016056,
                0.11537674069404602,
                -0.09258773177862167,
                -0.08100104331970215,
                0.07657480239868164,
                -0.0800117626786232,
                0.03503071889281273,
                0.08645500987768173,
                0.003795764409005642,
                -0.023275142535567284,
                0.029198959469795227,
                -0.10235640406608582,
                0.12312295287847519,
                0.05257737636566162,
                -0.11709357053041458,
                0.11899689584970474,
                -0.070806585252285,
                -0.056586235761642456,
                0.007708186749368906,
                0.09273041039705276,
                -0.018051285296678543,
                -0.026633189991116524,
                0.016396386548876762,
                0.04994945228099823,
                -0.029225878417491913,
                0.0416637659072876,
                -0.12451007962226868,
                0.07001860439777374,
                0.09688026458024979,
                -0.07494000345468521,
                -0.09722863882780075,
                -0.029770562425255775,
                -0.06310606002807617,
                0.07872162014245987,
                -0.024806102737784386,
                -0.021983688697218895,
                -0.08806892484426498,
                -0.04414017125964165,
                -0.020530322566628456,
                -0.04793611168861389,
                -0.10034149885177612,
                0.0114195067435503,
                0.04109397903084755,
                -0.03190583735704422,
                -0.0616321861743927,
                0.05113614350557327,
                -0.05128128081560135,
                0.10306065529584885,
                -0.10684211552143097,
                -0.08431452512741089,
                0.04467499256134033,
                -0.0008137477561831474,
                -0.10002869367599487,
                0.061047013849020004,
                0.08587522804737091,
                -0.04175752028822899,
                0.10839095711708069,
                -0.12385383248329163,
                0.07645391672849655,
                -0.019336126744747162,
                0.11425451934337616,
                -0.018875014036893845,
                -0.05814838781952858,
                0.041439883410930634,
                0.023813283070921898,
                -0.056935109198093414,
                0.053696408867836,
                -0.07286079227924347,
                0.09531655162572861,
                0.07836134731769562,
                -0.081239253282547,
                -0.054319169372320175,
                -0.03399583324790001,
                0.05922742933034897,
                0.06174366921186447,
                -0.11204763501882553,
                0.0596834272146225,
                -0.0689208135008812,
                0.029541075229644775,
                0.0433930829167366,
                0.09524914622306824,
                -0.11937703937292099,
                -0.08217071741819382,
                -0.014392697252333164,
                0.08003600686788559,
                0.04030118137598038,
                0.0880306214094162,
                0.1256987303495407,
                0.09293994307518005,
                0.10576025396585464,
                -0.06794863194227219,
                0.11294253915548325,
                0.08850503712892532,
                -0.09096865355968475,
                0.03340597823262215,
                0.03608948737382889,
                -0.10314194858074188,
                0.07230670005083084,
                0.010479350574314594,
                0.026910556480288506,
                -0.10717274993658066,
                0.03209545835852623,
                -0.08151284605264664,
                -0.008080300875008106,
                -0.10534600168466568,
                0.0844658762216568,
                0.00759247038513422,
                0.04905957356095314,
                -0.08235254138708115,
                0.07532862573862076,
                -0.10533596575260162,
                0.06298316270112991,
                -0.08959215134382248,
                0.02308286353945732,
                0.02582721598446369,
                -0.09164450317621231,
                0.08392753452062607,
                -0.07253821939229965,
                0.09626930207014084,
                -0.10530433803796768,
                0.03993256390094757,
                -0.05902896448969841,
                0.07031310349702835,
                -0.115106962621212,
                -0.02772282063961029,
                0.12339610606431961,
                0.11601511389017105,
                0.019050436094403267,
                0.12614475190639496,
                0.07253161072731018,
                -0.08959578722715378,
                -0.0785011500120163,
                -0.0018534313421696424,
                -0.028166426345705986,
                0.03471403941512108,
                0.07487618178129196,
                0.04861752688884735,
                -0.05567968636751175,
                -0.0062525575049221516,
                0.11331235617399216,
                0.04808325693011284,
                -0.1259288489818573,
                0.05660354346036911,
                -0.11133015155792236,
                -0.034536197781562805,
                0.08458507061004639,
                0.08042393624782562,
                -0.03150973469018936,
                -0.09467256814241409,
