{"input_shape": [null, 19], "output_shape": [null, 1], "activations": "Relu", "layers.0.weight": [[0.1852850466966629, 0.1357172727584839, -0.13255023956298828, -0.16425150632858276, 0.12064220756292343, -0.099151611328125, 0.03281416371464729, 0.1713217794895172, 0.16901779174804688, 0.2176963835954666, -0.16802377998828888, -0.05178734287619591, 0.09348982572555542, -0.1820775419473648, 0.10792916268110275, 0.20823653042316437, 0.15830478072166443, -0.13058726489543915, -0.057058852165937424], [0.04044805094599724, 0.16884557902812958, 0.07751281559467316, 0.07692217081785202, 0.07779710739850998, -0.1827823668718338, -0.07929596304893494, -0.0007945099496282637, 0.12989073991775513, -0.2054024040699005, 0.15136316418647766, -0.19325798749923706, -0.0131020313128829, 0.11689138412475586, 0.008437138982117176, -0.23199462890625, 0.25420069694519043, -0.08372759819030762, -0.18196189403533936], [-0.1683274507522583, 0.10970982909202576, -0.030667942017316818, 0.20879746973514557, -0.06785546988248825, 0.15067477524280548, 0.15854404866695404, 0.04048560932278633, 0.08697820454835892, 0.12941354513168335, 0.1794440895318985, -0.053019579499959946, -0.21715961396694183, 0.09782419353723526, -0.1100093349814415, 0.16146788001060486, 0.27410662174224854, -0.1781519502401352, 0.12486851215362549], [-0.034844979643821716, 0.05055121332406998, -0.10067911446094513, 0.0026566546875983477, -0.10695534944534302, -0.039387814700603485, 0.1626284122467041, 0.06205235794186592, 0.022730180993676186, -0.11209435015916824, -0.13878098130226135, 0.15293490886688232, -0.11805062741041183, -0.06892742216587067, 0.10882735997438431, 0.06430066376924515, 0.27444276213645935, 0.00577857531607151, 0.3519643247127533], [0.003047270467504859, 0.2192717343568802, 0.0828070193529129, 0.12786926329135895, 0.21886365115642548, 0.054765310138463974, 0.16262629628181458, 0.1619294285774231, 0.12979866564273834, 0.039984602481126785, -0.04238561540842056, -0.10112971067428589, 0.09765470027923584, -0.15643464028835297, -0.12237928062677383, 0.04249303787946701, 0.16813071072101593, 0.17723922431468964, 0.19813457131385803], [0.03930683061480522, -0.17824247479438782, -0.1167057603597641, 0.12922993302345276, 0.12513485550880432, 0.14010478556156158, -0.06230722740292549, -0.20673595368862152, -0.09548072516918182, -0.17312361299991608, -0.1150517463684082, -0.047695331275463104, 0.23276574909687042, 0.16308215260505676, 0.20885847508907318, 0.20530244708061218, -0.06368271261453629, 0.08179018646478653, -0.20688273012638092], [-0.16210444271564484, -0.124082051217556, 0.1737029105424881, 0.1051359623670578, -0.13235782086849213, -0.05369884520769119, 0.20122648775577545, -0.13736176490783691, 0.10638654232025146, -0.127702534198761, -0.13826893270015717, 0.018431557342410088, -0.020807728171348572, -0.10259082168340683, 0.18520301580429077, -0.0780658945441246, 0.18580223619937897, -0.016218138858675957, -0.23222775757312775], [-0.15671561658382416, 0.08763071894645691, -0.017847782000899315, -0.015381842851638794, 0.10376901179552078, -0.13883410394191742, 0.10330336540937424, -0.01839829422533512, -0.13032333552837372, -0.19638313353061676, 0.1208045706152916, -0.08502379804849625, -0.06411247700452805, 0.012156889773905277, -0.17269469797611237, -0.18642865121364594, 0.22851340472698212, -0.025645289570093155, 0.0658160075545311], [-0.20928604900836945, -0.20179592072963715, -0.0808979943394661, -0.01023651659488678, -0.043182700872421265, -0.06575030833482742, -0.07950164377689362, 0.026892034336924553, 0.17084412276744843, -0.06265158951282501, -0.17960049211978912, -0.15117700397968292, -0.18072088062763214, 0.20048770308494568, 0.15912757813930511, 0.12690269947052002, -0.12107507139444351, 0.2472650557756424, -0.14676351845264435], [-0.16187246143817902, -0.16414664685726166, 0.044663574546575546, -0.15242838859558105, -0.15086767077445984, -0.07273600250482559, 0.10560689866542816, 0.07280950993299484, 0.07079356163740158, -0.015597639605402946, 0.01754073239862919, -0.05765079706907272, 0.1188710480928421, 0.14270783960819244, -0.11038237810134888, -0.21162572503089905, -0.14276418089866638, -0.15234452486038208, 0.05914401635527611], [0.11872933059930801, 0.214039608836174, -0.07381997257471085, 0.22104164958000183, 0.1356935054063797, -0.10053352266550064, 0.07791950553655624, 0.10893647372722626, -0.1921997368335724, -0.049265503883361816, 0.07256206125020981, 0.08574770390987396, -0.05180509015917778, -0.041600119322538376, -0.05054279416799545, 0.1274382472038269, 0.17217469215393066, -0.0569939985871315, -0.09365681558847427], [-0.08733071386814117, 0.12254352867603302, 0.06247657164931297, -0.16595584154129028, 0.16052287817001343, -0.19430750608444214, -0.06197585538029671, -0.23856031894683838, 0.13218627870082855, -0.04490794986486435, -0.12174399942159653, -0.010139845311641693, -0.14217284321784973, -0.10522730648517609, -0.013139289803802967, -0.12998636066913605, 0.19489946961402893, 0.15965183079242706, 0.22818773984909058], [-0.22836633026599884, 0.1482515186071396, -0.24713650345802307, 0.12926742434501648, -0.10629881918430328, 0.0971912071108818, 0.129208505153656, 0.16099023818969727, -0.1679908037185669, 0.11648019403219223, 0.04889090359210968, -0.030204536393284798, 0.2498001605272293, -0.22655141353607178, 0.13406705856323242, -0.029940113425254822, 0.008705142885446548, 0.17591464519500732, -0.27810347080230713], [-0.08673344552516937, 0.11394136399030685, -0.0285048708319664, -0.2275208979845047, 0.051639627665281296, -0.209554061293602, 0.12643477320671082, 0.15194104611873627, -0.00041329898522235453, 0.1933855563402176, 0.07579732686281204, 0.07191333174705505, 0.06538794934749603, -0.05553198605775833, 0.09970243275165558, -0.0945504680275917, 0.04674214497208595, -0.17352502048015594, -0.07333016395568848], [-0.19142834842205048, -0.015152398496866226, 0.22636009752750397, -0.12485950440168381, -0.14012515544891357, 0.04449215903878212, 0.1661195456981659, 0.2340049296617508, 0.018958477303385735, 0.10755731165409088, 0.020472392439842224, 0.1787870079278946, 0.007355882320553064, 0.10949654877185822, 0.12136709690093994, 0.11844193935394287, -0.004863504320383072, -0.14136672019958496, -0.12837375700473785], [-0.06529922783374786, 0.01151513122022152, -0.1793927550315857, -0.17832684516906738, 0.21780087053775787, -0.036702271550893784, 0.1171242743730545, 0.15867209434509277, -0.03094337321817875, -0.11970940977334976, 0.059366315603256226, 0.16227759420871735, -0.019798021763563156, -0.22948506474494934, 0.14977698028087616, -0.16571883857250214, -0.047809433192014694, -0.08147462457418442, -0.17852655053138733], [0.14370720088481903, -0.08315200358629227, 0.06404782831668854, -0.20089256763458252, -0.07551300525665283, 0.11811015754938126, -0.09032613784074783, -0.1566500961780548, 0.22218506038188934, -0.03446559980511665, -0.0359991192817688, 0.10937333852052689, -0.01053342130035162, 0.16500744223594666, -0.1292244791984558, -0.07538492232561111, 0.19922401010990143, -0.037375129759311676, -0.10245194286108017], [0.19325613975524902, 0.014173353090882301, 0.03508330509066582, 0.14949165284633636, 0.1338949203491211, 0.08638572692871094, -0.12456076592206955, 0.14947283267974854, 0.16368746757507324, 0.054887719452381134, -0.09312451630830765, -0.09563212841749191, 0.12311150133609772, 0.11640917509794235, 0.21418727934360504, -0.0597071573138237, -0.2186821550130844, 0.10113713890314102, 0.26045194268226624], [-0.17276574671268463, 0.036724843084812164, -0.12914516031742096, 0.2259664237499237, -0.23038139939308167, -0.20336109399795532, -0.1987500786781311, -0.22724029421806335, 0.17534297704696655, -0.13174575567245483, 0.12215737253427505, -0.05416814610362053, -0.13542404770851135, -0.171328604221344, 0.14515729248523712, 0.07227141410112381, -0.30594930052757263, -0.2491922825574875, -0.10361917316913605], [0.027112485840916634, -0.1199006512761116, 0.11712052673101425, 0.03733018413186073, -0.17591585218906403, 0.1423504799604416, -0.23361097276210785, 0.1881645768880844, -0.011650001630187035, 0.1103525161743164, 0.2159770280122757, -0.10864946246147156, 0.04598264768719673, 0.1557742953300476, -0.10907191783189774, 0.05495008826255798, -0.31109559535980225, 0.18597015738487244, -0.265130877494812], [-0.16732943058013916, 0.044369038194417953, -0.10131801664829254, 0.01567094400525093, -0.07838782668113708, 0.1568666696548462, 0.2172994613647461, -0.1817796528339386, -0.06057332083582878, 0.17546744644641876, 0.007581468205899, -0.017503507435321808, -0.15781523287296295, -0.12073768675327301, 0.05739946663379669, 0.17221632599830627, -0.1073908731341362, 0.20002612471580505, -0.072322316467762], [0.02135874144732952, 0.15137584507465363, -0.07586237788200378, -0.05343657359480858, 0.025456229224801064, 0.1177375391125679, -0.1012033149600029, -0.06197592243552208, 0.0586269311606884, -0.06395300477743149, 0.1740402728319168, 0.19057190418243408, 0.14960090816020966, 0.011920945718884468, -0.20164471864700317, 0.10467366874217987, 0.1586896777153015, -0.12272442132234573, -0.06574353575706482], [0.17381668090820312, 0.20900124311447144, -0.14113272726535797, 0.22883127629756927, -0.23690930008888245, -0.061250098049640656, -0.16968606412410736, -0.0976986438035965, -0.10706984251737595, 0.11011268198490143, 0.08152632415294647, -0.1482832133769989, -0.10867396742105484, 0.19376268982887268, 0.030291805043816566, 0.1835305094718933, -0.19979767501354218, 0.04732079803943634, -0.20209363102912903], [0.10460097342729568, -0.20249012112617493, -0.0836174413561821, -0.14863014221191406, 0.008772037923336029, 0.12314403057098389, -0.18395021557807922, 0.1767866164445877, -0.10291222482919693, -0.23370569944381714, -0.027911266312003136, 0.019509121775627136, 0.10584592819213867, 0.19587518274784088, 0.028009546920657158, 0.006444207858294249, 0.1045021191239357, -0.185356006026268, -0.21302536129951477], [-0.23732317984104156, 0.12223765254020691, -0.020232917740941048, -0.19242356717586517, 0.062370602041482925, 0.04852460324764252, 0.006308268290013075, 0.05346885696053505, -0.11354205757379532, 0.2414277344942093, 0.17785775661468506, -0.2332208752632141, -0.11377590894699097, -0.0900469571352005, 0.11052310466766357, 0.147557333111763, -0.06546133011579514, -0.17827636003494263, 0.16212275624275208], [-0.20773480832576752, -0.21863403916358948, 0.018838612362742424, 0.2174074947834015, 0.1367429494857788, -0.02431059442460537, 0.09866517782211304, -0.05153664946556091, 0.039748821407556534, 0.0562448725104332, 0.22962048649787903, -0.08200368285179138, 0.05845308303833008, 0.04051629826426506, 0.13595981895923615, -0.05782706290483475, 0.25599369406700134, -0.17079876363277435, -0.34403273463249207], [-0.053497616201639175, 0.1409662514925003, -0.1956574022769928, -0.1515827625989914, 0.06749556213617325, -0.057042405009269714, 0.14402872323989868, -0.1968739628791809, 0.05710287764668465, 0.048969995230436325, -0.1288805902004242, 0.1116383895277977, 0.19543911516666412, -0.1340741366147995, -0.0433315634727478, 0.15130886435508728, -0.06870406866073608, -0.18683487176895142, 0.006144185550510883], [0.22270804643630981, -0.08020862191915512, 0.12715163826942444, -0.19635549187660217, -0.012537375092506409, -0.17350660264492035, 0.04348124563694, 0.1774168163537979, -0.10301169008016586, -0.22192203998565674, 0.20483043789863586, -0.21989382803440094, 0.06805684417486191, -0.14528734982013702, -0.20918458700180054, 0.020697545260190964, 0.10860627144575119, 0.23472142219543457, 0.06962422281503677], [-0.17331060767173767, -0.14850933849811554, -0.09533754736185074, -0.12866759300231934, 0.1697237491607666, 0.03215614706277847, -0.10838726907968521, -0.03369438648223877, -0.037803154438734055, 0.19239318370819092, 0.08563874661922455, -0.1835569590330124, 0.019986825063824654, 0.1911604255437851, 0.00325010041706264, -0.2217262089252472, -0.2829858064651489, -0.16125616431236267, -0.2755810618400574], [0.16033120453357697, 0.07871972769498825, -0.11982282996177673, -0.014896247535943985, 0.22561834752559662, 0.07786469906568527, -0.10778824239969254, -0.08032746613025665, 0.1386929750442505, -0.16965575516223907, 0.05363092198967934, -0.1414373368024826, -0.1759745329618454, -0.15949974954128265, 0.0713634118437767, 0.12484800815582275, -0.10059293359518051, -0.13721396028995514, 0.03445360064506531], [0.02000580169260502, 0.13669796288013458, 0.22711941599845886, 0.008485127240419388, 0.11074885725975037, 0.17594923079013824, -0.05428618565201759, 0.100993812084198, 0.0639832392334938, -0.07180078327655792, 0.10835619270801544, -0.18950259685516357, -0.0062576159834861755, -0.1688731163740158, 0.0912487804889679, -0.15378130972385406, 0.04206950590014458, 0.004712349269539118, -0.171245738863945], [-0.220764622092247, 0.06966061145067215, 0.12457694113254547, -0.11541029065847397, -0.17427799105644226, -0.002259422093629837, 0.1097581684589386, 0.07331826537847519, 0.059449292719364166, -0.11902008205652237, -0.0030427430756390095, -0.21327561140060425, -0.10688838362693787, 0.14307458698749542, 0.14865988492965698, 0.1467258185148239, 0.2570149302482605, -0.25265344977378845, 0.01997474953532219], [-0.17060978710651398, 0.10548201948404312, 0.033201321959495544, 0.2218843400478363, 0.19900986552238464, 0.17046351730823517, -0.005002044141292572, 0.19805021584033966, 0.2349073886871338, 0.17517724633216858, 0.07340043038129807, 0.08396819978952408, -0.14974717795848846, 0.07450655102729797, -0.17074154317378998, 0.06243070960044861, -0.04146485775709152, 0.24468877911567688, -0.12735724449157715], [-0.11766134947538376, -0.027426477521657944, 0.16205978393554688, 0.09730124473571777, -0.12290157377719879, 0.10080278664827347, 0.2114938348531723, 0.018219348043203354, 0.15385779738426208, -0.10778786987066269, -0.17906968295574188, -0.03947457671165466, -0.0650678277015686, -0.11828997731208801, 0.17442913353443146, -0.18832485377788544, -0.14320866763591766, 0.2443944364786148, -0.2703907787799835], [-0.1821705400943756, -0.0172958355396986, -0.22374938428401947, 0.1783427596092224, -0.07170428335666656, 0.1801203340291977, -0.11649689078330994, -0.12360266596078873, -0.018625546246767044, 0.2030325084924698, -0.19096912443637848, -0.22379916906356812, 0.1013612225651741, 0.004868419375270605, -0.07146843522787094, -0.03641383722424507, -0.024762848392128944, 0.16892589628696442, 0.10118113458156586], [-0.050592485815286636, 0.16363996267318726, -0.13027560710906982, 0.08180545270442963, 0.026632405817508698, -0.10601192712783813, -0.20531107485294342, -0.11573389172554016, 0.21163621544837952, -0.17538274824619293, -0.19328723847866058, -0.21176490187644958, 0.011315613985061646, 0.16722257435321808, 0.20186443626880646, 0.15652699768543243, 0.2555965185165405, 0.1761956661939621, 0.010880300775170326], [-0.05906954035162926, -0.20507484674453735, -0.0049751438200473785, 0.10948321223258972, 0.15818144381046295, 0.22785986959934235, -0.017936958000063896, 0.11676842719316483, -0.0644054189324379, -0.21860481798648834, -0.029495852068066597, 0.07430756837129593, 0.20595094561576843, -0.04837317019701004, -0.017546657472848892, 0.1269151121377945, -0.15946950018405914, -0.05846384912729263, -0.1199214980006218], [-0.07032158970832825, 0.16303952038288116, 0.06450505554676056, -0.07121258229017258, -0.049698784947395325, -0.05144583061337471, 0.16879089176654816, -0.2146415412425995, -0.15451902151107788, -0.06653763353824615, 0.20351575314998627, 0.2013450711965561, -0.20737861096858978, 0.08863753825426102, -0.21189771592617035, 0.19534966349601746, 0.17804285883903503, -0.18503472208976746, 0.08110727369785309], [-0.07434609532356262, -0.22290654480457306, 0.023162927478551865, -0.15588369965553284, -0.12243424355983734, -0.02286311611533165, -0.14616891741752625, -0.19318817555904388, -0.018611008301377296, 0.11600860953330994, -0.10753222554922104, 0.08602548390626907, 0.18459178507328033, 0.022242242470383644, -0.17328296601772308, -0.16661560535430908, 0.14055189490318298, -0.1711546629667282, 0.300597608089447], [0.11972151696681976, 0.0871630609035492, 0.010631830431520939, -0.011331475339829922, -0.01406407542526722, -0.2274259775876999, 0.17115281522274017, -0.22629624605178833, 0.23076997697353363, 0.1636524647474289, 0.20967552065849304, -0.08501206338405609, -0.1290493756532669, 0.11925087869167328, 0.035412609577178955, -0.08442161232233047, 0.08034462481737137, 0.07106119394302368, 0.15549564361572266], [0.19602632522583008, 0.1572839766740799, -0.09843890368938446, -0.18519087135791779, -0.06965318322181702, -0.03402206674218178, 0.1333676278591156, 0.21599562466144562, 0.11314120888710022, -0.07580410689115524, -0.0321822315454483, -0.09102599322795868, -0.23929478228092194, -0.18412445485591888, 0.038550328463315964, -0.06374476104974747, 0.1418447047472, -0.2864096760749817, -0.27100473642349243], [0.20074865221977234, 0.1556745320558548, 0.21812653541564941, -0.17083165049552917, -0.15226711332798004, 0.06190970167517662, 0.19060230255126953, -0.13583125174045563, -0.17878538370132446, -0.21724970638751984, 0.20054695010185242, -0.19490519165992737, 0.1141936406493187, -0.18143156170845032, -0.18673814833164215, -0.08348537981510162, 0.2082393616437912, 0.28674349188804626, 0.01676517352461815], [-0.09528808295726776, 0.04851367697119713, -0.1641935408115387, -0.06972347944974899, -0.19070984423160553, 0.06460526585578918, 0.13347652554512024, -0.12478292733430862, 0.0744781643152237, -0.1543717384338379, -0.08926159888505936, -0.026557113975286484, -0.07475965470075607, 0.22387263178825378, -0.06091864034533501, 0.13222333788871765, 0.05411887168884277, -0.1102522611618042, 0.13829322159290314], [0.0024954539258033037, -0.03722132742404938, 0.1152089387178421, 0.03899475559592247, 0.2277940809726715, -0.06272336095571518, 0.012385133653879166, -0.1289997100830078, 0.20417481660842896, -0.12685871124267578, -0.14250244200229645, -0.10756119340658188, -0.09019866585731506, 0.19658389687538147, -0.07981085032224655, -0.05707009881734848, -0.17297910153865814, 0.15799172222614288, 0.1284339427947998], [0.022338811308145523, 0.19249500334262848, 0.14450471103191376, 0.21740536391735077, -0.1448879987001419, 0.1394592672586441, -0.04402868077158928, -0.0919213816523552, 0.19687557220458984, -0.15051886439323425, -0.21794873476028442, 0.12288712710142136, 0.08240635693073273, 0.10082962363958359, -0.10624140501022339, -0.024945534765720367, 0.049125153571367264, -0.15106931328773499, 0.21391423046588898], [0.17084644734859467, 0.1983732432126999, 0.1709044873714447, 0.17375752329826355, -0.18493957817554474, -0.016682513058185577, -0.19923359155654907, -0.19106782972812653, 0.08573778718709946, 0.14072346687316895, -0.004874702077358961, -0.035036757588386536, -0.14013293385505676, -0.228964164853096, -0.05077480897307396, 0.046375665813684464, -0.010194364003837109, 0.25765517354011536, 0.05266451835632324], [0.1064067929983139, -0.11820799112319946, -0.2177049070596695, -0.08896055817604065, -0.06418076902627945, -0.13299775123596191, 0.04089738056063652, -0.033824995160102844, 0.2381356954574585, -0.09931470453739166, 0.08991173654794693, -0.16294525563716888, 0.08774961531162262, -0.15759122371673584, 0.140044704079628, 0.1228441372513771, 0.25718897581100464, 0.11637710779905319, 0.05828710272908211], [-0.049487125128507614, 0.08423298597335815, 0.1550276279449463, 0.15436619520187378, 0.0021289370488375425, -0.006284486036747694, 0.22065861523151398, -0.17379730939865112, 0.08143959939479828, -0.08652590960264206, 0.22121794521808624, -0.06448152661323547, -0.14533984661102295, 0.15664109587669373, 0.010714788921177387, 0.04049935191869736, 0.1688716858625412, 0.21930615603923798, 0.146002858877182], [-0.20282156765460968, -0.16332338750362396, -0.10146595537662506, -0.03348320350050926, 0.13385425508022308, 0.04681165888905525, 0.14102521538734436, 0.1418861448764801, -0.02786203660070896, -0.20324920117855072, 0.007088670041412115, -0.16589824855327606, -0.061543259769678116, 0.2282285988330841, 0.11342675983905792, 0.12184903770685196, -0.16138218343257904, -0.17009465396404266, 0.09804593026638031], [0.06599149852991104, 0.14005158841609955, -0.2357276976108551, -0.12848955392837524, 0.04749156907200813, -0.18418048322200775, 0.1530986726284027, 0.14205831289291382, -0.048977240920066833, -0.14256909489631653, -0.07168038189411163, 0.20122821629047394, -0.13402074575424194, 0.04975996911525726, 0.1338370442390442, -0.0161192175000906, -0.2737015187740326, -0.10962589830160141, 0.1541311889886856], [0.1701531559228897, -0.17800214886665344, 0.023605819791555405, 0.22020547091960907, 0.14562742412090302, 0.19208462536334991, -0.16489776968955994, -0.07285235077142715, -0.13253627717494965, -0.17370456457138062, 0.0137369055300951, 0.1819695681333542, 0.08592255413532257, 0.009868421591818333, 0.002484084339812398, 0.06892918050289154, -0.18051066994667053, 0.21603137254714966, 0.3375355303287506], [-0.03188149258494377, -0.11918379366397858, -0.13761034607887268, 0.05549629032611847, 0.013197997584939003, -0.08788391202688217, -0.16338731348514557, -0.12636703252792358, 0.14953260123729706, -0.1955857276916504, -0.09428280591964722, -0.17141614854335785, 0.05166368559002876, 0.04841811954975128, -0.07566577196121216, 0.012966574169695377, -0.18522429466247559, 0.20709794759750366, 0.020562410354614258], [-0.0968906506896019, 0.06429201364517212, -0.0983274057507515, 0.0657777488231659, -0.14014363288879395, 0.037903375923633575, -0.016908474266529083, 0.06242898851633072, 0.14207784831523895, -0.025036385282874107, -0.11480022966861725, 0.1472766101360321, 0.10299313068389893, 0.0026576498057693243, 0.047664809972047806, -0.21463093161582947, 0.21159404516220093, -0.14699646830558777, -0.22550252079963684], [-0.09708430618047714, -0.18148404359817505, 0.044200170785188675, -0.1309710592031479, -0.11917302012443542, -0.22463500499725342, 0.11855196952819824, -0.10874249786138535, 0.17924167215824127, 0.11517713218927383, 0.06242300197482109, 0.18897666037082672, 0.016355544328689575, -0.08944503217935562, -0.20861291885375977, -0.09170976281166077, -0.02910258062183857, -0.10063140839338303, 0.2234688252210617], [0.15593725442886353, -0.17996881902217865, -0.011695675551891327, 0.1375160664319992, -0.030309611931443214, -0.14449340105056763, 0.2184055894613266, 0.020943809300661087, -0.07631657272577286, -0.02126201055943966, 0.16986137628555298, 0.11896146833896637, 0.1171099841594696, 0.045030031353235245, 0.15370915830135345, -0.08136333525180817, -0.12580806016921997, -0.2334417998790741, 0.07574145495891571], [-0.087835893034935, 0.2034950852394104, -0.03014877252280712, 0.05736955627799034, -0.024968136101961136, -0.049770113080739975, 0.040601179003715515, 0.15841302275657654, -0.09268581122159958, -0.10133365541696548, 0.06807828694581985, -0.14284951984882355, -0.044365983456373215, -0.08219907432794571, -0.2056874930858612, -0.11787468940019608, -0.1770746260881424, -0.1262269765138626, 0.18891137838363647], [0.06358721107244492, -0.10520142316818237, 0.20594827830791473, 0.15924455225467682, 0.08000807464122772, 0.16905522346496582, -0.20782247185707092, -0.12228313833475113, 0.006850229110568762, 0.041763175278902054, 0.11623795330524445, -0.022064734250307083, 0.03050353191792965, 0.1482163667678833, 0.15109051764011383, 0.16887521743774414, -0.04243859648704529, -0.236941859126091, 0.12229420244693756], [-0.06704642623662949, -0.07527181506156921, 0.1149861216545105, 0.003837518859654665, 0.23496279120445251, -0.17169533669948578, 0.19835703074932098, 0.15194277465343475, -0.05726476013660431, -0.21542415022850037, 0.041509922593832016, -0.09787029772996902, 0.1687885820865631, -0.20216447114944458, 0.02685791440308094, 0.008788751438260078, 0.05095089226961136, 0.2231650948524475, 0.07524733990430832], [0.06795893609523773, -0.18634651601314545, -0.11951467394828796, 0.21692270040512085, 0.21249252557754517, 0.030105944722890854, -0.1569633185863495, -0.21933498978614807, 0.21281743049621582, 0.09659683704376221, -0.21755415201187134, 0.15109333395957947, 0.19800376892089844, 0.09776461869478226, -0.18992489576339722, 0.08740932494401932, 0.2057766616344452, -0.16782057285308838, -0.11372178047895432], [0.20603959262371063, 0.04941495507955551, 0.006750583183020353, -0.17155678570270538, -0.15664921700954437, -0.161598801612854, -0.19279128313064575, 0.060751184821128845, -0.03790835291147232, -0.18072424829006195, 0.15252096951007843, -0.051945846527814865, -0.06845205277204514, 0.12227355688810349, 0.12778475880622864, 0.1580422818660736, -0.08332415670156479, 0.2362697422504425, -0.28623899817466736], [-0.07240678369998932, -0.03868548199534416, -0.025242071598768234, -0.02818748541176319, 0.11487678438425064, -0.2297065407037735, 0.09581242501735687, 0.04238897189497948, 0.14981786906719208, -0.13786999881267548, 0.1555180847644806, -0.2195795476436615, 0.11466310173273087, 0.1333625316619873, 0.1159854307770729, -0.1348990947008133, 0.1722663789987564, 0.31229913234710693, 0.0173701923340559], [-0.06428304314613342, 0.21980851888656616, 0.16194888949394226, 0.08431829512119293, -0.026303449645638466, 0.027761973440647125, -0.03441544249653816, 0.05529952794313431, 0.08104991912841797, 0.15281236171722412, 0.02933746762573719, -0.16379229724407196, 0.12178008258342743, -0.15220870077610016, -0.03434910625219345, 0.05748295411467552, 0.31069689989089966, -0.11205504089593887, -0.20766687393188477], [0.10158438235521317, -0.0955742746591568, 0.06980101019144058, 0.20879635214805603, 0.12381469458341599, -0.21147942543029785, -0.1640515923500061, -0.06506311148405075, -0.05428566411137581, 0.202510267496109, -0.005637898109853268, 0.16858594119548798, -0.22683893144130707, 0.1647946983575821, -0.07490448653697968, -0.1995837688446045, 0.04656108468770981, 0.1497660130262375, 0.34089013934135437], [-0.03169569373130798, 0.09546081721782684, -0.05774066969752312, 0.20796167850494385, 0.13612717390060425, -0.20743738114833832, -0.03712964802980423, 0.07225960493087769, -0.05578899011015892, 0.008471519686281681, -0.1264747530221939, -0.01911223866045475, 0.22412413358688354, -0.03217703104019165, 0.09148545563220978, -0.17955924570560455, -0.04172302410006523, -0.09377758949995041, 0.07821734249591827]], "layers.0.weight_shape": [64, 19], "layers.0.bias": [0.13792726397514343, -0.036477427929639816, -0.20128300786018372, -0.0008187281782738864, 0.15163204073905945, -0.16913701593875885, -0.08449622243642807, -0.19272781908512115, -0.10541005432605743, 0.14379125833511353, 0.022662192583084106, -0.012765536084771156, 0.07748335599899292, -0.023295242339372635, 0.2514645457267761, -0.042723946273326874, -0.20750309526920319, 0.16478806734085083, -0.10264921188354492, 0.09009993076324463, 0.21962329745292664, -0.07211244851350784, -0.02489110454916954, -0.16432254016399384, -0.15389896929264069, -0.0734696015715599, 0.24275162816047668, 0.061310775578022, 0.21107499301433563, 0.1352439522743225, -0.04613058641552925, -0.1139289140701294, 0.1748526394367218, -0.11127130687236786, 0.015385651960968971, -0.05091193690896034, 0.14436781406402588, 0.018265336751937866, -0.007871276699006557, -0.07445508241653442, 0.0021278869826346636, 0.14813756942749023, 0.025879349559545517, 0.09299905598163605, -0.19186775386333466, 0.21064843237400055, -0.005264637526124716, 0.07670184224843979, -0.0627904087305069, -0.1751226931810379, -0.2233428657054901, -0.11996118724346161, 0.22267532348632812, 0.13837963342666626, 0.19687657058238983, 0.0960419774055481, 0.10631106048822403, 0.13484244048595428, 0.10422863811254501, 0.16088123619556427, -0.12893672287464142, 0.16624629497528076, -0.11168329417705536, 0.12226556241512299], "layers.0.bias_shape": [64], "layers.2.weight": [[0.012459507212042809, 0.01509612612426281, -0.09738824516534805, 0.06496252119541168, -0.04134534299373627, -0.09005679935216904, -0.014290749095380306, 0.10838180035352707, -0.04492557421326637, -0.10402427613735199, -0.0565611757338047, -0.09205926954746246, -0.0901685431599617, 0.0933040976524353, 0.06577266752719879, 0.05125515162944794, -0.020006602630019188, 0.07575386017560959, -0.038445789366960526, 0.07632745802402496, -0.03671771287918091, 0.047572214156389236, 0.03470870107412338, 0.10939415544271469, -0.09741821140050888, -0.08394547551870346, -0.06780669093132019, 0.07374104112386703, 0.049533452838659286, -0.11837548017501831, -0.04094347357749939, -0.11726841330528259, 0.017438998445868492, -0.0019045054214075208, -0.01881801150739193, -0.08859959244728088, -0.016139723360538483, 0.012422015890479088, -0.09470196068286896, -0.02495664544403553, 0.0621836856007576, 0.060153666883707047, 0.005862564314156771, 0.0678880363702774, 0.04940114542841911, 0.12004461139440536, -0.07922302931547165, 0.0009516905411146581, 0.0257656741887331, -0.07220736891031265, -0.08633594959974289, 0.05572812631726265, 0.1479557901620865, 0.016906242817640305, -0.08815725147724152, 0.09871383756399155, -0.0312475748360157, -0.019184280186891556, 0.053287941962480545, -0.07791855931282043, 0.03615853935480118, 0.0707806721329689, 0.03416135534644127, -0.062438253313302994], [0.08050544559955597, -0.03955092653632164, -0.02716185338795185, -0.01818191260099411, 0.16610074043273926, 0.02014792151749134, 0.12999747693538666, -0.15662766993045807, -0.039374787360429764, 0.09865615516901016, 0.06804750114679337, 0.013174040243029594, 0.2321305125951767, -0.17444774508476257, -0.12882381677627563, 0.04157405346632004, 0.021507812663912773, 0.028526488691568375, -0.03128878399729729, -0.0034690476022660732, 0.06078183278441429, 0.10736752301454544, -0.06992235779762268, 0.10217883437871933, 0.09693269431591034, 0.01822890341281891, 0.047795772552490234, 0.025929225608706474, 0.13142989575862885, 0.005632722284644842, 0.08440868556499481, 0.1859387904405594, -0.11678403615951538, 0.03913359344005585, 0.0644756630063057, -0.028107251971960068, 0.07170448452234268, 0.07849416881799698, -0.05823000147938728, -0.1487281620502472, -0.06594438850879669, 0.13497716188430786, -0.08778998255729675, -0.036907874047756195, 0.03647879511117935, -0.07377299666404724, -0.03253729268908501, -0.13854259252548218, -0.13957948982715607, -0.12646616995334625, 0.05888528376817703, 0.07022550702095032, 0.13070355355739594, -0.07238027453422546, 0.01946774683892727, 0.026340527459979057, 0.02008388563990593, 0.021915024146437645, 0.025474028661847115, 0.10062407702207565, 0.019874706864356995, 0.22119633853435516, 0.07174418121576309, 0.02095605991780758], [0.0358569510281086, -0.09454839676618576, -0.012526359409093857, -0.10411256551742554, 0.02745162323117256, 0.1195693239569664, -0.08480940014123917, 0.0943126305937767, -0.02430000714957714, 0.02008070796728134, -0.014360855333507061, -0.022609872743487358, 0.047094523906707764, -0.011174440383911133, -0.08110664039850235, 0.0866711437702179, -0.07918120920658112, -0.10618927329778671, 0.07744137197732925, 0.07710574567317963, -0.0847441554069519, -0.08437125384807587, 0.04018475487828255, -0.1017071083188057, 0.16567300260066986, 0.05644312873482704, 0.04142473265528679, -0.0019043264910578728, -0.08697061985731125, 0.11425138264894485, -0.09236164391040802, -0.10469203442335129, -0.03926011547446251, 0.016967013478279114, -0.06012372672557831, 0.06133566051721573, 0.0976424366235733, 0.08247827738523483, 0.1089940220117569, -0.0397052988409996, -0.053893908858299255, -0.05813843384385109, 0.015571665950119495, 0.0688454806804657, 0.052828557789325714, -0.01863141730427742, -0.12833663821220398, -0.05331828072667122, -0.11782309412956238, 0.10248181968927383, 0.0667831227183342, -0.0767919048666954, -0.016225486993789673, 0.04367201030254364, -0.03974376991391182, 0.05142028257250786, 0.06908738613128662, 0.049614544957876205, -0.12184460461139679, 0.0641912966966629, -0.06933838129043579, -0.08258961141109467, 0.11254554986953735, -0.014666152186691761], [-0.10215112566947937, 0.046425629407167435, 0.011494683101773262, -0.11285383254289627, -0.07669255137443542, -0.019370028749108315, 0.003095571417361498, -0.04123275727033615, 0.039231766015291214, -0.01062340009957552, 0.0007046054233796895, 0.11125081777572632, 0.10738112777471542, 0.10299816727638245, -0.025273822247982025, -0.08577925711870193, -0.036233361810445786, 0.002556541236117482, 0.12302684038877487, 0.02976802922785282, 0.10223768651485443, -0.03866024315357208, -0.04279819503426552, 0.032709479331970215, 0.037295036017894745, 0.12280541658401489, 0.13113278150558472, -0.12247148901224136, -0.047093670815229416, -0.01746865175664425, 0.05009148642420769, 0.05127696692943573, -0.029295988380908966, 0.03467300161719322, 0.04302561655640602, 0.0738644227385521, 0.09130638837814331, 0.1021689921617508, 0.10086113959550858, -0.10264012217521667, -0.15330158174037933, -0.09424860030412674, 0.01216057874262333, -0.1248333603143692, -0.06417516618967056, 0.059601519256830215, -0.07155650109052658, 0.04770861193537712, -0.09488726407289505, 0.08605705946683884, -0.08803730458021164, 0.051079463213682175, 0.12001845240592957, -0.04752449318766594, 0.027379633858799934, 0.021335629746317863, 0.0992715060710907, 0.00030387259903363883, 0.024962350726127625, 0.05700105428695679, -0.027630476281046867, 0.04527087137103081, -0.05132229998707771, 0.07471422106027603], [-0.047670137137174606, -0.07835232466459274, 0.027489226311445236, 0.08366832137107849, 0.036201827228069305, -0.04995666816830635, 0.13013982772827148, -0.15646541118621826, 0.06804287433624268, -0.0638808012008667, -0.018135713413357735, 0.1015954539179802, -0.11252310872077942, -0.02543235570192337, 0.04710651934146881, -0.11886940896511078, -0.047011591494083405, 0.07133364677429199, -0.0018271059961989522, 0.10064737498760223, -0.08727230131626129, 0.0002939499099738896, -0.025683771818876266, -0.07002348452806473, 0.1015242487192154, -0.09423959255218506, -0.04768005758523941, -0.06362807005643845, 0.07129699736833572, -0.07363052666187286, -0.12738101184368134, -0.07874123752117157, 0.0880112424492836, 0.041314106434583664, 0.012830198742449284, -0.0543401762843132, -0.10601720958948135, -0.09125170111656189, -0.03373260051012039, -0.015214372426271439, 0.042119912803173065, -0.09697273373603821, -0.07131338119506836, -0.10813494771718979, 0.06359292566776276, 0.040591049939394, -0.08367530256509781, 0.11217352747917175, 0.08748450130224228, -0.09992622584104538, -0.10587141662836075, 0.08209655433893204, -0.06363551318645477, 0.057920172810554504, -0.12307357043027878, -0.10565485805273056, 0.06563733518123627, -0.04515799134969711, 0.08941240608692169, 0.09391207247972488, -0.10832956433296204, -0.07225724309682846, -0.06525060534477234, 0.11632303148508072], [-0.06472727656364441, -0.04873066768050194, 0.07525153458118439, -0.09305096417665482, 0.05249858275055885, 0.08419179916381836, -0.1283072978258133, -0.02287294715642929, -0.11318706721067429, -0.044298332184553146, -0.0988914892077446, 0.05397304147481918, 0.06063457578420639, -0.037944696843624115, 0.055306073278188705, 0.04859168082475662, -0.10858728736639023, 0.005512700881808996, 0.1299794614315033, 0.08752202242612839, 0.02348336949944496, -0.10029834508895874, 0.060390450060367584, -0.060683995485305786, -0.049978628754615784, -0.07402605563402176, 0.0372585766017437, 0.012907582335174084, 0.052188050001859665, 0.03597661852836609, -0.07506297528743744, -0.14025188982486725, -0.054337892681360245, -0.08888228982686996, 0.046836599707603455, 0.0013390213716775179, 0.05422350764274597, 0.0621391236782074, 0.09612667560577393, -0.08626281470060349, -0.016231799498200417, -0.09916206449270248, 0.0756942480802536, 0.025879988446831703, -0.0605921633541584, 0.01534624956548214, -0.09071241319179535, -0.07966011017560959, 0.012199997901916504, 0.015803353860974312, -0.026671580970287323, 0.12945491075515747, -0.08594871312379837, -0.01703689619898796, -0.09619114547967911, 0.10208817571401596, -0.08166694641113281, -0.0049050720408558846, -0.006608996074646711, 0.04040296748280525, 0.08183519542217255, -0.08506336808204651, 0.11863170564174652, 0.10224704444408417], [0.09297429770231247, 0.09556850045919418, 0.018447566777467728, 0.022982144728302956, 0.04470956698060036, -0.06903000921010971, 0.07785584777593613, -0.03858949989080429, 6.838577974122018e-05, 0.0050852433778345585, -0.02193903736770153, 0.08192382752895355, 0.03098909929394722, -0.07323902100324631, 0.06163801625370979, -0.00930843222886324, -0.0072676436975598335, 0.11770476400852203, 0.09868630766868591, 0.12568266689777374, 0.09667735546827316, 0.011506827548146248, 0.02009611204266548, -0.024598699063062668, 0.08341724425554276, 0.07669997960329056, -0.030839446932077408, 0.1271556168794632, 0.0007850477122701705, 0.13202811777591705, 0.06483317911624908, 0.002577180275693536, 0.13260571658611298, -0.028378067538142204, 0.11213512718677521, -0.12193303555250168, 0.10113732516765594, -0.10813314467668533, 0.028269119560718536, 0.06263057887554169, 0.09874041378498077, -0.06279028952121735, -0.08207802474498749, 0.09394881129264832, 0.05775192007422447, 0.020064331591129303, 0.11937877535820007, 0.08894029259681702, -0.10247503221035004, -0.08724745362997055, -0.07106903940439224, 0.0395178347826004, -0.0914498120546341, 0.01625797152519226, 0.06710176914930344, -0.04448317736387253, -0.04401035234332085, -0.06036001071333885, 0.029204901307821274, 0.02071947604417801, -0.1039215698838234, 0.09882836788892746, 0.011257660575211048, 0.0664515346288681], [0.07244908064603806, -0.057595741003751755, -0.018052279949188232, -0.12125932425260544, 0.03568090870976448, 0.029299931600689888, 0.11425035446882248, -0.07954824715852737, 0.001641443115659058, -0.05909108370542526, 0.08334098756313324, 0.10870125144720078, -0.04589829966425896, -0.015877164900302887, -0.06077145040035248, 0.016616199165582657, 0.002260061213746667, 0.1084851622581482, 0.0667630210518837, 0.06352478265762329, -0.004595576319843531, 0.025444895029067993, -0.12413223087787628, -0.009300737641751766, 0.13925394415855408, -0.11196911334991455, 0.03379528969526291, 0.12210848182439804, -0.0007722640293650329, -0.0913117378950119, 0.0862884670495987, 0.05543828010559082, -0.11859653145074844, 0.08796200156211853, 0.10852839797735214, 0.061518508940935135, 0.02459859475493431, -0.020423347130417824, 0.11055123805999756, -0.07563480734825134, 0.09763829410076141, 0.06667747348546982, 0.03941664099693298, -0.10734348744153976, 0.027109626680612564, -0.07324947416782379, -0.0972905233502388, 0.10479193925857544, -0.10363101959228516, -0.006518866401165724, -0.07859908789396286, 0.08280643075704575, -0.06887879222631454, -0.012044844217598438, 0.10548485070466995, -0.023742426186800003, -0.10902496427297592, -0.11304017901420593, -0.05996372923254967, -0.046683065593242645, -0.012013141997158527, -0.03289063274860382, -0.04593779891729355, -0.02586340345442295], [-0.02309652604162693, 0.005631111562252045, 0.0845739096403122, 0.06396689265966415, 0.03947485610842705, 0.05878043919801712, -0.12145567685365677, 0.06819286942481995, -0.0687604621052742, 0.06220737472176552, -0.09351687878370285, 0.007803438231348991, -0.1145981103181839, 0.055462148040533066, -0.01205113623291254, -0.040303491055965424, 0.010533918626606464, -0.08675282448530197, -0.030046217143535614, 0.09734577685594559, -0.025562215596437454, 0.09032092988491058, 0.04249683767557144, -0.054665856063365936, 0.049343522638082504, 0.09657992422580719, -0.11270418763160706, 0.02580718882381916, 0.13820159435272217, 0.09490463882684708, 0.16259166598320007, -0.06145324930548668, 0.03549131378531456, -0.04719581827521324, 0.010875493288040161, -0.1331278532743454, 0.12195999175310135, 0.0716744214296341, 0.03702891618013382, -0.09729614108800888, -0.06933634728193283, 0.06466304510831833, 0.09631375223398209, 0.02609528973698616, -0.12355471402406693, 0.04017078876495361, 0.1106499657034874, -0.0191330648958683, 0.06015283614397049, -0.0815504789352417, 0.06405951827764511, -0.007773406337946653, -0.1241077110171318, -0.11117666214704514, -0.0008459814707748592, 0.11296290904283524, -0.05573581904172897, 0.11637172847986221, -0.017538702115416527, -0.09471286088228226, -0.009335154667496681, 0.009602882899343967, -0.09639323502779007, 0.11882926523685455], [0.07276920974254608, -0.06474460661411285, -0.04217391461133957, 0.0887945219874382, -0.027015000581741333, 0.06845832616090775, -0.09917079657316208, 0.12107741087675095, 0.002052059629932046, 0.02017504908144474, -0.01075415313243866, 0.05884340777993202, 0.05005578324198723, 0.04047352820634842, -0.0017765088705345988, 0.056472115218639374, 0.045450713485479355, 0.03223194554448128, 0.06841336935758591, 0.07568150758743286, 0.0913875475525856, -0.055269453674554825, 0.049207642674446106, -0.07463214546442032, 0.019745783880352974, -0.061939679086208344, 0.08635256439447403, 0.03980153426527977, -0.07358202338218689, 0.04032227396965027, -0.036413952708244324, -0.08942391723394394, -0.01407433021813631, -0.06482401490211487, -0.06481611728668213, -0.049867894500494, 0.04959981143474579, 0.011579453945159912, 0.09181448072195053, -0.06619001924991608, 0.016792714595794678, 0.1297275274991989, -0.04960837960243225, 0.11799155920743942, 0.07793349772691727, 0.11459076404571533, 0.04512687772512436, -0.07728048413991928, -0.07453316450119019, -0.005337824113667011, 0.14274118840694427, -0.12010154873132706, -0.029027031734585762, -0.11773716658353806, -0.07642392814159393, 0.11130467802286148, -0.008922482840716839, 0.0007249118061736226, -0.08742749691009521, -0.07004326581954956, 0.1028875783085823, -0.07345423102378845, 0.06887587159872055, -0.008991566486656666], [-0.08877275139093399, -0.03419389948248863, 0.0333949513733387, 0.0668787732720375, 0.009253596886992455, -0.0416162870824337, -0.08254972845315933, -0.10963626205921173, 0.02812826633453369, 0.13258124887943268, -0.009618915617465973, -0.03510423004627228, 0.10298015177249908, 0.13161788880825043, -0.0102973822504282, -0.08370081335306168, -0.08608454465866089, 0.0069319214671850204, 0.030168766155838966, -0.032399047166109085, 0.05746814236044884, 0.01574293151497841, -0.1077849417924881, 0.007589638698846102, 0.03397895395755768, 0.07803262025117874, -0.08761721104383469, 0.06262300908565521, 0.04679784178733826, 0.059746913611888885, 0.09084559977054596, -0.05350036174058914, 0.13894356787204742, -0.02538011223077774, 0.01001037284731865, -0.008814459666609764, 0.03582431748509407, 0.10076210647821426, -0.1212412640452385, -0.0986170694231987, -0.04296638071537018, -0.08813153207302094, -0.11537102609872818, 0.052447035908699036, -0.11791777610778809, -0.059951052069664, -0.055663757026195526, 0.02533716708421707, 0.002526717958971858, -0.08403775840997696, 0.0005661416798830032, -0.09250102937221527, 0.041006900370121, 0.09716340899467468, 0.08567613363265991, 0.06885266304016113, -0.10105358809232712, -0.004369177855551243, 0.12355545163154602, 0.12260325998067856, -0.11039629578590393, 0.045891229063272476, 0.024661732837557793, 0.10092534869909286], [0.07774709910154343, 0.07684513181447983, -0.08037632703781128, -0.05180126801133156, 0.018128080293536186, 0.053054098039865494, -0.03633521497249603, 0.09578264504671097, -0.012980620376765728, -0.026694322004914284, -0.058555811643600464, 0.10228637605905533, -0.07870570570230484, -0.0345986932516098, -0.13519081473350525, 0.004171328153461218, -0.052119459956884384, -0.07504751533269882, 0.08764800429344177, -0.040200863033533096, -0.01620691455900669, 0.11460240930318832, 0.0023905376438051462, -0.1198226734995842, -0.04347076639533043, 0.11668048053979874, -0.07469429075717926, 0.11296464502811432, -0.16341036558151245, 0.09112463146448135, -0.01330195926129818, 0.004392610397189856, 0.04240291193127632, 0.03762693330645561, 0.11324098706245422, -0.04551355540752411, 0.007374496664851904, -0.0852610170841217, 0.06518276780843735, -0.0301100704818964, 0.07045388966798782, -0.013835739344358444, -0.04964427277445793, -0.10332702100276947, 0.0651264637708664, 0.12491200119256973, -0.018755830824375153, -0.11299432069063187, -0.12878136336803436, -0.05328327417373657, -0.07191155105829239, 0.1076725572347641, 0.11152271181344986, 0.09012262523174286, 0.11937517672777176, 0.03131020814180374, 0.026551293209195137, 0.06587358564138412, -0.019281985238194466, -0.09823523461818695, 0.07828802615404129, -0.12517094612121582, -0.0610860250890255, -0.03380288928747177], [0.008580436930060387, -0.03201662003993988, -0.050230398774147034, 0.0072909994050860405, 0.1508309692144394, -0.024859968572854996, -0.008116107434034348, -0.026254836469888687, 0.03227126970887184, 0.07446324825286865, 0.018395522609353065, -0.1143537387251854, -0.08070025593042374, -0.025566786527633667, 0.008072610013186932, -0.07407820969820023, 0.0796876773238182, 0.10152458399534225, 0.13069109618663788, 0.00117410346865654, 0.09690890461206436, -0.046532537788152695, 0.042564935982227325, 0.027519525960087776, 0.17249955236911774, 0.042542774230241776, 0.10991566628217697, -0.11186518520116806, -0.11301418393850327, -0.07731983810663223, 0.015540205873548985, 0.07086925208568573, -0.001666079624556005, -0.09389226883649826, 0.0338747501373291, -0.09479793161153793, 0.14819689095020294, -0.030157769098877907, -0.08178237080574036, -0.09853760153055191, -0.11031878739595413, 0.1341172158718109, 0.07310884445905685, 0.011472503654658794, -0.10574443638324738, 0.07482750713825226, -0.06933418661355972, 0.06198805943131447, -0.11131373792886734, 0.010238094255328178, 0.09262991696596146, 0.07205308973789215, -0.07305384427309036, -0.05615507811307907, -0.05534184351563454, -0.006088014226406813, -0.07628104835748672, 0.03396875411272049, -0.05477896332740784, -0.03768151253461838, 0.052316125482320786, -0.02053447999060154, -0.032871443778276443, -0.03863128274679184], [0.026463007554411888, -0.09856965392827988, 0.06913942843675613, -0.10297740995883942, -0.09876257926225662, 0.06697619706392288, -0.10535652190446854, 0.010236324742436409, -0.10574290156364441, 0.03244706988334656, 0.04325389489531517, -0.05156896263360977, 0.014313333667814732, 0.03620470315217972, -0.05683143064379692, -0.029737776145339012, 0.0475233756005764, 0.08169197291135788, -0.03131621330976486, -0.002495164517313242, 0.11174261569976807, -0.11693879961967468, 0.09540858119726181, -0.08045103400945663, 0.049841634929180145, 0.11953267455101013, -0.035236652940511703, 0.0307302288711071, -0.000931647140532732, -0.06446465104818344, -0.1492229849100113, 0.038985639810562134, -0.08306816965341568, -0.07582496851682663, 0.0013602760154753923, 0.085655078291893, 0.061326537281274796, 0.08478228747844696, 0.03555348515510559, -0.014237937517464161, 0.08196209371089935, -0.01694529503583908, 0.10749053210020065, -0.04698585718870163, 0.09674810618162155, -0.018741769716143608, -0.13008302450180054, 0.12004441022872925, 0.044072072952985764, 0.08839581906795502, -0.01196750532835722, 0.07839664816856384, -0.0584794245660305, 0.04226893186569214, 0.029741698876023293, -0.12242905050516129, -0.07646802812814713, 0.07327158749103546, -0.06624499708414078, 0.11630891263484955, -0.09699540585279465, 0.0952298566699028, 0.10958285629749298, 0.008578956127166748], [-0.09292647987604141, -0.03552760183811188, 0.0479622483253479, 0.07988016307353973, 0.0822661742568016, 0.025601036846637726, 0.03568585216999054, 0.035213571041822433, 0.017508085817098618, 0.02919931709766388, 0.048112284392118454, 0.025438988581299782, -0.09331433475017548, 0.00508748646825552, 0.04027673229575157, 0.059423498809337616, 0.02586928755044937, 0.09520862996578217, 0.04087396338582039, -0.05010651424527168, 0.018748154863715172, 0.11583639681339264, 0.10097360610961914, 0.0864841490983963, 0.06283147633075714, -0.04334064573049545, -0.02844146452844143, 0.07977697998285294, 0.018448151648044586, -0.09005407243967056, -0.08410990983247757, -0.043708086013793945, -0.004506353288888931, 0.09051251411437988, 0.059420906007289886, -0.10698570311069489, -0.08105084300041199, -0.06528136879205704, -0.08730647712945938, 0.06159567832946777, -0.05282758176326752, -0.10214646905660629, 0.0031404427718371153, -0.00058821274433285, -0.10704728960990906, 0.0032038879580795765, -0.00782910268753767, -0.04723607748746872, -0.11043961346149445, 0.09348797053098679, 0.03190525621175766, -0.04944133758544922, 0.055562593042850494, 0.042444393038749695, 0.07221010327339172, -0.08991243690252304, 0.049983054399490356, -0.055379386991262436, -0.1195608451962471, -0.017086589708924294, 0.05495753511786461, 0.1400345116853714, 0.009830925613641739, 0.08767909556627274], [0.04574569687247276, 0.07368133962154388, 0.12115421891212463, 0.214445099234581, 0.14758162200450897, 0.09742163866758347, 0.0172260832041502, 0.07250433415174484, 0.007338706403970718, -0.10301133245229721, 0.02331359125673771, -0.05329390987753868, 0.04805326461791992, 0.02346821501851082, 0.05172491818666458, 0.08732717484235764, -0.10625850409269333, 0.11254210770130157, 0.06601820141077042, 0.0059119523502886295, -0.11518998444080353, 0.04189451411366463, 0.07147461175918579, 0.0948055237531662, 0.005072949919849634, -0.11158323287963867, -0.07120444625616074, 0.11606988310813904, -0.030532076954841614, 0.12348006665706635, 0.1273345649242401, -0.06354434788227081, -0.056039631366729736, 0.025587361305952072, -0.008923747576773167, -0.06442087143659592, 0.024158528074622154, -0.08323315531015396, -0.049218542873859406, -0.03658171370625496, 0.1492118388414383, 0.09396202862262726, 0.11469751596450806, 0.008029147982597351, -0.004418017342686653, -0.08387091755867004, 0.14230945706367493, -0.08612912148237228, -0.048537883907556534, -0.08412360399961472, 0.06467866152524948, -0.12689648568630219, 0.09091386198997498, -0.0005632785614579916, -0.009744268842041492, -0.04213597998023033, -0.02855268120765686, 0.1103738322854042, -0.11123320460319519, -0.07533358782529831, 0.09395977854728699, 0.05244569852948189, -0.04785675182938576, -0.07720619440078735], [0.011877712793648243, 0.08596844971179962, -0.09157456457614899, -0.05703398585319519, -0.08846724778413773, 0.08977867662906647, -0.04743307828903198, -0.10711829364299774, -0.004746758379042149, -0.06744173169136047, 0.0020322364289313555, -0.09417082369327545, 0.08192829042673111, -0.17171071469783783, -0.0462830550968647, -0.02643684111535549, -0.039726126939058304, 0.0018256183248013258, -0.09196790307760239, 0.10015350580215454, -0.01309876423329115, 0.11372426897287369, 0.08101457357406616, 0.15933194756507874, 0.0433196946978569, 0.16598211228847504, 0.09279563277959824, -0.05266344174742699, 0.06549466401338577, -0.08012761920690536, -0.015383847989141941, -0.10784643143415451, -0.12711872160434723, -0.005171477794647217, 0.0976855605840683, -0.09004592150449753, 0.09321340918540955, 0.06485269218683243, 0.12389328330755234, 0.0603567473590374, -0.03490569442510605, -0.09722129255533218, 0.019390050321817398, 0.016853198409080505, 0.10544759780168533, 0.03726722300052643, 0.1348082274198532, -0.10167727619409561, -0.039309196174144745, 0.027797261252999306, -0.09743243455886841, -0.031143654137849808, 0.01539336983114481, -0.08966574817895889, -0.028673183172941208, 0.1294565051794052, -0.0986974835395813, 0.04876885935664177, 0.10236992686986923, 0.08387619256973267, 0.11296343803405762, 0.02387256920337677, -0.10091396421194077, 0.01555882953107357], [-0.12035228312015533, -0.09207197278738022, 0.07973365485668182, -0.011201739311218262, -0.05448570102453232, -0.045573096722364426, -0.021012671291828156, -0.020516758784651756, -0.03784571588039398, -0.03999857231974602, -0.06296336650848389, -0.02966492809355259, -0.06529104709625244, -0.07561463117599487, 7.987137360032648e-05, 0.0023514300119131804, -0.062423668801784515, -0.0578116811811924, -0.04610055685043335, -0.04250944033265114, -0.0840734988451004, 0.10932601243257523, -0.022371700033545494, 0.0900038406252861, -0.015362748876214027, -0.015197022818028927, 0.09199218451976776, 0.12914752960205078, -0.07808959484100342, 0.1637582778930664, 0.07773613184690475, -0.057045772671699524, -0.0012323918053880334, 0.10998859256505966, 0.06592963635921478, 0.03309190273284912, -0.0800306424498558, 0.06405080854892731, 0.08058804273605347, 0.11995593458414078, 0.04922618716955185, 0.08364681899547577, 0.03804461285471916, -0.06888068467378616, -0.09882960468530655, -0.1069471538066864, -0.03881625086069107, -0.11657077819108963, 0.12343045324087143, 0.04521915316581726, 0.0700090304017067, -0.04888805001974106, -0.031188685446977615, 0.06648572534322739, 0.11794938892126083, 0.08245609700679779, 0.13772888481616974, 0.0734417513012886, -0.06952571123838425, 0.09881197661161423, -0.026353873312473297, 0.0031034788116812706, 0.125044584274292, -0.09295981377363205], [0.054850272834300995, 0.10224346816539764, 0.08170400559902191, 0.11250867694616318, 0.09155408293008804, -0.1374634951353073, 0.007687243167310953, -0.06523078680038452, -0.09350108355283737, -0.012419811449944973, 0.03872813656926155, -0.07530193030834198, -0.026101013645529747, 0.12833674252033234, 0.02975291758775711, 0.05175035074353218, 0.11187636107206345, 0.04084471985697746, -0.004969255533069372, -0.11286041885614395, -0.05053182691335678, -0.10724011063575745, -0.07125236839056015, -0.011823051609098911, 0.07740359753370285, 0.044516488909721375, -0.10251180082559586, 0.047503214329481125, 0.17186902463436127, 0.17000915110111237, 0.0887434259057045, 0.1533035933971405, -0.024312090128660202, 0.06705570966005325, 0.02736550383269787, 0.015148350037634373, -0.00810763519257307, 0.0580228790640831, -0.14521682262420654, -0.03067273646593094, 0.040635909885168076, -0.04384452849626541, -0.025038965046405792, -0.0010859235189855099, -0.10321889817714691, -0.046364542096853256, -0.07931813597679138, 0.04916217178106308, -0.08262517303228378, -0.07897969335317612, -0.07018699496984482, -0.04862005263566971, -0.10609002411365509, 0.013933122158050537, 0.1189473569393158, -0.009123542346060276, 0.013767819851636887, 0.10090126097202301, 0.04741678386926651, -0.03874129056930542, 0.12411829084157944, 0.14638236165046692, -0.013947328552603722, 0.004961710423231125], [-0.05547334998846054, 0.10953647643327713, -0.037418071180582047, -0.06508300453424454, 0.052091311663389206, 0.04591047763824463, 0.0900513231754303, -0.011535686440765858, 0.09207884967327118, -0.02988719381392002, 0.0529983788728714, -0.06028934195637703, 0.034100085496902466, -0.09473277628421783, 0.11958146095275879, 0.012229274958372116, -0.05795212835073471, 0.005524123087525368, -0.03631320223212242, -0.035697150975465775, -0.031048888340592384, -0.10929910838603973, -0.06663864850997925, 0.03511983901262283, 0.01835915632545948, -0.02286001294851303, 0.036637477576732635, -0.011255569756031036, 0.11712093651294708, 0.05710849538445473, -0.012644080445170403, -0.06938868761062622, 0.027456369251012802, -0.015574576333165169, -0.019696252420544624, 0.05055537447333336, 0.030924763530492783, -0.049226824194192886, -0.06990497559309006, 0.1012374609708786, 0.1468992531299591, 0.065998874604702, 0.01047474890947342, -0.04991988465189934, -0.06025915965437889, 0.08863148093223572, 0.04419355466961861, -0.006697982549667358, 0.061063140630722046, -0.02894911728799343, -0.041478123515844345, -0.11924219131469727, 0.008929810486733913, 0.1125112771987915, -0.030144965276122093, 0.03843492269515991, 0.12166588008403778, 0.053671080619096756, 0.01056565623730421, -0.033473797142505646, 0.03162883222103119, 0.011595815420150757, 0.02919182740151882, 0.04539065435528755], [0.060846585780382156, -0.06189092993736267, -0.0860062837600708, -0.012169010937213898, -0.02723599225282669, 0.01852707378566265, 0.08447252213954926, 0.09559420496225357, 0.0768834725022316, -0.11754962056875229, -0.05382446572184563, -0.07163543999195099, 0.1151961162686348, 0.100399911403656, -0.05104841664433479, -0.04720580577850342, 0.04647347703576088, -0.12590216100215912, 0.12258844077587128, -0.11252859234809875, -0.019898176193237305, 0.11464999616146088, 0.11268378794193268, 0.041022107005119324, 0.04874430224299431, -0.08134482800960541, -0.00428408570587635, -0.10843436419963837, 0.04941656067967415, 0.08879215270280838, -0.05354921147227287, -0.02663799747824669, 0.09924338757991791, 0.009084300138056278, 0.023022804409265518, 0.08151073753833771, -0.07877838611602783, 0.09994001686573029, -0.06073442101478577, 0.09954898804426193, -0.015423154458403587, 0.04380912333726883, -0.1007777526974678, -0.07152970880270004, 0.028951890766620636, -0.015601439401507378, 0.11525654792785645, -0.029466385021805763, -0.11245240271091461, -0.06653070449829102, 0.08563628792762756, 0.10457650572061539, -0.07372217625379562, -0.055599942803382874, -0.031027033925056458, 0.11412853002548218, 0.006098763085901737, 0.04938257858157158, 0.0984843298792839, 0.12769688665866852, -0.06740514189004898, 0.0756947323679924, 0.0025502473581582308, 0.09360095858573914], [0.0939977690577507, -0.03540297970175743, -0.038027700036764145, 0.036547280848026276, -0.11796335130929947, -0.056338727474212646, 0.09721439331769943, 0.056701745837926865, -0.01772243157029152, 0.03474397957324982, 0.042657479643821716, 0.12108411639928818, 0.09558700770139694, 0.1067173033952713, 0.007072172127664089, -0.10233605653047562, 0.0213747788220644, -0.0037936510052531958, -0.022559024393558502, 0.018645823001861572, 0.010336216539144516, 0.01669074036180973, -0.08115468919277191, 0.030588660389184952, 0.03974556922912598, -0.12617605924606323, 0.09738938510417938, -0.13068263232707977, -0.02837507240474224, -0.10489358007907867, 0.05500079691410065, -0.10002748668193817, -0.039211712777614594, -0.12436428666114807, 0.009531917050480843, 0.07013458758592606, 0.10542070120573044, -0.09583263844251633, 0.012732551433146, 0.032589614391326904, 0.06412673741579056, 0.10658930987119675, 0.03732044994831085, -0.05912448838353157, 0.03496405482292175, 0.10292396694421768, -0.1040792390704155, -0.10015609860420227, -0.11362839490175247, -0.006818982306867838, 0.12663733959197998, -0.038862086832523346, 0.06197003647685051, 0.07607369869947433, -0.08467165380716324, 0.0018524578772485256, 0.07467179000377655, -0.044863663613796234, -0.042354516685009, -0.1310422122478485, -0.04241218790411949, -0.06158152595162392, 0.015159404836595058, -0.06309596449136734], [-0.07104190438985825, 0.09155993908643723, -0.012836760841310024, 0.011914053931832314, -0.013681614771485329, 0.0993221253156662, -0.06282686442136765, 0.09277869015932083, -0.013398583978414536, -0.1101417988538742, 0.041340719908475876, -0.13278624415397644, 0.04000941663980484, 0.0950973629951477, 0.02359703741967678, -0.07912798225879669, -0.060284797102212906, -0.026318339630961418, 0.10810057073831558, 0.058466847985982895, 0.039532918483018875, -0.057892631739377975, 0.028000928461551666, 0.033499643206596375, -0.10395625978708267, 0.0610639862716198, -0.0638868659734726, -0.01535095926374197, -0.07548514008522034, -0.12409397214651108, -0.029508695006370544, -0.07408832013607025, 0.04982273653149605, 0.09068524092435837, -0.01445415522903204, 0.07504583150148392, 0.07041118294000626, 0.06775583326816559, -0.04885994642972946, -0.08991691470146179, 0.07411318272352219, 0.0053212326020002365, 0.04633195325732231, -0.039427805691957474, 0.08248353749513626, -0.02971726655960083, 0.032568857073783875, 0.0619979090988636, -0.04646249860525131, 0.03258882090449333, 0.13429135084152222, 0.09232725203037262, 0.023481398820877075, 0.06780774891376495, 0.08258374780416489, 0.10366343706846237, -0.08650994300842285, -0.0979955866932869, -0.08020159602165222, 0.10106754302978516, 0.03297438472509384, 0.08793189376592636, 0.014509838074445724, 0.01885623298585415], [0.027285141870379448, 0.04221882298588753, -0.014004318974912167, 0.02272241748869419, -0.1515255570411682, 0.09669332206249237, 0.10403400659561157, 0.01418499555438757, -0.09671283513307571, -0.022394485771656036, -0.12665314972400665, 0.03887905180454254, -0.012577837333083153, -0.12608109414577484, -0.008865428157150745, 0.06613495200872421, -0.017882639542222023, 0.0933743566274643, -0.08644316345453262, -0.10951504111289978, 0.05993352457880974, 0.013837285339832306, 0.055567193776369095, 0.06411423534154892, -0.04335542768239975, -0.07306405156850815, -0.0948634073138237, -0.11609476804733276, -0.014232429675757885, -0.042204443365335464, -0.03896366432309151, 0.06241995841264725, -0.023214517161250114, -0.13472935557365417, 0.12096485495567322, -0.1203622817993164, 0.08427520841360092, 0.0011262294137850404, -0.015682687982916832, -0.022787824273109436, -0.08049435168504715, -0.03052385337650776, 0.06934953480958939, -0.003403829876333475, 0.10853283107280731, -0.062917061150074, 0.08891811221837997, 0.03693903982639313, 0.04609499126672745, -0.14122217893600464, -0.11538172513246536, -0.026066258549690247, 0.11554278433322906, 0.008502144366502762, -0.014036193490028381, -0.11852510273456573, 0.0723881870508194, 0.031690049916505814, 0.08785015344619751, -0.02456751838326454, 0.0839361920952797, -0.1022784411907196, 0.03384152799844742, 0.07583949714899063], [-0.03700453042984009, 0.002226653043180704, 0.06396780163049698, 0.08075989782810211, -0.03027518466114998, -0.08660532534122467, -0.059644438326358795, 0.06682534515857697, -0.08918117731809616, -0.023892957717180252, -0.11139549314975739, 0.011028163135051727, 0.1282508373260498, -0.05976718291640282, -0.06485696136951447, -0.03393498808145523, 0.02260580286383629, 0.09776598960161209, -0.008743510581552982, -0.12399794906377792, 0.0648292526602745, 0.033315252512693405, -0.036795228719711304, 0.05482872202992439, -0.035556454211473465, -0.12553511559963226, 0.020555857568979263, 0.10059847682714462, -0.1118178591132164, -0.0891834944486618, -0.02375214360654354, -0.03900887444615364, -0.126728817820549, 0.008265132084488869, 0.12385924905538559, 0.11094855517148972, 0.006607064511626959, -0.044628605246543884, 0.09863637387752533, -0.05477634444832802, -0.00720461830496788, 0.011098776943981647, 0.09451941400766373, -0.04302000254392624, 0.026205116882920265, 0.03658073768019676, 0.04207160696387291, 0.05469689145684242, -0.11910650134086609, 0.11558520048856735, 0.012599888257682323, 0.044515565037727356, 0.03207551687955856, 0.10283263027667999, 0.07310708612203598, 0.10626853257417679, -0.11295301467180252, -0.054475292563438416, 0.037041205912828445, -0.11044314503669739, 0.10160805284976959, -0.07715795189142227, 0.08587966859340668, -0.0701373741030693], [0.1162223070859909, 0.10548434406518936, -0.07189670950174332, 0.0894765555858612, -0.008343363180756569, 0.045502256602048874, -0.03233719617128372, 0.11849027872085571, -0.053502120077610016, 0.07188769429922104, 0.0289921872317791, 0.060135893523693085, 0.046987198293209076, -0.11324303597211838, 0.07333315163850784, -0.0960751473903656, -0.040397342294454575, -0.017285600304603577, -0.04717676341533661, -0.04845279082655907, 0.0562087818980217, 0.09583786875009537, 0.005594993010163307, 0.06637340784072876, 0.04652518033981323, 0.04956776276230812, -0.05311698839068413, 0.021999405696988106, -0.04796815291047096, 0.10440592467784882, -0.006742752622812986, 0.013453962281346321, 0.04523352161049843, -0.017467623576521873, -0.03676415607333183, 0.0635957270860672, -0.0594375804066658, -0.07761093229055405, 0.02820073999464512, -0.08518865704536438, 0.03746332228183746, 0.04523101821541786, 0.07148370891809464, 0.06498834490776062, 0.021781226620078087, -0.00790854636579752, 0.08723144978284836, -0.1146726980805397, -0.16567301750183105, -0.07139308750629425, 0.004129703622311354, 0.03062591701745987, 0.10121171921491623, 0.024324165657162666, 0.013084253296256065, 0.08213942497968674, 0.10770123451948166, -0.09444257616996765, 0.07173525542020798, -0.07393435388803482, -0.09605618566274643, -0.014778164215385914, -0.0936845913529396, 0.025441834703087807], [0.03873775899410248, 0.12381348013877869, -0.1134171411395073, -0.13985280692577362, -0.07397498190402985, -0.11798720061779022, 0.03402599319815636, 0.11675571650266647, -0.017696639522910118, -0.07348895072937012, 0.04176647216081619, 1.0962205124087632e-05, -0.03265650197863579, -0.04921875521540642, -0.11353930085897446, 0.07008801400661469, -0.05844031646847725, 0.0002146861224900931, 0.020123904570937157, 0.01091072242707014, 0.016013460233807564, 0.028635725378990173, 0.10918161273002625, 0.1049235537648201, -0.14419099688529968, -0.10733902454376221, -0.09392635524272919, 0.08612960577011108, 0.08632799237966537, 0.10666026920080185, -0.015283714048564434, -0.05908145383000374, -0.1333056092262268, -0.02792748436331749, -0.0414443276822567, -0.1032690554857254, 0.05013453960418701, 0.03932669386267662, 0.09931204468011856, -0.07811038196086884, -0.07116326689720154, 0.11781205981969833, -0.08842957764863968, -0.005817354191094637, -0.06175735220313072, -0.05848808214068413, 0.04982837662100792, 0.0027930899523198605, -0.07463939487934113, 0.02251657284796238, 0.012303508818149567, -0.11813738942146301, 0.03505607694387436, 0.05725235119462013, -0.08054955303668976, -0.10887452214956284, -0.002049373695626855, -0.0827450305223465, 0.08160053193569183, 0.0005729629774577916, 0.021569130942225456, -0.029550129547715187, 0.1138085275888443, -0.08481139689683914], [0.09845311939716339, -0.048950981348752975, -0.019797753542661667, -0.08612830191850662, 0.04639464616775513, -0.09987861663103104, 0.1107061505317688, 0.10117792338132858, 0.042585041373968124, -0.011744476854801178, 0.1424618810415268, 0.020348727703094482, 0.05402432009577751, 0.09318729490041733, -0.056673888117074966, 0.03283361345529556, 0.09670217335224152, -0.10724546760320663, -0.050710637122392654, -0.07288261502981186, 0.11308421939611435, 0.14541736245155334, -0.07660721242427826, -0.07915531098842621, 0.0600578673183918, 0.027953460812568665, 0.0951162651181221, -0.08609016984701157, -0.18148337304592133, -0.04672536253929138, 0.009512150660157204, 0.015028099529445171, -0.11248156428337097, 0.040484629571437836, 0.06130591034889221, -0.02452136017382145, 0.008952658623456955, -0.08016228675842285, 0.017973797395825386, 0.047408778220415115, -0.02005334384739399, -0.020082945004105568, 0.005521535407751799, -0.12068520486354828, -0.03938401862978935, -0.11981124430894852, 0.030753275379538536, -0.06628287583589554, -0.072503462433815, -0.12558883428573608, 0.06877649575471878, 0.06785330176353455, 0.059908464550971985, -0.041374728083610535, 0.08081942796707153, 0.06094584986567497, 0.009387058205902576, -0.05582123622298241, 0.12330037355422974, 0.09977833181619644, 0.006560826674103737, -0.05091850459575653, 0.09811973571777344, 0.018833672627806664], [-0.10109062492847443, 0.09174507856369019, -0.05887854844331741, 0.09837672114372253, 0.15044140815734863, -0.09026969224214554, -0.007856730371713638, -0.004756544716656208, 0.04606969654560089, 0.06148848310112953, -0.009998968802392483, -0.07619587332010269, -0.03356894105672836, 0.022920047864317894, 0.14213231205940247, 0.04512467980384827, -0.029962103813886642, 0.1282614916563034, 0.002380382502451539, -0.09985607862472534, 0.027917150408029556, -0.08478438854217529, 0.03024711087346077, 0.07328779995441437, -0.13507792353630066, 0.016083553433418274, 0.0579216331243515, 0.05865921825170517, 0.15736635029315948, 0.08891315013170242, 0.009288056753575802, 0.02896394580602646, 0.07730098813772202, -0.00994530227035284, -0.06834316998720169, 0.07118813693523407, 0.058798812329769135, 0.021141212433576584, -0.011107035912573338, -0.09997296333312988, 0.13639961183071136, -0.020044365897774696, 0.013048548251390457, 0.063663050532341, 0.05067584663629532, 0.07066535204648972, 0.005258806049823761, -0.05945815145969391, 0.06912662833929062, -0.07783504575490952, 0.09098364412784576, -0.09346160292625427, 0.009571586735546589, 0.020756306126713753, 0.00165658351033926, -0.10132906585931778, 0.12557893991470337, 0.09122435003519058, -0.09211563318967819, 0.0394582599401474, -0.01996232569217682, -0.06563635915517807, 0.05271036550402641, -0.004660951904952526], [0.08428653329610825, 0.13860918581485748, -0.06861511617898941, -0.059556517750024796, -0.11897992342710495, -0.008705154992640018, -0.09752089530229568, -0.032142069190740585, -0.0762837827205658, -0.030978510156273842, -0.04212697595357895, 0.03474761173129082, 0.09520294517278671, 0.020888185128569603, 0.021475397050380707, -0.0004612375923898071, 0.05202597752213478, 0.10895264893770218, 0.1292722225189209, -0.02760988660156727, 0.035366617143154144, 0.14696632325649261, 0.031111717224121094, 0.06149379536509514, 0.05952738597989082, 0.05767693370580673, 0.0965554490685463, 0.011914013884961605, -0.006598497740924358, -0.05470139533281326, -0.16602542996406555, 0.04025248810648918, -0.12594766914844513, -0.09218898415565491, -0.10453125834465027, 0.020395426079630852, 0.07224512100219727, 0.06880071014165878, 0.12511084973812103, -0.11882805079221725, -0.07659696787595749, -0.12909705936908722, -0.0440504215657711, 0.009628242813050747, 0.013392152264714241, -0.08995824307203293, -0.0720834955573082, 0.03500347584486008, 0.053953804075717926, 0.09116542339324951, -0.10690035670995712, 0.0011215819977223873, 0.04181692749261856, -0.057584118098020554, -0.024789264425635338, 0.1065787598490715, -0.033707551658153534, 0.02553545869886875, 0.13253673911094666, 0.041118644177913666, -0.03646257892251015, -0.09398751705884933, -0.11127317696809769, -0.03405531123280525], [0.034294500946998596, -0.10315593332052231, -0.03007582761347294, -0.11458480358123779, 0.03954245150089264, 0.011417761445045471, 0.039656635373830795, -0.0837494358420372, -0.10613806545734406, -0.06394361704587936, -0.08363702148199081, -0.03283751383423805, 0.020128874108195305, -0.05503163859248161, -0.009878240525722504, -0.14676490426063538, 0.010291052050888538, 0.012791934423148632, -0.029554205015301704, 0.11089910566806793, -0.10875222831964493, 0.010645122267305851, -0.005221049766987562, -0.03634398430585861, 0.03275110200047493, 0.0403510257601738, 0.04744503274559975, 0.027136236429214478, -0.09151653200387955, -0.03504157438874245, 0.07945526391267776, -0.053117536008358, 0.07585509121417999, 0.07111786305904388, 0.030631983652710915, 0.060417287051677704, 0.03509649634361267, -0.014178518205881119, 0.11987850069999695, 0.11907345056533813, 0.04805755242705345, -0.07333061844110489, -0.05468738451600075, -0.049046918749809265, -0.005022232886403799, -0.016128724440932274, 0.12206180393695831, -0.03753433749079704, -0.04500078409910202, -0.05164999142289162, -0.019877556711435318, -0.022287776693701744, 0.034070223569869995, -0.07702916860580444, -0.011443424969911575, -0.0035730022937059402, 0.06237830966711044, -0.10014934092760086, 0.0037317497190088034, -0.01592649333178997, 0.11520523577928543, 0.04919242113828659, 0.09187261015176773, -0.04458082094788551], [-0.041276026517152786, -0.02304060570895672, -0.013594326563179493, -0.0464877113699913, -0.1057358905673027, -0.014526708982884884, 0.05931175872683525, 0.07349307090044022, 0.04618934169411659, -0.011689471080899239, 0.08714618533849716, -0.08181270956993103, -0.06403471529483795, -0.012558689340949059, 0.054930344223976135, -0.041068803519010544, -0.10197678953409195, 0.08341772854328156, 0.06824209541082382, -0.046190302819013596, 0.12368210405111313, -0.03412853926420212, 0.03876310586929321, -0.09933158755302429, 0.023114584386348724, 0.07581499963998795, -0.0773722305893898, 0.014368870295584202, -0.03846008703112602, 0.05203165486454964, -0.010778297670185566, -0.11962230503559113, -0.06107587367296219, -0.11040323972702026, 0.09943349659442902, 0.05032777041196823, -0.09735709428787231, -0.12495143711566925, 0.05330457165837288, -0.08793412894010544, -0.13135536015033722, 0.02488120086491108, 0.08491034060716629, 0.10955595970153809, -0.11091437190771103, 0.02552783489227295, -0.011389467865228653, -0.02252821996808052, 0.030586907640099525, -0.08978372067213058, -0.019459256902337074, 0.07756146788597107, -0.05473284795880318, 0.08985695242881775, 0.038408633321523666, 0.01714440993964672, -0.07811632752418518, 0.04968459904193878, 0.030124476179480553, 0.03495747968554497, 0.018944820389151573, -0.010659527033567429, -0.03264356404542923, 0.02440129593014717], [0.05440383031964302, -0.06419882923364639, 0.006213482469320297, -0.02885248512029648, -0.011753492057323456, 0.0456617996096611, -0.08122751861810684, 0.034978482872247696, 0.11395059525966644, -0.08901326358318329, -0.10827190428972244, 0.06884779781103134, 0.05130097270011902, 0.0714082345366478, 0.07997842133045197, -0.06196099519729614, -0.0031129205599427223, -0.11588096618652344, -0.05844542384147644, 0.001046075951308012, -0.02450256235897541, 0.10465652495622635, 0.11718519777059555, -0.014693592675030231, 0.07427539676427841, -0.02518247812986374, 0.047903429716825485, -0.03955048695206642, -0.07022807747125626, -0.10745909810066223, -0.07762104272842407, -0.1471599042415619, -0.056187182664871216, 0.0667644664645195, 0.0459446907043457, 0.008630665950477123, -0.03278787061572075, 0.0013136928901076317, -0.106901615858078, -0.02390352450311184, 0.06816825270652771, -0.02891544997692108, 0.09839027374982834, -0.029684750363230705, 0.08694137632846832, -0.04778338968753815, 0.08050359040498734, 0.01301960926502943, -0.07161958515644073, 0.04175090789794922, 0.029833335429430008, 0.004725424572825432, 0.10605529695749283, -0.03222484886646271, 0.09074848145246506, -0.07159362733364105, 0.03487865626811981, -0.07904495298862457, -0.020878763869404793, 0.04193844646215439, -0.10527972131967545, 0.017255185171961784, 0.03916533663868904, -0.01232245285063982], [0.11432287842035294, -0.021110229194164276, 0.0966985672712326, 0.10688705742359161, 0.06059951335191727, 0.016667205840349197, -0.03651457279920578, 0.09586954116821289, 0.03988400101661682, 0.04729926586151123, -0.08388528227806091, 0.15997180342674255, -0.0521695502102375, -0.1251823455095291, -0.07542585581541061, -0.04655582085251808, 0.025417707860469818, 0.10222173482179642, -0.04205099865794182, -0.09301923215389252, 0.09546229988336563, 0.032398007810115814, -0.02009185217320919, 0.05669413134455681, -0.0035819390323013067, -0.11652607470750809, -0.04604899883270264, -0.0450233593583107, -0.10085057467222214, -0.05822956934571266, -0.11149682849645615, -0.15204448997974396, -0.09284716844558716, -0.08971980959177017, -0.08615007996559143, -0.09576976299285889, -0.10676291584968567, 0.025567762553691864, 0.011863884516060352, 0.05464343726634979, -0.06183791160583496, 0.02370860055088997, -0.007143940310925245, -0.06442064791917801, 0.005418392363935709, 0.12811726331710815, 0.07180816680192947, 0.04737729951739311, 0.019821180030703545, -0.037451863288879395, -0.12649357318878174, 0.1207919716835022, -0.002765123965218663, 0.03552849218249321, 0.018087895587086678, 0.08167558163404465, -0.0842895358800888, 0.04603051394224167, 0.09606174379587173, -0.11699054390192032, -0.007246310357004404, 0.08216187357902527, -0.022043347358703613, -0.08796671777963638], [0.0015428587794303894, 0.060215502977371216, -0.005056610330939293, -0.14465682208538055, 0.06167102977633476, 0.04116865247488022, 6.603249494219199e-05, -0.03811604157090187, 0.1261911392211914, 0.0357687771320343, 0.0060535697266459465, 0.08163336664438248, -0.149907648563385, 0.12158837169408798, -0.10137437283992767, -0.051339779049158096, 0.1037302315235138, 0.024537617340683937, -0.008616374805569649, 0.0785907581448555, -0.14519654214382172, 0.1123068630695343, -0.011467497795820236, -0.062219541519880295, 0.057524945586919785, 0.11107876151800156, 0.038085538893938065, 0.08716589212417603, -0.0013492378639057279, -0.0032399047631770372, 0.03513498976826668, 0.06954613327980042, 0.04016004875302315, 0.22855794429779053, 0.10230352729558945, 0.00232145469635725, 0.05983959138393402, -0.042347315698862076, -0.1287928968667984, 0.044457390904426575, -0.06664401292800903, 0.05854405090212822, -0.10400555282831192, -0.0955517515540123, 0.024922944605350494, -0.04440505430102348, -0.037813544273376465, 0.07149981707334518, -0.09599100053310394, -0.08608091622591019, -0.001487134606577456, -0.0989847183227539, -0.10493668168783188, 0.07312268763780594, 0.001347981276921928, 0.013870884664356709, 0.00523896049708128, 0.06703950464725494, 0.029429959133267403, 0.11482205986976624, -0.014306504279375076, 0.14862003922462463, -0.08295336365699768, -0.06332698464393616], [0.025140251964330673, 0.0244101844727993, 0.10972987115383148, 0.0007900040945969522, -0.05831195041537285, -0.058828990906476974, -0.08267251402139664, -0.055824726819992065, 0.09584023803472519, -0.03081502392888069, 0.06589654833078384, -0.08720275014638901, 0.057678475975990295, 0.10168620944023132, -0.06772684305906296, 0.10607115179300308, 0.08510744571685791, 0.1227368712425232, -0.059067584574222565, -0.11438538879156113, -0.055240508168935776, 0.10111980140209198, 0.10270535945892334, 0.07968250662088394, 0.10670697689056396, 0.05519534647464752, -0.10941614955663681, -0.010029549710452557, 0.07990502566099167, -0.08707622438669205, 0.10446082055568695, -0.01867879554629326, 0.12081508338451385, 0.008876065723598003, -0.0067041353322565556, -0.0766490027308464, 0.10497486591339111, 0.11070983111858368, 0.028903044760227203, 0.12846721708774567, 0.11849888414144516, -0.06028532609343529, -0.09499377012252808, -0.04989471659064293, -0.030300799757242203, -0.11708832532167435, 0.0980660691857338, 0.06429567188024521, -0.10452506691217422, 0.0044685727916657925, 0.11261861771345139, 0.08458356559276581, 0.10460018366575241, -0.07057861983776093, 0.09112324565649033, 0.045290108770132065, 0.04250325262546539, 0.07358330488204956, 0.021861804649233818, 0.07083984464406967, 0.08980867266654968, 0.10201847553253174, 0.10367771238088608, 0.10467974841594696], [-0.10131215304136276, 0.0784035250544548, 0.12883655726909637, 0.12574735283851624, -0.09063546359539032, -0.12356457114219666, 0.11865636706352234, 0.004947077017277479, 0.029640259221196175, 0.07221876084804535, -0.12114541232585907, 0.07389644533395767, -0.08862446248531342, -0.019007166847586632, -0.034770168364048004, -0.10780216753482819, 0.020550576969981194, 0.02867717668414116, -0.019145414233207703, 0.011674586683511734, 0.08401880413293839, 0.07144174724817276, 0.08867259323596954, -0.11370749771595001, 0.021057618781924248, 0.012347823940217495, -0.11439863592386246, 0.02396000362932682, -0.0682830661535263, 0.05818890035152435, 0.11425535380840302, 0.08672111481428146, 0.06290075927972794, 0.001793448580428958, 0.03205248340964317, -0.05441943183541298, 0.061598241329193115, -0.06456997245550156, -0.05284703150391579, -0.039305880665779114, -0.04456917196512222, 0.10204103589057922, -0.054609861224889755, 0.07174708694219589, 0.10353989899158478, -0.04327607527375221, 0.02003653533756733, 0.11272169649600983, 0.0223760437220335, -0.04307689890265465, 0.05828665941953659, -0.08047536760568619, 0.06678152084350586, -0.06727731227874756, -0.026677867397665977, -0.07434522360563278, 0.11802385002374649, 0.04641014337539673, 0.019069865345954895, -0.03376420587301254, 0.04459596425294876, -0.06534901261329651, 0.04308181628584862, -0.006285856477916241], [0.06071603670716286, 0.07385315001010895, -0.08113984763622284, 0.045803092420101166, -0.08181575685739517, -0.07511437684297562, -0.09740601480007172, -0.06160501018166542, -0.053257573395967484, 0.05609852448105812, -0.016589384526014328, -0.09921413660049438, -0.10147876292467117, -0.024134231731295586, 0.025035258382558823, -0.08345002681016922, -0.09686270356178284, 0.1561688482761383, 0.05493999645113945, -0.05004557594656944, 0.08096527308225632, -0.10054349154233932, -0.0488152913749218, -0.01229145098477602, 0.012662908993661404, -0.05324149131774902, 0.012580925598740578, -0.09147242456674576, 0.0347868874669075, 0.08996040374040604, 0.15504536032676697, 0.08012571185827255, -0.011149212718009949, 0.0641920194029808, -0.07014016062021255, -0.06071583181619644, 0.10007990151643753, -0.07769544422626495, -0.04481588676571846, 0.002297448692843318, -0.016007663682103157, -0.04599364474415779, -0.0708780586719513, 0.038631539791822433, -0.07644683867692947, -0.048712242394685745, 0.021379582583904266, -0.07951164245605469, 0.11533039808273315, 0.12085834890604019, 0.15709808468818665, 0.08699480444192886, -0.08317466080188751, 0.02672380767762661, 0.0666007325053215, -0.03951128572225571, 0.09037239849567413, 0.03904866799712181, -0.03858569264411926, -0.013864652253687382, -0.026524433866143227, -0.1019454225897789, 0.12556922435760498, -0.0885627418756485], [0.04357917606830597, -0.007955276407301426, -0.032216526567935944, -0.1361882984638214, 0.011223938316106796, -0.03932619467377663, 0.04980124533176422, -0.0034582852385938168, 0.1274595409631729, -0.08441217988729477, 0.03838029131293297, -0.12724074721336365, -0.0036673196591436863, 0.10817290097475052, -0.10146047919988632, 0.07065747678279877, 0.055438730865716934, -0.09419151395559311, -0.0594392828643322, 0.031757231801748276, 0.053133923560380936, -0.06906114518642426, 0.08029007166624069, 0.09712769836187363, 0.16152186691761017, 0.07016755640506744, -0.08030197024345398, -0.029434626922011375, -0.04163656383752823, -0.09236330538988113, 0.07388772070407867, 0.04980885982513428, -0.013911370187997818, -0.06873577833175659, -0.05561574175953865, 0.10970306396484375, 0.0796298235654831, -0.11052358895540237, -0.09318612515926361, -0.0058179073967039585, -0.02601812407374382, 0.008166131563484669, 0.06417961418628693, -0.011560157872736454, -0.034041114151477814, 0.07131721079349518, -0.10581864416599274, 0.00971528235822916, -0.011583076789975166, 0.05053005367517471, 0.003446476301178336, 0.10942040383815765, 0.001737216953188181, 0.05083370953798294, 0.037849172949790955, -0.10854212194681168, -0.020374858751893044, 0.06443976610898972, -0.08244258165359497, 0.015937907621264458, 0.08462543785572052, 0.02400287427008152, -0.11102932691574097, 0.11071315407752991], [0.09645603597164154, 0.06039297208189964, 0.02529308758676052, 0.010803748853504658, 0.09333884716033936, -0.04155740514397621, 0.0760609358549118, -0.1312681883573532, -0.005491754971444607, 0.0005823145620524883, 0.03214766085147858, 0.08158379048109055, -0.04602917283773422, 0.04411189258098602, -0.11122280359268188, -0.055201299488544464, 0.056635208427906036, -0.00845186598598957, 0.05659303069114685, -0.09427881240844727, 0.08536822348833084, -0.09490001201629639, 0.07344300299882889, 0.07901836931705475, 0.07046761363744736, -0.009819633327424526, 0.05792361870408058, -0.005413161590695381, 0.02494359016418457, -0.11439806967973709, -0.15557362139225006, 0.026751983910799026, -0.1350587010383606, -0.0753515213727951, 0.03130430355668068, 0.001673698192462325, -0.03989124670624733, 0.030398862436413765, -0.01915721781551838, -0.11865642666816711, -0.01798829436302185, -0.0839075967669487, -0.07684063911437988, 0.008297406136989594, 0.0973474532365799, 0.05484457686543465, -0.04892823472619057, -0.035530466586351395, 0.010235203430056572, 0.018286801874637604, -0.05043933540582657, -0.06280804425477982, 0.1193854883313179, -0.09239275753498077, -0.04061169922351837, 0.06932958960533142, 0.01369729544967413, 0.020174778997898102, -0.04427704960107803, 0.038387689739465714, -0.09469108283519745, -0.002430102787911892, 0.06803404539823532, -0.05602887645363808], [-0.061048462986946106, -0.09427942335605621, -0.130964994430542, -0.13387803733348846, -0.09850155562162399, -0.0600571408867836, -0.032673534005880356, -0.04188216105103493, 0.0569114126265049, 0.0070038167759776115, 0.06839285045862198, 0.06055628880858421, -0.045527998358011246, -0.012370250187814236, 0.056842561811208725, -0.015621812082827091, -0.015500781126320362, -0.00045083524310030043, -0.04377057030797005, -0.06261521577835083, 0.06937110424041748, 0.046875644475221634, -0.07054290175437927, 0.08591213077306747, 0.06126191467046738, 0.05832477658987045, -0.012157726101577282, -0.0565265491604805, -0.028668517246842384, 0.07950893044471741, -0.1564965546131134, -0.04942195490002632, 0.09761279076337814, 0.0013431368861347437, -0.014905670657753944, 0.10342249274253845, 0.04575877636671066, -0.001829212298616767, -0.07867865264415741, 0.06016293913125992, -0.1177900955080986, -0.03857966139912605, -0.037258487194776535, -0.08491098880767822, -0.07167971134185791, 0.1015571653842926, 0.005603620782494545, 0.12019176036119461, -0.12334983795881271, -0.10280857980251312, 0.051908157765865326, 0.04459599778056145, 0.044487640261650085, -0.0031513841822743416, -0.046401891857385635, 0.048048872500658035, 0.07950691878795624, -0.06978385150432587, 0.1055472269654274, 0.10566195100545883, 0.036897387355566025, -0.11010202765464783, -0.0066241431050002575, 0.07875843346118927], [0.029025761410593987, -0.03132186830043793, -0.06805062294006348, 0.09674375504255295, 0.08879243582487106, -0.14167165756225586, -0.059394195675849915, -0.1221848577260971, 0.0763985887169838, -0.10563019663095474, -0.05018220096826553, 0.15378209948539734, 0.09738706797361374, -0.049135688692331314, -0.014906209893524647, 0.047363921999931335, -0.04672135412693024, -0.030313149094581604, -0.058415383100509644, 0.11303336173295975, 0.06829476356506348, -0.14166352152824402, -0.04161558672785759, -0.11416662484407425, 0.12632516026496887, -0.11554340273141861, -0.07040401548147202, -0.08158569782972336, -0.05126447603106499, -0.028065912425518036, 0.10550067573785782, -0.07610942423343658, -0.07941640913486481, -0.11074966192245483, 0.026045700535178185, -0.032838575541973114, -0.06662306189537048, -0.09445269405841827, 0.07352583855390549, 0.06456609815359116, -0.07419897615909576, -0.13027989864349365, -0.08023618906736374, -0.04070324823260307, 0.05481913685798645, 0.0836513414978981, -0.10501670837402344, 0.09561992436647415, -0.032318729907274246, -0.10599862784147263, -0.06603515148162842, 0.11226393282413483, -0.011525304988026619, 0.0708993449807167, 0.11081862449645996, 0.09869594126939774, 0.02885986492037773, 0.05591006949543953, -0.09181270003318787, 0.0196040328592062, 0.08792203664779663, -0.04107992351055145, 0.02720196545124054, -0.09162956476211548], [-0.06505701690912247, -0.08995334804058075, 0.11180419474840164, -0.03823928162455559, -0.05642394348978996, -0.04355819523334503, -0.025255845859646797, -0.033571548759937286, -0.07090075314044952, 0.08859225362539291, -0.06591836363077164, -0.018144240602850914, -0.031206399202346802, -0.05675101652741432, -0.05229734256863594, -0.0781058669090271, -0.050550393760204315, 0.03252146393060684, 0.0978347584605217, 0.10422024875879288, 0.016286851838231087, 0.06263699382543564, -0.0013824735069647431, -0.08882678300142288, -0.11179190129041672, -0.07429070770740509, 0.04514450579881668, 0.057096291333436966, -0.12689225375652313, 0.010927246883511543, -0.058698367327451706, 0.07798369228839874, -0.020533017814159393, -0.04938532039523125, 0.119658924639225, 0.09911341220140457, 0.1088935062289238, 0.08335085958242416, 0.04785273224115372, -0.06303151696920395, -0.05067204311490059, 0.03218935430049896, 0.1174902617931366, -0.0021176927257329226, -0.10107319802045822, -0.11192791908979416, 0.0544191412627697, 0.07924102991819382, 0.12237740308046341, -0.06013699248433113, 0.061042867600917816, 0.11350178718566895, -0.10220605134963989, 0.017808975651860237, 0.05104778707027435, -0.016536341980099678, 0.024128343909978867, -0.08338211476802826, 0.11905105412006378, 0.026949411258101463, 0.12611548602581024, -0.039899792522192, -0.1171930804848671, 0.07119806855916977], [0.011304212734103203, 0.06982111930847168, 0.03401458263397217, 0.048993684351444244, -0.13706693053245544, 0.04315048083662987, 0.09669845551252365, 0.04486357793211937, 0.0797661617398262, -0.12668704986572266, 0.03909175097942352, -0.010218771174550056, 0.023712152615189552, -0.11151327192783356, 0.09491709619760513, -0.10773418098688126, 0.038242049515247345, 0.08402540534734726, -0.012861656956374645, -0.0570949986577034, 0.0667627602815628, -0.10716419667005539, 0.031088078394532204, 0.09295258671045303, -0.08094638586044312, -0.04274939000606537, -0.14350387454032898, -0.07504918426275253, -0.06148352101445198, -0.034865494817495346, 0.03555510938167572, 0.13041965663433075, 0.0028918711468577385, 0.09264103323221207, 0.034153662621974945, -0.022262925282120705, 0.06600100547075272, 0.0545685775578022, -0.06674857437610626, 0.108543761074543, 0.1148514375090599, -0.015248231589794159, 0.062428683042526245, 0.11100292205810547, -0.09010922908782959, 0.09077700227499008, 0.04198645427823067, 0.07646824419498444, -0.05934365093708038, 0.10622327774763107, 0.08686450868844986, -0.04281220957636833, 0.09450256824493408, -0.04660392552614212, 0.06956441700458527, 0.076651930809021, 0.08254294097423553, 0.07005219161510468, -0.10407956689596176, -0.09753544628620148, 0.10117263346910477, -0.052876703441143036, -0.05869801715016365, 0.08637934178113937], [-0.009049509651958942, 0.12415172159671783, -0.0770459994673729, -0.02788792923092842, 0.11289369314908981, 0.01234870683401823, 0.08205067366361618, -0.07144278287887573, 0.10617335885763168, 0.10208872705698013, -0.026968248188495636, -0.06975599378347397, 0.054048802703619, 0.1218690574169159, -0.01644504815340042, 0.1186746209859848, -0.11467717587947845, 0.09651661664247513, 0.002016688697040081, 0.010087048634886742, -0.06097054108977318, 0.040581751614809036, -0.05009777098894119, -0.01724807359278202, 0.058439891785383224, 0.04068310186266899, -0.03935921937227249, 0.1031867042183876, -0.022872984409332275, -0.11773871630430222, 0.1336606740951538, -0.007881158962845802, -0.007766684051603079, -0.02659694105386734, -0.056152429431676865, 0.09404433518648148, -0.04202141985297203, 0.066110759973526, -0.07296939939260483, 0.014590151607990265, 0.11561847478151321, 0.02758110500872135, 0.11412148922681808, 0.11639214307069778, 0.006002632901072502, 0.03125216066837311, 0.06567850708961487, 0.04686618223786354, -0.06605975329875946, 0.06567949801683426, -0.05544738844037056, -0.10366334766149521, -0.017439939081668854, 0.07014872133731842, 0.0643593966960907, 0.02989579364657402, -0.020014125853776932, -0.10501234978437424, 0.02643870748579502, -0.07684171199798584, -0.10402324795722961, 0.10332172363996506, -0.020986534655094147, -0.117531418800354], [-0.06375058740377426, -0.030592814087867737, 0.09418047964572906, -0.003018792951479554, 0.03315676376223564, 0.011972690001130104, -0.10405708104372025, -0.10066116601228714, -0.021126294508576393, 0.09660553187131882, 0.0015662754885852337, -0.07152578979730606, -0.08315448462963104, 0.06020583584904671, 0.10363252460956573, 0.06869099289178848, 0.0906624048948288, -0.08574097603559494, -0.018683018162846565, 0.10676772147417068, 0.11701025068759918, -0.0353388749063015, 0.0940583273768425, -0.09787043184041977, 0.04489387571811676, 0.05421709269285202, -0.09545312076807022, -0.14314036071300507, 0.006466961465775967, 0.05209813639521599, -0.09223704785108566, -0.060166239738464355, 0.057820938527584076, -0.012813200242817402, 0.06617694348096848, 0.06087815389037132, -0.022024454548954964, -0.03348854184150696, 0.11599387228488922, 0.016172779724001884, -0.09149136394262314, 0.09162832051515579, 0.057388629764318466, -0.04129592701792717, -0.018660636618733406, 0.060177031904459, -0.004532447084784508, -0.09901155531406403, -0.0581243671476841, -0.012487535364925861, -0.05177975818514824, 0.05373462662100792, 0.029250483959913254, -0.11289524286985397, 0.03725605085492134, 0.14968597888946533, 0.08629260957241058, -0.029309704899787903, -0.07874644547700882, -0.11120464652776718, 0.08791293203830719, 0.0157752875238657, -0.07450393587350845, 0.09091754257678986], [0.1253088116645813, -0.105489082634449, 0.03814197704195976, 0.012969022616744041, -0.1414729207754135, 0.06324613094329834, -0.0579841174185276, 0.0658307746052742, 0.04085826128721237, 0.14877799153327942, -0.021992415189743042, 0.09452736377716064, 0.10696812719106674, -0.048401881009340286, -0.057937923818826675, -0.003980927634984255, 0.1539984792470932, -0.09443411976099014, -0.1112302839756012, -0.0749700739979744, 0.016564911231398582, 0.03236325457692146, 0.08169491589069366, 0.1144498884677887, 0.23301361501216888, 0.05978623777627945, 0.21656809747219086, -0.057833824306726456, -0.05662165954709053, 0.07939563691616058, -0.051126979291439056, -0.1021493524312973, -0.001102325739338994, 0.08451566845178604, 0.013088303618133068, 0.0662810280919075, 0.06115156039595604, -0.07287266105413437, 0.0008513801149092615, 0.1090329959988594, -0.031109217554330826, 0.027584297582507133, 0.0478341281414032, -0.04755547270178795, -0.12207909673452377, -0.04641808196902275, 0.12398983538150787, 0.048430345952510834, -0.02735474519431591, -0.18438123166561127, 0.05781562626361847, -0.021566249430179596, -0.005183388479053974, -0.05762411281466484, -0.11012828350067139, -0.07557635009288788, 0.045531418174505234, 0.04928509518504143, -0.02912096679210663, -0.006868160795420408, 0.10538925975561142, 0.060530807822942734, 0.058260396122932434, 0.11068189144134521], [-0.023197414353489876, -0.022041138261556625, 0.1514681726694107, 0.16016709804534912, 0.040013447403907776, 0.02017080970108509, 0.04034063220024109, 0.08102529495954514, 0.023309865966439247, -0.10004481673240662, -0.07578576356172562, 0.04050901532173157, 0.004722684156149626, 0.003959406167268753, 0.10945404320955276, 0.03440828248858452, -0.10105180740356445, 0.030496032908558846, -0.053840260952711105, -0.06655391305685043, 9.262461389880627e-06, -0.022869568318128586, -0.08463697880506516, -0.08895038813352585, -0.07709630578756332, -0.0780038833618164, 0.020369121804833412, 0.039268963038921356, -0.03454456850886345, 0.025047030299901962, -0.07445778697729111, 0.03667715936899185, -0.11215180158615112, 0.0016960948705673218, -0.05210917815566063, 0.09285833686590195, 0.07525938749313354, -0.10293833911418915, 0.10748282819986343, -0.06485366821289062, -0.037884894758462906, -0.02691737934947014, 0.01808987371623516, 0.08085961639881134, 0.11044342070817947, 0.0404713936150074, -0.08550912886857986, 0.05335989221930504, 0.10778707265853882, -0.06406246870756149, 0.049097586423158646, -0.06171484664082527, -0.09729345142841339, -0.01047420036047697, 0.02660846710205078, 0.002016942948102951, 0.0188327357172966, 0.0060030207969248295, 0.031570713967084885, 0.12301300466060638, 0.026105869561433792, 0.0548497773706913, 0.04000654071569443, 0.12665505707263947], [0.13974079489707947, -0.057694122195243835, 0.0429077111184597, -0.0323939248919487, 0.08608810603618622, 0.06026144325733185, -0.01741458848118782, -0.10358183085918427, 0.06670019030570984, 0.040002234280109406, -0.07328802347183228, -0.015739701688289642, 0.02842026948928833, 0.03393329679965973, 0.01960953325033188, 0.0899539366364479, 0.04352639243006706, 0.06373942643404007, -0.09966433048248291, -0.023697838187217712, -0.04691234230995178, 0.020839115604758263, -0.043574631214141846, 0.018504895269870758, 0.018209310248494148, 0.0010119661455973983, 0.02853572554886341, 0.033471670001745224, -0.07746768742799759, 0.1724981665611267, 0.14138412475585938, 0.041942257434129715, -0.0444195419549942, 0.15736475586891174, -0.10888444632291794, -0.05945778265595436, 0.05358891934156418, -0.06987027078866959, -0.0030388026498258114, 0.020315006375312805, 0.09749764949083328, -0.06509172171354294, 0.11012031883001328, -0.10170316696166992, -0.002836439060047269, -0.16536255180835724, 0.0008176245028153062, -0.04895004630088806, 0.10708899050951004, -0.05104478821158409, 0.06656994670629501, -0.1643020063638687, -0.004627217538654804, 0.07996256649494171, 0.05727062001824379, 0.0031935551669448614, 0.017576832324266434, 0.1482611894607544, 0.053362902253866196, -0.06798090785741806, 0.03886309638619423, 0.13510079681873322, 0.07925902307033539, -0.02545560523867607], [-0.06575793772935867, 0.049638357013463974, 0.11184617131948471, 0.12076959758996964, 0.062240272760391235, -0.07016412913799286, -0.1108817309141159, -0.00353337824344635, -0.11794162541627884, 0.03012470155954361, -0.06260457634925842, 0.08859436959028244, 0.0018262736266478896, -0.1079113706946373, 0.04368826746940613, -0.05280845984816551, -0.07580503821372986, 0.0518483929336071, 0.04716521501541138, -0.02907465770840645, -0.08970875293016434, 0.0032902429811656475, 0.05677412822842598, -0.008121595717966557, -0.015126105397939682, 0.0644010603427887, 0.03731149062514305, 0.060274720191955566, 0.08866798877716064, 0.11985131353139877, 0.012734942138195038, 0.13314847648143768, 0.02299553155899048, 0.11889470368623734, -0.08262238651514053, -0.00504101300612092, 0.13030648231506348, 0.07970423251390457, -0.13313734531402588, 0.01283253263682127, 0.040437810122966766, -0.054643575102090836, -0.07254655659198761, 0.0676274299621582, -0.010447842068970203, -0.05726635828614235, -0.08116594702005386, 0.1084030419588089, 0.1254435032606125, 0.13046111166477203, 0.04417286440730095, -0.061989642679691315, 0.13029468059539795, -0.054135650396347046, 0.10750696063041687, -0.03383384644985199, -0.06496920436620712, 0.028553612530231476, -0.06969285011291504, 0.014915925450623035, 0.12131169438362122, 0.07709862291812897, -0.003708312287926674, -0.10195497423410416], [-0.004161556251347065, -0.08711123466491699, -0.08117035776376724, 0.05301175266504288, 0.01273083034902811, 0.10419201105833054, 0.08073592931032181, 0.14141727983951569, -0.04710834100842476, -0.01478352677077055, -0.024774227291345596, 0.11175433546304703, 0.09399057179689407, 0.1443302035331726, -0.09238418191671371, -0.12222345918416977, -0.054951127618551254, -0.03629964217543602, 0.015497426502406597, -0.13632678985595703, -0.01627913862466812, -0.04669040068984032, -0.06648039072751999, 0.21957647800445557, -0.028925186023116112, -0.005741223227232695, 0.1421901434659958, 0.04113948717713356, -0.06384097784757614, -0.005303134210407734, -0.07367293536663055, 0.000179346272489056, -0.029508743435144424, -0.12051542103290558, -0.11024193465709686, 0.08422340452671051, -0.0039565060287714005, -0.06186210736632347, 0.017724627628922462, 0.055594202131032944, 0.13681982457637787, 0.1486949771642685, -0.10998637229204178, -0.08075157552957535, 0.058990925550460815, 0.03826364502310753, -0.08953650295734406, -0.0029429863207042217, 0.016960198059678078, -0.04540330916643143, -0.11394248157739639, 0.10316450893878937, 0.10327627509832382, -0.03601973503828049, 0.13563179969787598, -0.10404999554157257, 0.05655412748456001, -0.0010827848454937339, 0.12961114943027496, -0.08739009499549866, 0.0032291291281580925, 0.0423494353890419, -0.047826800495386124, 0.029452739283442497], [0.09872279316186905, 0.09274281561374664, 0.14030343294143677, 0.007495657540857792, 0.022983618080615997, 0.0017422050004824996, 0.10411734879016876, 0.00540266465395689, -0.10179751366376877, 0.12799617648124695, 0.08914760500192642, -0.04520181566476822, -0.12771810591220856, 0.06397190690040588, 0.09058897942304611, 0.06799311190843582, 0.010005061514675617, 0.06265130639076233, -0.01380462571978569, 0.055135902017354965, 0.08834999054670334, -0.004633065313100815, 0.06205521523952484, -0.07874049991369247, -0.033411912620067596, 0.011081078089773655, 0.018490102142095566, 0.07872836291790009, -0.013519740663468838, -0.04048464819788933, 0.11455236375331879, 0.035506490617990494, 0.01639324426651001, 0.11319474875926971, -0.10171718150377274, -0.012340092100203037, 0.08859336376190186, 0.11625330150127411, -0.021041465923190117, 0.0968458503484726, -0.06733842194080353, 0.12726633250713348, -0.1037660613656044, 0.03666595369577408, 0.03443948179483414, 0.06909945607185364, -0.04089866951107979, 0.12259010225534439, 0.023816794157028198, -0.045620404183864594, -0.035988613963127136, -0.13065111637115479, 0.12042608857154846, -0.03713313490152359, -0.10339365154504776, 0.0900566428899765, -0.11814044415950775, 0.03466736897826195, -0.05782429873943329, 0.0008355177124030888, 0.04676473140716553, 0.030979841947555542, -0.027953539043664932, 0.033641375601291656], [0.09460079669952393, -0.04231703653931618, 