{"input_shape": [null, 20], "output_shape": [null, 1], "activations": "Relu", "dummy_input": [[1.0, 1.0, 1.0, 1.0, 1.0, 1.0, 1.0, 1.0, 1.0, 1.0, 1.0, 1.0, 1.0, 1.0, 1.0, 1.0, 1.0, 1.0, 1.0, 1.0]], "dummy_output": [[-0.4202127456665039]], "layers": [{"weight": [-0.16542713344097137, -0.18621350824832916, -0.11432000994682312, 0.1267700493335724, 0.03107639029622078, 0.11532679945230484, 0.12103459239006042, 0.15622824430465698, -0.1423504650592804, -0.04403170570731163, 0.04423164576292038, 0.09078466892242432, 0.019700730219483376, -0.1520220935344696, 0.018443863838911057, -0.13224655389785767, 0.04771441966295242, 0.18731804192066193, 0.09921129792928696, -0.21048927307128906, 0.058498479425907135, 0.14192135632038116, -0.03849738836288452, -0.0674750804901123, 0.1431606113910675, -0.05934779718518257, -0.05967997387051582, 0.046178631484508514, 0.033321306109428406, -0.15122824907302856, 0.0011387219419702888, -0.1128065213561058, 0.17007319629192352, 0.17073003947734833, -0.06191681697964668, 0.0046529872342944145, 0.11652236431837082, -0.1898120790719986, 0.10649000108242035, 0.07742184400558472, 0.04957970604300499, 0.1844048649072647, -0.19414249062538147, -0.013545765541493893, 0.19430358707904816, 0.021535588428378105, -0.17811842262744904, 0.12310002744197845, 0.16736455261707306, 0.13222095370292664, -0.17808817327022552, -0.07590829581022263, -0.02907761000096798, 0.20060327649116516, 0.006715311668813229, -0.1250986009836197, -0.09727966040372849, -0.1578000783920288, -0.030280137434601784, 0.1776399165391922, 0.060995519161224365, -0.1461721956729889, 0.01313154585659504, -0.021663250401616096, 0.12361717969179153, 0.1555868536233902, 0.10185468941926956, -0.07957317680120468, -0.1637272983789444, -0.002369761234149337, 0.1401025950908661, 0.22143159806728363, 0.15900644659996033, 0.04137900844216347, 0.12383321672677994, 0.1344338357448578, 0.011059892363846302, -0.019041800871491432, -0.20832769572734833, 0.15162669122219086, -0.14090880751609802, 0.21876418590545654, 0.12375535815954208, -0.20699095726013184, 0.20738938450813293, 0.0962887853384018, -0.10758943110704422, 0.12451385706663132, -0.008533071726560593, -0.02487700618803501, -0.21009959280490875, -0.21785153448581696, 0.060468461364507675, 0.21086615324020386, -0.13224941492080688, -0.04931323230266571, 0.037672776728868484, 0.05867823213338852, -0.08636961877346039, 0.0798337310552597, 0.013576756231486797, -0.0639098659157753, 0.18462331593036652, 0.08595635741949081, 0.1677498072385788, -0.0503167062997818, 0.16569718718528748, 0.20179244875907898, -0.11957194656133652, -0.09413305670022964, -0.047286082059144974, 0.07790249586105347, 0.03689015656709671, 0.07156392931938171, -0.11059156060218811, 0.03400407359004021, -0.04756630212068558, -0.14991126954555511, 0.013108382932841778, -0.04764674976468086, 0.15402187407016754, -0.01158485934138298, 0.12353993207216263, -0.040301285684108734, 0.13823729753494263, 0.03642427921295166, 0.006563469767570496, 0.1685110181570053, 0.0581371933221817, -0.16264313459396362, -0.06464121490716934, -0.03714590147137642, -0.11985215544700623, 0.10436048358678818, 0.015008152462542057, -0.019322600215673447, -0.1425146907567978, -0.12153501063585281, 0.1614019274711609, -0.011239204555749893, 0.2179236263036728, -0.0612124465405941, 0.11366906017065048, 0.021849561482667923, -0.001636973349377513, 0.08372275531291962, -0.07942696660757065, 0.10080405324697495, -0.19904139637947083, 0.009573851712048054, -0.06278911232948303, -0.1057087704539299, -0.11491535604000092, 0.2062617987394333, 0.20068448781967163, 0.20003128051757812, -0.16650508344173431, 0.2280157506465912, 0.09989099204540253, -0.0327124185860157, -0.027147158980369568, 0.13958889245986938, -0.0486297532916069, -0.08101402223110199, 0.22131244838237762, 0.1170620247721672, 0.1861572414636612, -0.1265282779932022, -0.021544378250837326, -0.15299585461616516, -0.20654086768627167, -0.02845221944153309, 0.12175830453634262, -0.08585220575332642, 0.052911534905433655, -0.1565633863210678, 0.11831369251012802, -0.006745022721588612, -0.0692194402217865, 0.21767674386501312, -0.040161341428756714, -0.09656941890716553, -0.13245895504951477, 0.054586850106716156, 0.13010349869728088, -0.06204517185688019, -0.03431960567831993, 0.18721221387386322, -0.052665673196315765, 0.0353950671851635, 0.13604408502578735, -0.1416509449481964, -0.023415887728333473, 0.01859474554657936, 0.1229238510131836, -0.18373189866542816, -0.2111547589302063, 0.1350804716348648, 0.20035871863365173, 0.2141655683517456, 0.053742069751024246, 0.06253941357135773, 0.0733884796500206, -0.1784997135400772, -0.1699049174785614, 0.1739896684885025, -0.15243446826934814, -0.14189623296260834, 0.0074251387268304825, 0.10259465873241425, -0.08414510637521744, -0.14574868977069855, 0.20838481187820435, 0.17578746378421783, 0.19082696735858917, 0.19459258019924164, -0.04707146808505058, 0.0831211507320404, -0.045196402817964554, -0.1368994563817978, -0.015418773517012596, -0.07112017273902893, 0.20430423319339752, 0.09161883592605591, 0.04290958121418953, -0.12532956898212433, -0.06339944154024124, -0.05060841515660286, 0.007288464345037937, -0.20527270436286926, 0.06574693322181702, 0.027147529646754265, 0.1696271151304245, -0.1896706223487854, -0.19747388362884521, -0.06165643781423569, -0.1659921407699585, -0.01191303227096796, 0.206537127494812, -0.16646285355091095, -0.08817056566476822, 0.08893565088510513, -0.10270046442747116, 0.05562761053442955, 0.09142887592315674, -0.04209986701607704, -0.12902072072029114, -0.1698586493730545, -0.10833724588155746, -0.12647195160388947, 0.13161727786064148, 0.16689592599868774, -0.0279534924775362, 0.13000071048736572, -0.019893186166882515, 0.1404624879360199, -0.020236507058143616, 0.07847508043050766, 0.19099271297454834, -0.18118032813072205, 0.06488765776157379, 0.01107964850962162, -0.02298242598772049, -0.12427328526973724, -0.020108163356781006, -0.12906575202941895, 0.08395873755216599, -0.2194773405790329, 0.07932056486606598, -0.08584568649530411, 0.19269225001335144, 0.1307060271501541, -0.03719272464513779, -0.21063707768917084, -0.060044027864933014, 0.15174628794193268, 0.19257265329360962, -0.138740673661232, -0.07987963408231735, -0.01489211618900299, 0.03433474898338318, 0.1779380738735199, 0.07115551829338074, -0.06939901411533356, 0.0013451254926621914, 0.08839927613735199, -0.0708557739853859, -0.09999440610408783, 0.06921740621328354, 0.10202683508396149, 0.20787496864795685, 0.14785796403884888, -0.026290522888302803, 0.2029324173927307, 0.15956518054008484, 0.013426690362393856, -0.18999099731445312, 0.06424959003925323, 0.09137663245201111, 0.07186074554920197, -0.16249917447566986, -0.035867128521203995, 0.04684893414378166, 0.01183334831148386, 0.21343015134334564, -0.11516637355089188, 0.1100035235285759, -0.052382729947566986, -0.10826905816793442, 0.040981780737638474, 0.0311078280210495, -0.17214743793010712, 0.046983975917100906, -0.06960134208202362, 0.22489005327224731, 0.11993687599897385, -0.005219987593591213, -0.19001831114292145, 0.15889742970466614, 0.11637328565120697, 0.09749091416597366, -0.08833649009466171, 0.18806591629981995, -0.040242280811071396, 0.017625978216528893, 0.03554101288318634, 0.10737773030996323, 0.144952654838562, 0.031371697783470154, -0.13215333223342896, -0.1537477672100067, 0.11963571608066559, 0.07780130952596664, -0.06433141231536865, 0.04482010751962662, -0.19160008430480957, 0.02528396062552929, -0.057185281068086624, -0.04811444878578186, 0.034675370901823044, -0.1704632192850113, 0.031761810183525085, -0.13091415166854858, -0.17862999439239502, -0.10318312048912048, 0.16669364273548126, -0.08671064674854279, -0.15211454033851624, -0.018856581300497055, 0.05722443386912346, 0.16665838658809662, 0.013489754870533943, 0.15695609152317047, 0.10973159223794937, 0.026940980926156044, -0.1355878710746765, -0.16050291061401367, -0.1584094762802124, -0.22063426673412323, -0.08898075670003891, -0.1860433965921402, -0.0025073846336454153, 0.1780480444431305, -0.18203379213809967, -0.035471200942993164, 0.07692085206508636, 0.20239925384521484, -0.03104386478662491, 0.10111971199512482, 0.10946782678365707, -0.11466000229120255, -0.033433347940444946, 0.18311651051044464, -0.10472796112298965, 0.13415999710559845, -0.015777524560689926, -0.10781808942556381, 0.0662844181060791, 0.0658266544342041, -0.11845468729734421, 0.09345094859600067, -0.19005677103996277, -0.08604855835437775, 0.02684345468878746, -0.12648296356201172, 0.03124091401696205, -0.17634522914886475, -0.032875921577215195, 0.06334061920642853, -0.16604399681091309, 0.05089957267045975, -0.04485205560922623, -0.018468450754880905, -0.010345226153731346, 0.04985499382019043, 0.21238188445568085, -0.1449642777442932, 0.1571447253227234, 0.18267180025577545, 0.08308853209018707, -0.08147361129522324, 0.21365179121494293, 0.05402266979217529, -0.1883394420146942, 0.03443870693445206, -0.18714512884616852, 0.19647738337516785, 0.19436463713645935, -0.06423091888427734, 0.1985282599925995, 0.13519984483718872, -0.12972113490104675, -0.2519587278366089, 0.004551248624920845, -0.1597224771976471, -0.08136337250471115, -0.045956555753946304, -0.0541432686150074, 0.04739866405725479, -0.009920364245772362, 0.16727977991104126, -0.10957781225442886, -0.18045900762081146, -0.05844869092106819, 0.20642875134944916, -0.20217689871788025, 0.20585939288139343, 0.22528371214866638, 0.03991660475730896, -0.15611478686332703, 0.12927556037902832, -0.03893609717488289, -0.1955004334449768, 0.1053754910826683, -0.01939612440764904, 0.022160399705171585, -0.17737296223640442, -0.20922142267227173, 0.20110256969928741, -0.05405038222670555, 0.1781032234430313, -0.17751221358776093, -0.059929586946964264, -0.11994343996047974, -0.15958255529403687, -0.0032913789618760347, -0.16707950830459595, 0.11416061222553253, 0.15236535668373108, -0.10009224712848663, -0.14281420409679413, 0.02128196693956852, 0.06400193274021149, 0.12531892955303192, -0.1641659140586853, -0.18234625458717346, 0.04767683148384094, 0.09097448736429214, 0.14617820084095, -0.18688669800758362, -0.16458842158317566, -0.06850320845842361, 0.03406194970011711, 0.1887529343366623, -0.03280367702245712, 0.20356379449367523, 0.13009361922740936, 0.05781548097729683, -0.07045789808034897, -0.01917731575667858, -0.2112409621477127, -0.11603972315788269, 0.05048017576336861, -0.05673987418413162, -0.10279665142297745, 0.18660657107830048, 0.036606863141059875, -0.13309535384178162, 0.19153784215450287, -0.11111096292734146, 0.02043340727686882, -0.20156939327716827, -0.18822476267814636, 0.09940414875745773, -0.1475469022989273, 0.20958618819713593, -0.17009107768535614, -0.1401473581790924, -0.06067921966314316, -0.15338821709156036, -0.2212858349084854, 0.2015846073627472, -0.12429583817720413, -0.11776679754257202, -0.016281219199299812, -0.15503376722335815, 0.1234896257519722, -0.10232456773519516, -0.0591621994972229, -0.20801113545894623, -0.2044372707605362, 0.10362947732210159, 0.01905606873333454, 0.036505937576293945, 0.1841176599264145, 0.018672237172722816, -0.20044289529323578, 0.0001995392085518688, -0.09287425875663757, 0.038942914456129074, 0.1376485526561737, 0.03585265949368477, -0.10629639029502869, 0.09605783969163895, -0.21341410279273987, 0.10565328598022461, 0.21581467986106873, -0.03233835846185684, -0.17700012028217316, -0.2090868502855301, 0.15987148880958557, -0.020382333546876907, -0.07078953087329865, 0.04387207701802254, -0.17744989693164825, 0.003628756618127227, 0.21750198304653168, -0.08878350257873535, 0.015629542991518974, 0.034413475543260574, -0.19400441646575928, 0.11364857107400894, 0.18987585604190826, -0.13863404095172882, 0.1579960435628891, 0.11798926442861557, 0.11697641760110855, -0.16189204156398773, -0.12622123956680298, -0.13744014501571655, 0.15541191399097443, -0.04765807092189789, -0.09710937738418579, 0.003922480624169111, -0.06465183943510056, -0.07271138578653336, -0.23226992785930634, 0.17584504187107086, 0.1622786670923233, 0.039317380636930466, 0.12653276324272156, -0.15097646415233612, -0.22212187945842743, -0.07573708891868591, 0.21029841899871826, -0.2146858423948288, -0.017301302403211594, -0.21343907713890076, 0.045939695090055466, 0.005771910306066275, -0.16551072895526886, 0.17372149229049683, -0.19427183270454407, -0.1469896286725998, -0.1678205132484436, 0.051466330885887146, -0.058664534240961075, 0.1972992867231369, 0.1707446128129959, -0.09208232909440994, -0.08184149861335754, 0.11949627846479416, -0.07400346547365189, -0.1364995241165161, 0.19513170421123505, 0.05260651186108589, 0.13589733839035034, 0.11977779120206833, -0.1820916086435318, -0.10920027643442154, -0.10351458936929703, -0.12068874388933182, -0.022092465311288834, 0.11340107768774033, 0.03209841251373291, 0.20631124079227448, -0.008070779033005238, -0.07684823125600815, 0.1463075876235962, 0.03111899644136429, -0.1896771341562271, 0.0638030469417572, -0.10174757242202759, -0.11938459426164627, 0.009603829123079777, -0.19544054567813873, 0.08557358384132385, -0.10388683527708054, -0.028196467086672783, -0.0747838243842125, 0.0077563016675412655, -0.0696103423833847, -0.11486932635307312, -0.13846416771411896, 0.1290452927350998, 0.07397785037755966, -0.006393559277057648, 0.06782861799001694, 0.18089282512664795, -0.061302658170461655, 0.061877861618995667, 0.027302442118525505, 0.16477905213832855, 0.18640023469924927, -0.04881395772099495, 0.18232227861881256, -0.09445685893297195, -0.15563710033893585, 0.1854008138179779, -0.03282684087753296, 0.22306592762470245, -0.20222336053848267, -0.12815070152282715, -0.04148274287581444, -0.20124070346355438, 0.0945829302072525, 0.14408384263515472, -0.13737867772579193, -0.009696626104414463, 0.18132826685905457, 0.02773101255297661, 0.16676504909992218, 0.13416682183742523, 0.12710052728652954, 0.006473036482930183, 0.05469252169132233, -0.0030286977998912334, -0.10853078216314316, -0.14182649552822113, 0.07765768468379974, 0.032641515135765076, 0.05360798165202141, -0.2017718404531479, -0.13348063826560974, 0.05867705121636391, 0.0340181328356266, -0.021372102200984955, -0.11614445596933365, -0.16814832389354706, -0.17100878059864044, 0.1878882348537445, -0.19217568635940552, 0.1125982478260994, 0.11775984615087509, 0.07491745054721832, -0.1904243379831314, -0.1395501345396042, 0.07082995027303696, 0.058471739292144775, -0.16157937049865723, 0.13002483546733856, -0.18054331839084625, 0.17208774387836456, -0.06233014538884163, -0.021082744002342224, -0.14571592211723328, -0.10676263272762299, 0.16961975395679474, -0.18863704800605774, 0.07518929243087769, 0.049274761229753494, 0.2923814654350281, 0.005606143269687891, 0.07239840179681778, -0.13961027562618256, -0.08458157628774643, 0.11678015440702438, 0.043093983083963394, -0.1526343822479248, -0.1498337835073471, -0.09500482678413391, 0.040769435465335846, -0.17452380061149597, 0.12413599342107773, -0.20495952665805817, 0.17502491176128387, -0.20302748680114746, -0.0881173387169838, -0.07370329648256302, 0.08189748972654343, -0.03981838375329971, 0.13512471318244934, -0.08423717319965363, -0.06555543839931488, -0.03907044604420662, 0.14536502957344055, -0.17212040722370148, -0.11557646840810776, 0.11635705828666687, 0.17605982720851898, -0.12779101729393005, -0.20436707139015198, 0.1930902600288391, -0.039366330951452255, 0.027972722426056862, -0.18008194863796234, -0.04617030918598175, -0.09725185483694077, 0.030198154971003532, -0.20598290860652924, 0.14229823648929596, 0.0074174487963318825, 0.10585689544677734, 0.16012714803218842, -0.2046438455581665, -0.12624742090702057, -0.03372003883123398, 0.23292702436447144, 0.0060198609717190266, -0.13007470965385437, 0.11056002974510193, 0.006621456239372492, 0.041295044124126434, 0.10234606266021729, 0.008516117930412292, 0.19045211374759674, 0.11950955539941788, -0.03615858033299446, 0.022704707458615303, -0.03824467584490776, -0.11537030339241028, 0.20531685650348663, 0.22468459606170654, 0.21584902703762054, -0.1105961725115776, -0.22700873017311096, 0.007708130404353142, -0.04545906186103821, -0.004878192208707333, 0.21718169748783112, 0.018093420192599297, -0.11457909643650055, -0.1956881880760193, 0.13548557460308075, -0.05954011529684067, -0.11055905371904373, 0.0022623222321271896, 0.06831894814968109, 0.07755190879106522, -0.19885724782943726, 0.1443002074956894, -0.11739388108253479, -0.09046323597431183, 0.21122819185256958, 0.13605481386184692, 0.05764038860797882, -9.510658128419891e-05, -0.20158787071704865, 0.08826782554388046, -0.11370936036109924, 0.009295143187046051, -0.11159764975309372, -0.028658049181103706, 0.12635283172130585, 0.13023366034030914, 0.18220987915992737, -0.04935293272137642, 0.1941417157649994, 0.1748168170452118, -0.006808533798903227, -0.12733569741249084, -0.1700567752122879, 0.09846920520067215, 0.23207791149616241, -0.15807786583900452, 0.11487682908773422, 0.20317794382572174, -0.15242135524749756, 0.1726403832435608, -0.1517745703458786, -0.1053699404001236, -0.036750052124261856, 0.07530322670936584, -0.030735623091459274, -0.11097867786884308, 0.11570760607719421, 0.15224003791809082, -0.20505216717720032, -0.19311633706092834, 0.04597717523574829, 0.003941881936043501, -0.04362137243151665, -0.04563169181346893, 0.0037615769542753696, -0.08110713213682175, -0.1630931794643402, 0.14272189140319824, -0.19800324738025665, -0.06873450428247452, 0.10186129808425903, 0.043121613562107086, 0.14300525188446045, 0.0026998850516974926, -0.08470732718706131, 0.003203494008630514, 0.22445715963840485, 0.018833568319678307, -0.1525644212961197, -0.13808105885982513, -0.017929118126630783, 0.12557300925254822, -0.16177500784397125, -0.20609691739082336, -0.10641069710254669, -0.20680849254131317, 0.18397216498851776, 0.17323890328407288, 0.13147664070129395, 0.04996197670698166, 0.15356555581092834, -0.17853890359401703, -0.025738749653100967, -0.1650571972131729, -0.17617474496364594, -0.04499363526701927, 0.11771207302808762, -0.13410316407680511, -0.12953785061836243, 0.21067200601100922, -0.23709097504615784, -0.18873487412929535, -0.13594204187393188, 0.07557762414216995, -0.05567708611488342, -0.15768882632255554, -0.1306331902742386, 0.07893411815166473, -0.07819729298353195, -0.16137497127056122, -0.14652079343795776, 0.14790451526641846, -0.20787619054317474, 0.21748535335063934, -0.07794360816478729, -0.14305317401885986, 0.02973291650414467, -0.06381336599588394, -0.1686733067035675, 0.06776626408100128, -0.12394449859857559, -0.1543603539466858, 0.007683877367526293, -0.2256172150373459, 0.21003422141075134, -0.19817642867565155, -0.1790732443332672, -0.020795442163944244, -0.09318146109580994, 0.09396064281463623, 0.11664474010467529, 0.21523214876651764, 0.018741492182016373, 0.07436244189739227, -0.16694507002830505, 0.09962020069360733, -0.0566503144800663, 0.15281176567077637, 0.10753721743822098, -0.08487480133771896, -0.18775108456611633, -0.19178809225559235, 0.2147803008556366, 0.16339439153671265, 0.1904638409614563, -0.21303966641426086, -0.08150558173656464, -0.12874601781368256, -0.028640031814575195, -0.10088402777910233, 0.1509665995836258, -0.20223502814769745, 0.182704359292984, -0.13943932950496674, 0.11885980516672134, 0.05521885305643082, 0.046273890882730484, 0.029580634087324142, -0.1146010011434555, -0.08237498998641968, 0.20230938494205475, 0.04158609360456467, 0.13630178570747375, -0.024073582142591476, 0.09514795243740082, -0.12875474989414215, -0.19466085731983185, -0.1930510699748993, -0.07016001641750336, 0.1128581166267395, 0.1205204427242279, 0.10243767499923706, -0.22204919159412384, -0.01743616908788681, 0.1333412528038025, 0.08797241747379303, 0.027217604219913483, -0.13118521869182587, -0.18939827382564545, -0.08391931653022766, -0.07434899359941483, 0.05287569388747215, -0.16197437047958374, 0.03564991056919098, -0.10364946722984314, 0.023532425984740257, 0.17915260791778564, -0.21354113519191742, 0.1325186938047409, 0.10919445008039474, 0.15773744881153107, -0.12675625085830688, -0.205065056681633, 0.07879405468702316, 0.028923973441123962, -0.135686457157135, -0.22023184597492218, -0.2286958247423172, 0.2388886660337448, -0.20375195145606995, 0.16870653629302979, 0.11783266812562943, -0.026583297178149223, 0.12589140236377716, -0.06866712123155594, -0.2136036455631256, 0.08654696494340897, -0.05479402467608452, -0.1172269657254219, -0.1751396358013153, -0.06388174742460251, 0.09472087025642395, -0.08623132109642029, -0.14793077111244202, -0.15948574244976044, -0.07851013541221619, -0.168950155377388, 0.12840503454208374, 0.2101367563009262, -0.10434559732675552, 0.1872522532939911, -0.2130013406276703, 0.04469224065542221, 0.1663205921649933, 0.03437960892915726, 0.14543630182743073, 0.23199652135372162, -0.07836311310529709, 0.04730518162250519, 0.15899783372879028, -0.03258208930492401, -0.18378180265426636, 0.05785021558403969, 0.18639734387397766, -0.13477064669132233, -0.059165339916944504, 0.17210420966148376, 0.21712645888328552, -0.1400667130947113, 0.22945180535316467, 0.1884370893239975, -0.1315440833568573, -0.1654183268547058, -0.20112696290016174, -0.10189322382211685, -0.02940387837588787, 0.013412107713520527, -0.09956537187099457, 0.11323948204517365, -0.08364635705947876, 0.22274497151374817, -0.05333703011274338, 0.12819691002368927, -0.20834171772003174, 0.1562144160270691, 0.02087119221687317, 0.2507776618003845, 0.07390540838241577, -0.2121022641658783, 0.1430722028017044, -0.04825705662369728, -0.16119946539402008, 0.12312699109315872, 0.015271981246769428, -0.12578986585140228, -0.05624743923544884, 0.03968033567070961, 0.07546911388635635, -0.10438638925552368, -0.05732915177941322, 0.10619272291660309, 0.18258970975875854, -0.11378902941942215, 0.04415763169527054, 0.19863015413284302, -0.18960444629192352, 0.14903517067432404, 0.09955016523599625, 0.06923136860132217, 0.15725797414779663, 0.17933852970600128, 0.1840451955795288, 0.12091469764709473, -0.17451804876327515, -0.19899365305900574, -0.13911685347557068, 0.034907951951026917, 0.06515906006097794, 0.0045081195421516895, -0.03369664400815964, -0.0749097466468811, -0.0805511549115181, 0.0702470913529396, -0.20253348350524902, 0.09591832011938095, 0.13673429191112518, -0.009912495501339436, 0.16886116564273834, 0.2557365298271179, 0.18940389156341553, -0.0512552410364151, 0.03646169975399971, 0.14008773863315582, -0.1657760590314865, -0.13393673300743103, -0.21249639987945557, 0.0743740126490593, -0.18243615329265594, -0.12192604690790176, -0.1296432465314865, -0.13619868457317352, 0.14211992919445038, 0.10522367805242538, 0.06670386344194412, -0.07641882449388504, -0.2672153413295746, -0.15548491477966309, -0.12284843623638153, -0.01761607453227043, 0.17057190835475922, -0.07170750200748444, 0.10984938591718674, 0.011965194717049599, 0.05479437857866287, -0.2718525826931, 0.2273157387971878, 0.1233939379453659, 0.1261785477399826, 0.049861110746860504, -0.061377380043268204, 0.211045041680336, -0.11370786279439926, 0.12998753786087036, 0.27362746000289917, 0.17078948020935059, 0.11600688844919205, 0.18532472848892212, 0.017784371972084045, -0.19599972665309906, -0.28285160660743713, -0.07945858687162399, 0.07625894993543625, 0.08051490038633347, -0.12567657232284546, -0.0020143133588135242, -0.21918293833732605, 0.1449156403541565, -0.0449216328561306, -0.08369311690330505, 0.07158050686120987, 0.31708142161369324, 0.07904361188411713, 0.07107647508382797, -0.0707898959517479, -0.07068751752376556, 0.16045765578746796, 0.06494886428117752, -0.18864363431930542, -0.22375202178955078, -0.1351933777332306, 0.1831674575805664, 0.22148513793945312, -0.09756465256214142, -0.14437110722064972, 0.11433465033769608, -0.03742522373795509, 0.0025362984742969275, 0.14133432507514954, -0.13292774558067322, -0.1591871827840805, 0.2947263717651367, -0.03194991499185562, 0.21769513189792633, -0.07310115545988083, -0.1350281983613968, -0.0860978364944458, 0.2338065207004547, 0.11548639833927155, -0.1377410888671875, 0.15358683466911316, -0.19194439053535461, 0.07345274090766907, -0.14849154651165009, -0.12609346210956573, -0.1291378140449524, -0.06532754004001617, 0.1375519037246704, 0.06888723373413086, 0.05849486216902733, -0.24209094047546387, 0.09765195101499557, -0.027921000495553017, -0.03604203462600708, 0.2874639332294464, 0.07157042622566223, -0.20647971332073212, -0.2035292387008667, 0.0796392410993576, -0.23095703125, -0.08727091550827026, 0.13445685803890228, 0.07068046927452087, 0.20710872113704681, 0.0670309066772461, -0.007097629364579916, 0.1619947850704193, -0.24956075847148895, -0.07292324304580688, -0.04612455889582634, -0.06521507352590561, -0.04662323743104935, 0.09756224602460861, 0.15535740554332733, -0.19696669280529022, 0.24131150543689728, -0.22684067487716675, 0.07448683679103851, 0.18313412368297577, -0.07804162055253983, -0.22531555593013763, -0.052594996988773346, 0.29805493354797363, 0.07224591821432114, -0.11187689751386642, 0.21864549815654755, 0.2822689414024353, -0.307197630405426, -0.22395899891853333, -0.19918377697467804, 0.11765826493501663, 0.26282206177711487, 0.0859970971941948, -0.07004022598266602, -0.04555821046233177, -0.1032947227358818, 0.2575702965259552, -0.07883090525865555, -0.21684259176254272, 0.0848441943526268, -0.14860709011554718, 0.23692117631435394, 0.10072480142116547, 0.018229540437459946, 0.0705040916800499, -0.05664827674627304, -0.23924346268177032, -0.03596947714686394, 0.0931491106748581, 0.11471708863973618, -0.02383721061050892, 0.14437179267406464, -0.29894500970840454, 0.28581854701042175, -0.3564664423465729, -0.07035526633262634, -0.08163636177778244, 0.04537922143936157, -0.22689604759216309, 0.16981728374958038, -0.36096563935279846, 0.03853350505232811, 0.10851680487394333, -0.1423783302307129, -0.09202442318201065, 0.24788247048854828, -0.2547874450683594, -0.3444924056529999, -0.21671774983406067, -0.07070452719926834, -0.019097456708550453, 0.12794114649295807, -0.046210695058107376, 0.2958751916885376, -0.24047833681106567, 0.015054195187985897, -0.1389039009809494, -0.2076040357351303, 0.11070279777050018, -0.21245677769184113, 0.30067935585975647, 0.14966291189193726, 0.06303384155035019, 0.009508716873824596, 0.05442017316818237, -0.3061128854751587, 0.3450312614440918, 0.16310372948646545, -0.06571851670742035, -0.07010079175233841, 0.021021513268351555, 0.05819430202245712, 0.08162003010511398, -0.010554339736700058, 0.10294000804424286, -0.17309105396270752, 0.1630004197359085, 0.180890753865242, -0.16953663527965546, -0.013765961863100529, -0.0327591672539711, -0.02245326153934002, -0.20221205055713654, 0.013747862540185452, 0.13653244078159332, -0.04857169836759567, -0.01808500848710537, 0.0932929590344429, 0.1552356630563736, -0.07505867630243301, 0.03229191526770592, -0.026520727202296257, -0.1806480586528778, -0.18655388057231903, 0.06830932199954987, 0.05530721694231033, 0.20659171044826508, -0.1742299199104309, -0.1426466703414917, 0.12127960473299026, 0.005565454252064228, 0.0851498693227768, 0.16362689435482025, -0.016016528010368347, 0.16332954168319702, -0.06727416068315506, 0.08694960176944733, -0.01058979146182537, 0.07274221628904343, -0.08588725328445435, 0.1113879606127739, -0.13257631659507751, 0.20100122690200806, -0.06910233944654465, -0.14235277473926544, 0.057098448276519775, 0.2197030782699585, 0.06488560140132904, -0.060736965388059616, -0.10843957215547562, 0.061300527304410934, 0.09422951936721802, 0.0836053118109703, 0.02846621721982956, -0.02003401517868042, 0.057238418608903885, -0.19065487384796143, -0.057082053273916245, 0.12077932804822922, 0.020626258105039597, -0.027934430167078972, -0.15980026125907898], "weight_shape": [64, 20], "bias": [-0.04772619158029556, 0.14577560126781464, -0.08726917207241058, 0.1736537665128708, -0.019049517810344696, 0.09087555855512619, -0.0902119129896164, -0.0676330029964447, 0.12405005842447281, 0.019550390541553497, 0.09069207310676575, 0.07768020778894424, 0.09610070288181305, 0.060947876423597336, 0.015463360585272312, -0.1031649187207222, 0.06840827316045761, 0.058479372411966324, 0.1509893536567688, -0.04512931406497955, 0.016465922817587852, -0.12554959952831268, 0.18898910284042358, -0.17400798201560974, -0.1885678470134735, -0.004652038216590881, 0.0805920735001564, 0.10305663198232651, -0.02888544835150242, 0.004539713729172945, -0.18485715985298157, -0.09154217690229416, 0.14396975934505463, 0.10910900682210922, 0.19681638479232788, -0.09044355154037476, -0.04984338954091072, -0.07660649716854095, 0.20987562835216522, 0.032994747161865234, -0.11434716731309891, 0.21820344030857086, 0.12449204176664352, -0.007741684094071388, -0.12130775302648544, 0.03539542108774185, 0.18800482153892517, 0.15276208519935608, 0.15609194338321686, 0.1848374307155609, -0.001826104591600597, -0.023604363203048706, -0.1898060292005539, -0.11029868572950363, 0.01951744593679905, 0.07755915075540543, 0.011874949559569359, -0.09256314486265182, -0.11890237778425217, -0.0643065944314003, -0.1706758439540863, -0.022432701662182808, -0.15298393368721008, -0.07099451869726181], "bias_shape": [64]}, {"weight": [0.06796636432409286, -0.09801673144102097, 0.08444637060165405, 0.09513165056705475, 0.05966927111148834, -0.034559644758701324, -0.1002383679151535, -0.08719952404499054, 0.05404115468263626, -0.07778264582157135, 0.10523153096437454, -0.069509357213974, -0.0230273324996233, -0.025849398225545883, 0.10984442383050919, 0.08926387876272202, -0.011901277117431164, -0.019541576504707336, 0.05326817184686661, -0.07865098863840103, -0.02552458830177784, 0.12473873794078827, -0.07075722515583038, 0.06282193213701248, -0.03429645299911499, -0.10256266593933105, -0.03740793466567993, -0.10304806381464005, 0.055836137384176254, -0.13075754046440125, -0.11756780743598938, -0.04487789794802666, 0.022414831444621086, 0.020003387704491615, -0.02300448529422283, 0.05301996320486069, 0.0721246525645256, -0.1069144457578659, 0.08643633872270584, 0.11283828318119049, -0.0792749747633934, -0.04359639436006546, -0.07236728817224503, -0.05208897218108177, -0.053055521100759506, 0.09405594319105148, 0.02603648044168949, -0.0680103525519371, 0.006185984704643488, -0.0313802994787693, -0.12161500751972198, -0.08672372996807098, 0.04597972705960274, -0.12482043355703354, 0.13810425996780396, 0.05864408612251282, -0.10705283284187317, 0.1421746015548706, 0.07593997567892075, 0.1454223394393921, 0.01750539056956768, 0.05993897467851639, 0.10788189619779587, -0.04745083674788475, 0.10530716180801392, 0.05801043286919594, -0.14582911133766174, 0.059064384549856186, 0.041606612503528595, 0.004537790548056364, 0.08908196538686752, 0.09303504228591919, 0.012071117758750916, 0.03354012593626976, 0.020463403314352036, 0.08293347805738449, 0.14024211466312408, 0.04088079556822777, 0.1120179146528244, -0.12226943671703339, 0.005926556885242462, -0.049544330686330795, 0.007307595573365688, -0.006975398864597082, -0.10465990006923676, 0.08004843443632126, 0.06634674221277237, -0.13599413633346558, -0.13890276849269867, -0.13710233569145203, 0.0271342471241951, 0.07227309048175812, 0.041353195905685425, -0.033913999795913696, 0.09108582884073257, 0.016465812921524048, 0.08050037175416946, -0.008797630667686462, 0.0681447982788086, -0.1372639387845993, -0.06899965554475784, -0.030046584084630013, -0.13676999509334564, 0.07487276941537857, -0.06734120845794678, 0.07554291188716888, -0.07948591560125351, -0.06594579666852951, 0.04205606132745743, -0.10621072351932526, -0.05678965896368027, 0.04811394214630127, 0.1223556250333786, -0.04887562245130539, -0.0009295034687966108, -0.03959210589528084, -0.08943186700344086, -0.016157938167452812, 0.17833051085472107, 0.14963802695274353, 0.03634844720363617, 0.15340174734592438, -0.1028328463435173, 0.040234096348285675, -0.10303746163845062, -0.05818980932235718, -0.14641711115837097, 0.09791222959756851, -0.07910977303981781, -0.09799432754516602, -0.11902564018964767, -0.0017958629177883267, 0.03798355534672737, -0.10185445100069046, 0.04120875149965286, -0.09621841460466385, -0.08361519128084183, -0.08552105724811554, -0.05622518062591553, -0.05619165673851967, -0.0025405418127775192, -0.013237417675554752, 0.11563725769519806, 0.0904083102941513, 0.02880728989839554, 0.030617235228419304, -0.06553748995065689, 0.06982307881116867, -0.029047643765807152, -0.11772780120372772, -0.03699423372745514, -0.017177563160657883, 0.020722072571516037, -0.0908389613032341, -0.10530439764261246, -0.023860489949584007, -0.007170661818236113, -0.005284864455461502, -0.02843497321009636, -0.0971144437789917, -0.12368413060903549, -0.06263570487499237, -0.06956735998392105, 0.049437396228313446, 0.052249565720558167, -0.07863043993711472, -0.006354758981615305, -0.07390369474887848, 0.006339178420603275, 0.05443808063864708, 0.03137269988656044, 0.04916621372103691, -0.057407259941101074, 0.12138189375400543, 0.11179787665605545, -0.031495142728090286, -0.08193880319595337, -0.08735450357198715, 0.08991388231515884, -0.0019425334176048636, 0.087110236287117, 0.09283307939767838, 0.09532671421766281, -0.02002265304327011, 0.08383093774318695, 0.0018314911285415292, 0.016599025577306747, -0.08984635025262833, -0.013691841624677181, -0.015117625705897808, -0.07605862617492676, 0.0014340890338644385, -0.0028241686522960663, 0.06700395047664642, 0.10016252100467682, 0.07703021168708801, -0.05680318549275398, -0.08113877475261688, -0.08162318170070648, -0.06031682714819908, -0.12501217424869537, -0.08175648003816605, 0.1055348813533783, -0.059482455253601074, -0.07340135425329208, -0.07182090729475021, -0.061257362365722656, 0.11143804341554642, -0.10517276078462601, -0.051862575113773346, -0.0008530457853339612, 0.03359316289424896, -0.06337437778711319, 0.15647366642951965, -0.0915856882929802, 0.10048145055770874, 0.05118178203701973, -0.0724882036447525, -0.038798097521066666, 0.0979151725769043, 0.11371005326509476, -0.04288562759757042, -0.09785472601652145, -0.049549948424100876, -0.07512880861759186, 0.027856050059199333, -0.07622542232275009, -0.113910973072052, -0.09003262221813202, -0.0905926376581192, -0.032566774636507034, 0.014777994714677334, -0.08408521115779877, -0.0015234078746289015, -0.00655847555026412, -0.10984774678945541, -0.0864880308508873, 0.07893041521310806, -0.03845038637518883, 0.06734947115182877, 0.013680555857717991, 0.08095937967300415, -0.13214179873466492, 0.06796442717313766, -0.07744163274765015, 0.02511555328965187, -0.06196245178580284, -0.04287106543779373, -0.005677990149706602, 0.17577354609966278, 0.0714552029967308, 0.07651282101869583, -0.02524963580071926, 0.06069637089967728, 0.10353370010852814, -0.07439446449279785, -0.01755179464817047, -0.10581821203231812, -0.0007786560454405844, -0.0774223804473877, -0.08343489468097687, -0.06814022362232208, 0.021071337163448334, -0.053034137934446335, 0.10849927365779877, -0.021751409396529198, 0.03192414715886116, -0.044237639755010605, 0.030687538906931877, -0.008447503671050072, -0.10435599833726883, -0.0022114384919404984, 0.0455901212990284, 0.10073215514421463, -0.010904742404818535, 0.12660349905490875, 0.11434725672006607, 0.12212441861629486, -0.08613501489162445, -0.06988523155450821, -0.11372312903404236, -0.02792103961110115, 0.019973736256361008, 0.12279339879751205, 0.10250469297170639, -0.07314497977495193, -0.07518476992845535, 0.05636802315711975, -0.10203344374895096, 0.046450547873973846, 0.04006621986627579, -0.10612820833921432, 0.07803560048341751, 0.11863379925489426, 0.03774885833263397, 0.05223163962364197, 0.05117602273821831, -0.005900723394006491, -0.05048295855522156, -0.0074718245305120945, -0.12097997218370438, -0.1180867999792099, -0.1581408977508545, 0.0524197518825531, -0.03598721697926521, 0.042118579149246216, 0.007580303121358156, 0.0020531227346509695, -0.02999459207057953, 0.00837397389113903, -0.07368244230747223, -0.08074815571308136, 0.0341707319021225, -0.009181850589811802, -0.10229194909334183, 0.15871679782867432, -0.06829972565174103, -0.12351126223802567, -0.028786676004529, -0.05127762258052826, 0.09954159706830978, 0.05055148899555206, 0.06879156827926636, -0.05920269712805748, -0.05125577002763748, -0.08863450586795807, -0.03013545274734497, -0.05872376635670662, -0.06765011698007584, -0.10381057858467102, 0.07616142183542252, 0.13683605194091797, 0.11180270463228226, 0.07151659578084946, 0.10575570166110992, -0.07022132724523544, 0.05377485230565071, -0.07417924702167511, -0.07229247689247131, 0.029215384274721146, -0.030464138835668564, 0.016400599852204323, 0.17681138217449188, 0.12470714002847672, 0.05930142104625702, 0.1441676765680313, 0.04915652051568031, 0.07528062909841537, 0.1135874092578888, -0.02169124037027359, -0.06651053577661514, 0.1253170669078827, 0.0030090485233813524, 0.04313581809401512, 0.08625029027462006, -0.08410974591970444, 0.10218308866024017, 0.042329300194978714, -0.012239324860274792, 0.048847977072000504, 0.12019437551498413, 0.08079040050506592, 0.06862066686153412, 0.008375804871320724, 0.06894362717866898, -0.04723263904452324, 0.14583638310432434, 0.12475749850273132, -0.050686657428741455, -0.06220841035246849, -0.025894133374094963, 0.10395621508359909, 0.08300553262233734, -0.008567186072468758, 0.07124446332454681, -0.1244698092341423, -0.09150244295597076, 0.15128479897975922, 0.03512115031480789, -0.003941734321415424, -0.009382921271026134, -0.08020485192537308, -0.042655158787965775, -0.05998723581433296, -0.0029127865564078093, -0.004556870553642511, 0.03513939306139946, 0.10344447940587997, 0.08870191127061844, 0.009863154031336308, -0.10921922326087952, -0.12435314804315567, 0.05057380348443985, -0.10628566145896912, -0.056800760328769684, 0.032802458852529526, -0.05826578661799431, -0.06209142506122589, 0.014219031669199467, 0.03510657697916031, 0.09788168966770172, 0.06958071887493134, -0.11212553828954697, 0.0966753289103508, -0.09764070808887482, 0.04917783662676811, -0.020956888794898987, -0.0010928844567388296, 0.0823458731174469, -0.057058583945035934, 0.03573455661535263, 0.10393452644348145, 0.087495356798172, 0.04793873801827431, -0.07592608034610748, 0.04213065654039383, -0.10476435720920563, -0.06224524974822998, 0.08492100238800049, 0.07865528017282486, -0.10425078123807907, 0.041920337826013565, -0.0881379172205925, 0.09470358490943909, 0.08201493322849274, -0.09844725579023361, 0.10267240554094315, 0.06697419285774231, 0.09744590520858765, -0.12176158279180527, -0.059204939752817154, -0.01644507795572281, 0.12707118690013885, 0.04648293927311897, -0.1081850603222847, 0.03131546452641487, -0.038477882742881775, -0.0037077602464705706, -0.09306158870458603, 0.060128867626190186, 0.0688493400812149, -0.00111199205275625, 0.1132187768816948, -0.022049635648727417, 0.1257612407207489, -0.005074468441307545, -0.1145937591791153, 0.08733692765235901, -0.10556017607450485, 0.048732928931713104, 0.01876065693795681, -0.07035406678915024, -0.09865337610244751, 0.03799670189619064, -0.012090167962014675, 0.06355252861976624, -0.024695847183465958, 0.12487754970788956, -0.0027855131775140762, -0.03107091598212719, -0.012913662008941174, -0.03892536461353302, 0.11166316270828247, 0.12369323521852493, -0.09497901052236557, 0.1009010374546051, 0.11695671826601028, -0.003351734019815922, -0.012346075847744942, -0.06737031042575836, 0.062387943267822266, 0.024724243208765984, -0.05348282307386398, 0.07216975092887878, 0.12566117942333221, 0.0688248947262764, 0.11990634351968765, -0.03154507651925087, -0.06174371391534805, -0.03887370601296425, 0.020519819110631943, -0.08469965308904648, 0.0025266027078032494, -0.02500210888683796, -0.02879493683576584, 0.0454506017267704, -0.04581470787525177, -0.008845576085150242, 0.11460588872432709, 0.0924254059791565, 0.05003654211759567, -0.11833731085062027, 0.009485711343586445, 0.0800243392586708, 0.05571684241294861, -0.024187332019209862, -0.1060733050107956, 0.05522328242659569, 0.10591734945774078, 0.0014275942230597138, -0.09319862723350525, -0.02563917636871338, 0.08768443763256073, 0.08849938213825226, 0.0005404492258094251, -0.06835108995437622, -0.10444599390029907, -0.07864120602607727, 0.05385072901844978, 0.029165446758270264, 0.010601324960589409, 0.11163879185914993, 0.13651330769062042, -0.011751523241400719, 0.043162036687135696, -0.04485044255852699, -0.12312673032283783, 0.11526370793581009, -0.1698608547449112, 0.039878152310848236, 0.019699908792972565, -0.07827866822481155, -0.012125849723815918, 0.030582010746002197, -0.081292524933815, 0.14068026840686798, -0.008250143378973007, -0.04028981178998947, -0.11790133267641068, -0.03148731589317322, 0.0033639674074947834, 0.13859693706035614, -0.05519925430417061, 0.016551930457353592, -0.1006069928407669, -0.08298362046480179, 0.0821082592010498, -0.1179586723446846, 0.04255799949169159, -0.047890979796648026, 0.011870955117046833, -0.010970029048621655, -0.010489321313798428, -0.022623853757977486, -0.04628036916255951, 0.002536133397370577, -0.06362131237983704, 0.08810092508792877, 0.019338561221957207, 0.01006066519767046, -0.13807813823223114, -0.16890522837638855, -0.06806246191263199, 0.022692089900374413, -0.011582865379750729, 0.03487280756235123, 0.0020589346531778574, -0.07146172970533371, -0.08853641152381897, -0.07075156271457672, 0.14044521749019623, 0.04092438146471977, 0.056105539202690125, -0.01221536099910736, 0.10114965587854385, 0.001507961074821651, -0.09789542853832245, -0.01702086068689823, 0.05489139258861542, 0.0004814848070964217, -0.11459868401288986, 0.11020254343748093, -0.004137193318456411, -0.11089309304952621, 0.1061604917049408, -0.0184539332985878, 0.014078137464821339, -0.04456649720668793, 0.03716563060879707, -0.05098359286785126, -0.03678535297513008, 0.021163124591112137, -0.10051149874925613, 0.08058446645736694, 0.08451790362596512, 0.12043657153844833, -0.10659310966730118, 0.013954553753137589, -0.041141293942928314, -0.011852042749524117, -0.03443505987524986, -0.052270933985710144, -0.08802681416273117, -0.007757446728646755, 0.05902571231126785, 0.008708368055522442, -0.09140364825725555, 0.11308106780052185, -0.0932755172252655, 0.003802898107096553, -0.06882784515619278, 0.09155651181936264, 0.05698385462164879, 0.07078000903129578, -0.01622140035033226, -0.006225462071597576, 0.0382147952914238, -0.06873788684606552, -0.09237712621688843, -0.09579471498727798, -0.08355069905519485, 0.035717278718948364, 0.023804202675819397, -0.05918649956583977, 0.08037074655294418, -0.04100069776177406, 0.10025440156459808, -0.06323383748531342, -0.09455318003892899, 0.11278833448886871, 0.017917269840836525, -0.05553188547492027, -0.09742879867553711, 0.1071678176522255, 0.13150058686733246, -0.12098671495914459, 0.12236432731151581, -0.12482543289661407, 0.03806329891085625, 0.04891669377684593, -0.05152597650885582, -0.007252171169966459, -0.02621416561305523, 0.017555609345436096, -0.07051796466112137, 0.08072572201490402, -0.09937427937984467, 0.0518130287528038, 0.043626490980386734, 0.06306470185518265, 0.10597304999828339, 0.0840134248137474, -0.0465775765478611, 0.1306878626346588, 0.006851951591670513, -0.1027047336101532, -0.0652393028140068, -0.05761302262544632, -3.257270509493537e-05, -0.14522671699523926, -0.07228171825408936, 0.12198347598314285, -0.11157816648483276, -0.001247268752194941, -0.05519608408212662, 0.1128363162279129, -0.08725820481777191, -0.021484823897480965, 0.13882839679718018, -0.09047200530767441, -0.07923623919487, -0.05035878345370293, 0.0456465519964695, 0.05558543652296066, 0.08428055047988892, 0.08304058760404587, 0.030902614817023277, -0.07251172512769699, -0.0898972898721695, -0.09804059565067291, 0.07367921620607376, 0.07437576353549957, 0.04014196619391441, 0.06676522642374039, -0.08463229984045029, 0.10053038597106934, -0.025595935061573982, -0.08105543255805969, 0.0459449402987957, 0.0115962540730834, 0.140825554728508, -0.15567830204963684, 0.003928067162632942, -0.08165399730205536, 0.03466153144836426, -0.013563215732574463, 0.09499824792146683, -0.0993056520819664, -0.09979154914617538, 0.002742830663919449, 0.08378724753856659, 0.07862227410078049, 0.005154416896402836, -0.09681293368339539, 0.04368423670530319, 0.0032631384674459696, -0.004243925213813782, 0.07332746684551239, -0.0077737364917993546, 0.03330341354012489, 0.03928661718964577, -0.032521408051252365, 0.08285342901945114, 0.07781726866960526, 0.040709853172302246, 0.0028351801447570324, -0.023465346544981003, -0.05261332914233208, -0.01091468520462513, -0.007233478594571352, -0.03305959701538086, 0.04268667474389076, -0.066795714199543, 0.028669049963355064, -0.03714775666594505, 0.009078006260097027, -0.006009859964251518, -0.051587242633104324, -0.01969490945339203, 0.08333860337734222, 0.02801784686744213, 0.014522640965878963, -0.12001499533653259, -0.00550676416605711, -0.1212431937456131, -0.013137920759618282, -0.06281108409166336, -0.026475733146071434, -0.040053997188806534, 0.0774240791797638, -0.0817485824227333, 0.035763971507549286, 0.05647768825292587, -0.04239378124475479, 0.05249417945742607, 0.015089775435626507, -0.02684575691819191, 0.07271531224250793, 0.034805696457624435, 0.07194764167070389, -0.061702530831098557, 0.09839150309562683, 0.10039578378200531, 0.032869093120098114, 0.043329790234565735, 0.14102616906166077, -0.020230520516633987, -0.05993679165840149, -0.05343561992049217, 0.11708846688270569, -0.03738977387547493, 0.001563230063766241, -0.09077246487140656, 0.05429624393582344, -0.06095242500305176, -0.015391336753964424, 0.04923402518033981, 0.006080754566937685, -0.10498127341270447, 0.11867920309305191, -0.06826876848936081, -0.030464760959148407, -0.004689469002187252, -0.11389649659395218, 0.028196362778544426, 0.020869378000497818, -0.028774341568350792, 0.024162841960787773, 0.07113735377788544, 0.014913663268089294, -0.029877137392759323, 0.1321265697479248, -0.07468311488628387, 0.09724457561969757, 0.11729852110147476, -0.12022605538368225, -0.07838546484708786, -0.07530505210161209, -0.06900821626186371, -0.0541776642203331, 0.07071154564619064, -0.12681494653224945, -0.12054827064275742, 0.10529454052448273, 0.04623290151357651, 0.05616515874862671, 0.06094832345843315, -0.021601345390081406, 0.11162831634283066, -0.07340113073587418, 0.023909004405140877, -0.004002697300165892, 0.08253058791160583, 0.00866900198161602, 0.04742911458015442, -0.12270551919937134, 0.03736032173037529, -0.008085517212748528, 0.014605933800339699, 0.05315977334976196, -0.039836641401052475, 0.1274362951517105, -0.08171942085027695, -0.012690160423517227, -0.002222867915406823, 0.04815052077174187, 0.11048666387796402, -0.013866419903934002, 0.021639695391058922, -0.04045509546995163, -0.0013134257169440389, 0.06398414075374603, -0.02684602327644825, 0.07650645822286606, -0.02550126053392887, -0.11117904633283615, -0.010211954824626446, 0.04143387824296951, 0.09061092883348465, 0.10155557096004486, -0.08302058279514313, -0.037700898945331573, 0.14374655485153198, -0.07002809643745422, -0.06032126396894455, -0.0009267014684155583, -0.028299978002905846, -0.06146804243326187, 0.0920463278889656, 0.035863880068063736, 0.01684749871492386, -0.0403972752392292, 0.018341457471251488, 0.04057688266038895, 0.04121937230229378, -0.05741309002041817, -0.08049812912940979, -0.0788130909204483, -0.03634621948003769, -0.04184332862496376, 0.08379621803760529, 0.005405716132372618, 0.06867360323667526, -0.07883544266223907, 0.022138772532343864, -0.04961149021983147, 0.10694137960672379, 0.11455248296260834, -0.07317285239696503, -0.02403540350496769, 0.016897179186344147, -0.03351769223809242, 0.11982320249080658, -0.02170039340853691, -0.03973200544714928, 0.09820111095905304, -0.0620049349963665, 0.06990846991539001, -0.07216189801692963, 0.06882648915052414, -0.07690335065126419, -0.04978335276246071, 0.007740246132016182, 0.039297543466091156, 0.12387994676828384, 0.024224746972322464, 0.11965188384056091, -0.05965762957930565, 0.11601472645998001, 0.022312257438898087, 0.018649611622095108, 0.020429911091923714, 0.10127197206020355, 0.12066788226366043, 0.001793691422790289, 0.04584154114127159, -0.1362929791212082, -0.09208235144615173, -0.06897377967834473, -0.12370119988918304, -0.03297709301114082, -0.10503779351711273, -0.02788379415869713, -0.1059572771191597, 0.07128845155239105, -0.04442586377263069, -0.019481252878904343, -0.013573262840509415, 0.1109071895480156, -0.09162899106740952, 0.0839192196726799, -0.005503677763044834, 0.07959219068288803, 0.09209737181663513, 0.020125629380345345, 0.053404029458761215, 0.01441012229770422, -0.102972611784935, -0.049453526735305786, 0.046175528317689896, -0.011202157475054264, -0.022944193333387375, 0.06417927145957947, 0.004289821721613407, -0.09521538019180298, -0.12106553465127945, -0.0706406682729721, -0.06894894689321518, 0.026273062452673912, -0.008488095365464687, 0.028838492929935455, 0.03728421777486801, -0.09926649183034897, 0.05450378730893135, 0.04467551037669182, 0.007198111619800329, -0.05136372148990631, 0.07211559265851974, -0.034749846905469894, -0.08040274679660797, 0.0667831301689148, -0.08320899307727814, 0.07655160874128342, -0.055579133331775665, 0.11116476356983185, -0.0018287751590833068, -0.09859026968479156, -0.018715936690568924, -0.1013948917388916, -0.04824337735772133, -0.09165454655885696, -0.06731605529785156, 0.07381083816289902, 0.1103629618883133, 0.11999912559986115, -0.05850875750184059, 0.02311480976641178, 0.004530650097876787, 0.10075024515390396, 0.07798191159963608, 0.09660901129245758, -0.05310546234250069, -0.12255217134952545, 0.029633082449436188, 0.11753743886947632, 0.11693183332681656, 0.07566233724355698, -0.10600253194570541, 0.06541336327791214, -0.03589719906449318, 0.003914863336831331, 0.008249851875007153, -0.1129397451877594, 0.04045485332608223, 0.12163195759057999, -0.0018095711711794138, -0.06907474994659424, -0.032300058752298355, -0.05077278986573219, 0.07860488444566727, -0.10749274492263794, -0.033414214849472046, 0.03267919644713402, -0.06119178980588913, -0.10248791426420212, -0.03175392746925354, 0.0592680387198925, 0.07777315378189087, 0.08598478883504868, 0.005640789866447449, -0.10805605351924896, -0.05660177394747734, 0.008339084684848785, 0.09297224134206772, -0.001798113458789885, -0.09766415506601334, 0.1184515729546547, 0.0965665727853775, -0.027678027749061584, -0.09606349468231201, -0.007119588553905487, -0.10547549277544022, -0.0224823746830225, 0.09921195358037949, 0.11230351775884628, -0.005616453010588884, -0.010651146993041039, -0.06686589866876602, 0.09554102271795273, -0.11074651777744293, 0.008062528446316719, -0.12951816618442535, -0.10482928156852722, 0.10677934437990189, -0.08651801198720932, 0.0929127037525177, -0.08023598045110703, 0.11747690290212631, 0.03852424398064613, -0.08657421171665192, -0.06430384516716003, 0.11477029323577881, -0.05054094269871712, 0.03024863451719284, 0.003107731929048896, 0.04236932471394539, 0.018721994012594223, 0.03485453501343727, -0.1054304987192154, -0.10999931395053864, -0.08189427852630615, 0.02829340286552906, 0.05965491756796837, 0.029565954580903053, -0.031083153560757637, 0.045289766043424606, 0.0032301992177963257, 0.02352178655564785, -0.04888664558529854, -0.09676380455493927, 0.028091663494706154, 0.060077592730522156, 0.10736190527677536, 0.00025217555230483413, -0.04561656713485718, 0.10991454124450684, 0.033363714814186096, -0.01212416123598814, 0.1007903441786766, 0.0013177362270653248, -0.005245172418653965, -0.11046561598777771, 0.05865870416164398, 0.032180558890104294, -0.07557416707277298, -0.06604091823101044, 0.10775641351938248, 0.147613525390625, -0.03528754040598869, -0.04390808939933777, 0.1114492416381836, -0.0162880327552557, -0.11133552342653275, -0.08618129789829254, 0.060983795672655106, -0.05050298944115639, 0.10638818144798279, 0.1118968203663826, 0.03300052881240845, -0.09141860157251358, -0.031018156558275223, 0.012699148617684841, -0.0002720672928262502, -0.032916922122240067, -0.08015819638967514, -0.08589629083871841, 0.012426827102899551, -0.0841173380613327, 0.005313850473612547, 0.11285930871963501, 0.08167391270399094, 0.0344092957675457, 0.03515930101275444, 0.08674044907093048, -0.07831522077322006, -0.019621888175606728, -0.014146235771477222, -0.05831814929842949, -0.05741104483604431, 0.03288919851183891, 0.05765701085329056, -0.1157761663198471, 0.038984742015600204, -0.09207769483327866, 0.01843542605638504, -0.027867212891578674, 0.09848417341709137, 0.011668716557323933, 0.03531108424067497, 0.09525594860315323, 0.019089270383119583, -0.06568901240825653, 0.04129057750105858, -0.034862034022808075, -0.006709665060043335, 0.047057561576366425, -0.01847412809729576, -0.012758358381688595, -0.05694900080561638, 0.06331831961870193, 0.03141890466213226, -0.05210951715707779, -0.0643264651298523, -0.04374099522829056, 0.12406712025403976, -0.03561658412218094, 0.04294939339160919, -0.016696594655513763, -0.11397947371006012, 0.027456706389784813, -0.06391743570566177, -0.07230214029550552, 0.0212626364082098, -0.10394848138093948, -0.029033537954092026, -0.111732617020607, -0.0016233604401350021, 0.04679495096206665, -0.11824078857898712, 0.10644416511058807, -0.11107198894023895, -0.031869690865278244, -0.05630788952112198, 0.08967136591672897, -0.028753893449902534, -0.09964592754840851, 0.049109313637018204, -0.08800636231899261, 0.017583753913640976, -0.12238498777151108, -0.02740364894270897, -0.10957422852516174, -0.058736931532621384, -0.09599846601486206, 0.05575995892286301, 0.037592820823192596, -0.041891030967235565, 0.09011691063642502, 0.11789331585168839, 0.07988109439611435, 0.08400803059339523, -0.018693817779421806, 0.11873883754014969, -0.0748576745390892, -0.081080861389637, -0.06871781498193741, 0.12730228900909424, 0.04034029692411423, 0.13202205300331116, -0.04394856095314026, -0.0392499677836895, -0.005810339469462633, 0.016009796410799026, -0.07025427371263504, -0.03791974484920502, -0.05872311815619469, -0.0060415612533688545, 0.11996914446353912, 0.08410418033599854, -0.11198654770851135, 0.06168721616268158, -0.10689647495746613, -0.030759889632463455, -0.004041916225105524, -0.02132629230618477, -0.06602916866540909, -0.10374632477760315, 0.0593276172876358, 0.0336034782230854, 0.10689176619052887, 0.029656678438186646, 0.10900704562664032, -0.07583118975162506, 0.11781059950590134, -0.11229933053255081, 0.03976497799158096, 0.06163690611720085, -0.04710878059267998, -0.08948661386966705, 0.03151828795671463, 0.12301550805568695, 0.10154591500759125, -0.07539543509483337, 0.08727557212114334, -0.09639119356870651, 0.052669864147901535, -0.01616104319691658, -0.10346609354019165, -0.06130997836589813, 0.0569283589720726, -0.021810416132211685, 0.007127152755856514, 0.06567849218845367, -0.054346900433301926, 0.05360187217593193, -0.008819246664643288, -0.004339670296758413, -0.04518083482980728, -0.03011780045926571, 0.05589979514479637, 0.11286978423595428, -0.07265010476112366, -0.026148390024900436, -0.03098422661423683, -0.07260620594024658, 0.10943501442670822, 0.041963811963796616, 0.05212549865245819, -0.05815722793340683, 0.08776383846998215, -0.02304358407855034, 0.03854368254542351, -0.005904282908886671, -0.10130255669355392, 0.07000304013490677, -0.03350629657506943, -0.06808607280254364, 0.11286112666130066, 0.03134464472532272, -0.08400199562311172, 0.11394546926021576, -0.01530372817069292, 0.058423396199941635, -0.09404014050960541, 0.024546964094042778, -0.09327759593725204, 0.04215235635638237, 0.09449802339076996, -0.06038791686296463, -0.10049569606781006, 0.06719290465116501, 0.09788908064365387, 0.034073129296302795, 0.057366207242012024, -0.04968057572841644, 0.014271315187215805, 0.09973675012588501, -0.03961145132780075, 0.14202174544334412, 0.058801546692848206, 0.004728457424789667, 0.06373554468154907, 0.0440988726913929, -0.048575468361377716, -0.01720583438873291, 0.14311067759990692, 0.05509096011519432, 0.15716329216957092, 0.10797490924596786, 0.09132056683301926, -0.11085633188486099, 0.09016217291355133, 0.16460496187210083, 0.13230633735656738, -0.01083520706743002, -0.014515051618218422, 0.07463601976633072, -0.01576497033238411, 0.02480389177799225, -0.005828984081745148, -0.02937920391559601, -0.13972978293895721, 0.17180950939655304, -0.062186017632484436, -0.16049864888191223, -0.0014151065843179822, 0.09490867704153061, 0.10011715441942215, -0.10983487218618393, 0.10191884636878967, -0.022290538996458054, -0.04107861965894699, 0.14468254148960114, 0.0592401847243309, 0.0746762827038765, 0.023933714255690575, 0.13172009587287903, -0.02490118145942688, 0.0927337035536766, 0.13833720982074738, 0.14942169189453125, 0.04415541887283325, -0.08871832489967346, -0.04372091963887215, -0.0936959981918335, 0.05849699676036835, 0.034940093755722046, 0.012997356243431568, 0.1348671019077301, 0.1204453706741333, 0.06306372582912445, 0.024641025811433792, -0.03062751144170761, -0.004761226940900087, 0.038437485694885254, 0.008035006932914257, 0.04311206936836243, -0.10680116713047028, 0.05042438209056854, 0.03826463222503662, -0.031123952940106392, 0.08153890818357468, 0.07276035845279694, -0.06309293210506439, 0.00974209327250719, 0.04734725132584572, 0.04400200769305229, -0.04319656267762184, 0.04579319432377815, 0.019011013209819794, 0.08637401461601257, 0.04707394540309906, 0.047856975346803665, 0.051629550755023956, 0.10487610846757889, -0.03422730043530464, 0.11401968449354172, -0.0779971182346344, -0.03654401749372482, -0.009993153624236584, 0.057548098266124725, -0.09371889382600784, -0.07666689902544022, 0.0675438791513443, -0.015907257795333862, -0.02938152104616165, 0.05050770938396454, 0.0701415166258812, 0.030133534222841263, 0.12108290195465088, 0.01786855421960354, 0.06355558335781097, 0.05215631425380707, 0.06972731649875641, 0.11343324184417725, 0.037170182913541794, 0.09071245789527893, -0.07213755697011948, 0.02292155660688877, -0.05538060516119003, 0.12126972526311874, -0.04921168461441994, -0.06753148138523102, 0.11091510951519012, -0.046696554869413376, -0.01812698505818844, 0.01930196024477482, 0.028458822518587112, 0.060303013771772385, -0.09981804341077805, -0.03499889746308327, 0.11082660406827927, 0.03497728332877159, -0.04715655744075775, -0.05820094794034958, 0.028442226350307465, 0.04314730688929558, -0.008085927926003933, 0.06504825502634048, -0.006265778094530106, 0.10418891906738281, -0.09082687646150589, -0.07277511060237885, 0.10659345984458923, -0.059286199510097504, 0.016674647107720375, 0.02666008286178112, -0.08735904842615128, -0.03960774093866348, -0.06869591027498245, -0.09983570873737335, -0.03501319885253906, 0.015693118795752525, 0.10848071426153183, 0.022736428305506706, 0.07565414905548096, -0.0656675398349762, -0.0645957738161087, -0.10555202513933182, 0.004041457083076239, -0.08903160691261292, -0.05116470530629158, 0.06398582458496094, 0.006474644877016544, 0.1180221289396286, 0.130619615316391, 0.10470741242170334, -0.030631063506007195, 0.03216932713985443, -0.10104701668024063, -0.007843269035220146, 0.059712495654821396, -0.11073057353496552, -0.07493603974580765, 0.08859182149171829, -0.04555429145693779, -0.021454274654388428, 0.047843869775533676, 0.006423142738640308, 0.006525737699121237, -0.023526303470134735, -0.06008334085345268, 0.02016768977046013, 0.01769770309329033, 0.02884567528963089, 0.07367460429668427, 0.09634362161159515, -0.012030422687530518, -0.0661730244755745, 0.1256125420331955, -0.05516297370195389, 0.039041683077812195, 0.015330481342971325, -0.018973443657159805, 0.0665937140583992, -0.04165111482143402, 0.10089648514986038, 0.08422918617725372, 0.1088690236210823, 0.0838787704706192, -0.012927981093525887, -0.04379701614379883, 0.007103741634637117, 0.10822224617004395, 0.11931148916482925, -0.00849060993641615, 0.10989749431610107, -0.03987567499279976, -0.03833005577325821, 0.11181993782520294, 0.009257199242711067, 0.08987390995025635, 0.08046866953372955, 0.11888763308525085, -0.05608426406979561, -0.08956608921289444, 0.011959757655858994, -0.07756879925727844, 0.1317610889673233, 0.10744994133710861, -0.021978167816996574, -0.05137759819626808, -0.04911205172538757, 0.10504323989152908, 0.04016290605068207, 0.1045408546924591, -0.12182356417179108, -0.07908652722835541, -0.07832279801368713, 0.0002781777293421328, 0.029489921405911446, -0.028778385370969772, 0.0058035110123455524, 0.10284154862165451, 0.0192694254219532, 0.05877961590886116, 0.08106226474046707, 0.025244802236557007, 0.02781461738049984, -0.03217381238937378, -0.06917869299650192, -0.12043836712837219, -0.005563758313655853, 0.011455797590315342, 0.1288817971944809, -0.026527537032961845, -0.045291073620319366, -0.02188027650117874, 0.010974562726914883, -0.024622851982712746, -0.060920458287000656, -0.00671574380248785, -0.08238646388053894, 0.0697399452328682, 0.06140753626823425, 0.016289610415697098, -0.08530914038419724, -0.042202163487672806, 0.059111617505550385, 0.008235251531004906, -0.012085212394595146, 0.06743231415748596, 0.11474394053220749, -0.07723347097635269, 0.03562392666935921, -0.03288067504763603, -0.01571456901729107, 0.07694455236196518, -0.09838332235813141, 0.05727621912956238, -0.0684894323348999, -0.048614952713251114, 0.06515772640705109, 0.09438331425189972, 0.09524394571781158, 0.10312432050704956, -0.09886525571346283, 0.10779915004968643, 0.11242508143186569, -0.07026602327823639, 0.04833339899778366, 0.0948893204331398, 0.025473276153206825, 0.09334009885787964, -0.0646309033036232, -0.09927689284086227, -0.021583912894129753, -0.02645857259631157, -0.10202494263648987, -0.07769403606653214, 0.06672536581754684, 0.08582096546888351, -0.09022828936576843, 0.08035852760076523, 0.09838477522134781, 0.13690245151519775, -0.0675983801484108, 0.10379331558942795, 0.13513565063476562, 0.10428068041801453, 0.04558625817298889, -0.1231415718793869, -0.0077591161243617535, -0.05599255859851837, -0.09364321827888489, -0.05987458676099777, -0.11884856969118118, 0.10701584815979004, 0.10397430509328842, 0.07750815153121948, 0.07293292135000229, 0.10095445066690445, 0.01984214223921299, 0.026727646589279175, 0.04884808883070946, -0.07552412897348404, -0.04968620836734772, -0.027739757671952248, 0.04242483898997307, 0.021407725289463997, 0.07833433896303177, 0.039824534207582474, 0.03426596149802208, -0.010297483764588833, 0.11124948412179947, 0.01668035052716732, 0.0008082240237854421, 0.09780538827180862, 0.00794705469161272, -0.05622316524386406, -0.0015749204903841019, -0.0379645861685276, -0.0025798017159104347, -0.046985071152448654, -0.045175615698099136, -0.11654451489448547, 0.025139108300209045, -0.038103051483631134, 0.0038922461681067944, -0.09923840314149857, 0.04882350191473961, -0.10156384855508804, 0.10281897336244583, -0.03153585270047188, -0.09535373002290726, -0.12165938317775726, 0.08389144390821457, -0.021164201200008392, -0.04228995740413666, -0.037779927253723145, -0.00550791434943676, -0.04049954563379288, 0.12115319073200226, -0.041440874338150024, 0.04758060351014137, 0.07462890446186066, -0.05715770274400711, -0.09519746899604797, -0.01537033449858427, -0.037803784012794495, 0.1250995397567749, -0.03676757588982582, 0.10914032906293869, -0.05302800238132477, -0.06489211320877075, -0.04731559008359909, 0.05247354134917259, -0.04017820954322815, 0.009745697490870953, 0.09305515140295029, -0.0962190330028534, 0.011272692121565342, 0.005464872345328331, 0.032696641981601715, 0.04620756953954697, -0.11145876348018646, 0.03692519664764404, -0.02077438123524189, 0.03930015116930008, -0.06872576475143433, 0.1532270610332489, 0.015430639497935772, -0.11680775880813599, -0.031239427626132965, 0.0942138209939003, 0.0004491893632803112, -0.0261418167501688, 0.096316859126091, 0.08629130572080612, 0.06046116724610329, 0.12387741357088089, -0.06203291937708855, -0.01085194107145071, 0.009333423338830471, 0.0771121233701706, 0.02241518348455429, -0.0686875432729721, 0.09549666196107864, 0.03688422590494156, -0.04434245079755783, -0.06654524803161621, 0.12104906141757965, -0.060102593153715134, 0.002667752094566822, 0.06589608639478683, 0.004626161884516478, 0.11133618652820587, -0.0809803232550621, 0.1378856599330902, -0.03645114600658417, 0.020669104531407356, 0.10584182292222977, 0.014223296195268631, 0.044044870883226395, 0.0962611511349678, 0.10705836117267609, 0.12523414194583893, -0.07897898554801941, -0.04432360455393791, -0.030887547880411148, -0.010729906149208546, 0.019954374060034752, -0.026769936084747314, -0.07267361134290695, 0.07011736929416656, 0.07331038266420364, 0.11784622818231583, -0.10590094327926636, 0.08001130074262619, -0.016326306387782097, 0.10816504806280136, -0.00568919163197279, -0.012776360847055912, 0.09260127693414688, 0.08027773350477219, -0.09415851533412933, -0.06426236033439636, 0.06233127415180206, 0.01494881883263588, 0.05143462494015694, 0.035064708441495895, 3.185269815730862e-05, 0.04786176607012749, 0.04964599385857582, 0.17982274293899536, 0.08162748068571091, -0.06129227578639984, 0.14526641368865967, 0.01179417222738266, 0.07418452203273773, 0.11411959677934647, 0.008600041270256042, -0.11436622589826584, -0.037647563964128494, 0.019502976909279823, 0.048125915229320526, -0.07413093000650406, 0.1127123311161995, 0.055238377302885056, -0.0058539630845189095, 0.08294056355953217, 0.10475030541419983, 0.029775986447930336, 0.08956722170114517, -0.0017635029507800937, -0.0013994098408147693, -0.0936117172241211, 0.010470112785696983, -0.00454802205786109, 0.063249371945858, -0.0789661705493927, -0.017800163477659225, 0.08284702152013779, -0.03857661783695221, 0.08888242393732071, -0.09965287148952484, -0.019079668447375298, 0.06261679530143738, 0.048253174871206284, 0.061838991940021515, -0.03727540373802185, -0.031737230718135834, -0.03177063167095184, 0.0766410157084465, 0.021295322105288506, 0.041286926716566086, 0.07481760531663895, -0.01740182936191559, -0.11313502490520477, -0.009884721599519253, -0.022794248536229134, 0.11167164146900177, 0.07918781042098999, 0.10207051783800125, -0.05265554413199425, 0.04939699545502663, -0.03006288968026638, 0.03402291238307953, 0.015934593975543976, -0.03535247966647148, -0.10497704148292542, 0.07422047108411789, 0.0750296339392662, 0.014108032919466496, 0.07843589782714844, -0.07503978163003922, 0.031752340495586395, -0.04746308922767639, -0.06780661642551422, -0.11126098781824112, -0.10726487636566162, -0.04707583412528038, 0.060038693249225616, 0.07900860160589218, -0.10733360052108765, 0.10287180542945862, 0.08022406697273254, -0.07536552846431732, -0.02293635904788971, 0.02066664956510067, -0.03285512328147888, -0.10690952092409134, -0.020663192495703697, 0.004819192457944155, 0.05387117713689804, -0.017152542248368263, 0.04061340168118477, -0.08087486028671265, -0.07791630923748016, -0.08090770244598389, 0.04428093507885933, 0.12886402010917664, 0.0867369994521141, 0.10185351967811584, 0.10473041981458664, 0.09592051059007645, 0.06947029381990433, -0.11892478913068771, -0.060549672693014145, 0.05538308247923851, 0.03774351254105568, -0.03799201175570488, 0.11886861175298691, 0.03229682520031929, 0.05628976970911026, 0.10703974962234497, 0.09357724338769913, 0.05463076010346413, -0.02735590562224388, 0.11140354722738266, 0.00711079454049468, 0.02738145738840103, 0.10553765296936035, 0.011571650393307209, 0.002973517868667841, -0.019395090639591217, 0.040075067430734634, 0.13359138369560242, -0.00845278799533844, 0.04053622484207153, -0.09138567745685577, -0.06542994827032089, 0.06199038401246071, 0.030256152153015137, 0.015512888319790363, -0.109392911195755, 0.04516587033867836, 0.05816998332738876, -0.02749740704894066, -0.011992384679615498, -0.0990346297621727, -0.09634911268949509, -0.04741556569933891, 0.07069987803697586, -0.05969298258423805, -0.09309092164039612, 0.04097066819667816, 0.1510627418756485, 0.13314944505691528, -0.10692629963159561, 0.1265634447336197, -0.06096924468874931, -0.013098310679197311, -0.11653177440166473, 0.12811797857284546, -0.07010114938020706, 0.09027402102947235, 0.07162026315927505, -0.02448735199868679, 0.005782302934676409, -0.08180049061775208, 0.05663169547915459, -0.08592568337917328, 0.010902036912739277, 0.11308157444000244, -0.06391676515340805, -0.04460146650671959, -0.0768323540687561, 0.004226689226925373, 0.1012948527932167, -0.04838608577847481, -0.09480776637792587, 0.04375750944018364, -0.10332905501127243, 0.012929252348840237, -0.10632532089948654, 0.07331756502389908, 0.12998682260513306, 0.06498606503009796, -0.01266731321811676, 0.06258056312799454, 0.08029420673847198, 0.04782576486468315, 0.09791382402181625, 0.08238726854324341, -0.07866564393043518, 0.12917570769786835, -0.05716009438037872, 0.12529093027114868, 0.022787518799304962, 0.04042587801814079, 0.06352352350950241, -0.07853557914495468, 0.13193024694919586, -0.026420922949910164, 0.11976353079080582, -0.038013335317373276, 0.011623943224549294, -0.04509968310594559, 0.016101721674203873, -0.012643634341657162, -0.03724129498004913, 0.003152470337226987, 0.01769011840224266, 0.11803413927555084, 0.009432969614863396, -0.010779909789562225, 0.12241507321596146, 0.04790443181991577, -0.07680768519639969, -0.05681658163666725, 0.0017018361249938607, -0.0030346657149493694, 0.012225504033267498, -0.11532273143529892, 0.11877301335334778, 0.11983754485845566, 0.03604116663336754, -0.11571080982685089, -0.034104663878679276, -0.050061970949172974, 0.05852200835943222, 0.011066974140703678, -0.013197149150073528, -0.07511168718338013, 0.0056121088564395905, -0.10884332656860352, -0.12209133803844452, 0.06065762788057327, -0.0774480551481247, -0.12120425701141357, 0.030364256352186203, 0.11431598663330078, -0.05398781597614288, 0.10171268880367279, 0.015580528415739536, 0.04920177161693573, -0.0999908447265625, -0.04583176225423813, -0.026236187666654587, -0.024636635556817055, 0.02679663710296154, 0.04233195632696152, 0.10002771764993668, -0.0002713842550292611, -0.022190196439623833, 0.07712075859308243, -0.08621470630168915, -0.07648419588804245, -0.0863010361790657, -0.03787925839424133, -0.11126285046339035, -0.009426211938261986, 0.12525172531604767, -0.01396145485341549, 0.06243235990405083, 0.0897430032491684, 0.004350363276898861, -0.09058220684528351, 0.035004206001758575, 0.051135387271642685, 0.04944281280040741, 0.026150954887270927, -0.017599673941731453, -0.07939915359020233, -0.027200084179639816, 0.060871753841638565, 0.009466711431741714, -0.040883880108594894, 0.10089079290628433, 0.089288130402565, 0.008604103699326515, 0.02879699505865574, 0.07769841700792313, -0.05363266170024872, -0.01632443256676197, 0.12947064638137817, -0.002309393836185336, 0.009156649932265282, -0.009129172191023827, 0.004523922689259052, 0.05242908373475075, -0.03513985127210617, 0.06784321367740631, -0.02184903994202614, -0.07434234768152237, -0.05206040292978287, 0.033023495227098465, 0.11442245543003082, 0.04481193423271179, 0.0474361777305603, 0.048350103199481964, -0.052228622138500214, 0.02739848755300045, 0.12365362048149109, -0.1530630886554718, -0.012345099821686745, 0.014166262000799179, 0.017254576086997986, -0.028064634650945663, 0.168300598859787, 0.13889405131340027, 0.007723579648882151, -0.13435077667236328, 0.02936335653066635, 0.043900154531002045, -0.051107265055179596, 0.1437990516424179, -0.12130472809076309, -0.11899115890264511, -0.06148768216371536, 0.10443825274705887, 0.05373072624206543, -0.06936436146497726, 0.03124680556356907, -0.024794496595859528, 0.05671281740069389, -0.0466284304857254, 0.016082344576716423, -0.1537218987941742, -0.013255584053695202, 0.06454376876354218, 0.02580549381673336, -0.03189210966229439, 0.032634489238262177, 0.037566013634204865, -0.11941090226173401, -0.03178708255290985, 0.06644387543201447, 0.071546770632267, 0.0622546449303627, 0.02369498461484909, -0.040573835372924805, 0.006320703774690628, -0.04882451891899109, 0.09676375985145569, -0.04863150417804718, 0.11575847119092941, -0.04377318546175957, 0.08231349289417267, -0.05491942912340164, -0.08070248365402222, 0.019303901121020317, 0.06778695434331894, 0.022035319358110428, 0.03381079062819481, -0.03341633453965187, 0.05486232787370682, -0.04490126296877861, -0.005446954630315304, 0.242296040058136, 0.07081232219934464, 0.0981973335146904, -0.05899213254451752, 0.02500244230031967, 0.0318622887134552, -0.07545337826013565, -0.04969222843647003, -0.03885148838162422, 0.0072868275456130505, 0.11501087993383408, 0.16929517686367035, 0.00011912464833585545, -0.12834538519382477, -0.05675409361720085, -0.14704066514968872, 0.17446498572826385, 0.15591926872730255, 0.15258711576461792, 0.0774553120136261, 0.0016572328750044107, 0.05223165079951286, -0.021592726930975914, 0.0017570988275110722, -0.06761156767606735, 0.06560772657394409, -0.061445076018571854, -0.011577226221561432, -0.13055723905563354, -0.051328860223293304, -0.14411959052085876, 0.11948604136705399, -0.01718219183385372, 0.001588149112649262, -0.06554924696683884, -0.019916679710149765, 0.10929454863071442, 0.06708657741546631, -0.02170003019273281, 0.01732483133673668, 0.02768160216510296, 0.09700870513916016, -0.10710102319717407, 0.06179651618003845, 0.053061723709106445, 0.030852047726511955, 0.06137048453092575, -0.04252118244767189, 0.2105773687362671, -0.1139131560921669, -0.10368175804615021, 0.027218135073781013, 0.06628888845443726, -0.02521708980202675, 0.1115017682313919, 0.0708782970905304, -0.04621989652514458, -0.06446164101362228, -0.06624681502580643, 0.11165674775838852, 0.020531216636300087, -0.08034612238407135, 0.10950134694576263, -0.04332442209124565, -0.05003476142883301, 0.004452134482562542, 0.0628364086151123, 0.08637896925210953, 0.07953964918851852, -0.0016326812328770757, 0.08810950070619583, 0.010701638646423817, -0.11468451470136642, 0.05437316372990608, 0.09479253739118576, -0.01633593626320362, -0.08821852505207062, 0.03922469913959503, -0.11011633276939392, 0.048288699239492416, 0.039895206689834595, -0.016927728429436684, -0.059223804622888565, 0.006805789656937122, -0.09755384922027588, 0.03796783462166786, 0.11533380299806595, -0.015164931304752827, -0.003262483049184084, -0.11587027460336685, 0.08995241671800613, 0.12344305217266083, -0.0497526116669178, 0.01839846558868885, 0.05248554050922394, -0.024835381656885147, 0.034845657646656036, -0.04061910882592201, 0.08786232024431229, 0.03228975832462311, 0.04236283525824547, -0.007520526181906462, 0.009727605618536472, -0.1116902083158493, -0.0237939041107893, -0.05768699571490288, -0.09727026522159576, 0.05340291187167168, -0.02812993712723255, 0.03322640061378479, -0.008239692077040672, -0.06797225773334503, -0.017476845532655716, 0.06656064093112946, 0.003377611516043544, -0.07292599231004715, -0.04863011837005615, -0.09880051761865616, 0.029283585026860237, 0.025916168466210365, 0.12697480618953705, 0.0188230462372303, -0.10748318582773209, -0.0716640055179596, -0.0156326312571764, -0.03669210895895958, -0.016462847590446472, -0.049448803067207336, -0.02081112749874592, 0.05866699665784836, -0.05955064296722412, -0.04255501553416252, -0.025558773428201675, 0.10227756947278976, 0.10598202049732208, 0.025035694241523743, 0.10725019127130508, 0.05618469789624214, 0.08472762256860733, 0.09041892737150192, -0.028000960126519203, 0.05670623481273651, -0.07534918934106827, -0.06301456689834595, -0.09349823743104935, 0.00481721805408597, 0.12899819016456604, 0.10738641023635864, -0.04089761897921562, -0.10021023452281952, 0.012590006925165653, -0.00381495151668787, 0.07541054487228394, 0.11712059378623962, -0.05484529212117195, -0.07875088602304459, -0.08701172471046448, 0.08428362756967545, -0.07827053219079971, -0.01736828312277794, -0.06653076410293579, 0.04210786893963814, 0.08787443488836288, 0.020321963354945183, 0.09066544473171234, -0.042830128222703934, 0.1011926457285881, 0.06860069930553436, -0.040452659130096436, -0.052351851016283035, 0.05293174088001251, 0.02343079447746277, -0.020595090463757515, 0.07898122072219849, 0.09646177291870117, -0.010685835964977741, 0.051277171820402145, -0.09322969615459442, 0.0020547881722450256, 0.01180056668817997, 0.0018377866363152862, 0.049014732241630554, 0.05611978843808174, 0.008581306785345078, 0.030704962089657784, -0.1268131285905838, 0.11215981096029282, -0.014573455788195133, 0.0036680593620985746, 0.09244436025619507, -0.04109727591276169, 0.011086315847933292, -0.07399489730596542, 0.03164228796958923, 0.019688347354531288, 0.002669810550287366, 0.027049489319324493, 0.07149536162614822, 0.099469855427742, 0.09818301349878311, -0.03641488775610924, 0.08249285817146301, 0.07891451567411423, -0.1100630909204483, -0.022975189611315727, 0.1440453827381134, 0.021821316331624985, 0.009819657541811466, -0.053132422268390656, 0.04232252389192581, 0.015320582315325737, -0.09144552052021027, -0.07840747386217117, 0.07341724634170532, -0.0018128111260011792, 0.0356680266559124, 0.06349312514066696, -0.05013556033372879, 0.05332952365279198, -0.1192343682050705, 0.015964768826961517, 0.07824002951383591, -0.007321195676922798, -0.08376683294773102, 0.08658739179372787, 0.013142230920493603, -0.07758285105228424, 0.05928412824869156, -0.06554966419935226, 0.08742253482341766, -0.10192328691482544, -0.08471520990133286, -0.09841015189886093, 0.07983104139566422, 0.134298637509346, 0.06905921548604965, 0.10048670321702957, -0.05170580372214317, 0.10252798348665237, 0.10743574053049088, 0.019873933866620064, 0.002726624021306634, -0.05331403389573097, 0.12129359692335129, -0.10475900024175644, -0.014612287282943726, -0.07649445533752441, -0.05279378592967987, -0.0641130805015564, 0.06505107879638672, 0.1092740073800087, -0.06081702187657356, 0.06194205582141876, -0.11030429601669312, 0.08475247025489807, -0.11296941339969635, 0.10395756363868713, 0.021587926894426346, -0.09412966668605804, -0.07435115426778793, -0.05738018453121185, -0.06184355169534683, 0.10663546621799469, 0.05298397317528725, -0.017684808000922203, 0.10458070039749146, 0.09461068361997604, -0.08274823427200317, -0.01412904541939497, 0.09750792384147644, -7.154325430747122e-05, 0.012550684623420238, -0.10237954556941986, -0.1139594241976738, 0.029587429016828537, -0.1051284670829773, -0.11172647029161453, 0.03579312190413475, 0.043616704642772675, 0.016266634687781334, 0.04923245683312416, 0.040014274418354034, 0.05495834723114967, -0.0844619944691658, -0.08104350417852402, 0.03527877479791641, 0.10122516006231308, -0.09889008104801178, -0.034456707537174225, -0.09654394537210464, -0.12385284900665283, 0.0024128069635480642, -0.10138185322284698, -0.09882049262523651, -6.852877413621172e-05, -0.010933897458016872, -0.09402210265398026, -0.028342673555016518, -0.11516328155994415, -0.09271692484617233, 0.11595255136489868, 0.006392602808773518, 0.015772175043821335, -0.017882907763123512, 0.06746183335781097, 0.03232026472687721, 0.028262123465538025, -0.0017469633603468537, -0.03368816152215004, 0.12925678491592407, 0.09216093271970749, -0.08374118059873581, -0.07676023989915848, 0.11247982084751129, -0.10943154990673065, -0.08192349225282669, -0.009667822159826756, 0.0020237122662365437, -0.008774735033512115, -0.06584129482507706, -0.03832673653960228, -0.05032278224825859, 0.07715529948472977, -0.08890581876039505, 0.009168555028736591, -2.034751332757878e-06, 0.039046622812747955, 0.07981864362955093, 0.07587624341249466, -0.096211738884449, 0.08703368157148361, 0.12452711164951324, 0.11789175868034363, -0.08451629430055618, 0.10410911589860916, -0.10711946338415146, 0.15363141894340515, 0.09775038808584213, 0.10037753731012344, 0.09167686104774475, 0.025211557745933533, -0.10986640304327011, -0.021467192098498344, -0.10007399320602417, -0.1170801892876625, -0.06947360932826996, 0.08650073409080505, 0.1168261468410492, 0.13324527442455292, -0.04138444364070892, 0.04906342923641205, -0.09641752392053604, -0.06591232866048813, 0.039079394191503525, 0.04130634292960167, -0.13690856099128723, 0.05331599712371826, -0.04068173095583916, -0.06238340213894844, -0.07153390347957611, 0.13538405299186707, -0.07289794087409973, 0.1038912758231163, 0.11564850062131882, 0.0028127506375312805, -0.03252142295241356, -0.07108330726623535, -0.1131046935915947, 0.02846582978963852, -0.1168166995048523, -0.03843221068382263, -0.0767718106508255, 0.04277670383453369, -0.027861999347805977, -0.09975098818540573, 0.11318160593509674, 0.1148873046040535, -0.0777292251586914, -0.001837154384702444, -0.10107439756393433, 0.003882984397932887, 0.08778872340917587, -0.12639252841472626, 0.09099791944026947, 0.053294822573661804, -0.06838703900575638, -0.0065848627127707005, 0.010007238015532494, -0.08082304149866104, -0.023186611011624336, -0.03558837249875069, 0.012708091177046299, 0.10287943482398987, 0.0034287772141397, 0.02311161905527115, 0.0625414326786995, 0.03642139956355095, -0.022572660818696022, 0.05611240491271019, 0.01995491050183773, 0.15161801874637604, 0.1083846464753151, -0.10480805486440659, -0.07355115562677383, -0.06488816440105438, 0.016131414100527763, -0.03501886874437332, 0.019179029390215874, 0.042313314974308014, -0.08070730417966843, -0.11915785074234009, 0.07444443553686142, 0.09036049246788025, -0.009257572703063488, 0.06969700753688812, 0.13503806293010712, 0.008869027718901634, -0.018570974469184875, 0.06428936868906021, -0.07526732236146927, -0.02900165319442749, -0.02961328998208046, -0.01767539419233799, -0.06026393920183182, 0.09743918478488922, 0.11393580585718155, 0.11590928584337234, 0.0054072728380560875, -0.03628481179475784, 0.09858306497335434, 0.056265413761138916, 0.010678798891603947, 0.056043725460767746, 0.05894814431667328, -0.11639118194580078, 0.013748107478022575, -0.038250867277383804, 0.10177949070930481, 0.08692410588264465, 0.05853325128555298, -0.018444085493683815, -0.10540590435266495, 0.04713621735572815, 0.10412972420454025, -0.0013312733499333262, 0.046849947422742844, 0.06744406372308731, -0.07309213280677795, -0.0809730514883995, -0.06279813498258591, 0.08878844231367111, 0.007253720425069332, -0.030514372512698174, -0.11289415508508682, -0.07450393587350845, 0.008494189009070396, -0.06929655373096466, 0.004236091859638691, 0.033436909317970276, 0.07187031954526901, 0.09671476483345032, 0.028464052826166153, 0.02610521949827671, -0.09445033222436905, 0.08047206699848175, 0.1200023740530014, 0.09924699366092682, 0.005476502235978842, -0.11237875372171402, 0.03210242837667465, 0.052939895540475845, 0.004746085498481989, -0.04964764788746834, 0.08185138553380966, 0.09372400492429733, -0.08193355053663254, 0.011392239481210709, 0.12617440521717072, -0.07866960018873215, 0.11612935364246368, 0.028835637494921684, 0.017115812748670578, 0.02230951189994812, -0.07340491563081741, 0.06930951774120331, -0.12260597944259644, -0.05392371863126755, 0.07125931233167648, 0.06279759109020233, -0.021073177456855774, -0.10793989896774292, -0.03859952837228775, -0.06833340227603912, -0.0008952910429798067, -0.001157355960458517, 0.008892057463526726, 0.05666930228471756, 0.04772667959332466, -0.06613869965076447, 0.1105184555053711, 0.04280715063214302, 0.06325320154428482, 0.015816116705536842, 0.09661365300416946, 0.029568014666438103, 0.11481337249279022, -0.11459846049547195, -0.07716098427772522, 0.015337960794568062, 0.07201272994279861, -0.1105671301484108, -0.07923980057239532, -0.12279274314641953, 0.06472129374742508, 0.09180150181055069, -0.05394675210118294, 0.09928849339485168, -7.082512638589833e-06, 0.035410065203905106, -0.03879321366548538, 0.0995868593454361, 0.06981898099184036, -0.07507268339395523, 0.0036456799134612083, -0.11380894482135773, 0.08578768372535706, 0.06533840298652649, -0.03448689728975296, 0.1235981285572052, 0.12038180977106094, -0.11011770367622375, -0.05672260746359825, 0.10400260239839554, 0.03617728501558304, -0.00016091804718598723, 0.04856212064623833, -0.0946774035692215, -0.05880505219101906, -0.0218669343739748, -0.007125202566385269, -0.044462237507104874, -0.1251169741153717, 0.09570358693599701, -0.03294026479125023, -0.05303338170051575, -0.07919708639383316, 0.027472741901874542, 0.012849919497966766, -0.003602880286052823, 0.07807578891515732, -0.015901247039437294, 0.03392975777387619, -0.10008294135332108, -0.07265923917293549, 0.035339806228876114, -0.0701068863272667, 0.0020274710841476917, 0.10162356495857239, 0.054505202919244766, 0.06473857164382935, 0.11075516045093536, -0.018943535163998604, -0.10433397442102432, 0.016445903107523918, -0.045495882630348206, 0.00997692346572876, -0.05007922276854515, 0.03458242863416672, 0.0810418426990509, 0.0287154708057642, 0.10916587710380554, -0.024155134335160255, -0.022502554580569267, 0.043474674224853516, -0.08943042159080505, 0.020414380356669426, -0.0761784091591835, -0.049960147589445114, -0.08993344753980637, 0.07227802276611328, 0.11904269456863403, 0.08451531082391739, 0.09232453256845474, -0.06947460025548935, -0.0028778910636901855, 0.07969199866056442, -0.016738858073949814, 0.05995986610651016, 0.1118951216340065, 0.07447011023759842, 0.06407347321510315, -0.055519260466098785, 0.0508539117872715, -0.09148159623146057, -0.04273223504424095, 0.09139494597911835, -0.032546140253543854, -0.002188126090914011, 0.08219640702009201, -0.077927365899086, 0.06550345569849014, 0.03714791312813759, -0.04442761093378067, 0.06518740206956863, -0.04803084954619408, 0.04455392807722092, 0.02977059967815876, 0.07719386368989944, -0.0044825212098658085, -0.00041722599416971207, -0.09303764253854752, -6.09055769018596e-06, 0.07815708965063095, 0.07349631190299988, 0.07868322730064392, 0.067389577627182, 0.1285010576248169, 0.08477922528982162, -0.007391752675175667, -0.005453163757920265, -0.023260939866304398, 0.0109553886577487, -0.09016840159893036, 0.07790806144475937, -0.11451401561498642, 0.03378697857260704, -0.0005742162466049194, -0.09216173738241196, 0.11100342869758606, 0.04304444417357445, -0.04288620129227638, 0.11069165915250778, 0.03902021422982216, 0.05558868870139122, 0.003847585991024971, 0.030403444543480873, 0.03582790121436119, 0.07248621433973312, 0.08124560117721558, -0.08606544137001038, 0.05872637405991554, 0.07356848567724228, 0.09677201509475708, 0.008542387746274471, 0.05245749279856682, 0.03982703015208244, 0.07222806662321091, 0.08947191387414932, -0.01521661039441824, 0.025001563131809235, -0.011400002054870129, -0.03777620196342468, -0.05167528614401817, -0.1251620501279831, -0.08900958299636841, -0.08560512959957123, 0.1445976048707962, -0.10167878866195679, 0.11226584762334824, 0.10408653318881989, -0.13064470887184143, -0.012541056610643864, -0.0060839904472231865, -0.04078106954693794, 0.004955220501869917, 0.09259600937366486, -0.12453535199165344, 0.05496884509921074, 0.014469816349446774, 0.008977544493973255, -0.1407587081193924, 0.11119511723518372, 0.018879275768995285, -0.07483901083469391, 0.0957682877779007, -0.08600690960884094, -0.07270761579275131, 0.11268150806427002, -0.07476405054330826, -0.07573691755533218, 0.006709781475365162, -0.026559200137853622, -0.052889399230480194, -0.11869824677705765, 0.05001649260520935, -0.044036656618118286, -0.05685126781463623, 0.08562838286161423, -0.05053126811981201, 0.06298602372407913, 0.09519609063863754, -0.04863434657454491, -0.04415203630924225, -0.07763105630874634, 0.10479747503995895, 0.09223911166191101, 0.06423643976449966, 0.09083468466997147, 0.10509760677814484, -0.003256215015426278, -0.08213415741920471, 0.12314872443675995, 0.07864450663328171, 0.07714250683784485, -0.08805447071790695, 0.1248486191034317, 0.12822800874710083, 0.057749923318624496, 0.04833567515015602, 0.10496198385953903, 0.03501332923769951, -0.05251980200409889, -0.12836116552352905, 0.004624451044946909, 0.11202983558177948, 0.02691773697733879, 0.021911418065428734, 0.0660518929362297, -0.030661867931485176, 0.04667864739894867, 0.05305255204439163, -0.08139601349830627, 0.04858315363526344, 0.013085623271763325, -0.08662829548120499, -0.013525629416108131, 0.017692504450678825, -0.01360493153333664, 0.11546309292316437, 0.031316038221120834, -0.034483082592487335, 0.02726397104561329, -0.04524708911776543, -0.06604570150375366, 0.02586566098034382, 0.009737851098179817, 0.050442103296518326, -0.060010433197021484, 0.08889008313417435, -0.02356312982738018, 0.04836009815335274, 0.005172776989638805, -0.052367739379405975, 0.11090759187936783, 0.07187555730342865, -0.11851602792739868, -0.10719707608222961, 0.11046767234802246, -0.046836912631988525, 0.0028151634614914656, -0.09853281080722809, 0.08741926401853561, -0.03692840039730072, 0.04731733351945877, -0.03940834105014801, 0.07774084806442261, 0.056467000395059586, 0.08718074858188629, 0.11244753748178482, 0.10450820624828339, -0.1173836886882782, 0.11898180097341537, -0.1145339086651802, -0.00845757033675909, 0.11294449120759964, 0.06520618498325348, -0.12904463708400726, -0.09771363437175751, 0.1173485741019249, 0.026868492364883423, 0.042787112295627594, -0.004424125887453556, -0.019661176949739456, 0.13410189747810364, -0.03442150726914406, -0.044195111840963364, 0.03381989896297455, -0.04158700630068779, -0.08642368763685226, 0.09066113829612732, 0.0001065435353666544, -0.12005382776260376, -0.08535969257354736, 0.08284316956996918, 0.07589182257652283, 0.12478990107774734, 0.11037729680538177, 0.101841039955616, -0.09635353088378906, 0.050762586295604706, 0.133755624294281, 0.039069145917892456, 0.07970952242612839, 0.040331970900297165, 0.07859355211257935, 0.01247782725840807, -0.043862443417310715, 0.10268881916999817, 0.08826872706413269, -0.11226639896631241, 0.1141333132982254, -0.023954521864652634, 0.12946978211402893, -0.09677170217037201, -0.007596679497510195, 0.06045772507786751, -0.011313477531075478, 0.011068128049373627, 0.17898349463939667, -0.0066945841535925865, -0.08078431338071823, 0.12408119440078735, 0.03845410421490669, -0.021775778383016586, 0.013461723923683167, -0.12511290609836578, -0.046834804117679596, -0.11192209273576736, 0.08061477541923523, 0.12644082307815552, 0.10823511332273483, -0.0971192866563797, -0.02877616137266159, -0.036210041493177414, 0.022067105397582054, -0.01588618755340576, -0.04450276494026184, -0.0660075843334198, -0.01683058962225914, 0.07519636303186417, -0.09808123111724854, 0.019748002290725708, -0.00277639995329082, 0.12260038405656815, 0.04421970620751381, 0.04810584709048271, -0.10661889612674713, 0.0545952208340168, 0.0761634111404419, -0.0965641587972641, -0.10465789586305618, -0.023563597351312637, -0.09307587891817093, 0.03960094600915909, -0.007644591853022575, 0.009903695434331894, 0.07422906160354614, -0.030636722221970558, -0.02545754238963127, 0.09779573231935501, 0.11396666616201401, 0.03225792199373245, -0.04302770271897316, -0.020571893081068993, 0.043252769857645035, -0.10748659819364548, 0.122742660343647, 0.03521936014294624, 0.05951039493083954, 0.08430330455303192, 0.04952864721417427, 0.03793047368526459, 0.11672655493021011, -0.04999519884586334, 0.10424721986055374, -0.1134415790438652, -0.04402127489447594, -0.03771593049168587, 0.11376953125, -0.08275894820690155, 0.019530385732650757, 0.0046830750070512295, 0.03644251823425293, 0.019252322614192963, 0.042891792953014374, 0.03726606070995331, -0.06501375883817673, 0.0022963823284953833, 0.12296042591333389, -0.013906588777899742, -0.10441866517066956, -0.023430174216628075, -0.03462500870227814, 0.0386817567050457, 0.0926651805639267, 0.03591578081250191, -0.025576375424861908, -0.0713588297367096, -0.06143573299050331, 0.09315836429595947, -0.06465893238782883, -0.07373449206352234, -0.03598727285861969, 0.04087548330426216, 0.07903948426246643, 0.04129710793495178, 0.009425326250493526, 0.022912202402949333, -0.10759971290826797, 0.09609043598175049, -0.08500923961400986, 0.10443344712257385, 0.08189181983470917, -0.0713997557759285, 0.09022630751132965, -0.004278896376490593, -0.027403317391872406, -0.04569593816995621, -0.04356524348258972, -0.03597202152013779, -0.03284582868218422, -0.10081419348716736, 0.06930118054151535, -0.08998146653175354, -0.07730936259031296, -0.03670283034443855, 0.05047210305929184, -0.10534433275461197, 0.024032654240727425, 0.021966151893138885, 0.07927331328392029, -0.09768371284008026, 0.11020608246326447, 0.02029247395694256, -0.020547665655612946, 0.041822366416454315, -0.0866011455655098, 0.04783165082335472, -0.11692977696657181, 0.01933799870312214, 0.11990443617105484, 0.06865553557872772, -0.05025863274931908, -0.12177853286266327, 0.0929303988814354, 0.002037056488916278, 0.17511704564094543, 0.020004061982035637, 0.05377785861492157, 0.07519102096557617, 0.11240620166063309, 0.0057249837554991245, 0.00603626761585474, 0.01873091794550419, 0.10173936933279037, 0.07675526291131973, 0.062166113406419754, 0.11600618809461594, 0.10552987456321716, -0.09818261116743088, -0.06052042171359062, 0.08811792731285095, -0.007069949060678482, -0.09434642642736435, 0.08615987747907639, 0.009905769489705563, -0.09757911413908005, 0.11854396015405655, 0.026510294526815414, 0.04523198679089546, -0.026820668950676918, -0.002745779464021325, 0.026927907019853592, 0.06812964379787445, -0.0790235698223114, 0.02663109079003334, 0.08798345178365707, 0.12485302239656448, 0.11562931537628174, 0.02463729865849018, 0.0036180245224386454, 0.0748877078294754, 0.0947609469294548, -0.019142966717481613, 0.08917174488306046, -0.02324892394244671, -0.04678894206881523, -0.045999471098184586, -0.026691481471061707, 0.0009730025194585323, 0.051715925335884094, 0.08398665487766266, -0.06429160386323929, 0.10783201456069946, -0.04663459584116936, 0.0753730982542038, 0.012831243686378002, 0.0494065098464489, 0.055582765489816666, 0.054081209003925323, 0.128815159201622, 0.08117038756608963, -0.005143710877746344, 0.10122087597846985, -0.11442681401968002, 0.09921030700206757, 0.014315151609480381, 0.013392990455031395, -0.05441608279943466, 0.11256708204746246, -0.05073638632893562, -0.09394676983356476, 0.04943590983748436, -0.01865379512310028, 0.12063802778720856, 0.09385993331670761, 0.06004151329398155, 0.11879636347293854, -0.030670251697301865, -0.010692819952964783, -0.10117808729410172, 0.12806865572929382, 0.09793804585933685, -0.06875412911176682, -0.0594831258058548, -0.05788362771272659, -0.021675899624824524, -0.11228525638580322, 0.06201627478003502, -0.05035514757037163, -0.0597953200340271, 0.061052147299051285, -0.10641821473836899, -0.0873987153172493, 0.03011290170252323, 0.09641758352518082, 0.04273829236626625, -0.06820343434810638, 0.09292657673358917, 0.09795214980840683, -0.08354034274816513, -0.030311375856399536, -0.02624041773378849, 0.08260936290025711, -0.05268213525414467, -0.022132331505417824, -0.021613407880067825, -0.012392466887831688, 0.05879908427596092, -0.12262071669101715, 0.057498954236507416, 0.11917105317115784, 0.06550698727369308, -0.0029563058633357286, 0.08079743385314941, -0.04588501527905464, 0.07396262139081955, 0.02498762123286724, 0.01023405883461237, -0.02559548243880272, -0.12141513079404831, 0.013323388993740082, -0.0035465483088046312, 0.06834138184785843, -0.056320905685424805, 0.012038576416671276, 0.11648421734571457, 0.047113511711359024, 0.034088846296072006, 0.009534980170428753, -0.04860200360417366, 0.10743682831525803, 0.007838304154574871, 0.01885206438601017, -0.014470995403826237, 0.12358399480581284, -0.012768933549523354, -0.0034254437778145075, 0.06267286837100983, -0.0004166716826148331, -0.0010417806915938854, -0.09467045217752457, 0.007752971723675728, -0.09371110051870346, -0.009821876883506775, -0.04540766403079033, 0.04965673014521599, 0.01856393925845623, 0.034493256360292435, 0.07547112554311752, 0.11904814094305038, -0.09594415873289108, 0.11181437969207764, -0.05554228276014328, -0.017356419935822487, 0.043675146996974945, -0.041250649839639664, 0.07113855332136154, -0.0504804365336895, 0.0352148711681366, -0.042794376611709595, -0.010245537385344505, -0.003249857109040022, 0.0012197494506835938, -0.04225275665521622, 0.09010612219572067, -0.004326406866312027, 0.04496155306696892, 0.06349270790815353, 0.012077735736966133, 0.08180523663759232, 0.0394984595477581, 0.10089834034442902, 0.10222773253917694, 0.03338601067662239, 0.10755632072687149, 0.030418574810028076, 0.01555843185633421, 0.12807856500148773, 0.05536412447690964, -0.06715760380029678, -0.039074789732694626, -0.008936316706240177, -0.043528396636247635, 0.10282962024211884, -0.004293731413781643, -0.029828274622559547, -0.11502856761217117, -0.018952591344714165, 0.008370769210159779, -0.0918373316526413, 0.11980818957090378, -0.03308974206447601, 0.03628697246313095, -0.07284417748451233, -0.10219550132751465, 0.05072465538978577, -0.10163051635026932, -0.05990566685795784, -0.027272840961813927, 0.029854001477360725, -0.07235822826623917, -0.01035379059612751, -0.05895195156335831, 0.10416312515735626, -0.057004570960998535, 0.03442184254527092, -0.02697588875889778, -0.009921957738697529, -0.025807952508330345, 0.10132743418216705, -0.04982301592826843, -0.09793896228075027, -0.09088140726089478, 0.07478762418031693, 0.014312964864075184, 0.10142215341329575, 0.0377090722322464, -0.039421409368515015, -0.059136055409908295, 0.10910413414239883, 0.09199819713830948, -0.1072903573513031, 0.010734116658568382, 0.09506304562091827, -0.08625123649835587, -0.1023494079709053, -0.1408737450838089, -0.0773141160607338, 0.056812502443790436, -0.05958275869488716, 0.0033656973391771317, -0.09259972721338272, -0.06337319314479828, -0.07466690242290497, 0.06868208944797516, 0.048434995114803314, 0.10369477421045303, -0.10261857509613037, -0.040039025247097015, 0.050130076706409454, -0.07357821613550186, 0.14567343890666962, 0.12021823227405548, -0.030974460765719414, -0.08427432179450989, -0.01789030432701111, 0.06384453177452087, 0.05946750193834305, -0.044777121394872665, 0.0358298197388649, -0.05542922019958496, 0.0903865247964859, -0.13002394139766693, 0.10151433199644089, 0.07638334482908249, 0.05696672573685646, 0.13965550065040588, -0.012542728334665298, 0.14817176759243011, -0.0913223922252655, -0.03735017403960228, 0.02187228761613369, 0.07760385423898697, 0.04999484866857529, 0.08878490328788757, 0.11299844086170197, -0.044012781232595444, 0.10849373787641525, 0.12055672705173492, 0.09798544645309448, 0.03779088333249092, -0.10956162214279175, 0.07050533592700958, -0.08862526714801788, 0.15531674027442932, 0.0042868549935519695, -0.05953732505440712, -0.13604284822940826, 0.08720631152391434, -0.07846064120531082, 0.0220168549567461, -0.008832207880914211, -0.11262067407369614, 0.06679198145866394, 0.1429317593574524, -0.05690373107790947, -0.016689708456397057, -0.03038470633327961, -0.042224761098623276, -0.049291640520095825, -0.03418591991066933, 0.13623474538326263, -0.0436774417757988, -0.03973673656582832, 0.005568677093833685, -0.10073214769363403, -0.11923905462026596, 0.03927183896303177, -0.09668691456317902, -0.08882592618465424, 0.07592865824699402, -0.044656459242105484, -0.12349531054496765, -0.07989443838596344, -0.019935930147767067, 0.09026177227497101, 0.012518750503659248, -0.10019872337579727, -0.036200374364852905, 0.10172372311353683, 0.07067681103944778, 0.11142348498106003, 0.004892697092145681, 0.05576179549098015, 0.02876402996480465, 0.046680159866809845, -0.12600134313106537, 0.057888783514499664, -0.09795092046260834, 0.009655375964939594, 0.06237272545695305, -0.10751065611839294, 0.12323523312807083, -0.08079089969396591, -0.040219496935606, 0.10731231421232224, -0.04710545763373375, 0.03394957631826401, 0.10622995346784592, -0.002567990915849805, -0.08594366163015366, 0.09661827236413956, 0.08242278546094894, 0.01128966175019741, 0.0891517698764801, 0.04546768590807915, 0.024195071309804916, 0.0029165104497224092, -0.010397092439234257, -0.004180405754595995, 0.00238720397464931, 0.042126238346099854, 0.06822486221790314, -0.15095707774162292, 0.05826159194111824, -0.12340099364519119, 