{"input_shape": [null, 20], "output_shape": [null, 1], "activations": "Relu", "dummy_input": [[1.0, 1.0, 1.0, 1.0, 1.0, 1.0, 1.0, 1.0, 1.0, 1.0, 1.0, 1.0, 1.0, 1.0, 1.0, 1.0, 1.0, 1.0, 1.0, 1.0]], "dummy_output": [[0.0945708379149437]], "layers": [{"weight": [-0.02439766749739647, -0.08961834013462067, -0.16258755326271057, -0.14766770601272583, 0.03854125738143921, -0.007526662666350603, 0.2248518168926239, -0.21547815203666687, 0.13478480279445648, 0.15469498932361603, -0.023875555023550987, 0.1268884390592575, -0.14692336320877075, 0.0953337773680687, -0.07990872114896774, 0.1602102369070053, -0.13997113704681396, 0.15574489533901215, 0.10797400772571564, 0.00984097644686699, -0.10557032376527786, -0.1973898708820343, -0.10912874341011047, 0.21741850674152374, 0.08790543675422668, -0.13605736196041107, 0.04916893318295479, 0.1143612340092659, 0.052767518907785416, -0.18752692639827728, -0.004292693454772234, -0.09289020299911499, -0.11708919703960419, 0.08006230741739273, 0.184356689453125, 0.1246621161699295, 0.1913718283176422, 0.20798847079277039, -0.13678844273090363, 0.06552524864673615, -0.04612809047102928, 0.16771720349788666, 0.08864538371562958, 0.14172938466072083, 0.10099204629659653, -0.17169715464115143, 0.09852851927280426, 0.08826866000890732, -0.03845808282494545, -0.056686945259571075, 0.029293032363057137, -0.13209061324596405, 0.2035776823759079, 0.029621561989188194, 0.12413273006677628, -0.16299422085285187, 0.19965976476669312, -0.031108427792787552, 0.21691307425498962, -0.19917966425418854, -0.1585109382867813, -0.2151511162519455, -0.15253081917762756, -0.06205403432250023, 0.1388932466506958, -0.12567321956157684, 0.14070208370685577, -0.1199221983551979, -0.14615079760551453, 0.229018434882164, -0.15507511794567108, -0.13105060160160065, -0.1993333101272583, 0.056163642555475235, 0.06008653715252876, -0.11722151935100555, -0.07859009504318237, 0.14873984456062317, 0.015379750169813633, 0.16309240460395813, 0.09795346111059189, 0.08576805889606476, 0.08321988582611084, 0.041632603853940964, -0.07622431218624115, -0.11210232228040695, -0.04381822422146797, 0.09946998208761215, 0.1500849425792694, -0.10032670199871063, 0.1846664696931839, 0.18760345876216888, 0.11359363794326782, 0.17961138486862183, -0.17933358252048492, 0.12630519270896912, 0.17964039742946625, 0.16902151703834534, 0.12008697539567947, -0.08496349304914474, -0.06343232095241547, 0.07404858618974686, -0.14706817269325256, 0.042823124676942825, -0.22144447267055511, 0.09910114109516144, -0.17267292737960815, 0.10653068125247955, 0.2023782879114151, -0.1966368705034256, 0.12009525299072266, 0.15505535900592804, 0.11491157114505768, 0.19055216014385223, 0.06045377254486084, 0.0705675408244133, -0.06559979170560837, 0.16484668850898743, 0.07008570432662964, -0.11783178150653839, 0.03387962281703949, -0.00731383403763175, -0.05641661211848259, -0.008591030724346638, -0.1214248314499855, 0.16508513689041138, 0.0824635922908783, -0.0900237113237381, -0.21945174038410187, -0.19162847101688385, 0.10406763106584549, -0.17530019581317902, -0.21739576756954193, 0.19622395932674408, 0.0986478179693222, -0.15564830601215363, 0.021520068868994713, 0.04753302410244942, -0.20458070933818817, -0.14269021153450012, 0.21302393078804016, 0.2165515273809433, -0.1288454532623291, -0.13933119177818298, -0.15843629837036133, 0.19971057772636414, 0.19633595645427704, 0.1684897392988205, -0.073463574051857, 0.09012938290834427, -0.08261384069919586, -0.026381969451904297, 0.014587410725653172, -0.14464426040649414, -0.037286512553691864, -0.015948280692100525, -0.11353137344121933, 0.13635653257369995, -0.2198404222726822, -0.1205664724111557, 0.09279170632362366, 0.050964877009391785, 0.06161505728960037, -0.14392445981502533, -0.052909910678863525, -0.11064714938402176, 0.09184721857309341, -0.07168887555599213, 0.14731623232364655, -0.020646721124649048, -0.047227948904037476, -0.1273295283317566, -0.04123062640428543, 0.10157033801078796, 0.17871542274951935, 0.1430376172065735, 0.18494813144207, -0.07901448011398315, -0.022398894652724266, 0.1632966548204422, 0.19667184352874756, 0.009373875334858894, -0.07518245279788971, 0.12312401086091995, -0.07464849948883057, 0.1022336408495903, -0.180930495262146, 0.03558941185474396, 0.028085220605134964, -0.1786217838525772, 0.09005539864301682, -0.06758742779493332, -0.19485263526439667, 0.01880442351102829, -0.17842695116996765, -0.07595610618591309, 0.2014257162809372, -0.1782168745994568, -0.047786466777324677, 0.1782412976026535, -0.146962508559227, -0.055030614137649536, -0.10478600114583969, -0.10643527656793594, -0.10317736119031906, 0.16279397904872894, -0.1854497343301773, -0.04807772487401962, -0.05556531250476837, 0.21974973380565643, 0.1383579522371292, -0.044039253145456314, -0.026744602248072624, -0.21905669569969177, 0.16511064767837524, 0.1133388951420784, -0.07671822607517242, 0.013325339183211327, -0.16859571635723114, -0.10954584181308746, 0.0400814488530159, 0.16671496629714966, 0.059709273278713226, -0.12816856801509857, -0.20230917632579803, 0.13846954703330994, -0.025014465674757957, 0.08319610357284546, -0.14115853607654572, -0.12382327020168304, 0.0015335424104705453, 0.09925227612257004, 0.030260568484663963, -0.21367871761322021, 0.036663882434368134, 0.20818966627120972, 0.20434081554412842, 0.12555807828903198, -0.010218397714197636, 0.12073242664337158, 0.10112424939870834, 0.19502536952495575, -0.13496455550193787, 0.19327335059642792, -0.05420351028442383, -0.22700604796409607, -0.1077987551689148, 0.15794110298156738, -0.00549791194498539, -0.2189657986164093, 0.15817341208457947, -0.1715497076511383, -0.16932420432567596, 0.15003815293312073, 0.03597300499677658, 0.10046431422233582, -0.1398085057735443, 0.0009270033915527165, 0.2216663658618927, 0.2210923135280609, 0.2190580666065216, -0.16217002272605896, 0.010536115616559982, 0.21364736557006836, 0.1741766780614853, -0.06666255742311478, -0.0392100065946579, -0.1263291984796524, 0.17388762533664703, -0.10712047666311264, 0.06756591796875, 0.08674347400665283, -0.10550972074270248, 0.047337863594293594, -0.013172481209039688, -0.09291952103376389, 0.013090559281408787, 0.03426479920744896, 0.08428021520376205, 0.17497530579566956, 0.08975137025117874, -0.0006768573075532913, -0.038457486778497696, -0.11219727993011475, 0.16432835161685944, -0.049519117921590805, 0.09126131981611252, 0.12581948935985565, 0.18571102619171143, -0.030410507693886757, 0.14428925514221191, 0.05866629257798195, -0.029755158349871635, -0.12226790189743042, -0.02266215719282627, -0.04064732417464256, 0.04799376428127289, 0.03700941428542137, 0.002052820986136794, -0.21263621747493744, -0.1981305330991745, 0.12088781595230103, 0.013054870069026947, -0.005601212382316589, -0.07414636760950089, 0.039589304476976395, 0.12841904163360596, 0.10948058217763901, -0.19870664179325104, -0.17993643879890442, -0.08529393374919891, -0.08823776245117188, -0.1486191749572754, 0.027823587879538536, -0.04656967520713806, 0.09015463292598724, 0.011033876799046993, -0.1419825255870819, -0.08256165683269501, 0.047543786466121674, -0.10607871413230896, -0.020145250484347343, -0.19924978911876678, -0.10935929417610168, 0.13481692969799042, -0.003746083937585354, 0.01301591843366623, -0.16203317046165466, 0.08764632791280746, 0.036651257425546646, -0.1039607897400856, 0.019942568615078926, -0.02888304740190506, -0.17759788036346436, -0.17925450205802917, -0.15599001944065094, -0.13031452894210815, -0.13635528087615967, -0.07718007266521454, -0.15166136622428894, 0.0495971143245697, 0.16126029193401337, 0.005132696591317654, 0.024812355637550354, -0.005352363921701908, -0.07516193389892578, 0.18417519330978394, 0.05192490294575691, 0.2237786054611206, -0.10363674908876419, -0.0855478048324585, -0.0022177628707140684, 0.17139191925525665, 0.039320774376392365, 0.15303173661231995, -0.06270155310630798, 0.19617648422718048, 0.2072114646434784, 0.09504444152116776, 0.15139953792095184, 0.10536371171474457, -0.16450490057468414, 0.03234020993113518, 0.12841129302978516, 0.12906955182552338, 0.18943047523498535, -0.1141309067606926, 0.17910082638263702, 0.0788896232843399, 0.17409271001815796, -0.11392814666032791, 0.1493762582540512, -0.026452843099832535, 0.10055868327617645, 0.21063672006130219, -0.10773727297782898, 0.13490501046180725, -0.050827134400606155, -0.00861230120062828, -0.09142477810382843, -0.11185619235038757, -0.20943805575370789, -0.08016867935657501, -0.015439270995557308, -0.059869129210710526, 0.22123274207115173, 0.04984144866466522, -0.04883860424160957, 0.12627999484539032, 0.020837264135479927, -0.06562831252813339, 0.1535811573266983, -0.1382063925266266, 0.006442341487854719, -0.06904082000255585, -0.16339759528636932, -0.20645427703857422, 0.20530736446380615, -0.046047668904066086, -0.18313559889793396, 0.19831892848014832, -0.09988602995872498, 0.09890199452638626, 0.0534621998667717, 0.1041223481297493, 0.10585018247365952, 0.08060535788536072, 0.017379777505993843, 0.1439943164587021, -0.0007718754350207746, 0.02166501060128212, -0.021630937233567238, 0.13513348996639252, 0.19132395088672638, -0.012241218239068985, -0.001122285844758153, 0.03221374750137329, 0.006743474863469601, 0.13520196080207825, 0.21070073544979095, -0.1361435502767563, -0.21540796756744385, 0.07157468050718307, 0.14703860878944397, 0.09053384512662888, -0.2018187940120697, 0.18258292973041534, -0.006804828066378832, 0.07216736674308777, 0.01323813758790493, -0.13673698902130127, -0.08784070611000061, -0.1770143061876297, 0.08636702597141266, -0.10896189510822296, 0.006809075828641653, 0.2011769860982895, -0.21579667925834656, -0.1315668523311615, 0.12360091507434845, -0.019675491377711296, -0.1075112372636795, -0.0726935863494873, 0.11837366223335266, 0.12411488592624664, 0.19277632236480713, 0.03635476157069206, 0.016578415408730507, -0.018468612805008888, 0.03980780020356178, -0.08912453055381775, -0.21963660418987274, -0.2151317596435547, 0.0022257568780332804, -0.030715297907590866, -0.024633677676320076, -0.11506425589323044, -0.00991133227944374, -0.11929669231176376, -0.047177042812108994, 0.20612099766731262, 0.10970558971166611, -0.06582391262054443, 0.1965760886669159, -0.14936736226081848, -0.13159112632274628, -0.17972564697265625, 0.053931426256895065, 0.12978212535381317, -0.17244365811347961, 0.22709615528583527, 0.23136034607887268, -0.16974392533302307, -0.20153415203094482, 0.20864355564117432, 0.07227177172899246, 0.12180279940366745, -0.0961873009800911, -0.217514768242836, 0.2332807034254074, -0.123385488986969, 0.023891329765319824, -0.11675236374139786, -0.07374923676252365, -0.23304888606071472, 0.028981981799006462, -0.1913258582353592, 0.12141036987304688, 0.01141919381916523, 0.17571046948432922, 0.07690418511629105, 0.04652310907840729, -0.14885611832141876, 0.05222290754318237, 0.09906124323606491, -0.10110475867986679, -0.1018112376332283, -0.0510423444211483, 0.15126262605190277, 0.1923481523990631, 0.23976334929466248, 0.2295154631137848, 0.0036051657516509295, -0.0534830316901207, -0.14688484370708466, 0.02917919121682644, 0.05738626793026924, 0.20034755766391754, 0.05841115117073059, -0.13796326518058777, -0.2032252550125122, 0.017647838220000267, -0.12189935147762299, 0.04146629199385643, -0.029791750013828278, 0.16396158933639526, -0.06885681301355362, -0.20694281160831451, 0.0760665014386177, 0.1434459686279297, 0.1533491313457489, -0.1273590624332428, -0.05649537220597267, 0.20811769366264343, -0.13134722411632538, -0.1279999166727066, 0.10392490774393082, -0.19973082840442657, -0.22479568421840668, -0.027093255892395973, 0.029448600485920906, -0.20036791265010834, 0.08641628175973892, -0.1894606649875641, 0.1124514639377594, 0.049669571220874786, 0.013175434432923794, -0.028971992433071136, -0.17693358659744263, 0.1278940886259079, 0.06280841678380966, 0.04901350289583206, -0.1757204383611679, 0.11961813271045685, 0.09165771305561066, 0.20687136054039001, -0.10284747183322906, 0.07770495116710663, -0.01691020280122757, 0.11376868933439255, 0.04116811603307724, 0.1401972770690918, 0.1505889594554901, -0.21691788733005524, 0.16559237241744995, -0.1102537214756012, -0.17055973410606384, -0.11758279800415039, -0.008898908272385597, 0.06369227916002274, -0.10020976513624191, 0.22840751707553864, -0.04901302978396416, 0.03453532233834267, -0.19224917888641357, 0.06520788371562958, -0.22226056456565857, -0.09187470376491547, -0.19026394188404083, 0.17356353998184204, 0.009370810352265835, -0.1681310385465622, -0.18799461424350739, 0.10536590218544006, -0.06536447256803513, -0.03132162243127823, -0.0952901616692543, 0.09471514075994492, 0.19654855132102966, 0.010979930870234966, -0.09957898408174515, 0.006019501481205225, -0.1703343391418457, 0.08411452174186707, -0.19101200997829437, 0.0777297094464302, 0.20708677172660828, -0.21536850929260254, -0.03156339004635811, -0.09742049127817154, -0.10097947716712952, -0.06532567739486694, -0.09110353142023087, 0.0902102142572403, 0.07771078497171402, 0.007448467426002026, 0.05990934744477272, -0.1502564549446106, -0.06662274897098541, -0.11618009209632874, -0.01466638408601284, 0.07698065042495728, 0.19816182553768158, 0.0496952198445797, -0.23475520312786102, 0.1678331196308136, -0.011814351193606853, -0.0914563313126564, -0.13836564123630524, 0.17270849645137787, 0.1817006766796112, -0.08313243836164474, -0.1932833194732666, 0.21999306976795197, -0.025630585849285126, -0.04596075415611267, -0.15057781338691711, -0.014614351093769073, -0.013066955842077732, 0.03309311345219612, -0.10339876264333725, 0.09123474359512329, -0.02205619029700756, 0.06875547021627426, 0.0064157177694141865, -0.1201559379696846, 0.023704754188656807, -0.0360531322658062, -0.06187412515282631, -0.08783101290464401, -0.17150746285915375, 0.06047727167606354, -0.19030025601387024, 0.0005703435163013637, 0.09391683340072632, 0.17752428352832794, -0.02774639055132866, -0.21884649991989136, -0.08113306760787964, -0.01982758939266205, 0.18565769493579865, -0.01698637194931507, -0.036007434129714966, -0.1465851366519928, 0.12912705540657043, -0.22626125812530518, 0.2160036265850067, 0.12138913571834564, -0.1349317729473114, -0.056746985763311386, -0.14062140882015228, 0.12217393517494202, 0.12953874468803406, -0.007577612530440092, 0.04279305040836334, 0.24096103012561798, 0.19372308254241943, 0.08441203832626343, -0.005741745233535767, 0.1820385754108429, 0.04646209627389908, -0.028297709301114082, 0.0014689017552882433, -0.21541115641593933, -0.17067751288414001, -0.18446113169193268, 0.12168952822685242, 0.13587196171283722, -0.07953405380249023, -0.1261468082666397, 0.10646440833806992, 0.014632469043135643, 0.18531878292560577, 0.17221246659755707, -0.17841848731040955, -0.018244139850139618, -0.10015266388654709, 0.052185945212841034, -0.006915491074323654, 0.004648935981094837, -0.18502865731716156, -0.15878070890903473, 0.06663619726896286, 0.17669503390789032, 0.10309512168169022, -0.06817445904016495, 0.05890890210866928, 0.21294566988945007, -0.13835085928440094, 0.17119906842708588, -0.02053573727607727, -0.008440505713224411, 0.1932832896709442, -0.17433540523052216, -0.08797011524438858, 0.22230584919452667, -0.13177312910556793, 0.07472721487283707, 0.042856551706790924, -0.03971342369914055, -0.09458548575639725, -0.09387830644845963, 0.14197298884391785, 0.1486155390739441, -0.04578740522265434, 0.009084982797503471, -0.168155238032341, 0.18229536712169647, 0.03666115552186966, 0.20976713299751282, -0.0025735346134752035, -0.19138051569461823, -0.1959766149520874, -0.09370655566453934, -0.10934824496507645, -0.146799698472023, -0.1324634552001953, 0.08803659677505493, -0.12740789353847504, -0.18354080617427826, -0.2620628774166107, -0.0797085389494896, -0.19504134356975555, 0.20688053965568542, 0.1315063238143921, 0.10600776970386505, 0.17822006344795227, -0.12055713683366776, 0.19289596378803253, -0.11212842911481857, -0.03830097243189812, -0.07480651140213013, 0.0847921222448349, 0.09466090053319931, -0.05099659040570259, -0.10890622437000275, -0.1625995934009552, -0.09103609621524811, -0.09075825661420822, -0.11754006147384644, 0.1201883852481842, -0.0983203873038292, -0.0009885572362691164, -0.09194575250148773, -0.025745680555701256, -0.06658575683832169, 0.03358730301260948, -0.09192081540822983, 0.16832247376441956, -0.13034939765930176, 0.07640428096055984, -0.15865062177181244, -0.20404335856437683, 0.11343642324209213, -0.054728128015995026, -0.0210505872964859, 0.20405982434749603, -0.15310361981391907, 0.07943403720855713, -0.17433235049247742, -0.1225660964846611, 0.03789312392473221, -0.11756884306669235, 0.122469961643219, 0.15099012851715088, 0.1662585288286209, -0.16475479304790497, 0.06785867363214493, -0.04310416430234909, -0.03110237792134285, -0.1451413482427597, 0.13649506866931915, -0.035174597054719925, -0.15990832448005676, -0.10724004358053207, 0.18590357899665833, 0.061352185904979706, 0.19492745399475098, 0.123722605407238, -0.12472797930240631, -0.17099666595458984, 0.020267164334654808, 0.06063466891646385, -0.07246016710996628, 0.2528741955757141, -0.15300481021404266, -0.13584694266319275, 0.020631909370422363, 0.0898548886179924, -0.2094854712486267, -0.12222237139940262, -0.05815930664539337, -0.06780017912387848, 0.12497472763061523, -0.10169249773025513, -0.1744035929441452, 0.019823702052235603, -0.16238722205162048, -0.03497425094246864, -0.21592995524406433, 0.03783400356769562, -0.012683849781751633, 0.015922924503684044, 0.15730002522468567, 0.15022730827331543, 0.10001258552074432, -0.11478658020496368, -0.22815527021884918, 0.16771002113819122, 0.016646595671772957, 0.20019321143627167, 0.1438703089952469, 0.1932935267686844, -0.13558153808116913, -0.10765879601240158, 0.08019603788852692, -0.09796211868524551, 0.06520949304103851, 0.03390301391482353, -0.22288934886455536, 0.1326204240322113, 0.045369286090135574, -0.08471741527318954, 0.1270134150981903, 0.093384750187397, 0.005827954038977623, -0.1930566281080246, -0.05755794793367386, -0.05488557741045952, 0.18325640261173248, -0.20436395704746246, 0.012860702350735664, 0.21031685173511505, -0.04685785248875618, -0.21331657469272614, 0.18732962012290955, -0.09031176567077637, 0.11538376659154892, -0.14945560693740845, 0.2077169120311737, 0.048712000250816345, -0.05297033116221428, 0.1974671483039856, 0.0022391527891159058, -0.055146507918834686, 0.02356594428420067, -0.185451477766037, 0.0015919164288789034, 0.14013943076133728, -0.11984528601169586, -0.083287812769413, -0.011659238487482071, -0.049930959939956665, 0.10480725020170212, -0.15461216866970062, -0.019259944558143616, -0.10426194965839386, 0.1695012003183365, 0.006644308101385832, -0.039935577660799026, 0.027208926156163216, 0.14543984830379486, 0.019547434523701668, -0.17899593710899353, -0.07137300819158554, -0.17840585112571716, -0.06978753209114075, -0.0026000274810940027, 0.0887342020869255, 0.2237708866596222, -0.18832094967365265, -0.04078521206974983, 0.21341872215270996, 0.09072466939687729, 0.0520307682454586, 0.14455361664295197, 0.054534923285245895, 0.21350565552711487, 0.1464320868253708, -0.033774808049201965, -0.03765296936035156, 0.07323621213436127, 0.08614949882030487, 0.02571631595492363, -0.1336415857076645, -0.007822953164577484, -0.16914568841457367, 0.18414129316806793, 0.06051551550626755, -0.08371781557798386, -0.16173677146434784, 0.12768223881721497, -0.05729899927973747, -0.2167670577764511, -0.1562853306531906, 0.07569470256567001, 0.19476264715194702, 0.17088116705417633, 0.15457019209861755, 0.12787577509880066, 0.13055795431137085, -0.14680011570453644, -0.2048616260290146, 0.03499738126993179, -0.11114688962697983, -0.16234943270683289, -0.17608681321144104, 0.020317567512392998, -0.0703912302851677, -0.11621452867984772, 0.0017357963370159268, 0.039874374866485596, -0.09867185354232788, -0.04794851690530777, 0.11061608046293259, 0.15796729922294617, 0.15302976965904236, 0.12039971351623535, -0.1419922560453415, -0.04851872846484184, 0.1711922287940979, -0.22342346608638763, 0.10812173783779144, -0.17690801620483398, -0.20104527473449707, 0.190751850605011, 0.023289833217859268, 0.23942284286022186, 0.0029672947712242603, -0.2110341340303421, 0.1672985553741455, -0.03425844386219978, -0.01725097931921482, 0.06211204081773758, -0.01714009791612625, -0.0546867735683918, 4.2320934880990535e-05, 0.1053631603717804, -0.11306248605251312, 0.15758337080478668, -0.09513113647699356, 0.04472367838025093, -0.04181087017059326, 0.001141035812906921, -0.20644459128379822, -0.156917542219162, 0.013896453194320202, 0.020830607041716576, -0.06282156705856323, -0.23007453978061676, -0.07074788957834244, -0.07957420498132706, 0.16204580664634705, 0.2190278172492981, -0.14958570897579193, 0.19504249095916748, 0.08791521936655045, -0.08427304774522781, 0.06917285174131393, 0.08164748549461365, 0.08224544674158096, 0.13481391966342926, 0.02125699631869793, 0.1463385969400406, -0.13669472932815552, -0.19153033196926117, -0.02858157642185688, -0.020860785618424416, 0.21077877283096313, 0.1860760897397995, 0.1991875320672989, 0.11433088034391403, -0.22778956592082977, 0.14484606683254242, 0.03117244504392147, 0.11603958904743195, -0.14523838460445404, 0.005401409696787596, -0.12754353880882263, -0.1122303232550621, -0.15075306594371796, -0.08456827700138092, 0.02186637558043003, -0.18139731884002686, -0.04996774345636368, -0.17743468284606934, 0.21011655032634735, 0.018010331317782402, 0.10855736583471298, -0.1435987651348114, -0.11277079582214355, -0.1879078447818756, -0.04467727616429329, -0.058643944561481476, -0.11330167949199677, -0.003101039445027709, 0.05720346048474312, -0.011073584668338299, 0.0005032017361372709, 0.08102419227361679, -0.1676032692193985, 0.11251060664653778, 0.20059649646282196, -0.06496285647153854, 0.14814439415931702, -0.014427915215492249, -0.08066891878843307, 0.17523564398288727, -0.17995747923851013, -0.022518841549754143, 0.19911620020866394, 0.09384969621896744, 0.007443188223987818, 0.08285140246152878, 0.1048552393913269, 0.1282835304737091, -0.21708272397518158, -0.020246325060725212, 0.17035247385501862, 0.08932812511920929, -0.09943614900112152, 0.19107794761657715, 0.12010340392589569, -0.05776946619153023, 0.15078997611999512, 0.13759459555149078, -0.29562661051750183, -0.14157021045684814, 0.2553750276565552, -0.018505185842514038, -0.27222079038619995, 0.05575261637568474, -0.1444663107395172, 0.2773887813091278, 0.12567779421806335, -0.27681204676628113, 0.13320982456207275, -0.03138980641961098, -0.11965642869472504, -0.20128388702869415, 0.10903235524892807, 0.13595090806484222, 0.13071699440479279, 0.15076160430908203, 0.058392394334077835, 0.11203473061323166, 0.15336783230304718, -0.018027445301413536, 0.11258034408092499, -0.004715492483228445, -0.2444397211074829, 0.1684720814228058, 0.2196323722600937, 0.14268764853477478, 0.0004842935304623097, 0.20560182631015778, -0.2922739088535309, -0.21359758079051971, -0.19064459204673767, 0.16439667344093323, 0.15964864194393158, 0.14495857059955597, 0.2793084681034088, -0.054766472429037094, -0.0018404871225357056, 0.14463062584400177, 0.22466158866882324, 0.08831875771284103, -0.31677377223968506, -0.1056528314948082, 0.07790657877922058, 0.12291624397039413, 0.1816129833459854, -0.20200656354427338, 0.1588663011789322, 0.14184197783470154, 0.03351001814007759, 0.09461798518896103, -0.13489241898059845, 0.044864099472761154, -0.20383843779563904, -0.06111014634370804, 0.22922901809215546, 0.27600330114364624, -0.10790824890136719, -0.24490533769130707, 0.07181764394044876, 0.22156623005867004, -0.2159905731678009, 0.10644859075546265, 0.20472940802574158, -0.10103794932365417, 0.15457803010940552, 0.04559916630387306, 0.1441294252872467, 0.03946765512228012, 0.23038670420646667, 0.12641271948814392, -0.19355390965938568, -0.11945550888776779, -0.0172826386988163, -0.15388834476470947, -0.08890751749277115, -0.22825761139392853, 0.10297064483165741, -0.13810817897319794, -0.19394776225090027, -0.11012277007102966, 0.11743740737438202, 0.19118498265743256, -0.10393419116735458, -0.03385690599679947, -0.03664013370871544, -0.08288039267063141, -0.24907316267490387, -0.18864358961582184, 0.1833147257566452, 0.16053256392478943, -0.11486689001321793, -0.30194738507270813, 0.1396976262331009, -0.20322662591934204, -0.1869860142469406, 0.14386631548404694, 0.16816125810146332, -0.08526893705129623, 0.09691490978002548, -0.23586444556713104, -0.002460445510223508, -0.0795988142490387, -0.2585434913635254, -0.04447401687502861, 0.12183581292629242, -0.15441101789474487, 0.004897116683423519, 0.0812419056892395, 0.0026312246918678284, -0.20200316607952118, -0.10152259469032288, 0.06613361090421677, 0.14834539592266083, 0.13029178977012634, 0.16691726446151733, 0.040183600038290024, -0.20232190191745758, 0.27745798230171204, -0.09206439554691315, -0.02539469487965107, -0.22139553725719452, -0.22434183955192566, 0.014172484166920185, 0.06982295215129852, 0.24607937037944794, -0.15401723980903625, 0.05276548117399216, -0.09700062870979309, 0.19757284224033356, -0.1568460911512375, 0.3039703071117401, 0.042054783552885056, -0.008788944222033024, -0.29588621854782104, 0.23369082808494568, -0.2874898314476013, -0.0445910319685936, 0.30081233382225037, -0.2833680510520935, 0.028872178867459297, 0.11914892494678497, -0.09575824439525604, 0.21498511731624603, -0.2808437943458557, 0.22204682230949402, -0.23380376398563385, 0.14420855045318604, 0.028865549713373184, -0.24280019104480743, -0.011788059026002884, -0.042508725076913834, -0.22299551963806152, -0.05330697447061539, -0.23700839281082153, -0.18880832195281982, -0.308196485042572, 0.10716043412685394, -0.1332305520772934, -0.19531677663326263, -0.25599053502082825, -0.1203463226556778, -0.15394876897335052, 0.2495081126689911, 0.050055187195539474, 0.12267906963825226, 0.19542288780212402, -0.15599530935287476, -0.3171335756778717, -0.0644342452287674, -0.09879975765943527, -0.3031504154205322, 0.03335865959525108, -0.136285662651062, -0.22346855700016022, 0.23785609006881714, 0.05221758410334587, 0.10632430016994476, 0.032628439366817474, -0.14694605767726898, -0.252206414937973, -0.12954814732074738, 0.1746581494808197, 0.19576503336429596, 0.2191665768623352, -0.2018008828163147, -0.08721642941236496, 0.054137878119945526, 0.10952989012002945, 0.0373760387301445, 0.21716547012329102, -0.12896783649921417, -0.2110784649848938, 0.09420963376760483, 0.12666942179203033, -0.10834432393312454, -0.1316266655921936, 0.025731870904564857, -0.12440643459558487, 0.22114290297031403, 0.02015087567269802, -0.20941945910453796, -0.1313520073890686, -0.07423863559961319, -0.09822960197925568, -0.15703995525836945, -0.12076900899410248, 0.11742512136697769, 0.026093006134033203, -0.16632232069969177, -0.014314276166260242, -0.14848926663398743, 0.10983312129974365, 0.07951010018587112, -0.06980789452791214, -0.1599930077791214, -0.06441882252693176, 0.1429055780172348, -0.04137681424617767, 0.023401815444231033, 0.09482266753911972, 0.22153866291046143, 0.16845256090164185, 0.21252919733524323, -0.05743468552827835, -0.06446416676044464, -0.17440542578697205, 0.10184495151042938, -0.04576631262898445, -0.027850409969687462, -0.22005552053451538, 0.12074337154626846, -0.15880607068538666, -0.06537116318941116, 0.08094999939203262, 0.15720012784004211, -0.1838814616203308, -0.08197708427906036, -0.08424711227416992, -0.1665492057800293, 0.10307899117469788, -0.09258953481912613, -0.07292475551366806, -0.19894276559352875, 0.008555805310606956, -0.12686631083488464, 0.029416823759675026, -0.005968999583274126, -0.18702198565006256, -0.005205038469284773, 0.03623207286000252, 0.191500723361969, 0.21753506362438202], "weight_shape": [64, 20], "bias": [-0.1921604573726654, 0.13217966258525848, 0.13918109238147736, 0.1809273660182953, -0.10955888032913208, 0.21430517733097076, 0.02214631997048855, -0.06533534079790115, 0.015762142837047577, 0.19893541932106018, -0.18402770161628723, 0.028482705354690552, 0.12385395914316177, -0.030492447316646576, -0.10128608345985413, -0.2118719071149826, 0.03716113790869713, 0.05703442916274071, -0.15534600615501404, -0.0005807280540466309, 0.2130454033613205, 0.04009547829627991, 0.1550300419330597, 0.13470931351184845, -0.012333563528954983, 0.042332522571086884, 0.16503523290157318, -0.14730899035930634, -0.02503824792802334, -0.16805201768875122, 0.10148633271455765, 0.1604994833469391, 0.16008028388023376, -0.10121069848537445, -0.22006192803382874, 0.0812564343214035, -0.041721176356077194, 0.0017450795276090503, -0.15139897167682648, 0.05377727001905441, 0.1195598617196083, 0.15701015293598175, -0.13421863317489624, -0.04894556477665901, -0.15827378630638123, 0.19753770530223846, -0.11227427423000336, -0.07474742829799652, 0.08388081192970276, -0.16632896661758423, -0.15194281935691833, -0.2122206687927246, -0.08447778224945068, 0.04278789088129997, 0.1845528483390808, 0.22271570563316345, -0.044556569308042526, -0.07961489260196686, -0.15823118388652802, -0.17125250399112701, -0.07944793999195099, -0.15888996422290802, -0.05855030566453934, -0.019172945991158485], "bias_shape": [64]}, {"weight": [0.08203061670064926, 0.10313791036605835, -0.06672747433185577, 0.12157868593931198, 0.11076068878173828, 0.08928492665290833, 0.018950164318084717, 0.04098467901349068, -0.021608155220746994, 0.016437426209449768, -0.06532587110996246, 0.08546718209981918, -0.10637731105089188, 0.05434398725628853, -0.07659264653921127, 0.09587535262107849, 0.12983602285385132, -0.05452326312661171, -0.09074873477220535, -0.12664338946342468, -0.06728287786245346, -0.12764035165309906, 0.056368403136730194, -0.015061769634485245, -0.08781714737415314, 0.10410702973604202, -0.014114443212747574, 0.09421371668577194, -0.006831044796854258, 0.12371936440467834, -0.05193314701318741, -0.08208951354026794, 0.04872564971446991, 0.03338233381509781, -0.060119789093732834, 0.00362536683678627, -0.08265644311904907, 0.023267360404133797, 0.019043445587158203, 0.07891697436571121, -0.12546533346176147, 0.07648306339979172, -0.10616452246904373, -0.08661796152591705, 0.04499536752700806, -0.08665688335895538, -0.07591570913791656, 0.045213278383016586, -0.012642213143408298, -0.02364748902618885, 0.042150791734457016, 0.053324658423662186, -0.07771138101816177, -0.07825762778520584, -0.07091841101646423, -0.018583029508590698, -0.013972170650959015, -0.07186003029346466, 0.0594496987760067, -0.09750557690858841, 0.07394693046808243, -0.006783106829971075, 0.11422358453273773, 0.052244167774915695, 0.05987970903515816, -0.11027925461530685, 0.07633672654628754, 0.010324562899768353, -0.06535901874303818, -0.10249388962984085, 0.08927328884601593, -0.07411470264196396, -0.11841290444135666, 0.12537696957588196, -0.07818181067705154, -0.07647103071212769, -0.09607847779989243, -0.051640067249536514, 0.021141674369573593, 0.04139018803834915, -0.11860763281583786, 0.023743275552988052, -0.09246506541967392, 0.12015440315008163, -0.0211417805403471, -0.12768730521202087, 0.052582625299692154, 0.07094678282737732, -0.05876002088189125, -0.013741661794483662, -0.006327312905341387, 0.09269731491804123, 0.111754409968853, 0.055764880031347275, -0.05202466621994972, -0.07689828425645828, -0.10761653631925583, 0.14729230105876923, -0.0676906481385231, -0.10162380337715149, 0.033450573682785034, 0.09828928858041763, -0.11162608861923218, -0.07414901256561279, -0.09720039367675781, -0.0116964690387249, 0.02445182390511036, -0.018841929733753204, -0.10901902616024017, -0.06629874557256699, -0.007148647680878639, -0.07896831631660461, 0.0927589163184166, 0.04282496124505997, -0.018386194482445717, 0.004333835560828447, -0.017304185777902603, 0.02912857197225094, -0.09456537663936615, -0.0962420180439949, 0.08472490310668945, -0.024190252646803856, -0.04749158024787903, -0.09997045993804932, -0.0042358809150755405, 0.11934559047222137, -0.01785183511674404, -0.029091499745845795, 0.056211814284324646, 0.07426793873310089, 0.04449448734521866, -0.0007877125171944499, 0.05592270568013191, 0.14488032460212708, 0.1005166545510292, 0.09211472421884537, 0.018784230574965477, 0.053249988704919815, 0.07069435715675354, 0.04548436030745506, -0.04488945007324219, -0.029751773923635483, 0.061653658747673035, 0.017416343092918396, 0.09887157380580902, -0.08162841200828552, 0.04839075356721878, 0.06707420200109482, 0.06770014017820358, 0.10450191795825958, 0.09493919461965561, -0.032378219068050385, -0.06234758719801903, -0.0016768755158409476, 0.09506907314062119, 0.030733106657862663, -0.11416834592819214, -0.09524989873170853, 0.034033387899398804, -0.00591184850782156, 0.11018893122673035, 0.08811867982149124, -0.05298558622598648, 0.10883572697639465, 0.05576985701918602, 0.10385362803936005, -0.022717135027050972, -0.043121807277202606, 0.0922493115067482, -0.042930714786052704, -0.11763473600149155, -0.08895834535360336, 0.06565234065055847, 0.044260717928409576, 0.024017713963985443, -0.05634352192282677, -0.1066611185669899, -0.07667151093482971, 0.05966539680957794, 0.08656945079565048, -0.10975684225559235, -0.014221134595572948, -0.1185683012008667, -0.06129659339785576, 0.06656251847743988, 0.012643205001950264, 0.09166199713945389, 0.01414848119020462, 0.10577891021966934, -0.10116920620203018, 0.0547744520008564, 0.030388928949832916, -0.04188968613743782, -0.055227130651474, 0.05184891074895859, 0.020203720778226852, 0.030479736626148224, 0.11336980015039444, -0.0291721411049366, 0.12476996332406998, 0.12656313180923462, -0.007095102220773697, 0.042565517127513885, -0.10716655105352402, 0.03094635345041752, 0.04598947614431381, 0.021503882482647896, 0.07665260136127472, 0.0007597823860123754, 0.024100322276353836, -0.09817729145288467, 0.10279452055692673, 0.053339771926403046, 0.04646790027618408, -0.04804975539445877, 0.05755912885069847, 0.11881107091903687, -0.10908476263284683, 0.06877417862415314, 0.06002978980541229, -0.0466315783560276, -0.06499256938695908, 0.03890981152653694, -0.06344638764858246, 0.1241493672132492, -0.01751992106437683, 0.05375337600708008, 0.11441292613744736, -0.06796706467866898, 0.1154165267944336, -0.009822433814406395, -0.043902523815631866, -0.06903038173913956, -0.06885449588298798, -0.11158044636249542, 0.045458488166332245, -0.07783767580986023, 0.01876053400337696, 0.04741184785962105, -0.11966296285390854, -0.06026371568441391, -0.039489682763814926, 0.06364362686872482, 0.03500230610370636, 0.06527603417634964, 0.12622787058353424, 0.007530512288212776, -0.013310146518051624, 0.10522288829088211, -0.0498495027422905, -0.04827316477894783, -0.02758707106113434, 0.03424474224448204, -0.09517963975667953, -0.0779387354850769, 0.09842678904533386, -0.08101042360067368, -0.03465826436877251, 0.08773571997880936, -0.05469861626625061, 0.12177173048257828, -0.02153773047029972, -0.06455427408218384, 0.009809784591197968, 0.06439784169197083, -0.03816753625869751, 0.08946624398231506, -0.018717670813202858, 0.05979672074317932, -0.0567006915807724, -0.10302362591028214, 0.09377293288707733, -0.04550117626786232, -0.05344066023826599, 0.07784371078014374, -0.13646335899829865, 0.10591647028923035, -0.07468125969171524, 0.12390908598899841, 0.022035012021660805, 0.04510461166501045, -0.06987258046865463, -0.024148132652044296, -0.005099504720419645, 0.045176949352025986, 0.08880938589572906, 0.038772959262132645, 0.08328454196453094, 0.1079094186425209, -0.020983049646019936, 0.01282049622386694, -0.1125611960887909, 0.11778558790683746, 0.07062676548957825, -0.01846860907971859, -0.00855573546141386, -0.0070029557682573795, 0.04661727324128151, 0.069286048412323, 0.05742360278964043, 0.04146678373217583, -0.053825780749320984, 0.002307767979800701, 0.11745774745941162, 0.054442185908555984, -0.030046697705984116, 0.016290200874209404, -0.085402712225914, 0.09873966872692108, 0.13042975962162018, -0.013516838662326336, 0.016153039410710335, 0.011984346434473991, 0.09408685564994812, -0.03942042961716652, 0.07875820249319077, 0.04740428552031517, 0.04434183984994888, -0.10476715117692947, 0.07639063149690628, -0.022485479712486267, -0.05477471277117729, -0.05365026742219925, 0.06511298567056656, -0.005704806186258793, -0.06888594478368759, 0.11298079043626785, 0.010106914676725864, -0.05748969689011574, 0.027480054646730423, 0.05565912649035454, -0.09194201231002808, 0.1055891141295433, -0.0366741307079792, 0.08299312740564346, 0.08405233174562454, -0.03529053553938866, -0.042334649711847305, -0.012170488014817238, -0.05406086519360542, -0.1097835823893547, -0.07756002992391586, -0.12827447056770325, -0.007219708524644375, -0.00037603251985274255, 0.08998510241508484, 0.03481806442141533, -0.0498797707259655, 0.0825427770614624, 0.07417307049036026, 0.1328435093164444, 0.07382575422525406, -0.005184068810194731, 0.08660373836755753, 0.1305529922246933, -0.11785954982042313, 0.009077121503651142, 0.08039828389883041, 0.006313657388091087, 0.03804671764373779, -0.0656186193227768, 0.04832320660352707, 0.11468467861413956, -0.09230311959981918, 0.13049806654453278, 0.10093048214912415, 0.09294097870588303, 0.04671071842312813, -0.03301146253943443, -0.06609785556793213, 0.01451502088457346, 0.0597865916788578, -0.07169461995363235, 0.1124999150633812, 0.03312622755765915, 0.09758242964744568, 0.11126825958490372, -0.03421855717897415, -0.06236318126320839, -0.051861122250556946, -0.04604047164320946, -0.0905713140964508, -0.010646939277648926, 0.027837224304676056, -0.11513683199882507, -0.034958358854055405, 0.0265087578445673, -0.010624103248119354, -0.14518259465694427, -0.1421404927968979, -0.014979259110987186, 0.033837780356407166, -0.04620294272899628, -0.030506055802106857, 0.11520981043577194, 0.05481985956430435, -0.03817575052380562, 0.03429911285638809, -0.05938633903861046, -0.12106627970933914, 0.01516540627926588, 0.15155120193958282, -0.0725637897849083, 0.06659571081399918, 0.14772066473960876, 0.11450840532779694, -0.03632654249668121, -0.0824693962931633, -0.07333290576934814, 0.0013025382068008184, 0.14271225035190582, -0.11671565473079681, -0.027552111074328423, -0.021399063989520073, 0.07507465779781342, -0.07052512466907501, -0.07168207317590714, -0.12664397060871124, -0.01703958958387375, 0.06732364743947983, 0.03468167409300804, 0.1365741789340973, -0.0198108721524477, 0.09189226478338242, -0.17139491438865662, 0.12240057438611984, 0.012403976172208786, 0.05509853735566139, 0.08857297897338867, 0.01659044623374939, -0.09251037985086441, -0.06746328622102737, 0.0235432256013155, 0.08598524332046509, -0.07037618011236191, -0.06040513142943382, 0.12273041158914566, 0.10269854962825775, 0.021629823371767998, -0.08254285156726837, -0.0896105244755745, -0.04158620163798332, 0.053954292088747025, -0.15323850512504578, 0.0294061116874218, -0.09282559901475906, -0.07210200279951096, 0.059152353554964066, 0.07379429042339325, 0.10594173520803452, -0.06714580208063126, 0.036470141261816025, 0.06446164101362228, 0.09372295439243317, 0.06030996888875961, -0.01975140906870365, 0.04548335075378418, 0.02996443770825863, -0.02737441472709179, 0.08586753904819489, 0.060390207916498184, 0.015211913734674454, -0.07503824681043625, 0.12269752472639084, 0.11030908674001694, -0.000943760562222451, -0.04364081472158432, -0.09895970672369003, -0.05546225607395172, 0.07141458243131638, 0.11534840613603592, 0.1318732351064682, -0.0942268818616867, 0.05399501323699951, 0.0508258081972599, 0.08713483810424805, 0.037262070924043655, 0.026959167793393135, -0.07633449137210846, 0.09056734293699265, 0.0923963412642479, -0.09048809856176376, -0.04002141207456589, 0.08121640980243683, -0.014112363569438457, -0.08286935836076736, 0.07921883463859558, -0.014216199517250061, -0.01793583668768406, -0.03835522383451462, 0.11887917667627335, -0.11007333546876907, -0.11517021805047989, 0.02256096340715885, 0.020842446014285088, -0.054540280252695084, -0.07927517592906952, 0.05002778768539429, 0.06398645788431168, 0.051552269607782364, -0.09993778169155121, 0.11294713616371155, -0.06892876327037811, -0.04074009135365486, 0.0736728385090828, -0.08526834100484848, -0.004278878215700388, -0.0654401108622551, -0.0426158532500267, -0.007472187280654907, -0.046603087335824966, 0.14618170261383057, 0.10502579063177109, -0.12071800231933594, 0.02749796397984028, 0.024242054671049118, 0.068153977394104, -0.036121223121881485, 0.13013696670532227, -0.09574893862009048, 0.0013183595146983862, -0.09737282991409302, -0.07820872217416763, 0.07297421246767044, 0.0709906816482544, -0.09280961006879807, 0.09557812660932541, 0.09028950333595276, 0.0710415467619896, 0.03463492915034294, -0.05265360698103905, 0.03840164467692375, 0.015080749057233334, 0.06271699070930481, -0.07308885455131531, -0.05714501813054085, -0.04923608526587486, -0.07418237626552582, 0.048608534038066864, 0.04178168252110481, 0.10655371099710464, -0.06915505975484848, 0.007530323229730129, -0.08908817172050476, 0.10671886056661606, 0.03296958655118942, 0.12233179807662964, -0.026114916428923607, 0.10236116498708725, 0.09762968122959137, -0.04985283315181732, 0.036608435213565826, 0.13805726170539856, -0.03158985450863838, 0.032313212752342224, 0.03340180590748787, -0.08983499556779861, 0.06826504319906235, 0.11930316686630249, -0.008667546324431896, -0.14942149817943573, 0.025146208703517914, -0.06958023458719254, -0.035497404634952545, -0.00040222241659648716, -0.09588275849819183, -0.03745530545711517, -0.019442373886704445, 0.0997433140873909, 0.0666799321770668, -0.09381527453660965, -0.04455599561333656, -0.001635980443097651, 0.0119944391772151, -0.06250462681055069, -0.04277873784303665, -0.023059343919157982, -0.004641578532755375, -0.10608770698308945, 0.023234322667121887, 0.06566232442855835, -0.02663089893758297, 0.06108143925666809, -0.025548553094267845, -0.09561142325401306, 0.03406590595841408, -0.01855522207915783, 0.05822553485631943, 0.04651031270623207, -0.023800011724233627, 0.0844060406088829, 0.08248946070671082, 0.012300987727940083, -0.039297737181186676, 0.057321999222040176, 0.013288016431033611, 0.027085864916443825, -0.08802085369825363, 0.03560763970017433, -0.11003043502569199, -0.020132984966039658, -0.11655782908201218, 0.07541894912719727, 0.02294384315609932, -0.05849895626306534, 0.0070000626146793365, 0.04880298674106598, 0.003161368425935507, -0.010334547609090805, -0.08911551535129547, 0.0986199676990509, -0.01192418858408928, -0.09028526395559311, -0.02342943847179413, 0.04472505673766136, -0.092210553586483, -0.11067437380552292, 0.007479290943592787, -0.03599041700363159, -0.08261693269014359, 0.008020310662686825, -0.0848594531416893, 0.006992971058934927, -0.002946339314803481, 0.06280369311571121, 0.054378315806388855, -0.044455673545598984, 0.07770097255706787, -0.02085915207862854, -0.03318062797188759, 0.05319325253367424, -0.06748439371585846, -0.016555560752749443, 0.03208772838115692, -0.09060178697109222, 0.1332886815071106, -0.017222406342625618, -0.05516901612281799, 0.08588733524084091, 0.007716719526797533, 0.08318744599819183, 0.1029197946190834, -0.0477060005068779, -0.053481925278902054, 0.10426277667284012, -0.06294896453619003, 0.10054225474596024, 0.02696429193019867, -0.002591005526483059, 0.11613748222589493, 0.07372266799211502, 0.0001081163645721972, -0.07714042067527771, -0.13415908813476562, 0.049013424664735794, -0.058621667325496674, 0.09973681718111038, -0.05441499873995781, 0.0877494066953659, 0.08382756263017654, -0.03955615684390068, 0.10123738646507263, -0.09199592471122742, -0.09604738652706146, 0.03383597731590271, 0.09805620461702347, 0.07169724255800247, -0.06936555355787277, -0.031114794313907623, -0.05758372321724892, -0.03879107907414436, -0.08979368209838867, 0.10708297044038773, 0.17400744557380676, 0.06963362544775009, -0.026334229856729507, 0.03485173359513283, -0.033642541617155075, 0.06831683963537216, -0.04955470934510231, 0.13615263998508453, -0.029526181519031525, -0.0040405914187431335, -0.019978705793619156, -0.08275512605905533, 0.06627243012189865, -0.08944591134786606, 0.045594748109579086, -0.11667513102293015, -0.04175975173711777, -0.05603223666548729, -0.10302578657865524, -0.03312738239765167, -0.058480434119701385, 0.07413939386606216, 0.010434621013700962, 0.130674809217453, -0.07255710661411285, 0.03042960725724697, -0.07145053893327713, 0.05918879806995392, -0.0627487301826477, 0.0276006031781435, 0.09301148355007172, -0.0687834843993187, -0.11959294229745865, 0.055206745862960815, -0.016854174435138702, 0.03276306390762329, -0.07789356261491776, 0.04250926524400711, 0.08696480840444565, 0.0943772941827774, -0.09692446887493134, 0.11644063889980316, -0.04941854998469353, -0.09280503541231155, 0.05123988166451454, -0.05925110727548599, -0.08402711153030396, -0.0677184984087944, 0.005058681592345238, 0.02234162762761116, 0.012877190485596657, -0.1075717955827713, 0.11529133468866348, -0.0968787670135498, 0.12766732275485992, -0.10558804869651794, -0.06659918278455734, -0.011062790639698505, -0.012240842916071415, 0.08507302403450012, -0.009445782750844955, 0.05069776251912117, -0.0628771185874939, 0.07952505350112915, -0.08986226469278336, 0.027157628908753395, 0.1272715926170349, 0.021466687321662903, -0.016096923500299454, -0.008351298049092293, -0.061643265187740326, 0.057431720197200775, 0.0377952978014946, -0.11374835669994354, -0.0719650536775589, -0.0802285373210907, 0.06947648525238037, -0.03030262142419815, -0.033615078777074814, 0.024104531854391098, 0.08399347215890884, -0.02301361784338951, -0.07854283601045609, 0.05157383531332016, -0.016985351219773293, 0.03554058447480202, 0.004362913779914379, 0.04701187461614609, 0.0037808227352797985, -0.03300395980477333, -0.11317802220582962, -0.07990594208240509, -0.02667718008160591, 0.044963810592889786, 0.0732518881559372, -0.04262150824069977, -0.13033416867256165, 0.06399254500865936, -0.06081439554691315, -0.09662993252277374, -0.05237989500164986, 0.056544046849012375, 0.10235361754894257, 0.037309564650058746, 0.010199177078902721, 0.12941618263721466, -0.11671631038188934, 0.00728459982201457, -0.07583115994930267, 0.0020566806197166443, -0.11273563653230667, 0.04636862128973007, -0.08470498770475388, 0.09175962209701538, 0.14060038328170776, -0.048150818794965744, 0.06202629208564758, -0.037690725177526474, -0.0573592483997345, -0.057198625057935715, -0.03537513688206673, 0.12114488333463669, -0.016197670251131058, -0.04553508386015892, -0.09179984033107758, 0.11816029995679855, -0.006721009034663439, 0.07330290228128433, 0.04271680489182472, 0.004437041934579611, -0.03136651590466499, 0.14701223373413086, 0.04698421433568001, 0.008709353394806385, -0.018566500395536423, 0.06465815752744675, -0.032416701316833496, 0.03737746924161911, -0.009891697205603123, -0.027201641350984573, 0.11191043257713318, -0.01965639740228653, 0.12569816410541534, 0.09725306928157806, -0.05967187508940697, -0.09690901637077332, 0.0436602421104908, 0.04009420424699783, -0.12021630257368088, -0.1209835484623909, 0.00516556715592742, -0.03941909968852997, 0.09044288098812103, -0.07083776593208313, -0.10182181745767593, 0.07134445756673813, -0.07394888997077942, 0.013434233143925667, -0.10320432484149933, -0.031151801347732544, -0.004217282868921757, 0.015735337510704994, 0.12721222639083862, -0.012392280623316765, 0.013225069269537926, -0.08938445895910263, -0.10669159889221191, 0.026955023407936096, 0.04795257747173309, 0.10406381636857986, -0.04607202485203743, 0.05554167926311493, 0.035892728716135025, 0.04899262264370918, 0.11208073794841766, -0.05760251358151436, 0.04213040694594383, -0.046585243195295334, -0.06446347385644913, 0.09133772552013397, -0.10091859847307205, -0.08621249347925186, -0.02367391623556614, -0.12690873444080353, -0.030297700315713882, 0.09489399194717407, 0.10818484425544739, 0.07187571376562119, -0.034130651503801346, 0.019293488934636116, -0.04208054766058922, 0.07306764274835587, 0.12403818219900131, 0.1190384030342102, 0.02649061195552349, -0.03754699230194092, 0.0720423236489296, 0.10585800558328629, 0.09218353778123856, -0.10536463558673859, 0.10957811027765274, 0.0733882337808609, 0.06906385719776154, 0.1098230630159378, 0.04499387741088867, -0.01229974813759327, -0.0467749759554863, 0.06819719076156616, 0.04391592741012573, -0.05923163890838623, 0.04648306220769882, -0.0015929082874208689, 0.014623521827161312, -0.09911666810512543, 0.10212896019220352, -0.08286958187818527, 0.040850263088941574, -0.11800780147314072, 0.02144012413918972, -0.12971311807632446, -0.028236139565706253, 0.12809497117996216, -0.05975227430462837, -0.06275598704814911, 0.045031171292066574, -0.015916142612695694, -0.08265915513038635, -0.054681211709976196, 0.04306776821613312, -0.04984244331717491, 0.022423187270760536, 0.055732693523168564, 0.08127252757549286, 0.06084737554192543, -0.07391831278800964, 0.03100718930363655, 0.14088746905326843, 0.034546222537755966, 0.08861783146858215, -0.07472998648881912, 0.12100755423307419, -0.09063874185085297, 0.1287350207567215, 0.060934025794267654, 0.017647240310907364, 0.06480337679386139, -0.11680272221565247, 0.05316430330276489, -0.04070981591939926, -0.021734388545155525, 0.06838752329349518, 0.029026808217167854, 0.08342195302248001, 0.06282883882522583, -0.040438517928123474, -0.09095722436904907, -0.09021953493356705, 0.1497049778699875, 0.058063775300979614, -0.02414792776107788, 0.10222329944372177, -0.07332128286361694, -0.03938189148902893, -0.06804201751947403, -0.05832095071673393, 0.05899874120950699, 0.13920725882053375, 0.053583789616823196, 0.03272725269198418, 0.07316666096448898, -0.029114605858922005, -0.09924883395433426, 0.00967276282608509, -0.056678272783756256, 0.07516864687204361, -0.033541563898324966, 0.016573568806052208, 0.0773613229393959, 0.1037650853395462, -0.02749347873032093, 0.007321891840547323, -0.07620895653963089, -0.030613349750638008, 0.044789548963308334, 0.054892487823963165, -0.010026432573795319, 0.17569217085838318, -0.04144492372870445, -0.045742906630039215, 0.10889974236488342, -0.07494524866342545, 0.1284128576517105, 0.012478744611144066, -0.13195131719112396, 0.028872404247522354, 0.1619323343038559, 0.04770277813076973, 0.06127627566456795, -0.092452272772789, -0.021963143721222878, 0.07097084075212479, 0.07521045207977295, 0.024437949061393738, -0.058875687420368195, 0.06208508834242821, 0.06351926177740097, -0.025307971984148026, -0.028206802904605865, -0.0746765285730362, 0.0730084553360939, -0.05014101043343544, 0.016047155484557152, -0.08223894238471985, -0.03507554531097412, -0.08173900842666626, 0.00817287527024746, -0.02750435285270214, 0.12916891276836395, -0.005989957135170698, -0.10815825313329697, 0.12427773326635361, 0.0760955885052681, 0.015404981561005116, 0.05378306657075882, -0.03803957626223564, -0.009657295420765877, -0.044643551111221313, -0.045008085668087006, 0.00044908589916303754, -0.025263993069529533, 0.0923939198255539, -0.09635993838310242, 0.06146443262696266, -0.07957500219345093, 0.0002980782592203468, 0.09881731122732162, 0.0389055460691452, -0.05621461197733879, -0.004354253876954317, -0.008587627671658993, 0.0937177911400795, -0.01365730818361044, -0.04821879416704178, -0.0674075111746788, 0.011973501183092594, 0.06427685171365738, -0.0761227160692215, -0.08018014580011368, -0.08810646831989288, -0.030287310481071472, -0.03830839321017265, 0.09520309418439865, -0.13023272156715393, 0.006769315805286169, -0.025468045845627785, 0.0007755841943435371, 0.13882191479206085, -0.020655419677495956, 0.19977113604545593, 0.002465110504999757, 0.14895103871822357, 0.02364029549062252, 0.03309192135930061, 0.04076273366808891, -0.04456397518515587, 0.019551696255803108, 0.14490452408790588, 0.06295017898082733, -0.11556734889745712, 0.02264062501490116, 0.03845774009823799, -0.0026758862659335136, -0.07495341449975967, 0.13857729732990265, 0.04298632964491844, 0.04255946725606918, -0.0012134670978412032, 0.10126130282878876, 0.013280698098242283, -0.0017888187430799007, -0.05842241644859314, 0.05895248055458069, -0.17143286764621735, -0.017773466184735298, -0.04319287836551666, -0.08971641957759857, 0.024215232580900192, 0.08473347127437592, -0.010419156402349472, -0.08291339129209518, -0.05831417441368103, 0.05226413160562515, -0.029216477647423744, 0.030613217502832413, -0.007207822520285845, -0.012174646370112896, -0.08934281766414642, -0.0033414734061807394, 0.03225480392575264, -0.09365072101354599, -0.0809352770447731, 0.10264807194471359, 0.1312091201543808, 0.054141875356435776, 0.03809890151023865, 0.01293307263404131, -0.028290238231420517, -0.022778870537877083, 0.060386691242456436, 0.04943273589015007, 0.1722879260778427, 0.11371789127588272, 0.14161285758018494, -0.0916324183344841, -0.05269389972090721, -0.102554552257061, -0.12565599381923676, -0.030667416751384735, 0.0109170600771904, -0.06639037281274796, 0.12273122370243073, -0.125740647315979, 0.05860985070466995, 0.12651216983795166, -0.03789202496409416, 0.005647672805935144, -0.11060801148414612, -0.0404634028673172, -0.13963180780410767, -0.08492250740528107, 0.08816695213317871, 0.10538692027330399, -0.03233963996171951, 0.10850834846496582, -0.035988692194223404, 0.01378992386162281, -0.055211011320352554, 0.10685789585113525, -0.047500137239694595, -0.04946846887469292, 0.0021289822179824114, -0.028319522738456726, 0.013758037239313126, 0.049774713814258575, -0.09434359520673752, -0.031213192269206047, -0.10946683585643768, -0.08531609177589417, -0.05721250921487808, 0.0134647311642766, -0.04526877775788307, 4.453230940271169e-05, -0.023096807301044464, -0.08053609728813171, -0.023651577532291412, 0.11202485859394073, 0.04784137010574341, -0.08192860335111618, -0.03882448002696037, -0.031150849536061287, -0.057946592569351196, 0.07265050709247589, 0.030437570065259933, 0.07245207577943802, -0.10750079154968262, -0.0953335389494896, 0.12746024131774902, 0.11517060548067093, -0.09224019944667816, 0.07031069695949554, -0.019673097878694534, -0.04627346619963646, 0.003951372113078833, 0.06521716713905334, 0.06256858259439468, -0.0702228769659996, -0.01854921504855156, -0.08044759184122086, -0.07870275527238846, 0.0037518623284995556, -0.07848747074604034, 0.07798192650079727, 0.08216869831085205, 0.038931019604206085, -0.12494295835494995, 0.02214234136044979, 0.07434682548046112, -0.11119017004966736, -0.039505988359451294, 0.043652020394802094, 0.03207140415906906, -0.0716172307729721, -0.007768650073558092, -0.08100658655166626, -0.03085004910826683, 0.05334459990262985, 0.010287702083587646, -0.08653660118579865, 0.09579329192638397, 0.07018452882766724, -0.042370185256004333, -0.02286052703857422, -0.03527914360165596, 0.014354265294969082, 0.0041924528777599335, -0.042730942368507385, 0.022460494190454483, 0.03575944900512695, 0.1359347403049469, 0.14934471249580383, 0.1047559455037117, -0.010711709968745708, -0.13120324909687042, 0.005054440815001726, 0.11364839226007462, -0.05432940274477005, 0.10681290179491043, -0.08471895754337311, 0.0608845055103302, -0.1546536535024643, 0.08630768954753876, -0.042966220527887344, 0.018989482894539833, -0.0015369926113635302, -0.036855097860097885, -0.05533051863312721, 0.00032036015181802213, -0.05927852541208267, -0.01487183291465044, -0.020161041989922523, 0.04747990891337395, 0.057654812932014465, -0.021719081327319145, -0.06372561305761337, 0.13045166432857513, -0.07394347339868546, -0.023017212748527527, 0.09028151631355286, -0.11672817170619965, 0.057497743517160416, 0.10975789278745651, 0.09048455208539963, -0.0194415170699358, -0.017622364684939384, 0.005529471207410097, 0.042938314378261566, 0.06392433494329453, 0.061114352196455, 0.009581584483385086, 0.0052244653925299644, -0.11193133145570755, 0.13232941925525665, 0.02635347843170166, 0.06376641243696213, 0.10490091145038605, -0.1104883998632431, -0.06460122764110565, 0.03482547774910927, 0.05925559625029564, 0.06436891108751297, -0.006609773728996515, -0.019304050132632256, 0.09216982126235962, -0.08530093729496002, -0.0722057893872261, -0.006059618201106787, -0.0893210917711258, 0.08497156202793121, 0.01560559868812561, 0.11865568906068802, 0.10573723167181015, 0.10568920522928238, -0.0367962047457695, 0.019742650911211967, -0.03303392976522446, -0.06725755333900452, -0.013398192822933197, -0.030508870258927345, -0.004239166155457497, 0.04888295382261276, 0.06858661770820618, 0.07235104590654373, 0.04587918892502785, 0.06361770629882812, 0.10970962047576904, -0.08028976619243622, 0.04627321660518646, 0.026001375168561935, 0.05362643674015999, 0.08581843972206116, 0.0007149564335122705, 0.1315651535987854, -0.07482931762933731, 0.1076212152838707, -0.035033829510211945, -0.09615479409694672, 0.057336531579494476, 0.1382608711719513, 0.08071860671043396, 0.05853750929236412, -0.0711432471871376, -0.001407040050253272, 0.03892781212925911, 0.030109114944934845, 0.10874293744564056, 0.07045071572065353, -0.10004132986068726, 0.029213985428214073, -0.11686888337135315, -0.0016436455771327019, -0.11422502994537354, -0.05237296223640442, 0.0026502853725105524, -0.056890662759542465, -0.10266833007335663, 0.1057797446846962, -0.10331889986991882, 0.014695831574499607, -0.027129800990223885, -0.009762047789990902, -0.052614398300647736, 0.06672277301549911, 0.04711924120783806, 0.006470106076449156, 0.0372193418443203, -0.06647592782974243, 0.006609008647501469, -0.09570485353469849, -0.0748899057507515, 0.12176168709993362, -0.020153643563389778, 0.06972148269414902, -0.11121881008148193, -0.022533472627401352, -0.09946021437644958, -0.062480680644512177, 0.11373307555913925, -0.011173434555530548, 0.059857405722141266, 0.06442013382911682, 0.058357447385787964, 0.058053191751241684, 0.04880015552043915, 0.08093086630105972, 0.031207216903567314, 0.050920404493808746, 0.10113207995891571, 0.0331638865172863, 0.02152104489505291, -0.08200050890445709, -0.011936040595173836, -0.10220853984355927, -0.02838827297091484, -0.107733353972435, -0.0193827785551548, 0.057589009404182434, -0.1236959770321846, 0.023591328412294388, -0.10000428557395935, 0.052123911678791046, 0.007998750545084476, -0.024265863001346588, -0.00969626009464264, -0.02911260724067688, -0.006526683922857046, -0.011277920566499233, -0.010774608701467514, 0.05530683696269989, 0.1234951838850975, 0.03492017090320587, -0.07884300500154495, 0.006086551118642092, 0.08185523003339767, -0.0743112787604332, 0.008156899362802505, -0.06424707174301147, -0.10143507272005081, -0.06457936763763428, -0.04605664685368538, 0.045488547533750534, 0.019040977582335472, 0.12439537048339844, 0.10660383105278015, 0.006580549757927656, 0.0224943645298481, 0.025062311440706253, -0.07908181846141815, 0.11424791067838669, -0.007301162462681532, 0.031239982694387436, 0.05145847052335739, 0.00502611231058836, 0.026273304596543312, 0.10108234733343124, 0.11213285475969315, -0.07765237241983414, 0.1082783192396164, 0.05890989303588867, -0.11091647297143936, 0.10795781016349792, 0.011071479879319668, 0.002525762189179659, -0.027367662638425827, -0.08293207734823227, 0.04965343326330185, 0.12300179153680801, 0.13890330493450165, 0.06667404621839523, 0.10581875592470169, -0.06685414910316467, -0.08494366705417633, -0.06970171630382538, -0.032699182629585266, -0.06480325758457184, 0.08184649050235748, 0.09012967348098755, -0.07364658266305923, 0.09608710557222366, -0.09476425498723984, -0.09127545356750488, 0.02800377644598484, 0.06080402061343193, 0.08430095762014389, 0.032430294901132584, 0.10588520020246506, 0.1259942203760147, 0.09776576608419418, 0.038265157490968704, -0.08146220445632935, -0.01761884056031704, 0.11575734615325928, -0.08831611275672913, 0.031247876584529877, -0.006534309592097998, 0.10485618561506271, -0.10004594177007675, 0.09080301970243454, -0.0008066102745942771, 0.07559383660554886, 0.09469195455312729, -0.10188543796539307, 0.08451026678085327, 0.06083601713180542, 0.07467901706695557, -0.06661048531532288, -0.04413652420043945, 0.003175188321620226, -0.036194223910570145, -0.13808797299861908, -0.008945297449827194, -0.11052410304546356, -0.08851839601993561, 0.13586437702178955, 0.06022559851408005, -0.006821996998041868, -0.06619162112474442, -0.07791810482740402, 0.10746414959430695, -0.06070084124803543, -0.0035529849119484425, 0.13747982680797577, 0.1583080142736435, -0.05338937044143677, 0.05907326191663742, -0.042330946773290634, -0.020220929756760597, -0.11902429163455963, 0.06147230416536331, -0.07372637838125229, 0.04334450513124466, -0.06218451261520386, -0.034975405782461166, 0.11018429696559906, -0.07093215733766556, 0.18273617327213287, -0.10274950414896011, -0.04563320800662041, 0.06632258743047714, -0.0013645688304677606, -0.01738138683140278, -0.03940105438232422, 0.09930158406496048, 0.03304530680179596, -0.07716290652751923, 0.10583065450191498, -0.0015666477847844362, 0.0979234054684639, -0.003739260835573077, -0.0998920425772667, 0.11281240731477737, -0.07810840755701065, -0.002887149341404438, -0.11383964866399765, 0.015439644455909729, -0.08690520375967026, -0.060338735580444336, -0.01952175982296467, -0.04023680463433266, 0.10164856910705566, -0.08654791861772537, 0.05468783527612686, 0.13410773873329163, -0.07242084294557571, -0.06714849174022675, -0.053245555609464645, 0.06874252110719681, -0.09682177752256393, -0.08592540770769119, -0.08077733963727951, -0.005600864067673683, 0.09654524177312851, 0.059197042137384415, -0.12014223635196686, -0.1264658272266388, 0.04302462190389633, -0.023967746645212173, 0.11680439859628677, -0.060679078102111816, 0.09622690826654434, 0.08121562004089355, -0.032944612205028534, -0.028470175340771675, -0.03244728967547417, 0.050156962126493454, 0.04348009452223778, -0.004474821966141462, -0.09628843516111374, -0.051834724843502045, 0.09199363738298416, -0.07017869502305984, 0.012468092143535614, 0.04279591515660286, -0.016079934313893318, 0.033499009907245636, -0.001026705838739872, 0.0253443606197834, -0.015297247096896172, -0.013178383000195026, 0.05925564095377922, -0.0719386637210846, 0.003293033456429839, 0.1079125925898552, 0.14174862205982208, -0.0780852884054184, -0.026984451338648796, -0.005663310643285513, 0.06537025421857834, -0.04844998940825462, 0.06162349879741669, 0.035795606672763824, -0.04747190326452255, 0.10302670300006866, -0.1200731173157692, 0.07247532159090042, 0.02746831625699997, -0.10540635138750076, 0.10523785650730133, -0.03673064336180687, -0.023520950227975845, -0.12269073724746704, -0.11367325484752655, 0.08907854557037354, 0.07697328925132751, -0.07888847589492798, -0.11575872451066971, 0.13622650504112244, 0.06024744361639023, -0.12395081669092178, -0.07160913199186325, 0.08398507535457611, -0.08937642723321915, -0.002905628876760602, 0.08605145663022995, 0.03193311765789986, -0.0028452377300709486, 0.04484063759446144, 0.11358257383108139, 0.04596910625696182, -0.06821259111166, -0.09166651964187622, 0.04279879108071327, -0.06470645219087601, -0.11284530162811279, 0.08886703103780746, -0.01442064717411995, -0.036236390471458435, 0.06686021387577057, 0.08640212565660477, 0.10530804842710495, -0.014408663846552372, 0.10724564641714096, -0.012778149917721748, -0.0911533311009407, -0.10475607961416245, 0.10326078534126282, -0.125552698969841, -0.0327763594686985, 0.04898234084248543, -0.05114545673131943, 0.03819962590932846, 0.031106991693377495, -0.012282784096896648, 0.06115823984146118, -0.019578630104660988, -0.07617965340614319, -0.09096341580152512, 0.125716894865036, 0.030364789068698883, 0.0855432003736496, -0.05837162584066391, 0.11219708621501923, -0.00949497614055872, 0.05233597382903099, 0.00028569361893460155, 0.11398913711309433, -0.07284186780452728, -0.12637783586978912, -0.1274244487285614, -0.046606890857219696, -0.04701150581240654, -0.04907749593257904, -0.020579732954502106, -0.07075770199298859, -0.052530061453580856, -0.05168243497610092, -0.10595095157623291, -0.013565098866820335, 0.0823463723063469, 0.029212603345513344, -0.015227372758090496, -0.0483306422829628, -0.08166375011205673, 0.10019303113222122, 0.057918187230825424, -0.06918735802173615, -0.06996719539165497, 0.03288125991821289, 0.08866225928068161, -0.030947109684348106, -0.11735393106937408, 0.03815846890211105, -0.09801802784204483, -0.05201765149831772, -0.005377020686864853, -0.03888656944036484, 0.11053578555583954, -0.12044219672679901, -0.09917833656072617, 0.029031718149781227, -0.04688970744609833, -0.048099618405103683, 0.09305544197559357, 0.08164931833744049, -0.10561386495828629, -0.018382251262664795, 0.019993366673588753, -0.08466023951768875, -0.05111914500594139, 0.010802366770803928, -0.03121759742498398, 0.11646540462970734, -0.09338640421628952, -0.0660121887922287, 0.054588351398706436, 0.0835784524679184, 0.07711080461740494, -0.14033930003643036, 0.01567639783024788, 0.09424179792404175, 0.06452073156833649, 0.1171317994594574, -0.0450608916580677, 0.13162900507450104, -0.03825639188289642, -0.1204904168844223, -0.026292867958545685, -0.05866660177707672, -0.01884830743074417, 0.030404364690184593, -0.03395065292716026, 0.06972004473209381, 0.11285748332738876, 0.10754246264696121, 0.0936170145869255, 0.10752610117197037, 0.11959253251552582, 0.040505748242139816, 0.10439232736825943, 0.12311633676290512, -0.057160720229148865, -0.05154673755168915, 0.11991788446903229, -0.10140512138605118, -0.09434258192777634, -0.09459715336561203, -0.04174228385090828, -0.005207417067140341, -0.09166226536035538, 0.03754173591732979, -0.06845512241125107, -0.0211038701236248, 0.08272436261177063, -0.09200724214315414, -0.03845244646072388, -0.013500463217496872, 0.03956170752644539, -0.04487251117825508, -0.019340259954333305, 0.12444598227739334, 0.02346428483724594, 0.11449237167835236, 0.0913841724395752, -0.09097099304199219, -0.10248506814241409, 0.04708552360534668, 0.06177163124084473, 0.007977996952831745, 0.09099756926298141, -0.06214926391839981, 0.05037343502044678, 0.05911727622151375, 0.05087622255086899, -0.013241058215498924, 0.027957117184996605, 0.02681650221347809, -0.04496484994888306, -0.006736870389431715, 0.01068479847162962, -0.047288477420806885, -0.10319910943508148, -0.008159146644175053, 0.022447118535637856, 0.09700703620910645, 0.09204369783401489, 0.0817020982503891, 0.06537479162216187, 0.06196568161249161, 0.11968137323856354, 0.031762827187776566, -0.11860081553459167, -0.061892542988061905, -0.10169344395399094, 0.018352806568145752, -0.05811470374464989, -0.12252143770456314, -0.08341943472623825, 0.057150453329086304, -0.027767738327383995, 0.050844427198171616, 0.10146434605121613, 0.06134340539574623, 0.004970444831997156, 0.035678163170814514, 0.09489411115646362, -0.07004596292972565, 0.12019934505224228, 0.052946895360946655, -0.01908186636865139, -0.06974434852600098, -0.012574895285069942, -0.09653813391923904, -0.04259835556149483, -0.08757258951663971, -0.02523285336792469, 0.0483132041990757, -0.11766399443149567, 0.0633997842669487, 0.04226018488407135, -0.10395155102014542, -0.0976133719086647, -0.010117835365235806, -0.07331986725330353, 0.0827333852648735, -0.023393480107188225, -0.03127196058630943, 0.0995318740606308, -0.07860255986452103, -0.10510580986738205, 0.07161567360162735, -0.03200637921690941, 0.1024864986538887, -0.1104552298784256, 0.07144584506750107, -0.10625296831130981, -0.07711461931467056, 0.12113586813211441, 0.024860134348273277, 0.05632622539997101, -0.06281028687953949, -0.11948086321353912, 0.10418939590454102, 0.039204709231853485, 0.06021307036280632, 0.045081451535224915, -0.02656303159892559, 0.029000384733080864, -0.06951241940259933, 0.10392982512712479, 0.11679442226886749, -0.09515967220067978, -0.019131913781166077, -0.09437713772058487, -0.006262637674808502, 0.05409250780940056, -0.0020197241101413965, -0.06491962820291519, -0.00833225715905428, -0.1085844486951828, 0.020530713722109795, 0.11225598305463791, 0.09156495332717896, -0.0388927087187767, -0.086967833340168, 0.10395026206970215, -0.043936822563409805, -0.0034537077881395817, 0.01672673411667347, -0.05939695984125137, -0.09703973680734634, -0.0033784823026508093, 0.009587420150637627, -0.1007440835237503, 0.1330471783876419, -0.12506239116191864, -0.11313009262084961, 0.1592436134815216, 0.0532076470553875, -0.0004303957393858582, -0.12697209417819977, 0.013908717781305313, -0.006968663539737463, 0.04405837878584862, 0.1366022676229477, -0.10873489081859589, -0.12235511094331741, -0.10293490439653397, 0.12693506479263306, -0.10896791517734528, 0.0700603649020195, -0.027647001668810844, 0.07573813945055008, 0.013296220451593399, -0.04040609300136566, -0.02057664655148983, -0.04924139752984047, -0.023329125717282295, -0.09690720587968826, 0.1324833631515503, 0.14295589923858643, 0.035002849996089935, -0.029948638752102852, 0.02827027440071106, 0.11880818009376526, 0.05720299854874611, 0.09040163457393646, 0.08205940574407578, 0.001542458776384592, -0.07746217399835587, 0.04156528785824776, 0.05220378190279007, 0.03157287463545799, 0.10738509148359299, 0.10219603776931763, -0.09035106748342514, -0.09994065016508102, -0.030336765572428703, 0.10843463242053986, -0.07399344444274902, 0.13196329772472382, -0.05372476577758789, -0.09671967476606369, 0.027085987851023674, 0.08032488077878952, 0.08325111865997314, 0.1059887558221817, 0.07793876528739929, -0.017505904659628868, 0.041506703943014145, -0.022323226556181908, 0.07972583174705505, -0.004229348618537188, -0.02307603694498539, 0.09218953549861908, 0.014386540278792381, 0.09257663041353226, 0.08701051026582718, 0.011334286071360111, -0.09676621109247208, 0.030949121341109276, 0.04740815982222557, -0.07480189949274063, 0.1371876448392868, 0.09997271001338959, -0.08251046389341354, 0.10311919450759888, -0.009407642297446728, 0.04018595442175865, -0.011219381354749203, -0.05386948958039284, -0.06072544306516647, -0.012355148792266846, 0.1128050833940506, -0.12760376930236816, -0.03768397495150566, 0.040802374482154846, -0.09592849016189575, 0.1642836183309555, 0.10541939735412598, 0.03193841129541397, 0.08207764476537704, 0.024304211139678955, -0.04873693734407425, -0.004741585813462734, 0.09332168102264404, -0.0860380306839943, -0.08715452253818512, -0.009571095928549767, -0.09746626019477844, 0.15461324155330658, 0.14584031701087952, -0.041995905339717865, -0.05343765765428543, 0.04256238043308258, 0.09990103542804718, -0.10012274980545044, -0.0969659760594368, 0.08204376697540283, 0.12029782682657242, -0.088905468583107, 0.13939331471920013, 0.10597388446331024, 0.05825969576835632, 0.0680244043469429, -0.09970173239707947, -0.08286843448877335, 0.12191151827573776, -0.043076060712337494, -0.019927622750401497, -0.06136762723326683, 0.14952246844768524, -0.06359738856554031, 0.013107308186590672, 0.04133528470993042, 0.05479203909635544, -0.041625626385211945, -0.02403515763580799, -0.023857515305280685, 0.08444860577583313, 0.10810074955224991, -0.12173476815223694, -0.02925061248242855, 0.03790424391627312, -0.023238517343997955, 0.035053741186857224, 0.08163999766111374, 0.12671399116516113, 0.0353277251124382, 0.0958358496427536, 0.08262721449136734, -0.03446819260716438, 0.10825005173683167, 0.13055738806724548, 0.12634405493736267, 0.09957132488489151, 0.11447490006685257, 0.07544779777526855, 0.05741945281624794, 0.09971612691879272, 0.07681188732385635, 0.09218946099281311, -0.01071175653487444, 0.0730946883559227, 0.06855783611536026, 0.037013668566942215, -0.008159813471138477, -0.12786607444286346, -0.08309667557477951, -0.02007639780640602, 0.0879373624920845, 0.08547350019216537, -0.05650701746344566, 0.06970814615488052, -0.10895131528377533, -0.016901995986700058, 0.025639532133936882, 0.04390279948711395, 0.04464152082800865, 0.03799116984009743, 0.08432351797819138, 0.008301503024995327, 0.010060914792120457, 0.09708411246538162, -0.012075715698301792, -0.006235674489289522, 0.013065658509731293, -0.031010590493679047, 0.02386808954179287, 0.0805959403514862, 0.08904393762350082, -0.08920048177242279, 0.12454701960086823, -0.11820138990879059, 0.04453668370842934, -0.08783663064241409, -0.033709678798913956, -0.023319365456700325, 0.023658135905861855, -0.0838560163974762, 0.10597987473011017, 0.039495501667261124, 0.06613509356975555, -0.06371205300092697, -0.14707349240779877, 0.16846440732479095, 0.049374740570783615, -0.009214354678988457, -0.03704233095049858, -0.004892927128821611, 0.04946752265095711, -0.08985138684511185, 0.049588073045015335, 0.03823192045092583, -0.01687093824148178, 0.15320928394794464, -0.0735238790512085, 0.07389256358146667, -0.015551811084151268, -0.09116378426551819, 0.1340065598487854, 0.04158264026045799, 0.03512978553771973, -0.016714654862880707, 0.01050487905740738, -0.06429263204336166, -0.033383242785930634, -0.06427957117557526, 0.12555260956287384, 0.09718965739011765, -0.09940685331821442, 0.14747647941112518, 0.11720907688140869, 0.08708611875772476, 0.030045567080378532, -0.15085150301456451, 0.026171855628490448, 0.0794069841504097, 0.14033347368240356, 0.039349690079689026, 0.009781140834093094, 0.07273612171411514, 0.00994869414716959, 0.05527198314666748, -0.030412588268518448, 0.09788119047880173, 0.06734965741634369, -0.002299506450071931, 0.045139130204916, 0.032413825392723083, 0.04180154204368591, 0.007436813320964575, 0.018119510263204575, -0.1355135291814804, -0.03955743834376335, 0.08123204112052917, -0.06787354499101639, 0.06705828756093979, 0.12552101910114288, -0.10570485889911652, -0.09507736563682556, 0.08294779807329178, 0.030161233618855476, -0.044727593660354614, 0.07995514571666718, 0.031089823693037033, 0.0604480542242527, 0.037439633160829544, -0.05189744383096695, 0.08348946273326874, -0.03455066680908203, 0.094110406935215, 0.06688588112592697, -0.07681170105934143, -0.008868719451129436, 0.04859341308474541, -0.06503114104270935, 0.12523043155670166, -0.11189024895429611, -0.04881221801042557, -0.07033093273639679, 0.03698099032044411, 0.058557454496622086, -0.07814976572990417, 7.468504009011667e-06, -0.11939822137355804, -0.05770259350538254, -0.10671991854906082, 0.054819781333208084, 0.05839433893561363, -0.013600679114460945, 0.02112230472266674, 0.0055112517438828945, 0.08818574994802475, 0.021063407883048058, -0.10611354559659958, -0.04009941965341568, -0.04405360296368599, 0.03222791478037834, 0.12158486247062683, 0.1532668024301529, -0.02894844487309456, -0.0636095404624939, -0.043946485966444016, -0.0658135861158371, -0.04556331783533096, 0.03276713564991951, 0.18026424944400787, 0.05971791222691536, 0.006927735637873411, 0.045023851096630096, -0.05414103344082832, -0.026080932468175888, 0.14718998968601227, 0.0354829840362072, 0.05691884458065033, 0.01836514286696911, 0.036791592836380005, -0.03638843446969986, 0.05907713249325752, 0.02614971622824669, 0.023343488574028015, -0.0318220891058445, 0.03474133461713791, 0.10094995051622391, -0.05084338039159775, -0.012990972027182579, -0.0795697346329689, -0.0909351110458374, 0.06342997401952744, 0.058268651366233826, 0.07018131017684937, 0.056265365332365036, 0.043577391654253006, -0.15976974368095398, 0.16935789585113525, 0.06591649353504181, -0.020024728029966354, -0.07992527633905411, 0.07696238160133362, 0.002758959773927927, 0.12388048321008682, 0.05481000244617462, 0.10897661000490189, -0.14747712016105652, -0.03957681357860565, 0.08725810050964355, -0.09848252683877945, 0.021312223747372627, -0.0232656579464674, -0.03881392255425453, -0.0611238107085228, 0.10093456506729126, 0.09860736131668091, -0.07107044011354446, 0.048605792224407196, -0.03320689871907234, 0.09921357035636902, 0.039175692945718765, 0.06904621422290802, -0.1065540462732315, -0.08921899646520615, 0.05370032787322998, 0.08491200953722, 0.019759204238653183, -0.09233362972736359, -0.08006341010332108, -0.059105243533849716, -0.1122465431690216, -0.05211927369236946, -0.047610070556402206, 0.18667776882648468, -0.0015365371946245432, 0.009458369575440884, -0.08873047679662704, -0.10205306857824326, 0.010470635257661343, 0.04511565342545509, -0.07495244592428207, -0.04042023420333862, 0.04043969884514809, 0.05416949838399887, 0.09529337286949158, 0.06329109519720078, 0.06627622991800308, -0.03802435100078583, 0.11652352660894394, -0.051064036786556244, 0.10614945739507675, -0.04112211987376213, 0.04431704431772232, 0.02903153747320175, 0.02958555892109871, -0.0814456045627594, 0.08125919848680496, -0.09731286019086838, 0.0362200029194355, 0.01773332990705967, 0.12270244210958481, 0.011312718503177166, 0.06792887300252914, -0.05287696793675423, -0.009464602917432785, -0.018966607749462128, -0.08454107493162155, -0.11454097181558609, -0.08979691565036774, -0.09984313696622849, 0.10745327919721603, 0.030577728524804115, -0.03308667615056038, 0.0011571760987862945, -0.03679230436682701, -0.04563816636800766, 0.027141926810145378, 0.07087520509958267, 0.08676624298095703, -0.11339058727025986, -0.060210127383470535, -0.12035790830850601, 0.08378168940544128, 0.04885336384177208, -0.0746288001537323, -0.047923360019922256, 0.006050372030586004, -0.04356085881590843, 0.05716576799750328, -0.11458966881036758, -0.005586668383330107, -0.08896742016077042, -0.004280655179172754, 0.03690316528081894, -0.021891456097364426, -0.11672249436378479, -0.026704413816332817, 0.12400607019662857, 0.00229289080016315, -0.026066051796078682, 0.07571257650852203, -0.03164197504520416, 0.03747326508164406, 0.031093325465917587, -0.12327560037374496, 0.018432363867759705, 0.0037046524230390787, 0.030859865248203278, -0.08073841780424118, -0.13865706324577332, -0.06479376554489136, 0.04024035856127739, 0.014169389382004738, -0.043388184159994125, 0.10007546097040176, -0.0013962355442345142, -0.07132098823785782, 0.021748285740613937, -0.1284976750612259, -0.02807287871837616, -0.014431488700211048, 0.06855929642915726, 0.03179115429520607, 0.018136266618967056, 0.08258002251386642, 0.11601065844297409, 0.043770793825387955, 0.033561017364263535, -0.12571096420288086, 0.08158116042613983, -0.11108572036027908, -0.05516744405031204, 0.0631929412484169, 0.05019969865679741, 0.019225873053073883, 0.15801289677619934, -0.06663857400417328, 0.0935373604297638, -0.0938812792301178, -0.06127075478434563, -0.07747551053762436, 0.09144521504640579, -0.034954242408275604, 0.12578433752059937, 0.12841381132602692, 0.09839391708374023, -0.08980583399534225, 0.12223097681999207, -0.04990911856293678, 0.025300724431872368, 0.11962835490703583, -0.011327547952532768, 0.10306687653064728, -0.01241541188210249, 0.015151133760809898, 0.14010900259017944, 0.016980621963739395, -0.025212185457348824, 0.06580184400081635, -0.07316530495882034, -0.04295193776488304, -0.08166196942329407, 0.11768387258052826, -0.047018103301525116, 0.13880383968353271, 0.030169906094670296, -0.05709600821137428, -0.1030811071395874, 0.12132969498634338, 0.03159331530332565, 0.07657817751169205, 0.11421991139650345, 0.09504542499780655, 0.1146937906742096, -0.0017015604535117745, 0.12919388711452484, -0.03427646681666374, -0.015279996208846569, 0.06716049462556839, -0.0776129812002182, 0.11612521857023239, 0.04061046242713928, 0.07777003943920135, 0.0323338620364666, 0.10506695508956909, -0.09554898738861084, 0.09127408266067505, 0.07903656363487244, -0.11264967173337936, 0.07343404740095139, 0.09452395141124725, 0.12584318220615387, 0.002895619021728635, 0.09040724486112595, -0.09862304478883743, 0.07712522149085999, 0.010782859288156033, -0.08405784517526627, -0.05274057760834694, 0.11131040751934052, 0.11047761142253876, 0.04075279086828232, -0.05747746303677559, 0.09345364570617676, 0.09110215306282043, 0.04526892304420471, 0.0798955112695694, 0.07475551962852478, -0.02939821407198906, 0.042050380259752274, 0.11124152690172195, -0.09070126712322235, 0.05637558922171593, -0.07451362907886505, 0.12595374882221222, 0.09421461075544357, -0.09830944240093231, 0.048583850264549255, -0.04703046381473541, -0.10789227485656738, -0.045200418680906296, -0.035826001316308975, 0.12120691686868668, 0.05975593253970146, 0.0693703293800354, -0.04722059145569801, -0.10580343753099442, 0.09122397750616074, 0.11674978584051132, 0.08988138288259506, -0.004332155454903841, 0.035854410380125046, -0.00929178949445486, 0.11436118185520172, 0.08206894248723984, 0.10356372594833374, 0.0949699729681015, 0.11051354557275772, -0.05626241862773895, 0.009659050963819027, 0.01618817448616028, -0.06074540689587593, 0.0879654735326767, -0.04500358924269676, -0.06385688483715057, -0.0460970439016819, 0.024344734847545624, 0.00459376722574234, 0.10207246243953705, -0.09450161457061768, -0.060191910713911057, -0.01519358716905117, 0.06168485805392265, 0.09653861820697784, 0.06332316994667053, -0.0762069970369339, -0.0031428919173777103, -0.1045198068022728, 0.1312759816646576, -0.05030025169253349, 0.06705915182828903, -0.1198166087269783, -0.02869197353720665, 0.06007882207632065, -0.02710592746734619, -0.02483702264726162, 0.10064338147640228, 0.024248328059911728, 0.1310867816209793, 0.03412727639079094, -0.09498097002506256, 0.028533412143588066, 0.06785527616739273, 0.07357600331306458, 0.11927907913923264, -0.013807003386318684, 0.09056736528873444, -0.09874512255191803, -0.07558011263608932, 0.012590416707098484, -0.015825318172574043, -0.029094651341438293, 0.046375323086977005, 0.11051662266254425, -0.06970913708209991, 0.00810201745480299, -0.10341481119394302, 0.03578204661607742, -0.08735080063343048, 0.05244888737797737, 0.027166353538632393, -0.0907817855477333, -0.05998027324676514, -0.031221577897667885, 0.019818546250462532, 0.04422847926616669, -0.07540632784366608, 0.054673247039318085, 0.0334489606320858, 0.08287878334522247, 0.11340196430683136, -0.03733981028199196, 0.03891614079475403, 0.08172813802957535, 0.03687891736626625, -0.07998411357402802, -0.011740019544959068, -0.029856380075216293, 0.050183430314064026, 0.0892888754606247, -0.018314829096198082, -0.08569715172052383, 0.0604952834546566, -0.00587058998644352, 0.08000481128692627, -0.053082846105098724, -0.0445282943546772, -0.024658743292093277, -0.11769447475671768, 0.10653410851955414, -0.09636421501636505, -0.00897527951747179, 0.008204998448491096, -0.08731387555599213, -0.012136667966842651, 0.08812394738197327, 0.016319679096341133, -0.003705506445840001, -0.0049842409789562225, -0.08898211270570755, -0.027885405346751213, 0.052122313529253006, -0.05317872017621994, 0.07468590140342712, -0.06203214451670647, -0.1425001323223114, 0.07457039505243301, 0.07470639795064926, 0.06780661642551422, 0.093648262321949, -0.12356087565422058, -0.05548429116606712, 0.05757131800055504, 0.11051397770643234, 0.08785998076200485, -0.08499929308891296, -0.11238477379083633, -0.055628128349781036, -0.08745958656072617, -0.1233217641711235, 0.05625920370221138, 0.08118293434381485, 0.12726235389709473, -0.11815059185028076, -0.017575804144144058, -0.09648461639881134, -0.06196519359946251, -0.034412987530231476, -0.06375899165868759, 0.07658057659864426, 0.021276596933603287, -0.059006452560424805, 0.08918039500713348, -0.06926033645868301, -0.034132275730371475, 0.13052904605865479, 0.08053991943597794, -0.07524847984313965, 0.051540154963731766, -0.07416108250617981, 0.09534921497106552, -0.11619524657726288, -0.04114988446235657, -0.016075212508440018, 0.04673108831048012, 0.041578855365514755, 0.07309302687644958, 0.06584805995225906, 0.06397218257188797, 0.11330562084913254, 0.07726430147886276, 0.14833539724349976, 0.09392505884170532, 0.0007283343584276736, 0.10395769774913788, 0.13275714218616486, -0.05999797210097313, 0.034052152186632156, -0.04652196541428566, 0.09486152976751328, -0.04336328059434891, -0.06930430233478546, 0.03287172317504883, 0.03195894882082939, 0.11966776847839355, -0.113716721534729, -0.0311727374792099, 0.027278587222099304, -0.08978661894798279, 0.033087778836488724, 0.021466918289661407, -0.11726568639278412, -0.005643178708851337, -0.10028005391359329, -0.026792600750923157, 0.10698925703763962, -0.05605173483490944, -0.009251031093299389, 0.12800182402133942, 0.11732999980449677, -0.1122923418879509, -0.08195924013853073, 0.01460185181349516, 0.11630047857761383, -0.013898149132728577, 0.10877307504415512, 0.06130794808268547, -0.011754842475056648, 0.06449759751558304, -0.030933255329728127, -0.11567968130111694, -0.03632740676403046, -0.06512866914272308, 0.04255799576640129, -0.07006172835826874, -0.06652799993753433, 0.014962993562221527, 0.15407678484916687, 0.045280516147613525, 0.150359645485878, -0.04927992820739746, -0.12658578157424927, 0.08515379577875137, 0.08359308540821075, -0.09386828541755676, 0.08773693442344666, 0.03500187397003174, -0.061469849199056625, 0.024096176028251648, 0.11760329455137253, -0.02826566994190216, -0.041240762919187546, 0.09480153024196625, -0.05394676700234413, 0.06474428623914719, -0.07123960554599762, 0.09950163960456848, -0.11624821275472641, -0.027538659051060677, -0.013271034695208073, 0.029428554698824883, 0.06443937122821808, 0.044971905648708344, 0.011283504776656628, -0.029041634872555733, -0.11682043224573135, 0.015685604885220528, -0.05416378751397133, 0.08703963458538055, 0.00033596076536923647, -0.03480930253863335, 0.0794796496629715, 0.10420084744691849, 0.08354870975017548, -0.004354913718998432, 0.12399646639823914, -0.035440266132354736, -0.04452858120203018, 0.06062621623277664, 0.015281599946320057, 0.007854189723730087, -0.010125289671123028, -0.01732262596487999, 0.09989706426858902, 0.06570405513048172, -0.09762473404407501, -0.05228516086935997, -0.06526868790388107, -0.09444954246282578, 0.015636445954442024, -0.02182900346815586, -0.09667633473873138, -0.012761018238961697, -0.07884842157363892, 0.11479600518941879, 0.007120759692043066, 0.05984005331993103, 0.10910812765359879, -0.015726527199149132, 0.05933397635817528, 0.08471117168664932, -0.005019612144678831, -0.05718863755464554, -0.03246450424194336, -0.04990427568554878, 0.12351333349943161, 0.06340435892343521, -0.08471684902906418, -0.04260751232504845, 0.09695921093225479, -0.015592390671372414, 0.017046160995960236, -0.050164029002189636, 0.06065041944384575, -0.08468414098024368, 0.0738779753446579, 0.0004979881341569126, 0.07949487119913101, 0.0064146388322114944, -0.046587806195020676, 0.0012038007844239473, 0.026575639843940735, 0.05414334684610367, -0.08989712595939636, 0.06631419062614441, -0.107200026512146, 0.08413790166378021, 0.0866164043545723, -0.0811331495642662, -0.08023212850093842, 0.10976451635360718, 0.12027882039546967, -0.1097797378897667, 0.011078987270593643, -0.09975694119930267, -0.08377095311880112, -0.11022577434778214, -0.033436257392168045, 0.11960067600011826, -0.055729322135448456, 0.09672428667545319, 0.0027740963269025087, -0.11116837710142136, -0.051259756088256836, -0.05483302101492882, 0.0024648800026625395, -0.0001181073093903251, 0.11928129196166992, 0.10489243268966675, 0.07880524545907974, -0.08256976306438446, -0.07075934112071991, -0.08986823260784149, -0.11543641984462738, 0.013650615699589252, -0.007486639078706503, 0.012862789444625378, -0.09741570055484772, 0.10678402334451675, 0.0959935411810875, -0.0668284073472023, -0.08981309086084366, -0.053865671157836914, -0.011467888951301575, 0.09103445708751678, -0.03377734497189522, 0.06973113119602203, -0.014125710353255272, 0.004471342079341412, 0.10886117815971375, 0.041710808873176575, -0.03761770576238632, 0.0737832561135292, 0.10675494372844696, -0.0621626116335392, 0.03517492115497589, 0.0689249038696289, 0.07159854471683502, -0.007811537943780422, 0.07501612603664398, 0.03663212060928345, 0.05855207517743111, 0.09284108877182007, 0.03905580937862396, 0.06615033745765686, -0.09496332705020905, 0.04215717315673828, -0.1006123274564743, 0.04734209552407265, -0.07668577134609222, 0.03903478384017944, 0.07720065861940384, 0.09373274445533752, -0.093622587621212, 0.09216101467609406, -0.03443299978971481, 0.10997840017080307, 0.13779950141906738, -0.11397278308868408, 0.018699608743190765, -0.0776938870549202, 0.06449581682682037, 0.12297840416431427, -0.06626400351524353, -0.0030562267638742924, -0.09390569478273392, 0.09168030321598053, -0.0607241727411747, 0.05479219928383827, -0.020352846011519432, -0.048971693962812424, -0.03888687491416931, 0.021922603249549866, -0.10602473467588425, -0.05662531033158302, 0.06484773755073547, -0.06764240562915802, -0.07946738600730896, 0.0006720444653183222, -0.008090756833553314, 0.08402345329523087, -0.0706765279173851, 0.11611342430114746, -0.10728739202022552, 0.109845831990242, 0.058138277381658554, 0.007388351950794458, 0.11301881819963455, -0.09949562698602676, 0.03385280445218086, 0.014386828988790512, 0.00865077693015337, 0.0809929296374321, -0.01683247834444046, -0.006460705306380987, -0.0785875990986824, 0.04329774156212807, -0.04588828235864639, 0.018493102863430977, -0.03718988597393036, -0.08791050314903259, -0.0700216293334961, 0.10518965125083923, -0.0800946056842804, -0.03874120116233826, 0.034524668008089066, -0.0056339772418141365, -0.10772152990102768, 0.012913289479911327, 0.10006024688482285, -0.08533184230327606, -0.09855811297893524, -0.06621129810810089, 0.02884126454591751, 0.0005440730601549149, -0.05037848278880119, 0.10602366179227829, 0.01728513464331627, 0.006116226315498352, 0.05608291178941727, -0.05808691307902336, 0.11913163959980011, -0.0680345818400383, -0.09114604443311691, -0.032116010785102844, 0.09203141182661057, 0.044939566403627396, 0.10075651854276657, 0.09126626700162888, -0.03858320042490959, -0.08646683394908905, 0.09387551248073578, 0.10354812443256378, -0.07234933972358704, -0.03802311792969704, -0.03685702756047249, -0.08854134380817413, 0.03677986189723015, -0.053110502660274506, -0.0271836519241333, 0.013393087312579155, -0.12189484387636185, -0.032757073640823364, 0.05626438930630684, -0.05497559905052185, -0.06626013666391373, -0.09441406279802322, 0.02773396670818329, 0.016534140333533287, -0.10288305580615997, -0.07317166030406952, 0.017662566155195236, 0.07935284823179245, -0.023815885186195374, 0.07500476390123367, 0.028903689235448837, 0.10798575729131699, 0.09105178713798523, -0.024185219779610634, 0.07238758355379105, 0.07862358540296555, 0.005015818867832422, 0.10768097639083862, -0.044161997735500336, -0.041045643389225006, -0.07490577548742294, -0.06300483644008636, 0.08875762671232224, 0.02901926077902317, -0.003984401933848858, -0.12653285264968872, -0.05090093985199928, -0.028723111376166344, 0.1016048938035965, -0.032839979976415634, 0.11018092930316925, -0.11203217506408691, 0.06035241857171059, -0.010331613942980766, 0.014358698390424252, 0.1049216017127037, 0.009503741748631, -0.07926305383443832, -0.09972190856933594, 0.10487951338291168, 0.0648551732301712, -0.0749487355351448, -0.09478123486042023, -0.10761656612157822, -0.001826588180847466, 0.01240661833435297, -0.03884059190750122, -0.0601213313639164, -0.08410300314426422, 0.08210748434066772, 0.017681831493973732, -0.021021747961640358, 0.04342005401849747, 0.07753154635429382, -0.032931677997112274, 0.03361593559384346, 0.07834690809249878, 0.03842199966311455, 0.05916962772607803, -0.018877796828746796, 0.08508394658565521, 0.013045299798250198, 0.10145356506109238, 0.05737354978919029, -0.020512603223323822, 0.06563709676265717, 0.054226674139499664, 0.10439841449260712, 0.0207393616437912, 0.025019295513629913, 0.10454688221216202, 0.08670976758003235, 0.037317898124456406, 0.01965329796075821, 0.03678559884428978, -0.06235877051949501, -0.10088770091533661, 0.08256229758262634, 0.06649007648229599, 0.03826209530234337, 0.02230977453291416, -0.0805918499827385, -0.07475104182958603, -0.038952138274908066, 0.009676586836576462, 0.029121093451976776, -0.014523882418870926, -0.02319127880036831, 0.09879209846258163, 0.018796181306242943, 0.09304866939783096, -0.005370432045310736, -0.07134450972080231, 0.02883964590728283, -0.04731214791536331, 0.12180716544389725, -0.03129630163311958, -0.025183124467730522, -0.022010445594787598, -0.025533363223075867, -0.04983491823077202, 0.019489487633109093, 0.05413810536265373, 0.09477096050977707, -0.037939392030239105, -0.017342310398817062, -0.036499761044979095, -0.1105542704463005, 0.057012807577848434, 0.08312439918518066, 0.09642419964075089, -0.1162995994091034, 0.026317084208130836, 0.1044132187962532, 0.07044441998004913, 0.09127967059612274, -0.08625631779432297, 0.06349633634090424, 0.03649067506194115, -0.08684910088777542, -0.04327043890953064, -0.04299762099981308, -0.06261846423149109, -0.11608222872018814, 0.04539019986987114, -0.04942644387483597, 0.030447624623775482, 0.02322617545723915, 0.04719994217157364, -0.06370710581541061, -0.000305173423839733, 0.12632404267787933, 0.03913061320781708, -0.09965232759714127, -0.07878930121660233, 0.09289562702178955, 0.10672890394926071, -0.061951108276844025, -0.09141639620065689, 0.10261492431163788, 0.11470884829759598, -0.10982351005077362, 0.09077770262956619, -0.021338051185011864, -0.08025305718183517, 0.037069857120513916, -0.03634354844689369, 0.09049184620380402, 0.045093923807144165, -0.011840355582535267, -0.056373193860054016, 0.01507439836859703, -0.049991387873888016, -0.12494847923517227, 0.08568424731492996, 0.019484056159853935, -0.06530242413282394, -0.029433291405439377, 0.12403196841478348, 0.08090024441480637, -0.008001308888196945, 0.0528484582901001, -0.07940603047609329, -0.1076558455824852, 0.0638096034526825, 0.11492376774549484, 0.056858014315366745, -0.03867889195680618, -0.055238787084817886, -0.07942742854356766, 0.049154847860336304, 0.07189130783081055, 0.11934347450733185, 0.10610457509756088, 0.07333958148956299, -0.037820883095264435, -0.04501905292272568, 0.10345903784036636, -0.027127016335725784, 0.07364919781684875, 0.02324189618229866, -0.08420545607805252, 0.07808022201061249, 0.09079878777265549, -0.01330005656927824, 0.09602475166320801, 0.07926645874977112, -0.03937411680817604, -0.06539515405893326, -0.10692480951547623, 0.01188549306243658, -0.093253493309021, -0.05217386409640312, -0.05893256515264511, 0.07016824185848236, 0.08432035893201828, -0.0039709340780973434, 0.06173205375671387, -0.0049100168980658054, -0.03492237254977226, -0.041432686150074005, -0.11810191720724106, -0.012645604088902473, 0.10763167589902878, 0.0867680087685585, -0.012876488268375397, 0.11794038861989975, -0.021888209506869316, 0.027986854314804077, 0.07020828127861023, -7.25372156011872e-05, -0.12626096606254578, -0.031029287725687027, -0.040404561907052994, 0.05447764694690704, -0.06202977895736694, 0.0008268673554994166, 0.010723824612796307, 0.015822282060980797, 0.08842585980892181, 0.0249796099960804, -0.06496988981962204, 0.019175799563527107, 0.040853120386600494, -0.06330467015504837, -0.026139209046959877, -0.058371443301439285, 0.09061300754547119, -0.0646592453122139, 0.08489867299795151, 0.02770836651325226, 0.11224819719791412, 0.09826575219631195, 0.04843248054385185, 0.12415485829114914, -0.08846355229616165, -0.05056022107601166, -0.0007808797527104616, -0.07896671444177628, -0.023116126656532288, -0.02348819002509117, -0.040640633553266525, -0.03534252196550369, 0.1222098097205162, -0.06659827381372452, 0.06439268589019775, 0.06902894377708435, 0.0644611045718193, 0.0028846608474850655, 0.03704947233200073, -0.09165408462285995, 0.004346912726759911, 0.0037677043583244085, 0.09618466347455978, 0.04086131602525711, -0.08928396552801132, 0.028062650933861732, -0.038666363805532455, -0.01978790946304798, -0.042362675070762634, 0.05680840462446213, -0.022172726690769196, 0.050846196711063385, -0.11849261075258255, 0.1346946805715561, -0.07198725640773773, -0.05100516229867935, 0.07761240005493164, 0.07371804118156433, -0.023242952302098274, 0.08334915339946747, -0.13967067003250122, 0.07902151346206665, 0.024162838235497475, -0.04589303582906723, -0.07259020209312439, -0.06611248850822449, 0.03612060844898224, 0.07815796136856079, -0.04626449942588806, -0.07404809445142746, -0.11261951178312302, -0.11911635100841522, 0.10133440792560577, 0.0812923014163971, 0.07113202661275864, 0.08703744411468506, -0.10809196531772614, -0.028432434424757957, -0.04905916750431061, -0.008998955599963665, 0.00834502000361681, 0.11480341851711273, 0.03480518236756325, 0.12093084305524826, 0.05783246085047722, -0.08293572068214417, 0.11046535521745682, 0.12828007340431213, -0.04084043577313423, -0.08660346269607544, 0.11948885768651962, -0.032746654003858566, 0.003913145046681166, 0.05538531020283699, -0.05546902120113373, -0.10535144060850143, -0.12830297648906708, -0.0021724733524024487, 0.08397726714611053, 0.03832964599132538, -0.11333750933408737, -0.0608084611594677, 0.11756213754415512, -0.007803975138813257, -0.11289899051189423, 0.11722951382398605, 0.13351397216320038, 0.041724853217601776, 0.11337989568710327, -0.06351378560066223, 0.11859633028507233, -0.08798497170209885, -0.06007763743400574, -0.019461331889033318, 0.051653604954481125, 0.013847533613443375, 0.10855038464069366, -0.09872353076934814, -0.07601907104253769, -0.04771222919225693, 0.08279765397310257, -0.11164591461420059, 0.1267518848180771, -0.04975041747093201, -0.05363226681947708, 0.06276629120111465, 0.09729437530040741, 0.08610919117927551, -0.09327391535043716, -0.08082345128059387, 0.058696385473012924, 0.08188455551862717, 0.09671054780483246, -0.08528643846511841, 0.06840034574270248, -0.05135917663574219, 0.10714256763458252, -0.030490782111883163, 0.10458992421627045, 0.009727127850055695, 0.12608975172042847, 0.03897674009203911, -0.002563671674579382, -0.07914310693740845, -0.1121072769165039, -0.040032051503658295, 0.12849858403205872, 0.09550633281469345, -0.027900490909814835, 0.06789945811033249, -0.059171076864004135, -0.09790070354938507, 0.09583088010549545, -0.04681391268968582, 0.00425861356779933, 0.12956896424293518, 0.026411445811390877, 0.03467736765742302, 0.11970134824514389, -0.10028903186321259, -0.03775757923722267, -0.06296104937791824, -0.04752097651362419, -0.02028467133641243, -0.06980709731578827, -0.08960198611021042, 0.04027194157242775, -0.054874833673238754, -0.12809635698795319, 0.12465835362672806, 0.11553722620010376, 0.07417164742946625, -0.03747287392616272, -0.029694678261876106, 0.001982320798560977, -0.09046722948551178, -0.10725386440753937, -0.06533939391374588, -0.03279471397399902, -0.055418893694877625, -0.07394082099199295, 0.07129590958356857, 0.01091818418353796, -0.01559485588222742, -0.008585203438997269, 0.01689145527780056, -0.013180440291762352, 0.04847339913249016, -0.05134556442499161, 0.06059275567531586, 0.059035200625658035, -0.03033701702952385, -0.13073742389678955, -0.1025066152215004, 0.08084025979042053, -0.058866236358881, -0.1107325404882431, -0.08583647757768631, -0.06391328573226929, 0.008400406688451767, 0.05682775378227234, -0.10961657017469406, 0.04459436610341072, 0.06086594983935356, -0.10053189098834991, 0.029063649475574493, 0.047439247369766235, 0.044534921646118164, 0.07118391990661621, -0.11667217314243317, 0.033809512853622437, 0.11107812821865082, -0.030898859724402428, 0.13165754079818726, -0.1110324040055275, 0.09697208553552628, -0.07708309590816498, -0.09188971668481827, -0.09696745127439499, 0.10827793926000595, 0.028424957767128944, 0.06943847239017487, 0.0471758171916008, 0.0500042550265789, 0.10292447358369827, -0.0646960660815239, -0.0276096910238266, 0.13677863776683807, 0.11579606682062149, -0.13683980703353882, 0.023432135581970215, 0.05486779659986496, 0.09897254407405853, -0.009838039055466652, 0.0370790958404541, 0.02427849918603897, 0.09754575788974762, -0.021577036008238792, -0.009138382039964199, -0.12245146930217743, 0.09478235989809036, 0.0948326513171196, 0.013194036670029163, -0.03044585883617401, -0.05551053583621979, 0.003394048660993576, -0.002888917690142989, -0.061275187879800797, 0.0017553250072523952, 0.008131295442581177, -0.058712802827358246, 0.09709949046373367, -0.02527523599565029, -0.14369505643844604, -0.026416979730129242, -0.010625013150274754, 0.07348241657018661, -0.11452588438987732, -0.021367661654949188, -0.04836224764585495, 0.051062215119600296, 